#Parameter# /vanilla-lstm-builder/_0 {128,64} 131073 ZERO_GRAD
+6.50313556e-01 +4.88739133e-01 -4.28924412e-01 +2.53386050e-01 -4.50256318e-01 -3.45298856e-01 -7.53592908e-01 +1.01522875e+00 -7.98621953e-01 +2.53861517e-01 +1.77546620e-01 +4.83161777e-01 +5.00500083e-01 +4.88595545e-01 -3.72207701e-01 -4.79049176e-01 +1.03548300e+00 +1.11572671e+00 +4.84678119e-01 +2.78162330e-01 -5.52953780e-01 +7.04694033e-01 +7.47731864e-01 -7.24381804e-02 -6.34353459e-01 +1.56376511e-02 +7.21194208e-01 +1.10230362e+00 -1.67192116e-01 -3.57135743e-01 +1.74662322e-01 +6.18320167e-01 -3.82933497e-01 +4.40820992e-01 -1.45798132e-01 +4.54243839e-01 +6.87832713e-01 -6.47750616e-01 -2.24676952e-01 -9.83928144e-01 -4.20480669e-01 +1.09619617e-01 +3.46016735e-01 -4.32098418e-01 -5.78944206e-01 -3.64838809e-01 -3.72852355e-01 -1.16495647e-01 +4.96460408e-01 -6.63841486e-01 +3.37350637e-01 +7.15396702e-02 -1.70258656e-01 +8.90898049e-01 +4.28304859e-02 -4.44586843e-01 -5.15526712e-01 -1.03202581e+00 +3.22383970e-01 -3.88913214e-01 -2.92905867e-01 -3.73545527e-01 +2.71124337e-02 -1.35539994e-02 -4.42550927e-01 +3.60344857e-01 +8.37136924e-01 +4.87004101e-01 -1.07341361e+00 +2.79935915e-02 -2.21986249e-02 -3.42494488e-01 +2.79470354e-01 +5.38630188e-01 +1.11618614e+00 -1.42919147e+00 -5.10161102e-01 -4.36646342e-01 +8.42854142e-01 -4.04085636e-01 -1.82998657e+00 +3.82935077e-01 -1.10859625e-01 +1.24364591e+00 +1.20993674e+00 -4.88733768e-01 -7.90911496e-01 +2.42467597e-02 +8.15211058e-01 +4.93486494e-01 -2.30955169e-01 -2.50725150e-02 +5.89302666e-02 +4.48989570e-01 +9.68847796e-02 +3.78838807e-01 +3.33783478e-02 +4.79688682e-02 -2.27630258e-01 +2.18101740e-01 +8.73460233e-01 +3.30029726e-01 -3.87638062e-01 +7.20228434e-01 +4.06382501e-01 +7.89271221e-02 +1.67789072e-01 -5.65473855e-01 -7.17328370e-01 +1.96339563e-02 -2.20469117e-01 -1.46049991e-01 -1.72104359e-01 -4.18156147e-01 -5.98309636e-01 -6.93419650e-02 +1.14931040e-01 +3.00748378e-01 -5.21133900e-01 -4.18805599e-01 -2.27757066e-01 -6.65070787e-02 +5.56496799e-01 -1.02348030e-01 +1.52935714e-01 +4.07142371e-01 -2.44317457e-01 +3.27769727e-01 -4.57822025e-01 +2.88745552e-01 +2.34126881e-01 +3.10172439e-01 +1.18506932e+00 -6.12462819e-01 +3.98164362e-01 +1.73706099e-01 -3.71130854e-01 -2.64444333e-02 +6.42327726e-01 +2.34816521e-01 +2.93431550e-01 +5.35308063e-01 +2.11934194e-01 -4.14692223e-01 -5.13517857e-01 +6.45871699e-01 +8.79904449e-01 +4.91495639e-01 -7.96223506e-02 +2.66312659e-01 +6.95012867e-01 +2.05534756e-01 -2.67985255e-01 +2.92205513e-01 +2.21753329e-01 +1.61958086e+00 -6.76384330e-01 +5.35805285e-01 -3.41500044e-01 +4.70908672e-01 +5.76430447e-02 -2.10874289e-01 +1.54632971e-01 -2.97503144e-01 +5.04556537e-01 -1.28503382e-01 -5.77041984e-01 -3.06856306e-03 -2.76582479e-01 -4.39933270e-01 +6.20198473e-02 +1.84621945e-01 -3.92801523e-01 -1.92609727e-01 +5.76028489e-02 -2.81921536e-01 -4.74861622e-01 +1.42786071e-01 +6.26893401e-01 -1.04109362e-01 +2.72267282e-01 +5.31282485e-01 +2.84495115e-01 +5.24562486e-02 -5.96764147e-01 -6.52481496e-01 +1.03981309e-01 -5.10731816e-01 -6.62827373e-01 -1.35159880e-01 +2.75195122e-01 +6.80703640e-01 +1.45084620e-01 +6.78685963e-01 +3.58512886e-02 +3.32978189e-01 -5.30740432e-02 -9.75322008e-01 +7.67690659e-01 +3.27127397e-01 -4.93860900e-01 +2.32971594e-01 +1.49887651e-01 -3.09725702e-01 -1.95450380e-01 -4.78392005e-01 -5.84047854e-01 +2.43175272e-02 -4.68296736e-01 +1.00676382e+00 -1.78751528e-01 -6.84953451e-01 -4.71282005e-01 +2.77097046e-01 -7.63505042e-01 -1.18574846e+00 +5.28854281e-02 -2.66451359e-01 +3.17396462e-01 +5.08919060e-01 -3.17630529e-01 +9.38910723e-01 -6.03004515e-01 +2.70204335e-01 -4.02333021e-01 -2.29725972e-01 -7.53845572e-01 +6.05379902e-02 +1.11896858e-01 -3.77224207e-01 +1.83414519e-01 -5.54918528e-01 +5.18466651e-01 -2.21543387e-01 +4.77283031e-01 -1.04853904e+00 +1.22246161e-01 -3.31176281e-01 -1.44041374e-01 -1.19052112e+00 +4.20208007e-01 -8.74414667e-02 +3.98084253e-01 +5.64419292e-02 +1.84980407e-01 +1.75151989e-01 -3.41364115e-01 +3.64876181e-01 +3.51169229e-01 +3.63768995e-01 -3.88427436e-01 -2.90827721e-01 +1.30164877e-01 +5.55349231e-01 +1.32977456e-01 +6.93790555e-01 -7.64838219e-01 -1.03536427e-01 -7.83172429e-01 -1.13575995e+00 +3.36151749e-01 -3.97865891e-01 -7.57095158e-01 -7.95629084e-01 -1.48644233e+00 +3.71078283e-01 -5.29973030e-01 -5.67212045e-01 +5.76343834e-01 +2.38446966e-01 -8.10996652e-01 -7.02937126e-01 -5.11212766e-01 +3.61334920e-01 -6.35786727e-02 +1.20643221e-01 +1.29968971e-01 +2.24455923e-01 -5.43404780e-02 +2.29720950e-01 +1.00079811e+00 +4.30398900e-03 +3.20704907e-01 +5.81495930e-03 -3.84799391e-01 -8.75211418e-01 -1.61255598e-01 -8.24150383e-01 -6.10553503e-01 +9.50765517e-03 +8.13508332e-01 -2.37567365e-01 -5.56205451e-01 -4.24948126e-01 +5.90822577e-01 -5.36996067e-01 -5.51094413e-01 -3.29449445e-01 -6.53980553e-01 -1.83752477e-01 -5.25611460e-01 -1.73931801e+00 -6.10219955e-01 -3.22202414e-01 +2.43416965e-01 -5.87096155e-01 -1.33012056e-01 +7.49933600e-01 +6.52527511e-02 +6.44716740e-01 +5.03261499e-02 +1.49378434e-01 +7.42330551e-02 -2.40599424e-01 -9.37928632e-02 -8.27082694e-01 -8.01021516e-01 -2.01099351e-01 +4.62348089e-02 -2.59158432e-01 -8.69070709e-01 +1.19007817e-02 -1.72685221e-01 +1.01077652e+00 -5.04553616e-01 +1.09444189e+00 +3.34432781e-01 +2.45316923e-02 -1.70756793e+00 +2.05835119e-01 -1.18964398e+00 -1.38187289e+00 -7.45692670e-01 -1.62259007e+00 -4.66364138e-02 -1.00513864e+00 -1.28172207e+00 -6.07772112e-01 +1.32874086e-01 -4.81889218e-01 -6.98904157e-01 -5.63287318e-01 +1.25000572e+00 +2.30693787e-01 +6.91713274e-01 +1.14803195e+00 -2.13199437e-01 -1.12456667e+00 -1.07985723e+00 +1.00887850e-01 -1.32046485e+00 -7.93776274e-01 -5.16428202e-02 +5.57955265e-01 -1.26965666e+00 -8.19631517e-01 -5.57467863e-02 -2.18283996e-01 -3.28709662e-01 +1.28282726e+00 -2.56055921e-01 -1.50980905e-01 -4.06801820e-01 +1.99337885e-01 -2.25740656e-01 +1.08849370e+00 -3.50459814e-01 +4.94528890e-01 -1.83835134e-01 -4.94539917e-01 +5.43713272e-02 -3.83538157e-01 -1.05282828e-01 +6.23010814e-01 -1.85171530e-01 +3.61623317e-01 +7.89048299e-02 -6.75459057e-02 +5.31076849e-01 -2.49018148e-01 -3.14616978e-01 +2.37131596e-01 -5.17176270e-01 -8.02101195e-01 -5.00628538e-02 -4.97108251e-01 -2.16472164e-01 +3.33910018e-01 +4.64737296e-01 -3.75064731e-01 -3.90716553e-01 -4.35807109e-01 +9.95298743e-01 +3.78801748e-02 -5.59130430e-01 -3.75267565e-01 +7.71767139e-01 -7.33654425e-02 -3.62459749e-01 +5.84355183e-02 +9.03462470e-02 -5.25611877e-01 -4.65070546e-01 +3.22305948e-01 +3.21592838e-01 +1.66231439e-01 -5.92264056e-01 +6.38864040e-01 +6.01163626e-01 -5.71403563e-01 -7.72117853e-01 -5.97527087e-01 +5.41100681e-01 +2.12190617e-02 +9.08890724e-01 +7.26985163e-05 +7.29073584e-01 -1.04063308e+00 -1.28276125e-01 +6.71536922e-01 +2.51017630e-01 -4.65450555e-01 -3.44687372e-01 +6.21738546e-02 +6.03214025e-01 -1.09397471e-01 -3.71597171e-01 +6.88124821e-02 +7.28361845e-01 -1.81934610e-01 -1.02245128e+00 -7.41716146e-01 -1.71025172e-01 -1.04838192e+00 -9.98878241e-01 -3.83376449e-01 +5.27952462e-02 +2.29167804e-01 -2.65246004e-01 -3.73710215e-01 +6.76025927e-01 +9.74136367e-02 -8.70889664e-01 -3.12290639e-01 -5.44363320e-01 -8.01063895e-01 +5.09737730e-01 -5.29866338e-01 +5.59724331e-01 +3.19000900e-01 -6.92543209e-01 -3.76463115e-01 +7.08320916e-01 -4.13857281e-01 +2.01100975e-01 -1.05382092e-01 +9.84253645e-01 -3.21358413e-01 +1.54145345e-01 +9.19785261e-01 +8.05793464e-01 -1.43259633e-02 -5.71063638e-01 +9.69913676e-02 +9.85345662e-01 +2.52754003e-01 +5.56307435e-01 +1.64734855e-01 -9.09149468e-01 +5.01268268e-01 -1.78598151e-01 -4.82562035e-01 -9.81480896e-01 -3.17645997e-01 -9.45808172e-01 -3.21068078e-01 +6.16171598e-01 +1.40397266e-01 -2.65126944e-01 +1.45160317e-01 +6.68518245e-01 +5.90516329e-01 +1.13219297e+00 +5.50718546e-01 -5.58619678e-01 +2.33301863e-01 +4.22294527e-01 +3.34703505e-01 -2.36149117e-01 -2.87369013e-01 -1.09972823e-02 -2.75035828e-01 -1.41096771e-01 -8.91078338e-02 +3.99156749e-01 +2.98101038e-01 +1.08261697e-01 -6.99682087e-02 -4.49455112e-01 +5.59026182e-01 -2.97435015e-01 +3.31656963e-01 +7.21621394e-01 -3.29098441e-02 -2.06157014e-01 +6.86837584e-02 +1.66636214e-01 -1.77142546e-01 -1.43754512e-01 -1.54227570e-01 -6.40014172e-01 -2.91213989e-01 -6.16053522e-01 +1.91090941e-01 +6.44245669e-02 -2.40100712e-01 -8.18066478e-01 -5.72193600e-02 +7.30070233e-01 -8.93452644e-01 +7.49637723e-01 +2.74580717e-01 +4.08878386e-01 -5.43824285e-02 -2.50728101e-01 -2.59705454e-01 +1.62230060e-01 -2.55437523e-01 -7.03524202e-02 -2.68377602e-01 -5.38777700e-03 -4.42156762e-01 -3.38078171e-01 -5.94989538e-01 -1.52113780e-01 -9.45161507e-02 -9.73412216e-01 +3.28158975e-01 +1.95192307e-01 -8.56875107e-02 -4.69182372e-01 +1.23814873e-01 +4.56445843e-01 +2.86278486e-01 +5.93610585e-01 +1.34218438e-03 +2.27054119e-01 +5.98912120e-01 -3.70554566e-01 +2.05130368e-01 -4.42998677e-01 +7.35682130e-01 +9.51028168e-01 +2.56626278e-01 +1.27279252e-01 -2.83900082e-01 -2.45678544e-01 -3.18210989e-01 +2.52304792e-01 +5.79323955e-02 -6.04547793e-04 -1.95578024e-01 +4.32450533e-01 +2.41289482e-01 -1.85015332e-02 -1.63407624e-01 +5.48947930e-01 +6.51956558e-01 +3.52553844e-01 -7.58402273e-02 -4.10375714e-01 +3.21006119e-01 -9.45709646e-01 -3.29886943e-01 -1.19229101e-01 +3.12606752e-01 +7.81931221e-01 -6.26574397e-01 +2.39085659e-01 -8.38825107e-01 +1.19971240e+00 -6.51126429e-02 +3.56302112e-01 +4.62234616e-02 +8.33192348e-01 -8.98363739e-02 +1.27502370e+00 +2.76484191e-01 -1.00311482e+00 -1.84629261e-01 -4.76788878e-01 -3.49712878e-01 +4.26064193e-01 +2.42090076e-01 +5.59153974e-01 +4.56138730e-01 -7.90191531e-01 +9.00731906e-02 -8.10364962e-01 +8.74924421e-01 -3.95071208e-01 -1.15101528e+00 +6.53764457e-02 -8.99176598e-01 +1.02849412e+00 +1.24829620e-01 -9.77308095e-01 +6.45857811e-01 +1.31799781e+00 -7.50243127e-01 -1.30690604e-01 +7.26243317e-01 -4.08783585e-01 -3.33216220e-01 -5.44487953e-01 +4.84599143e-01 -5.00326380e-02 -4.41175610e-01 -7.61852711e-02 +7.22823799e-01 +3.52919340e-01 +7.22810745e-01 +4.73251402e-01 -2.96981167e-02 -2.57105920e-02 +6.14357471e-01 +6.03921294e-01 -6.90430170e-03 -2.38867566e-01 -9.30284142e-01 -2.58494876e-02 -2.54626065e-01 +2.80892998e-01 -2.78385490e-01 -7.08453059e-01 +1.01117432e+00 -4.99226414e-02 -3.49093638e-02 -9.00240958e-01 -2.77615815e-01 -7.26515725e-02 -1.12395155e+00 -1.89640433e-01 -3.68690610e-01 -2.17975006e-01 -3.40005755e-01 -6.73688114e-01 +6.49120092e-01 -8.73328805e-01 +1.61868468e-01 -5.42902760e-02 +9.14929211e-01 +1.47643864e-01 +2.56812926e-02 -3.47664446e-01 -4.41283226e-01 -2.66221046e-01 +3.94063026e-01 +3.25051427e-01 +2.45496742e-02 -4.75892723e-01 +2.67422311e-02 -8.03445578e-02 -1.79350913e-01 +5.35205662e-01 -3.45448196e-01 -1.35661855e-01 +1.00611222e+00 +6.65199220e-01 -4.98779505e-01 -1.85966775e-01 -4.31798458e-01 +3.78324091e-02 +1.18388033e+00 -5.37042081e-01 -4.59670007e-01 -9.66079295e-01 -2.85942823e-01 -5.77601135e-01 -5.38429439e-01 -4.71403271e-01 -1.39606506e-01 +2.41487071e-01 +3.68301123e-01 +3.03534120e-02 -3.72358561e-01 -4.70345676e-01 -5.29234529e-01 -1.73881799e-01 +6.67609096e-01 -6.71002150e-01 -9.47847545e-01 +6.48103561e-03 -4.80808169e-02 -7.09441483e-01 -2.24404454e-01 +7.24490702e-01 -3.60744536e-01 +5.53866863e-01 +5.18515885e-01 -1.77496094e-02 +4.52594131e-01 -7.95775831e-01 -7.83228934e-01 -5.75506032e-01 +7.55814612e-01 -1.07569143e-01 -3.38647477e-02 -6.32755399e-01 -1.15155256e+00 +4.57472861e-01 +7.15466261e-01 -4.62995917e-01 -1.40693009e-01 -3.48386228e-01 +4.99225855e-01 -1.52905309e+00 -5.08819580e-01 +3.02712411e-01 -1.11415577e+00 +6.24385715e-01 -8.07171047e-01 -6.15335524e-01 +3.82623434e-01 -1.11259079e+00 +4.04851705e-01 -6.71625614e-01 +6.01398408e-01 -2.07442284e-01 +4.22651976e-01 -5.31867445e-01 -5.76497793e-01 -6.89543128e-01 +3.89875591e-01 -1.49872756e+00 +3.93750489e-01 +3.26131552e-01 +2.74768353e-01 +7.19186306e-01 +4.50392127e-01 -8.31219833e-03 -5.00352800e-01 -6.14022493e-01 -2.00559631e-01 +6.30866587e-01 -5.16590655e-01 -2.37787038e-01 -8.77907038e-01 +5.49841151e-02 +2.70143569e-01 +1.33360028e-01 +2.49228626e-01 -2.99328417e-02 +4.42237526e-01 -9.67602134e-02 -1.59565613e-01 +2.22824052e-01 +1.18258190e+00 +4.18136895e-01 +9.74156141e-01 +4.16640460e-01 +4.20640826e-01 -1.40153021e-01 +2.78475489e-02 +6.65075257e-02 +2.67173082e-01 +2.22031116e-01 +2.76593119e-01 +5.73951960e-01 -2.01424003e-01 +8.53625298e-01 +8.02760959e-01 +2.12709561e-01 +1.60914481e-01 -1.72294118e-02 +4.57883596e-01 +4.20175135e-01 +4.72539514e-01 +1.24017572e+00 +4.36647236e-01 -3.44292611e-01 +4.47205961e-01 +4.82617319e-01 +4.78685409e-01 -1.32553965e-01 -8.95294175e-02 +5.11840880e-01 -3.02431285e-01 -2.19079897e-01 +2.91449934e-01 +1.81793272e-01 +4.90171999e-01 +8.62238526e-01 -7.35005811e-02 +7.81507075e-01 +1.52102057e-02 +5.69062650e-01 +2.21655369e-01 +5.36265433e-01 +7.10661888e-01 -4.72179264e-01 +2.47237116e-01 -1.42656162e-01 -1.36737719e-01 +1.00764441e+00 +4.91806656e-01 +4.55888212e-02 +3.17907512e-01 +6.37834907e-01 +8.27234805e-01 +1.88459963e-01 +1.01748712e-01 +1.40644372e-01 +1.00281429e+00 -4.26110290e-02 -1.55078530e-01 -7.39609122e-01 +2.56146193e-01 -3.13963801e-01 -1.70220718e-01 -3.99483919e-01 +3.84858996e-01 -5.45587204e-02 -8.86266232e-01 +3.15372199e-01 +7.37196624e-01 -3.30380023e-01 +1.03664160e+00 +1.11226845e+00 +4.82435375e-01 +2.22855464e-01 +5.14343679e-02 -3.78056914e-02 +4.82270926e-01 +1.51496291e+00 +8.26020420e-01 +2.94593036e-01 +3.01598907e-01 +3.73184383e-02 +1.10938764e+00 +3.19975734e-01 +3.59792680e-01 +4.33450341e-01 +9.94291082e-02 +3.94787550e-01 +6.87274158e-01 -3.06693792e-01 +2.37567022e-01 -6.40363157e-01 -4.32875305e-02 +7.46462882e-01 -2.27183670e-01 -2.17973113e-01 -8.34378898e-01 -3.06834698e-01 -1.33642292e+00 +2.84443647e-01 -1.32041901e-01 +5.62660754e-01 +1.58139467e-01 +5.58133602e-01 -8.35568309e-02 +1.55294999e-01 +5.71640134e-02 -1.30230203e-01 -4.50193822e-01 +9.01017129e-01 +1.01064332e-03 +3.95165473e-01 -1.19505376e-01 -2.62150317e-01 -1.27210245e-01 -3.81337881e-01 +1.10057485e+00 +7.14047313e-01 +1.76119819e-01 -7.46524394e-01 -3.50113750e-01 -4.32983227e-02 +1.77384600e-01 +8.21813755e-03 +5.09137630e-01 -1.05792202e-01 +3.60943198e-01 -5.09414962e-03 -9.98445973e-02 +2.22186938e-01 -4.35800329e-02 +8.64027262e-01 -6.65271759e-01 -7.78572738e-01 -3.90430570e-01 +7.90351182e-02 -2.37723127e-01 +1.36885777e-01 +1.11391634e-01 +5.45351744e-01 +8.86847377e-02 +5.62868714e-01 +7.94215500e-01 -2.80109614e-01 +5.72826087e-01 -2.61092633e-01 +2.52616972e-01 +3.99617385e-03 -1.21059537e-01 +7.17263743e-02 +1.91291526e-01 +5.87563097e-01 +3.31009358e-01 +3.44328851e-01 +4.67248142e-01 +9.38281268e-02 +4.25070256e-01 -2.54832804e-01 -1.56216994e-01 -8.69019255e-02 +1.14973001e-01 -3.78628612e-01 -7.49714911e-01 +4.38422680e-01 +1.00092463e-01 -8.14060867e-02 -1.50530070e-01 +6.14678144e-01 -9.76843834e-02 +1.01498924e-01 +1.39666628e-02 -2.02396795e-01 -3.08336258e-01 +4.18346412e-02 -5.09728849e-01 -4.94400738e-04 +7.85531700e-02 +1.17967762e-01 -1.84464559e-01 -7.74271905e-01 +3.24315399e-01 -6.65272295e-01 +4.28015351e-01 +2.10281294e-02 +5.77985227e-01 +7.42586195e-01 +2.80765086e-01 +1.43497691e-01 +4.52365160e-01 +5.84876478e-01 +2.18565166e-01 +7.08413199e-02 +1.07780946e-02 -2.14644894e-01 -6.30605817e-01 -3.14191103e-01 +1.10546142e-01 -8.81365299e-01 +3.55780482e-01 -3.45650882e-01 -7.04709366e-02 -3.49192947e-01 +6.57152474e-01 -5.63439429e-01 +4.03065264e-01 -4.27692756e-02 +3.30786616e-01 -7.32297301e-01 +8.54196474e-02 -2.13515595e-01 -4.00497228e-01 -3.08899224e-01 +3.07338536e-01 -4.15173531e-01 -6.03242040e-01 +7.79357255e-01 +6.14993691e-01 +1.70201755e+00 +9.82110739e-01 -1.32644939e+00 -1.73044473e-01 -3.75585735e-01 -5.04150927e-01 +4.33364898e-01 +8.00749302e-01 +6.07775033e-01 -1.74832082e+00 +1.14483309e+00 +5.10264635e-01 -1.08464405e-01 +2.17465058e-01 -3.21105182e-01 +1.26820743e-01 +7.32466519e-01 -2.81073935e-02 -3.81434202e-01 -4.78780478e-01 -3.19325328e-01 -2.72994069e-03 -5.47213137e-01 +4.90487546e-01 +9.57481742e-01 -2.66927779e-01 +4.26123679e-01 +8.75726640e-01 +2.21258134e-01 -5.33830635e-02 -4.17116843e-02 -6.10047281e-01 -1.12538874e+00 +4.83003706e-02 +1.71972886e-01 +3.71955216e-01 +5.44299722e-01 -2.25309044e-01 +3.69767070e-01 +4.93618637e-01 -8.30447495e-01 +9.00703013e-01 +2.92393863e-01 +2.37636901e-02 +2.25088999e-01 -6.37182653e-01 +1.12098970e-01 +7.02306986e-01 +3.36856931e-01 +1.15113698e-01 +7.21305370e-01 +8.44614729e-02 +5.20215690e-01 +2.22857952e+00 -8.60487521e-01 +2.49063760e-01 +3.00886333e-01 +4.89196092e-01 +5.26582241e-01 -4.10407603e-01 +8.95205662e-02 +4.47832584e-01 +4.13153827e-01 +4.37990814e-01 +3.67368430e-01 -3.42284322e-01 -6.84566945e-02 +6.41505182e-01 -5.77147424e-01 -4.98139620e-01 +3.57627660e-01 +3.69497508e-01 +2.28970554e-02 +3.05458874e-01 +2.57270873e-01 +2.11822212e-01 +4.76646721e-01 +7.97005445e-02 -6.16415367e-02 +4.72954303e-01 +8.86433959e-01 +2.03440756e-01 -3.06451172e-01 +1.60997793e-01 -2.08826020e-01 -6.46216720e-02 +6.58464551e-01 -7.14589238e-01 -3.79534394e-01 +5.14545262e-01 -9.55786929e-02 +2.13292599e-01 -5.80123924e-02 +1.62311167e-01 +5.81519246e-01 +9.87506866e-01 -1.23863414e-01 +3.68345320e-01 -5.44335127e-01 -3.38482708e-01 -2.82621324e-01 -2.79271781e-01 +5.20259917e-01 +4.08147871e-02 +6.60939366e-02 -7.84036890e-02 +6.64393485e-01 +1.07006538e+00 -8.59404087e-01 +9.57698762e-01 +2.21323594e-01 +2.49607056e-01 +8.90425205e-01 +4.06192280e-02 -2.00614817e-02 +1.54009517e-02 +5.45960784e-01 +5.98153472e-02 +5.87731183e-01 -6.61345482e-01 +2.63628423e-01 -4.94704284e-02 +3.66636246e-01 -4.45176780e-01 -7.67045379e-01 +8.33297074e-02 +1.00799537e+00 +1.00524378e+00 -7.10227072e-01 +2.23655239e-01 -2.44016409e-01 +8.35869312e-01 -2.42926925e-01 -1.11311424e+00 -6.66810513e-01 +5.15323877e-01 -1.00572836e+00 -1.18042028e+00 -1.30421340e-01 -7.72242010e-01 -1.19381025e-02 +8.09844077e-01 +5.93411386e-01 -9.45061594e-02 +2.97123790e-01 +7.10326135e-01 -2.83019263e-02 -8.19241941e-01 -2.71595389e-01 +6.52751863e-01 -3.94761294e-01 -3.96734357e-01 -5.72814882e-01 -5.20455480e-01 +4.21205938e-01 -1.06851153e-01 -1.54793561e-01 +2.42395505e-01 -1.47990257e-01 -4.36038792e-01 -5.49431324e-01 -6.37143493e-01 -6.16484880e-01 +3.96854609e-01 +4.03462201e-02 +8.41040164e-03 -2.98582554e-01 -1.79570228e-01 -5.78517914e-01 -1.73275191e-02 +6.10468268e-01 +2.23324731e-01 -5.38266778e-01 -9.60008025e-01 -1.71297133e-01 +6.43984973e-01 +5.80704659e-02 +1.31128505e-01 -2.26467028e-01 -1.15308285e+00 +6.99827969e-01 +4.90966380e-01 -4.68669534e-01 +2.11221322e-01 -6.27076566e-01 -8.79174694e-02 -4.54127699e-01 +3.84474903e-01 -6.78432643e-01 -4.67559159e-01 +1.40051737e-01 -5.75237535e-02 -1.24051638e-01 +5.97648859e-01 -3.34428966e-01 -1.71602502e-01 +2.97529340e-01 -4.34223153e-02 -1.02797163e+00 -6.76768482e-01 +2.72982210e-01 -3.76957059e-01 +2.75325239e-01 -4.68092054e-01 -1.15886696e-01 -4.40236270e-01 +4.59324419e-01 -7.04259694e-01 +4.12653863e-01 -1.07227719e+00 +9.88299251e-01 -1.64027348e-01 -2.31628805e-01 -3.51396322e-01 -7.38660276e-01 -4.29494828e-01 -2.94288039e-01 -4.64999408e-01 +1.35279015e-01 +8.57383549e-01 -3.02789479e-01 -5.89269221e-01 +2.52318591e-01 +2.10376546e-01 -1.37976734e-02 +7.43244529e-01 -1.32111358e-02 +6.17177598e-02 -2.17168294e-02 -3.01998317e-01 -7.36860096e-01 -5.89902401e-01 -7.50012159e-01 -2.47851968e-01 +9.93467689e-01 +2.84885168e-01 +6.37582302e-01 -6.09189607e-02 +3.88570637e-01 -2.82742679e-01 -6.58391774e-01 +1.07258677e+00 -6.66846156e-01 -4.79002267e-01 -3.54127347e-01 -6.55908048e-01 -3.81937534e-01 -5.60514092e-01 -6.15818858e-01 +1.33501589e-01 +1.89679250e-01 -3.68271828e-01 +1.39805302e-01 +1.04093885e+00 +4.94412392e-01 +5.33864975e-01 -3.39622796e-01 +1.10470206e-01 +7.07137764e-01 -4.56437558e-01 +7.67188519e-02 +4.50502723e-01 -1.31017387e-01 -9.98931080e-02 +5.28687239e-01 +9.96852756e-01 -1.71578541e-01 +1.52960584e-01 +2.95237839e-01 +4.29597706e-01 +1.81452885e-01 -7.42263138e-01 +1.58271983e-01 -2.74623949e-02 +7.20361248e-02 +5.51387012e-01 +9.45842624e-01 +7.53916726e-02 -3.27749401e-01 +2.33830065e-01 +4.80394393e-01 -1.00969756e+00 -1.06037486e+00 +1.03110206e+00 -4.14955989e-02 -7.35570416e-02 +2.10323408e-01 -2.85764039e-01 -4.81425598e-02 +3.66056889e-01 +2.14778706e-01 +1.20539136e-01 -4.04880464e-01 +5.01192629e-01 +1.46286622e-01 -3.36317003e-01 +1.21192408e+00 +6.95375443e-01 +3.98980349e-01 +9.06845927e-02 +5.04341602e-01 +4.16661650e-01 -7.10277438e-01 +1.39516443e-01 -5.41637512e-03 +1.88143834e-01 +2.00543359e-01 +5.45423292e-02 +3.52955878e-01 +1.64438561e-01 -2.84364194e-01 +8.58032048e-01 -4.61070985e-01 +1.47528663e-01 -1.99121520e-01 -6.26046434e-02 +7.72844478e-02 -4.90088701e-01 -4.42476422e-01 -7.34219193e-01 +4.12915409e-01 -7.28719756e-02 +1.12220562e+00 +5.52038550e-01 -2.11045191e-01 -8.24135542e-02 +4.22039896e-01 +1.02786338e+00 +2.34671757e-01 +2.06368327e-01 +9.23096836e-01 -2.42468074e-01 +4.83033396e-02 +2.21572593e-01 +2.80530572e-01 +8.15351009e-01 +4.34875995e-01 -3.61997336e-01 -3.36734205e-01 -2.58618981e-01 -2.06701875e-01 -1.74866840e-01 +2.52903886e-02 +4.28941727e-01 -2.71404028e-01 +1.00178742e+00 +5.57108879e-01 -6.13780618e-02 -3.46910477e-01 -2.17315838e-01 +6.18864715e-01 +1.13374960e+00 +5.16308188e-01 -6.03670955e-01 +4.03856844e-01 +1.85389847e-01 +6.31909147e-02 +4.04888391e-01 +6.88847184e-01 -5.98262660e-02 +1.25714198e-01 +7.44547725e-01 +4.32616889e-01 +4.32240546e-01 +7.83585906e-01 +6.56846046e-01 +1.95011899e-01 -3.42806101e-01 -2.28470400e-01 -1.45727322e-02 +1.44777656e-01 +6.59638345e-01 +3.82019788e-01 +1.08551607e-01 -2.12123655e-02 +1.85167682e+00 +4.78374772e-02 +5.58040977e-01 +1.59938067e-01 -1.60300285e-01 +3.37140292e-01 -6.35464191e-01 +8.01069811e-02 -1.30963996e-01 +1.01095140e+00 -7.17328787e-02 -2.82752544e-01 -1.79997638e-01 +4.33978587e-02 +3.54425818e-01 -4.86260384e-01 +2.25221813e-01 +1.20259213e+00 -1.59509972e-01 +4.79900509e-01 -2.67608106e-01 -6.42545581e-01 -9.64170337e-01 +9.24853161e-02 -6.22265697e-01 -4.45705056e-01 -8.00125480e-01 -1.10261965e+00 -7.61294290e-02 -4.50045258e-01 -2.99635381e-01 +1.94864094e-01 +8.21746588e-01 +4.83117223e-01 -9.32920158e-01 -6.02278769e-01 +3.35110039e-01 +7.83414487e-03 +6.69783801e-02 -5.64512551e-01 -5.53690732e-01 -3.88502687e-01 -2.88339823e-01 +4.01208103e-01 -5.31903744e-01 -4.20590490e-01 -6.46763086e-01 +1.73722431e-01 +8.53160739e-01 -4.50721651e-01 -4.46828008e-01 -4.86131877e-01 -5.55575006e-02 +3.94399017e-01 -5.86089373e-01 -3.39476690e-02 -2.29337960e-01 -1.48355588e-01 -4.80410963e-01 +2.37163365e-01 +3.86815965e-01 -3.37920099e-01 -4.48082566e-01 -1.35297358e-01 -2.49736845e-01 +3.44421230e-02 +2.73514301e-01 -1.13151170e-01 -9.93905291e-02 +6.26995862e-01 -1.54839769e-01 +5.28715909e-01 -5.27242541e-01 -2.11162463e-01 -7.28179812e-01 -5.80929935e-01 -6.70595050e-01 +1.14772499e-01 -3.90872747e-01 -4.87180501e-02 +6.31152153e-01 +3.92125428e-01 +5.77567220e-01 +3.83456908e-02 +7.93000400e-01 +9.09218192e-02 +4.05661523e-01 +4.79673713e-01 +3.92645955e-01 +2.25112543e-01 +1.21158935e-01 +4.38886434e-01 +6.38289690e-01 -4.16890562e-01 +2.00766549e-01 +1.04198015e+00 +9.59118269e-03 -1.12394430e-02 +4.51444805e-01 -2.65969276e-01 +6.58083931e-02 +6.17079325e-02 +4.23086584e-01 +5.69281280e-01 -2.63705075e-01 -6.60764217e-01 -1.62428722e-01 -1.94034904e-01 -7.40546286e-01 -6.88499570e-01 +2.22362533e-01 +5.82171902e-02 +5.03561795e-01 -4.06848758e-01 +2.52029896e-01 +4.73748833e-01 -3.02595139e-01 +2.87553757e-01 -4.77348268e-01 +5.25425732e-01 -1.23863807e-02 +2.22973675e-01 +1.42487034e-01 +7.38097280e-02 +5.18466830e-01 +6.23907968e-02 +2.83590168e-01 +2.32799307e-01 +1.03698409e+00 +7.45192543e-02 -1.17025673e-01 +2.85974473e-01 +3.33616704e-01 +2.24449620e-01 -8.73605907e-01 +7.60138258e-02 -1.27463198e+00 +3.71062607e-01 -2.47733399e-01 -3.90462250e-01 +5.02785504e-01 -5.80945194e-01 -6.83135509e-01 -7.08281815e-01 -1.05543211e-01 +4.50600743e-01 -8.93688351e-02 +3.87830496e-01 +5.45552075e-01 +1.56680852e-01 +2.07100213e-01 -5.01580894e-01 +3.92948359e-01 -7.58171260e-01 -5.42935967e-01 -3.00436094e-02 +2.02073798e-01 -5.29873729e-01 -1.44559070e-01 +3.56188267e-01 -6.86056018e-01 -7.40597665e-01 -5.43373674e-02 +6.54390097e-01 -7.90988147e-01 +5.10521352e-01 -5.07058263e-01 -4.08424020e-01 +1.53058916e-01 -7.49704838e-01 +2.74202339e-02 -1.50880605e-01 +2.78122157e-01 -5.27786076e-01 +1.13552511e-01 +1.09528445e-01 -7.66287446e-02 +1.30052164e-01 -5.86536266e-02 +1.38291746e-01 -9.61067751e-02 +7.18087852e-02 +3.28814149e-01 +2.87897587e-01 -1.30220011e-01 +8.96722451e-02 +2.61449903e-01 -4.25688863e-01 -2.22607311e-02 +5.83259165e-01 +3.85690302e-01 +2.29980335e-01 +8.15088451e-01 -6.88370526e-01 +6.96781456e-01 +3.77760500e-01 +8.99640024e-02 -8.35001886e-01 -6.19486161e-02 +5.89714944e-01 -3.19762886e-01 +2.11134851e-01 -3.59102905e-01 +6.09016083e-02 +2.40510181e-01 -1.14198685e-01 +3.59024704e-01 -1.65389526e+00 +3.74917537e-01 -1.83519840e-01 -8.58767092e-01 -9.70251113e-02 +6.20628774e-01 +7.47806802e-02 -1.15404896e-01 -8.04566562e-01 +2.30157301e-01 -5.01116812e-01 -2.76967645e-01 -4.87889081e-01 +1.49671271e-01 +1.60304293e-01 +1.68920994e-01 +2.41659522e-01 +1.92380045e-02 +9.56514291e-03 -6.03567183e-01 -1.71043694e-01 +1.40278295e-01 +4.13432539e-01 -7.74207413e-01 -5.82036436e-01 +4.32602257e-01 +3.27093601e-01 -1.31841934e+00 +3.66053611e-01 -9.56611559e-02 +9.75330114e-01 +5.64604878e-01 -8.58082592e-01 +1.74548328e-02 +3.81974667e-01 +2.38414481e-01 -6.59889758e-01 -3.88902485e-01 +3.48834664e-01 -3.30097735e-01 +1.04898624e-01 +9.63818789e-01 -1.13728178e+00 -3.99252325e-02 -4.04055476e-01 -6.80408120e-01 +2.18796745e-01 -6.55242860e-01 -2.57774919e-01 +6.01491094e-01 -3.90848160e-01 -1.81884497e-01 +4.57207352e-01 +2.18962818e-01 +2.49236956e-01 +1.99486576e-02 +1.50307477e-01 -2.20542684e-01 +5.23925126e-01 +6.84992313e-01 -4.36641484e-01 -1.14210919e-01 +2.17793658e-01 -7.43485153e-01 -2.50931799e-01 -8.37167799e-01 +6.02012761e-02 -4.57070500e-01 +2.68394917e-01 -5.16769469e-01 +6.96661413e-01 -1.52291453e+00 -3.72401550e-02 +1.17579687e+00 -8.65229249e-01 -2.18432456e-01 +3.29581976e-01 +6.18787967e-02 -9.40063372e-02 -6.47670567e-01 +1.15265744e-02 +4.62609762e-03 +7.69028217e-02 +4.47206050e-02 +2.19115373e-02 +1.65852773e+00 +1.35058001e-01 +3.13386232e-01 +7.20348775e-01 -6.79887176e-01 -8.44907999e-01 +6.40377402e-02 -1.09103478e-01 -2.69521654e-01 +6.88492600e-03 +7.65309691e-01 -3.22793089e-02 +2.65282720e-01 -3.17678571e-01 +1.03449270e-01 +2.47337922e-01 -2.76875854e-01 +8.95620286e-01 -8.53437409e-02 +7.89611816e-01 +3.21585268e-01 +2.05750883e-01 -3.18110734e-01 +5.82454920e-01 -1.03430144e-01 +5.21373689e-01 +8.37783337e-01 +2.28410661e-01 +1.32433105e+00 +1.28433764e-01 -1.61881819e-01 +1.27068233e+00 -2.65745699e-01 +5.18282831e-01 +2.80610949e-01 -2.10294381e-01 +5.56785882e-01 +1.33574113e-01 +3.53857607e-01 -5.19799769e-01 +8.74805972e-02 -2.85537317e-02 -4.94418219e-02 +1.30676255e-01 -6.03191137e-01 +2.52815902e-01 +4.23831642e-01 -1.67293355e-01 +3.91158611e-02 +9.36503485e-02 -2.72250384e-01 +3.72215271e-01 -2.39043057e-01 +8.15555871e-01 +2.07441479e-01 -6.90907717e-01 +4.61353250e-02 -3.28402579e-01 -3.34448308e-01 -1.20250642e-01 -1.94461852e-01 -1.59183934e-01 +8.36453140e-01 +8.66478145e-01 +8.57454658e-01 +4.32587057e-01 +4.79409099e-01 +2.66501635e-01 +9.72297549e-01 -6.96814358e-02 +9.39376950e-02 -1.61356977e-04 -2.57823020e-01 +7.29409754e-01 +3.27872336e-01 +3.99100631e-01 -9.29997861e-01 -5.94338536e-01 +4.48092163e-01 +5.27300954e-01 +5.71989059e-01 -2.09063157e-01 +4.44786698e-01 +4.74714190e-01 -1.20693140e-01 -1.02824785e-01 -9.18457881e-02 -3.73249590e-01 +9.39896882e-01 -3.41907918e-01 -1.95160925e-01 +1.41257823e-01 +6.30365074e-01 +1.08955763e-02 -3.12241733e-01 +1.24325372e-01 +3.86132635e-02 +4.18522626e-01 -1.57008156e-01 +1.74172509e+00 +1.30003405e+00 +1.36798096e+00 +1.95846009e+00 -1.20802470e-01 -6.63131429e-03 +1.15253925e+00 +1.99373260e-01 +1.50599575e+00 +1.84452310e-01 +8.59873354e-01 -1.29590428e+00 +8.43648016e-01 +4.75231446e-02 -2.81852365e-01 -4.39667732e-01 +1.11693263e+00 -3.90521884e-01 +2.00857306e+00 -4.12967801e-01 -2.88662374e-01 -1.72519341e-01 +4.50741708e-01 +2.79456228e-01 -8.14051390e-01 +5.29946744e-01 +1.11294532e+00 -3.58622558e-02 -2.24281237e-01 +4.32510078e-01 +4.47179563e-02 +1.50439277e-01 +4.66221511e-01 -4.45005924e-01 -4.72127050e-01 -4.01046216e-01 +4.84970242e-01 +1.92241684e-01 +5.99574029e-01 -4.51710373e-01 -1.82288855e-01 +1.07342526e-01 +4.53187190e-02 -9.57696512e-02 -7.54984021e-02 +2.17731982e-01 -1.73415005e-01 -3.84042740e-01 +3.37664038e-01 -3.04890782e-01 +1.05375815e-02 -2.33459160e-01 +1.32868493e+00 +1.82373114e-02 +6.13618851e-01 +4.42572981e-01 -2.53717974e-02 -1.35467279e+00 -4.46048707e-01 -3.66220891e-01 +2.34025523e-01 -1.03842568e+00 +7.32715845e-01 +5.70612490e-01 +4.44442093e-01 -9.72963348e-02 -6.11077547e-01 -5.79747021e-01 +4.86462414e-01 +6.89954579e-01 -3.14815521e-01 -3.17404956e-01 +7.97607780e-01 +9.40421820e-02 -5.55135369e-01 -2.68300861e-01 -7.37217590e-02 +1.85570233e-02 -8.64572942e-01 +1.31391123e-01 +1.20194377e-02 -9.22710672e-02 +6.22357309e-01 -6.11450732e-01 +2.78080523e-01 -1.95478126e-01 +2.05088049e-01 +1.17645733e-01 -2.13921532e-01 -5.57766378e-01 -1.31631508e-01 +3.98604214e-01 -5.11503555e-02 -9.04717326e-01 -3.01757395e-01 -1.51923403e-01 +9.84816719e-03 -3.80307227e-01 -3.30233276e-01 +1.38755530e-01 +7.22584248e-01 +1.84286281e-01 +4.58993971e-01 +2.17776552e-01 +1.78339645e-01 -8.50442946e-01 +2.64453739e-01 +5.21003641e-02 -8.74530196e-01 -6.52274713e-02 -2.29461566e-01 +5.67058206e-01 +7.24622428e-01 +4.64348912e-01 -8.37813973e-01 +1.16494432e-01 -1.81873545e-01 +1.02667844e+00 -2.89138198e-01 -3.15685481e-01 +4.59625870e-01 -3.69560301e-01 +2.47407004e-01 -1.16529003e-01 +1.96756706e-01 -2.82330811e-01 +1.02770185e+00 +4.80360866e-01 +1.59551871e+00 +2.11787716e-01 +4.10031110e-01 +6.87048972e-01 -4.20322835e-01 -1.53376862e-01 +1.66508239e-02 -4.17799428e-02 -3.64758700e-01 -4.79605347e-02 +2.27318257e-01 -5.04344739e-02 -2.68894047e-01 -4.60850269e-01 +5.99159956e-01 +5.37340999e-01 +2.95273155e-01 +2.83986658e-01 +4.54813302e-01 -4.13289845e-01 -8.17611873e-01 -6.82670772e-01 +1.38005704e-01 +3.70101146e-02 +1.26926526e-01 -6.16527915e-01 -6.80622518e-01 -1.33667886e-01 +3.25106561e-01 -2.23761946e-01 +4.16041285e-01 +1.67600513e-01 +3.02888960e-01 -4.42368388e-01 -4.99678612e-01 -1.45692855e-01 +2.44399738e-02 -3.07869017e-01 +1.95927382e-01 -2.97837466e-01 -8.11526775e-01 +2.52685905e-01 -4.53016400e-01 +2.53968507e-01 +2.26318687e-01 +5.91707110e-01 +1.95992976e-01 -8.98822308e-01 +2.64092475e-01 -8.83803248e-01 +4.69312698e-01 +4.41213399e-01 +2.32459873e-01 +4.98601764e-01 -1.58000708e-01 +2.27554858e-01 -2.30319038e-01 -3.71897578e-01 -4.96824861e-01 -3.51868212e-01 -9.30302322e-01 +5.53442061e-01 +2.46225342e-01 +3.24495345e-01 +1.11325943e+00 +9.32178199e-02 +2.26959549e-02 -7.05829322e-01 +4.07333225e-01 +2.82096922e-01 +3.00905824e-01 +5.70797503e-01 -1.77386612e-01 +1.01541936e+00 +5.69285691e-01 -3.13443184e-01 -6.32048070e-01 +9.61508095e-01 -2.88316697e-01 +9.28993151e-02 +4.14565891e-01 +4.59736973e-01 -2.00206190e-02 +1.38807297e-01 -1.18282139e-02 +3.22767347e-02 -7.60804057e-01 -3.94965634e-02 +3.71379592e-02 -9.15194571e-01 +2.55512655e-01 -3.43221128e-02 -1.32527041e+00 +1.41523451e-01 -3.01227778e-01 -5.28546929e-01 -1.04629564e+00 +2.85042659e-03 +8.27815756e-02 -1.64244726e-01 -8.47619697e-02 -2.51650847e-02 -1.75323680e-01 +5.19627929e-01 -6.20273411e-01 +1.29497468e+00 -1.81709886e-01 -1.33674994e-01 -5.87274790e-01 +2.46717613e-02 -7.12099433e-01 -3.55303138e-01 -4.95394498e-01 +6.94634914e-02 -3.10916781e-01 +2.98902810e-01 -7.41624653e-01 +8.49799216e-01 +4.16536778e-01 +2.63177931e-01 -1.96171239e-01 -9.74243462e-01 -1.40957698e-01 +1.30476043e-01 -8.54322970e-01 +8.16843748e-01 -1.55023623e+00 -1.53482616e-01 +3.38935733e-01 +1.63560417e-02 -5.81020236e-01 -6.61838502e-02 -1.48110759e+00 +3.08497131e-01 -1.76895010e+00 -1.25430495e-01 +2.70482987e-01 +5.60882390e-01 -6.94736362e-01 -5.92612028e-01 +4.08561707e-01 +5.40872872e-01 +2.01085672e-01 +3.06533784e-01 -1.03004396e+00 +1.18780458e+00 -1.23670436e-01 -3.87625247e-01 -1.64740637e-01 -3.41916755e-02 -3.85064155e-01 +2.54498869e-01 +5.77130556e-01 +3.35432470e-01 -6.82235435e-02 +3.89725238e-01 +7.57139146e-01 +5.33570647e-01 +8.69543925e-02 +1.96584597e-01 -2.10547522e-01 +1.21477418e-01 -3.77591401e-02 +2.63320088e-01 -5.26090324e-01 -1.30776748e-01 +8.29981789e-02 +1.00635839e+00 -5.54093868e-02 +5.46146989e-01 -9.19898599e-03 -1.24098271e-01 +8.03975940e-01 -1.68443676e-02 +1.99960709e-01 -1.43132955e-01 +2.98772126e-01 +4.56985146e-01 +2.82454461e-01 -4.37581874e-02 -4.57269967e-01 +7.81822801e-01 -8.52359354e-01 -1.78732008e-01 -1.56685442e-01 +1.51515350e-01 -3.66879880e-01 +6.71659410e-01 -1.71918601e-01 +5.34585774e-01 -1.06906569e+00 -7.81099200e-02 -4.66398537e-01 -7.33535051e-01 +2.54087299e-01 -4.88069504e-01 -5.62515080e-01 -2.16009215e-01 +8.31078067e-02 +1.21892117e-01 -3.68231028e-01 -3.16020101e-01 -6.83676541e-01 -3.95806283e-01 -3.06425184e-01 -3.40540737e-01 -4.62833941e-02 +2.56862402e-01 -8.33208859e-01 -2.36667827e-01 +2.73667514e-01 -3.76798660e-01 -5.89588940e-01 +1.33170530e-01 -3.73627692e-01 -4.71736193e-01 -4.29177970e-01 -8.20611775e-01 +2.36395538e-01 -2.31055737e-01 +3.18041593e-01 -1.52903363e-01 -5.30865490e-01 -4.86835182e-01 -2.01486632e-01 -3.15970182e-01 +6.87444210e-01 +9.19846222e-02 -1.85287148e-01 -5.30533083e-02 +4.75565732e-01 -1.60556927e-01 +3.12407076e-01 +2.23234475e-01 -2.68358022e-01 -1.54373527e-01 +4.10216898e-01 -1.86037242e-01 +3.01727474e-01 +5.92968380e-03 -9.88140285e-01 +2.92700350e-01 +2.00877115e-01 +1.47278681e-01 -4.12571222e-01 -6.13724291e-01 +2.24016964e-01 +1.51973829e-01 +2.88083106e-01 -8.41381609e-01 +6.45089924e-01 +1.19059913e-01 +4.84186858e-02 -7.40389340e-04 +8.96008760e-02 -6.39769435e-01 -1.14342856e+00 +1.28799453e-01 -3.14354628e-01 -8.55295122e-01 -1.26538634e-01 -5.04817247e-01 -2.50902260e-03 +8.46442103e-01 +5.71180522e-01 +7.63853908e-01 -7.21365452e-01 -2.63130143e-02 -5.57239175e-01 +2.45069072e-01 -3.66811335e-01 -5.32439530e-01 -4.04184282e-01 +6.10450685e-01 -2.63769299e-01 +3.64226013e-01 +3.71762961e-01 +4.20372546e-01 +2.10723713e-01 +2.80122399e-01 +2.10115328e-01 -2.03909546e-01 +1.51199058e-01 -1.37103349e-01 -3.63946259e-01 -1.61302179e-01 -4.78354394e-01 +2.15970010e-01 +3.09875518e-01 +1.17325270e+00 +3.92793119e-01 +5.72723091e-01 +2.07571492e-01 -1.04893364e-01 +3.11495781e-01 -1.44833907e-01 +8.42423260e-01 -1.60666555e-01 -1.94936872e-01 +2.31647506e-01 -1.97941750e-01 -1.81416512e-01 +1.44618362e-01 +7.62139916e-01 -3.64446193e-01 +5.05878806e-01 +1.99944139e-01 +1.53726609e-02 +4.03597832e-01 -1.64339527e-01 +4.30376023e-01 +2.15412062e-02 +1.55284449e-01 -3.99809450e-01 +3.98667127e-01 +5.21864414e-01 -7.70174503e-01 -5.93556821e-01 -8.04121614e-01 +1.82681561e-01 +3.25664252e-01 -1.50553390e-01 +5.47212064e-01 +1.18857659e-01 +7.02421546e-01 +7.80858994e-01 +1.92438569e-02 +1.92102343e-01 +5.30503452e-01 +1.95942208e-01 +7.74228930e-01 +3.33275646e-01 -4.91985261e-01 -4.92660195e-01 +3.74949843e-01 +3.65819603e-01 -1.48691505e-01 -4.80835855e-01 +8.85400474e-02 -7.15560079e-01 -3.49463165e-01 +7.78713524e-01 +1.58201903e-01 +2.53970362e-02 -1.30752146e-01 +1.96262956e-01 +4.52847689e-01 -7.59811521e-01 -4.54250395e-01 +3.16804141e-01 +1.08364236e+00 +9.09964740e-02 +3.91508520e-01 +1.30153909e-01 +2.79951513e-01 -2.79940069e-01 +2.96412222e-03 -1.52854538e-02 -6.84601188e-01 -2.58868545e-01 -3.79755378e-01 +5.16249061e-01 -2.86345392e-01 +4.98803973e-01 +4.22047853e-01 +1.98307671e-02 +9.78824139e-01 +7.98074380e-02 -6.91580534e-01 +2.79016912e-01 +8.33728731e-01 +2.26154968e-01 -5.96673965e-01 -2.81720877e-01 -7.97189116e-01 -1.48153090e+00 -9.24216866e-01 -6.41551197e-01 -2.71705717e-01 -9.04756188e-01 -1.21830356e+00 -7.92497173e-02 +9.24838185e-02 +1.85941234e-01 -1.39409471e+00 +6.24382377e-01 +6.72382474e-01 -1.37615705e+00 +2.26313367e-01 -2.07130238e-01 -4.92915452e-01 -2.43728548e-01 +2.51581013e-01 +8.98297906e-01 -4.50782686e-01 -5.57185173e-01 +1.07205538e-02 +1.05022895e+00 +6.26019776e-01 +7.29631305e-01 -1.21248305e+00 +9.92576599e-01 +6.82783946e-02 +1.23493277e-01 -1.37270555e-01 +4.53942060e-01 -2.15843037e-01 +2.16302812e-01 -4.88762975e-01 +1.30629346e-01 -6.66398168e-01 -5.89539886e-01 -3.81327361e-01 -1.26679838e-01 +1.00967444e-01 +5.09813190e-01 +5.85132360e-01 +1.52689382e-01 +4.49438095e-01 +5.54287493e-01 -5.75805426e-01 +2.04335347e-01 -4.50952798e-01 +1.02342054e-01 +2.80639768e-01 +2.54471868e-01 +3.65135789e-01 +1.54548764e-01 +3.46216649e-01 -2.96445161e-01 -8.00255463e-02 +8.12306643e-01 +3.07140887e-01 +7.25301504e-02 -4.08709794e-02 -1.63816229e-01 +3.48337181e-02 +4.22665663e-03 -1.45391536e+00 -7.31155634e-01 +3.02156061e-01 +3.19058269e-01 -1.03369109e-01 +2.56022513e-01 -7.40072548e-01 +4.09309715e-02 -2.94888556e-01 -8.89688730e-02 -3.20833743e-01 -2.11760476e-01 -1.50479302e-01 +2.69817680e-01 +1.11701417e+00 -1.59675404e-01 -4.72543389e-01 +7.09865987e-01 -1.55850232e+00 -5.51025867e-01 -1.14822164e-01 -4.36330110e-01 +3.07077855e-01 +2.91434050e-01 -4.39705908e-01 -7.65367270e-01 +2.27281556e-01 -2.26809338e-01 -8.71028006e-01 -3.34501684e-01 +3.87061954e-01 +3.51406455e-01 +1.42458454e-01 -1.71251491e-01 -6.24551237e-01 +2.89137006e-01 -7.85583138e-01 -9.80114877e-01 -5.26352599e-02 +1.24086988e+00 -2.49698281e-01 -4.67006594e-01 -9.05197799e-01 -8.92906666e-01 +2.54376918e-01 +8.14450681e-02 +6.96681023e-01 -4.09823835e-01 +4.32140917e-01 -3.41478080e-01 -7.00644314e-01 +5.47155440e-01 +8.58298019e-02 -1.64393842e+00 +5.46295941e-01 -3.64150405e-01 +1.74863100e-01 -6.06536031e-01 -4.59467947e-01 +3.29030231e-02 +1.65406629e-01 +5.25576293e-01 -3.74918014e-01 -1.80109489e+00 -8.04729342e-01 -7.58124530e-01 -1.85963660e-01 +9.74561572e-02 -3.76788259e-01 +8.55307519e-01 +3.99699099e-02 -7.66094685e-01 +6.84926569e-01 -1.65633291e-01 -2.28567854e-01 +3.18651319e-01 -1.54823260e-02 -2.22440764e-01 +3.99584174e-01 +7.57882059e-01 -1.06768854e-01 +2.10407510e-01 +2.76359677e-01 +4.35497165e-01 -1.67992860e-02 +6.50330484e-01 +5.75143099e-01 +5.94165623e-01 +3.61648113e-01 -4.44046408e-01 -1.05027807e+00 -1.94711834e-01 -1.63317457e-01 -2.90138423e-01 +6.82608858e-02 +6.69577867e-02 -1.14483595e-01 -3.26663047e-01 +5.43569550e-02 +2.30896369e-01 -3.82801175e-01 +1.10949123e+00 -1.03431292e-01 +5.38286328e-01 +5.09615764e-02 +9.12374914e-01 -1.03880301e-01 +2.41198197e-01 +4.24582422e-01 -9.87596437e-03 +6.70301989e-02 +3.67738485e-01 +2.87657350e-01 +2.42238212e-02 +5.13138711e-01 -1.04566284e-01 -4.73198056e-01 +3.40219349e-01 -1.31297141e-01 +2.01224729e-01 +6.24667466e-01 +8.01581219e-02 +8.07809681e-02 -2.16853112e-01 -1.98055342e-01 +2.55618691e-01 +3.39914054e-01 +6.96365178e-01 +8.94110620e-01 -1.17935061e+00 +9.41144601e-02 -1.63069174e-01 +4.04662222e-01 +4.88413930e-01 +1.41194415e+00 +1.24620423e-01 +4.32582229e-01 -3.83804858e-01 -6.28337085e-01 -3.91001910e-01 +2.27201477e-01 -2.15335667e-01 +7.88425863e-01 +2.50261039e-01 -4.40799743e-01 +3.27147335e-01 -2.31090426e-01 -1.15591325e-01 +7.60068595e-01 +2.23449152e-02 +5.61901219e-02 +1.09146044e-01 +6.31332994e-01 -3.81156176e-01 +1.68435112e-01 -4.55593705e-01 -4.61914331e-01 +2.79645532e-01 +8.90632033e-01 +6.84229970e-01 +1.76356763e-01 +5.54400861e-01 +6.54713690e-01 +1.06917229e-02 +8.25314343e-01 +1.37345597e-01 +8.84500384e-01 +5.88178575e-01 -8.34709331e-02 +9.92589831e-01 +2.05430046e-01 +3.94086003e-01 +3.46655607e-01 +2.02595219e-01 +8.63945559e-02 +1.97205707e-01 +6.97178364e-01 -9.62949634e-01 -2.10083112e-01 -1.57504484e-01 +1.89010248e-01 -1.53760523e-01 -1.92521159e-02 -1.05448699e+00 +1.47715956e-01 -1.12651326e-01 +8.68139982e-01 +7.04400480e-01 +1.33616939e-01 +3.50389630e-01 +1.20359874e+00 +2.92835653e-01 -2.47227788e-01 +4.59409840e-02 -2.39277899e-01 -2.42919903e-02 -6.96458280e-01 -2.62519002e-01 +1.43568993e+00 -3.33492547e-01 +1.80158794e+00 -1.57878354e-01 +4.37381923e-01 +1.79123759e-01 +1.99229145e+00 +5.95139742e-01 +4.96864527e-01 -1.75096318e-01 +1.14855051e+00 +3.53816986e-01 +1.15990564e-01 +5.76040387e-01 +8.85851681e-02 +5.57443380e-01 -7.37636015e-02 -9.42844272e-01 +6.98479116e-01 -1.97748125e-01 +8.02363515e-01 +7.19392970e-02 +6.27921522e-01 +1.02135694e+00 -4.01072651e-01 -1.88034043e-01 +2.63514906e-01 -4.59184676e-01 +2.03453749e-01 -4.94449228e-01 +2.74108022e-01 -7.48453200e-01 -3.27020407e-01 +6.34885669e-01 +1.33432105e-01 +3.86862695e-01 +3.69679451e-01 -1.23719409e-01 +9.67308208e-02 -1.44054055e-01 -3.89334917e-01 +7.18846798e-01 +3.50103289e-01 +1.06534386e+00 +6.56230688e-01 -2.19050914e-01 +1.51283875e-01 -1.95585072e-01 +1.10064797e-01 +3.56767476e-01 -5.99135756e-01 -2.80243218e-01 +1.51550293e-01 +2.03190684e-01 +2.11409390e-01 +3.78387004e-01 +1.14352636e-01 -3.15044552e-01 +3.29444915e-01 -4.58430141e-01 -1.06431746e+00 +4.81602252e-01 +2.86753550e-02 +5.87383509e-01 +2.13390335e-01 +1.92318901e-01 +1.13972150e-01 +9.49115515e-01 -5.45318484e-01 +1.42194003e-01 +6.30759299e-01 -3.52080852e-01 +6.31409943e-01 +1.29305646e-01 -2.60777324e-01 -3.30224812e-01 +3.46508563e-01 -1.22303677e+00 +7.52512291e-02 +6.89254701e-01 +4.87528324e-01 -4.51184273e-01 +5.24864316e-01 -5.36423743e-01 +1.52247787e-01 -2.63046890e-01 +8.88593256e-01 +1.47991985e-01 -8.73244088e-03 +4.24720407e-01 -2.56153140e-02 +2.04959109e-01 -7.66152382e-01 -7.81646371e-01 +1.09535195e-01 -4.43425477e-01 +5.08886218e-01 +9.64309394e-01 -1.55751789e-02 +5.83340883e-01 -4.77562904e-01 -2.16168091e-02 +4.70393479e-01 -1.31665422e-02 +5.67039907e-01 +2.12983415e-02 +7.67063200e-01 -1.76425409e-02 +2.11320400e-01 -4.08742577e-01 -4.57948059e-01 +7.80571461e-01 +1.08639657e+00 -3.20416391e-01 +6.15664184e-01 -1.79132730e-01 -4.72318649e-01 +2.23250538e-01 +1.03294812e-01 +2.92461365e-01 +1.00292256e-02 -8.45422387e-01 +2.75670826e-01 -6.31498694e-01 +1.75145734e-02 +2.53335476e-01 +6.22911036e-01 +4.55173463e-01 +3.51096779e-01 -3.58447284e-01 +8.09117019e-01 +1.08250332e+00 -9.11871552e-01 -2.99875438e-01 -3.15738857e-01 -1.90359056e+00 +8.65796506e-01 -1.14926136e+00 +3.09658736e-01 -1.83393195e-01 -2.19090953e-01 +1.98533759e-01 -1.15349817e+00 +6.96467876e-01 +3.10463935e-01 -2.70181596e-01 +6.26627266e-01 -2.07378164e-01 -2.53297180e-01 -1.15228868e+00 +7.10235536e-01 +1.33528993e-01 -1.32923171e-01 +3.44832927e-01 +5.67772746e-01 -4.21797812e-01 +1.66978657e-01 -9.58662093e-01 -5.68491578e-01 -5.17694294e-01 -3.35895300e-01 -6.68277383e-01 +1.15677193e-01 +2.58429050e-01 -2.74467707e-01 -4.62070018e-01 +4.22992259e-01 -4.24364656e-01 +4.73476410e-01 +3.12311798e-01 -1.56837255e-01 +2.44640782e-02 +3.03989291e-01 +5.72471134e-02 +4.80053782e-01 -5.88417649e-01 -1.80257961e-01 -8.01979005e-02 -6.93805277e-01 -7.97239169e-02 +1.60082832e-01 +4.65972275e-02 +1.95624009e-01 +4.99614865e-01 -6.93066359e-01 -3.15694690e-01 -9.58656669e-01 -2.68095940e-01 +8.32102358e-01 -9.63402689e-01 +1.08668776e-02 -8.07176083e-02 +4.96814325e-02 +1.36242166e-01 +2.92724490e-01 -2.81876475e-01 -3.72568995e-01 +1.03195824e-01 -7.85444796e-01 +1.04577684e+00 -1.57093018e-01 -3.79664451e-01 -1.06821752e+00 -8.24446142e-01 -4.91640955e-01 -3.97578806e-01 -7.30555236e-01 +3.19343507e-01 +1.52696386e-01 -6.38440967e-01 -3.45521569e-01 -7.33914256e-01 +4.62024420e-01 -4.33502160e-02 -1.46224946e-01 -3.45319390e-01 +1.01160443e+00 -2.83583373e-01 +3.55389357e-01 +2.98015565e-01 -6.47397280e-01 +3.61217439e-01 +2.16979995e-01 -2.95844555e-01 -3.10827881e-01 +5.04221320e-01 +1.44750118e-01 +9.87702668e-01 +3.82384151e-01 +8.82957652e-02 -1.04127228e+00 +5.31129599e-01 -4.18171555e-01 -4.64588478e-02 -1.86319519e-02 +4.19183075e-01 +2.63072014e-01 -2.93000102e-01 +3.79124910e-01 -6.38239861e-01 +1.20942521e+00 +3.85878652e-01 +6.21162169e-02 -2.52689302e-01 +7.49970078e-01 +7.87698701e-02 +4.45175856e-01 -5.47349870e-01 +1.40814877e+00 -1.18619061e+00 -6.50323451e-01 +2.59807836e-02 +7.10282922e-01 -8.00826311e-01 +1.51916787e-01 +4.00244117e-01 +4.25599486e-01 -1.05289233e+00 -3.85310054e-02 +9.96700168e-01 -1.36410818e-01 -3.92815918e-01 -5.38884521e-01 -4.77737188e-01 +1.07405508e+00 -2.45438486e-01 +7.55824208e-01 -9.21094596e-01 -6.95969939e-01 +5.94109356e-01 +2.80604720e-01 +9.72840667e-01 -9.00365770e-01 -8.53292942e-01 -5.94260931e-01 -5.90501070e-01 +3.69412243e-01 -1.95779189e-01 -1.07533777e+00 +8.07401359e-01 +1.60227552e-01 -2.44203359e-01 -7.50948548e-01 +1.65705383e-01 -3.78408015e-01 -2.26461396e-01 -2.03792900e-01 +1.21693988e-03 +1.66155592e-01 -5.69232941e-01 -4.03493583e-01 +3.78143489e-01 +5.13559282e-01 +3.86629432e-01 +5.39848685e-01 +5.43357551e-01 +6.63750231e-01 -6.63860068e-02 -6.62042916e-01 -4.55185056e-01 -4.35558148e-02 -1.44973382e-01 +7.83397734e-01 +4.46640700e-01 -4.75902438e-01 +2.95448482e-01 -6.98017247e-04 +3.98331195e-01 +3.40574533e-01 +3.85598898e-01 -5.20494521e-01 -2.29699060e-01 +2.30615988e-01 -9.57303822e-01 +4.97213632e-01 +7.07926691e-01 +6.52071089e-02 +1.25866532e+00 -2.26029277e-01 -7.94427171e-02 -3.69847082e-02 +5.87662995e-01 +8.54577199e-02 -5.46732903e-01 -9.47103426e-02 +1.75333291e-01 +7.05548167e-01 -4.30797219e-01 +7.34290600e-01 +4.39897597e-01 +1.47922373e+00 +5.93608797e-01 -4.36444860e-03 -7.20813513e-01 +8.60028341e-02 -6.11072183e-01 -8.63720715e-01 +6.74350023e-01 -2.49860898e-01 +1.91207722e-01 -2.34801099e-01 -5.24420500e-01 +1.15508117e-01 +3.03255409e-01 -7.89585948e-01 +4.30723071e-01 +5.87024868e-01 -2.53926784e-01 +1.72790900e-01 +5.59777796e-01 +4.76739109e-01 -2.79473543e-01 +4.90565568e-01 -1.12838365e-01 -3.30767453e-01 +1.79758683e-01 -4.23168689e-02 +2.19765045e-02 -3.81732844e-02 -5.86653233e-01 +7.83245444e-01 -8.79180431e-02 -2.33045653e-01 +3.43879104e-01 -9.03274655e-01 -3.43060225e-01 +6.90973625e-02 -6.73073113e-01 -5.89659989e-01 -1.14197671e-01 +8.66342410e-02 +7.41355479e-01 -6.37150168e-01 -4.59338874e-01 -3.71660322e-01 +7.69931614e-01 +1.65457502e-01 +3.51142734e-01 +3.79793406e-01 +1.00345206e+00 -2.79662043e-01 +5.54750323e-01 -5.13910949e-01 +1.20869339e-01 -1.20822839e-01 +4.13668633e-01 +1.74479830e+00 +1.07010186e+00 -1.35189086e-01 +6.36271715e-01 +9.25792575e-01 +3.43289524e-02 +1.26069799e-01 +2.50034899e-01 -7.87736997e-02 +7.06720829e-01 +3.40731931e+00 -1.67847383e+00 -3.53319608e-02 +5.97146571e-01 +4.95238245e-01 +5.15445769e-01 -3.75144958e-01 +9.82015505e-02 -2.68803656e-01 -3.01434845e-01 +8.50858510e-01 -8.61147046e-01 +6.44129336e-01 +2.08774179e-01 +1.15236335e-01 -2.08763108e-01 -3.00926179e-01 +5.11770070e-01 +1.88179269e-01 +2.22428203e-01 -9.83895719e-01 +1.13937128e+00 -1.86622456e-01 +4.46186438e-02 -5.69865942e-01 -9.90640596e-02 -5.94737172e-01 +7.56909549e-01 -2.94340819e-01 +2.07020745e-01 +4.45740938e-01 +4.82103616e-01 -3.44985604e-01 -8.20927799e-01 -1.16657525e-01 -4.05871011e-02 +5.93450010e-01 -1.05421066e+00 +7.74715960e-01 -5.66035360e-02 -1.96007445e-01 -6.52546883e-01 -4.88854825e-01 +4.49342698e-01 +1.03763032e+00 +1.35963380e-01 +3.47189277e-01 -4.54170495e-01 -6.67975783e-01 +8.15359876e-02 +9.88133013e-01 +2.03075096e-01 +6.31389499e-01 -2.39189610e-01 -6.81411982e-01 +1.38894573e-01 -3.57861996e-01 +1.94541991e-01 +8.90620574e-02 -5.17164826e-01 -2.67742068e-01 +1.73687503e-01 -2.07507953e-01 +5.53435802e-01 +9.39515755e-02 -2.24703606e-02 +5.18676996e-01 -5.37169576e-01 -8.80909622e-01 +1.04603326e+00 +1.12817955e+00 +2.40032434e-01 +1.82550922e-01 -5.60617633e-02 +1.07164872e+00 +1.01758730e+00 +1.44469202e-01 +2.17827246e-01 -2.45702058e-01 -5.51947773e-01 -2.93411136e-01 -3.79684180e-01 +9.52855289e-01 -1.60027593e-02 +1.62098959e-01 +2.86422580e-01 -5.63173711e-01 -7.69471824e-02 -4.64750528e-01 +4.20519084e-01 +3.42041552e-01 -3.97358805e-01 +4.29391563e-01 -6.44746780e-01 +9.10469770e-01 +1.95440844e-01 +4.70275402e-01 -4.44337606e-01 -4.13831711e-01 -4.52207685e-01 -6.29148424e-01 -1.74684480e-01 -9.71246883e-02 -2.11947665e-01 +2.36118451e-01 +1.19626736e-02 -1.30543798e-01 -3.82232875e-01 +2.79625744e-01 -2.89317936e-01 -3.51378769e-01 -5.89897037e-01 -1.05577421e+00 -5.28907292e-02 +6.52337074e-01 -1.10139811e+00 -7.99941123e-01 -1.35797977e-01 +6.22015715e-01 +6.88743815e-02 +7.43167400e-01 +5.29799044e-01 +9.35809493e-01 -4.11349870e-02 +1.14510751e+00 +6.06975079e-01 -2.92702522e-02 +2.15875673e+00 +4.86835688e-01 +6.48526922e-02 -5.29812872e-01 +4.80911344e-01 +3.10293227e-01 +6.33066773e-01 +5.30194640e-01 +2.95186162e-01 -6.40586734e-01 -1.15432791e-01 +4.31313068e-01 +8.30379128e-02 -4.79666382e-01 +3.82852226e-01 -1.54790729e-02 +7.07585812e-02 -5.99599667e-02 +1.44224524e-01 +2.89218903e-01 -2.88568377e-01 +7.75927072e-03 -1.73716411e-01 -1.43382743e-01 -3.12773675e-01 +8.43337327e-02 -4.08642501e-01 -5.59091687e-01 -5.78272104e-01 -1.93736097e-03 -8.49896252e-01 +6.14539742e-01 +1.63047642e-01 +1.67921428e-02 -3.18494648e-01 -2.81670392e-01 -4.47384864e-02 -1.89253792e-01 -1.69270411e-01 -2.03656361e-01 -1.57533064e-01 -6.83497429e-01 -4.78840411e-01 +5.58871686e-01 +9.26023498e-02 -8.27145576e-01 +3.95282507e-01 +3.87544394e-01 -7.50170887e-01 +8.74250680e-02 -6.87758550e-02 +3.12012970e-01 +9.50776711e-02 -6.45681620e-01 -4.11245376e-01 +2.78268278e-01 -4.68380339e-02 -2.91441977e-01 -2.85374336e-02 +1.74622715e-01 -2.49637023e-01 +7.68220961e-01 +5.29809594e-01 +6.47753716e-01 +7.13494122e-01 -2.39340007e-01 +4.92154986e-01 +1.34067476e-01 +5.69562256e-01 -1.90864921e-01 +6.72440529e-01 +4.25627530e-01 +1.17708281e-01 -2.71161735e-01 +4.31792408e-01 +4.63412523e-01 +1.02561057e+00 -2.96277076e-01 +1.03375047e-01 -2.78668016e-01 +2.12853745e-01 +2.84048557e-01 -2.85980672e-01 -7.03513324e-01 -6.16011024e-01 +2.43526816e-01 -1.02152787e-02 -3.43733519e-01 +4.14769650e-01 -2.37899914e-01 -1.40426874e-01 +8.21112514e-01 -1.46502662e+00 -1.10088602e-01 -2.04939574e-01 +4.23615277e-01 +8.25813890e-01 +2.66524643e-01 +6.76415384e-01 +3.54293764e-01 +1.02181923e+00 -1.38373703e-01 +1.71654284e-01 -1.19762152e-01 -7.94562772e-02 -6.87536955e-01 -6.49212122e-01 +7.81108856e-01 +1.42402444e-02 -2.81149209e-01 +5.44475496e-01 +7.77368665e-01 +5.59565425e-01 -4.53532785e-01 +2.80312508e-01 -1.90982893e-01 +3.48582715e-01 -1.50029927e-01 +1.62941098e-01 +3.02420318e-01 -2.16137961e-01 -4.33855385e-01 -1.12191570e+00 +3.82717745e-03 -9.73049223e-01 +2.78310291e-02 -1.60332456e-01 +1.78067908e-01 +1.36451378e-01 -4.56479400e-01 +4.59556043e-01 +2.61829019e-01 +1.24587484e-01 +5.28406739e-01 +1.24619997e+00 -1.41309295e-02 -8.43530595e-01 -4.15162712e-01 +6.54114485e-01 -1.75483847e+00 +8.72844934e-01 +6.95591688e-01 +2.17339084e-01 -6.68166652e-02 -2.64579840e-02 -1.47543415e-01 -1.69709831e-01 -2.50983238e-01 -9.52668428e-01 -7.39271045e-02 -4.98423070e-01 +1.23609506e-01 -7.16784775e-01 +3.76508951e-01 +5.85880816e-01 +6.99622214e-01 -3.62859219e-02 -1.97450146e-01 +1.10269535e+00 -1.47794738e-01 +3.09663653e-01 +4.93655115e-01 +4.14059997e-01 +8.16448256e-02 -7.06872940e-01 +4.05299151e-03 -4.32776026e-02 -6.02580905e-02 +2.18723655e-01 -3.74069184e-01 +1.12168920e+00 -7.21593320e-01 +6.52120531e-01 +4.61908877e-01 -1.51640400e-01 +8.42331350e-01 +6.16765499e-01 -1.97304413e-01 +1.12940443e+00 +4.74550426e-02 +1.18736342e-01 +4.54387277e-01 +1.12616196e-01 +7.72327423e-01 +1.14622259e+00 +3.64159137e-01 +3.58517230e-01 +3.43972504e-01 +1.67054683e-01 +7.93462843e-02 +2.37699881e-01 +8.09863806e-01 +1.92410290e-01 +9.77953732e-01 +2.69321859e-01 -5.17447054e-01 +5.62180877e-01 +1.39099741e+00 -7.82882795e-02 -3.72762591e-01 -5.67353703e-03 +6.56259656e-01 -1.60525054e-01 +7.55375504e-01 +6.27365172e-01 -4.47925813e-02 -5.83259284e-01 -3.90130401e-01 -1.38715040e-02 +4.63667840e-01 -1.60917342e-01 -2.84020901e-01 +1.64057538e-01 +3.17155212e-01 +6.77435398e-01 +1.15034163e-01 +6.15920544e-01 -2.20969424e-01 -7.08254427e-02 +2.01382637e-01 -2.21530661e-01 +2.11111367e-01 -2.72341609e-01 -4.78221208e-01 +5.29384196e-01 -1.13228641e-01 +4.11427766e-01 -5.19326366e-02 +3.21805120e-01 +1.02693856e+00 -2.10140526e-01 +3.33212584e-01 +1.50032043e-01 +7.98660576e-01 -9.20773566e-01 +1.36087105e-01 -1.70569643e-01 +2.35731095e-01 +7.04198301e-01 +1.58948392e-01 +7.55688906e-01 +5.03749967e-01 +9.77542400e-01 -3.74274492e-01 -8.50721478e-01 +1.02207974e-01 +7.05072403e-01 +2.44630706e-02 -2.63732057e-02 +5.69338322e-01 -5.11516213e-01 +5.57927966e-01 +3.02534819e-01 -1.59749165e-01 +4.39238846e-01 +2.98167378e-01 -7.74172843e-01 -1.12995297e-01 -2.41969153e-01 +1.13808656e+00 -5.86364388e-01 +5.99245608e-01 -5.23557305e-01 -8.89612138e-02 -5.19438982e-01 +1.09287174e-02 -4.45010029e-02 +6.40942216e-01 -4.08733577e-01 +1.78830847e-02 +3.13123554e-01 -4.42396849e-01 -4.01041836e-01 +1.82804337e-03 +2.94645220e-01 -3.63215595e-01 -7.74730384e-01 -8.88436019e-01 +7.47201622e-01 +7.10788906e-01 +4.12187159e-01 -5.04623771e-01 -5.55191815e-01 -5.75537264e-01 -1.21473605e-02 -9.10982676e-03 -1.55205429e-01 -1.92127839e-01 +5.22672534e-01 +1.53133973e-01 -4.30588871e-02 -3.11662167e-01 +2.48449966e-01 +4.62717265e-01 +1.19837724e-01 -5.98408759e-01 -7.28736103e-01 +4.80871946e-01 +6.27036467e-02 +4.32140440e-01 +6.50665045e-01 -3.18640321e-01 +3.43888611e-01 +1.98498536e-02 +3.85271579e-01 +4.37329262e-01 +3.30135196e-01 -7.90697515e-01 +8.94726694e-01 -9.79682982e-01 -2.34041959e-01 +1.07692052e-02 +2.55031288e-01 +3.22920866e-02 -1.63827658e-01 -3.76414269e-01 +6.31781161e-01 -8.72214377e-01 -4.83518273e-01 -3.22199494e-01 -1.13349473e+00 +1.76848784e-01 -5.39070249e-01 +1.86178789e-01 -4.37157959e-01 -9.88597274e-01 +1.71250850e-01 +4.86339658e-01 +4.62837875e-01 -4.90217507e-01 +5.82801640e-01 -5.58727562e-01 -6.96291700e-02 -3.37711394e-01 +3.00364047e-01 -2.54738647e-02 -7.63794839e-01 +2.06916869e-01 +5.63441277e-01 -1.36140525e-01 -9.78800476e-01 -5.00649631e-01 +5.18522918e-01 -9.81165111e-01 +4.38873321e-01 +1.78276822e-01 +1.24690160e-01 +8.65849972e-01 +8.72579396e-01 -2.72408009e-01 +7.93337300e-02 -3.56887490e-01 -7.93828011e-01 +1.45377290e+00 +5.66905364e-02 +2.08573207e-01 -2.54874974e-01 +7.09544122e-01 +4.28287119e-01 +2.03129798e-02 +1.26800135e-01 -7.74949014e-01 -5.53674340e-01 +5.94658732e-01 -5.43330252e-01 -6.26914978e-01 +1.91969603e-01 -2.04737023e-01 -3.09808940e-01 +7.35950097e-02 -9.37848985e-02 +9.06879127e-01 +2.42364690e-01 -9.32595134e-01 -5.02278626e-01 -1.96791306e-01 +6.44698501e-01 -1.49638280e-01 -1.98040009e-02 -1.27666843e+00 -1.03102639e-01 +2.63441563e-01 +3.49601835e-01 -1.44193208e+00 -1.69770837e-01 -5.79064071e-01 +6.93630636e-01 +4.74042445e-02 -1.14788227e-01 -3.21795881e-01 +1.72236466e+00 +1.12837665e-01 +1.97443947e-01 -1.32454562e+00 +4.42738354e-01 -8.55087340e-01 -1.19241869e+00 -3.97079706e-01 +1.72408037e-02 -7.51455903e-01 -2.11710989e-01 +1.49078518e-02 +6.12042069e-01 +4.93597716e-01 +2.57708710e-02 +4.50137794e-01 -2.28852987e-01 +4.10416365e-01 -3.25763792e-01 +2.20997110e-02 -2.57854044e-01 +1.35055661e-01 -1.66141212e-01 +4.15332347e-01 +3.11640799e-01 +4.41122115e-01 -4.89285707e-01 -6.35449588e-01 +7.53548086e-01 -8.51240277e-01 +8.53081048e-01 -1.94739491e-01 +6.74600780e-01 +9.42763221e-03 -2.82031745e-01 -4.60644752e-01 +1.07548572e-01 -7.67632872e-02 -4.74179894e-01 -2.78962284e-01 -9.58996236e-01 -4.10580307e-01 -1.35157019e-01 +4.99333084e-01 +3.53556663e-01 -1.87387437e-01 -2.83532053e-01 -5.12292147e-01 +7.57842600e-01 -1.21172118e+00 -4.75282073e-01 +5.95032990e-01 -3.21039379e-01 -1.57690980e-02 -3.62081826e-01 -9.41664726e-02 -6.75372005e-01 -2.95487434e-01 +5.37952125e-01 -3.86450768e-01 -8.03420842e-01 +1.02545559e-01 +2.32125312e-01 +7.12812603e-01 -4.76484478e-01 +1.16951263e+00 +4.61328365e-02 +1.66851804e-01 -2.24185735e-01 -4.27870244e-01 -8.81198883e-01 +1.42429307e-01 -7.51216635e-02 +1.78734124e-01 +4.35778797e-01 +2.29866266e-01 -1.15218706e-01 -2.75385290e-01 -6.68235660e-01 -6.49954975e-01 +1.12502486e-01 -4.10608202e-01 +2.21519899e-02 +1.57631278e-01 +1.72392845e-01 -5.19457832e-02 +1.34500295e-01 -4.38186616e-01 -4.68860596e-01 -3.35422717e-02 -6.46058738e-01 -1.07614934e+00 +1.69140041e-01 +1.45274490e-01 -2.26064727e-01 +2.69733399e-01 -1.00158602e-01 +6.07041538e-01 +6.50568843e-01 -4.82404292e-01 -5.63246429e-01 -3.56415734e-02 +6.31354526e-02 -1.05386257e+00 +3.21237706e-02 -2.75130302e-01 -4.35864121e-01 -1.47378159e+00 +1.09088749e-01 -7.62913048e-01 +1.13626849e-02 +2.16631517e-01 +6.41673282e-02 -1.18306017e+00 +5.16636550e-01 -1.44604206e-01 -4.62046415e-02 -3.24758321e-01 -4.04399842e-01 -3.41103852e-01 -2.69074719e-02 -4.54063207e-01 -4.47983056e-01 +2.47935444e-01 -8.00855815e-01 +4.10681397e-01 -9.28115785e-01 +2.21371084e-01 -3.02728027e-01 -2.01795861e-01 -4.17840034e-02 -9.57926035e-01 -1.53917978e-02 -5.12138546e-01 -1.51841566e-01 +8.39177370e-02 +1.02909660e+00 -8.14822733e-01 -4.41864848e-01 -4.05827522e-01 +1.04029644e+00 -5.06155372e-01 -1.59529313e-01 -3.93226832e-01 +6.79474831e-01 -4.47243124e-01 +1.70549259e-01 +2.80048609e-01 +9.75942686e-02 -4.66244249e-03 -1.06685653e-01 +6.59126937e-02 -2.69612372e-01 -1.06303833e-01 +6.58242345e-01 +7.14271963e-01 +2.92300254e-01 -3.02188247e-01 -8.31725150e-02 -7.05044329e-01 -1.87468100e-02 +4.28604007e-01 +1.95837572e-01 +3.93166959e-01 +6.20928645e-01 +2.23166287e-01 -4.14104849e-01 -2.79906303e-01 +1.37443274e-01 -9.45849478e-01 -1.28000355e+00 +3.48772377e-01 +2.56743163e-01 -1.20252550e-01 -3.47121447e-01 -5.81606686e-01 +5.53696215e-01 +2.60149717e-01 -5.75192571e-01 +1.34333238e-01 -6.78353965e-01 +5.25863990e-02 -8.34615827e-02 -4.09023732e-01 -1.92784011e+00 +1.27116010e-01 +7.60056794e-01 -5.71181893e-01 +2.23736927e-01 +3.54792476e-01 +3.30646873e-01 +2.67899096e-01 +2.40991578e-01 +6.47828579e-02 -6.69799447e-01 +3.50640109e-03 -9.46428835e-01 -1.70748923e-02 -4.63114321e-01 -5.60402274e-02 +7.81101704e-01 -9.67826247e-01 -3.07353288e-01 -1.70877464e-02 -2.82620549e-01 +1.63940042e-01 -1.37805089e-01 -4.68757361e-01 +9.48806703e-01 -4.67957944e-01 -3.14725518e-01 -3.20955753e-01 +5.84186196e-01 -7.70752013e-01 -2.55187333e-01 -9.21827629e-02 +8.95264521e-02 -5.88071823e-01 +1.46323792e-03 -6.41706944e-01 +5.40126525e-02 -4.94168192e-01 +1.93467438e-02 +1.08267474e+00 -7.15718716e-02 +3.79456133e-01 -2.64919370e-01 -4.81561124e-01 -1.97256893e-01 +6.47195339e-01 +5.24124324e-01 -2.72177607e-01 -1.43363908e-01 +2.81548500e-01 +2.60805160e-01 -4.79370624e-01 -2.06387728e-01 -1.09747872e-01 -6.79250896e-01 -8.98863196e-01 -1.29265059e-02 -7.42068052e-01 +2.04689994e-01 -6.52768135e-01 -9.75363135e-01 +1.79211468e-01 -1.43638921e+00 +5.62351763e-01 -1.76110244e+00 +4.46244717e-01 +2.04318315e-01 +9.84371543e-01 -1.87283397e-01 -1.19233564e-01 +1.12363303e+00 +5.67654707e-02 +7.33460903e-01 +2.37659454e-01 -3.58177960e-01 -1.04263604e+00 +2.99124300e-01 -4.42999564e-02 +5.54354489e-03 +4.90134537e-01 +8.17934394e-01 -6.01525486e-01 -3.90860707e-01 -6.03400648e-01 +1.07859977e-01 -2.64945507e-01 +1.06934384e-01 -2.72916313e-02 +1.33925819e+00 +1.27173483e-01 +2.22491160e-01 +1.19692318e-01 +4.03430611e-02 +2.01074883e-01 -3.50608468e-01 +6.80293664e-02 +2.26761386e-01 -1.01812728e-01 -3.13943028e-01 +1.08315706e-01 -5.49081028e-01 +7.16845989e-01 +2.37041205e-01 +4.81744826e-01 -2.85713285e-01 +3.69718641e-01 +1.20550799e+00 +1.12208985e-01 +6.31572586e-03 -2.00081855e-01 -2.34836876e-01 -4.99865294e-01 +8.65125358e-01 -5.85900545e-01 -3.41349393e-01 -1.71720341e-01 -1.21828355e-02 -8.43815744e-01 -6.11570835e-01 +5.02550364e-01 -7.97632039e-01 -2.42184117e-01 -1.27119660e-01 -1.27807513e-01 -1.14336514e+00 +8.71475488e-02 -2.77505219e-01 -8.10583711e-01 -5.87660670e-02 -9.08492040e-03 +1.36572137e-01 +1.66178733e-01 +2.27402776e-01 -6.39914215e-01 -6.28206551e-01 +9.60184932e-02 +4.26898330e-01 +6.68264508e-01 +8.10710862e-02 -2.83805341e-01 +9.11019444e-02 -1.32588267e-01 -6.23430848e-01 +5.98505676e-01 +2.39122882e-01 -1.61906168e-01 +3.71738851e-01 -1.75614581e-01 +3.99208367e-01 -6.81236833e-02 +8.69158879e-02 +7.16791213e-01 +5.49104571e-01 +3.79348904e-01 -2.24537253e-01 +4.86505866e-01 +5.80045402e-01 +4.42261279e-01 +7.27300942e-01 +6.14257008e-02 +5.45079350e-01 +1.78483590e-01 -2.39380717e-01 +3.17314148e-01 -1.62430942e-01 -4.93233830e-01 +2.35865563e-01 +6.19819820e-01 +2.34665155e-01 +1.16427325e-01 -1.11643910e-01 -2.17889398e-01 +9.09526467e-01 +2.23624911e-02 -3.49079132e-01 +8.45163286e-01 -1.31636167e+00 -5.43425322e-01 -1.57756233e+00 +1.35578358e+00 +5.85908532e-01 -5.91545343e-01 -1.02200741e-02 +6.50269747e-01 -7.73105443e-01 -1.67109489e-01 +5.69412887e-01 -3.53599042e-02 +6.16027951e-01 -2.61295795e-01 -4.66427505e-02 +3.01208049e-01 -3.99863869e-01 -6.69315100e-01 -1.36912322e+00 +6.66750595e-02 +5.55100381e-01 -1.27009130e+00 -7.94462979e-01 -8.01773429e-01 -3.78839821e-01 +2.97121286e-01 +3.61191422e-01 +8.58196259e-01 -3.40054214e-01 +1.28213480e-01 +1.11220041e-02 +9.94073227e-02 +4.03006524e-02 -4.61211860e-01 -4.84000564e-01 -4.78051573e-01 -4.89436656e-01 -3.59046221e-01 +3.66394013e-01 +4.13308740e-01 -4.69082087e-01 -2.05163166e-01 +2.06311122e-01 +1.35871872e-01 -2.68450826e-01 -2.72311747e-01 -3.20322424e-01 +3.41777414e-01 +7.57787645e-01 +2.60524899e-01 -7.73045063e-01 -3.54827195e-01 -3.11136693e-01 -8.85055661e-01 -1.56941861e-01 -1.87573135e-01 -3.00212741e-01 -3.76939178e-01 +1.76502183e-01 +7.73546696e-02 -3.38587239e-02 -1.37004808e-01 -5.78977764e-01 -1.81679223e-02 +3.19779217e-01 +2.97400624e-01 +2.25297287e-01 +3.13652784e-01 +5.33637702e-01 +2.48134047e-01 -2.98241645e-01 +6.20642126e-01 +9.24617469e-01 +5.84420502e-01 +5.91233075e-01 +2.52218824e-02 +5.19209683e-01 +6.63910806e-01 -1.06954861e+00 +8.95020723e-01 +6.09816909e-01 -8.33349228e-01 +5.94750464e-01 -6.38328493e-02 -9.65672553e-01 -4.04636502e-01 -6.25885189e-01 +2.82957643e-01 +4.59678560e-01 -4.35353629e-02 +4.67175335e-01 +2.42726311e-01 +6.44743219e-02 +3.43534857e-01 -1.69654995e-01 -5.52261472e-01 -5.45920208e-02 +2.08771735e-01 -1.26597822e-01 -8.02404761e-01 -6.96818754e-02 -1.46417518e-03 -7.04014421e-01 -1.14357007e+00 -2.06814051e-01 +1.72849923e-01 +6.24555230e-01 -2.67400503e-01 -1.14667284e+00 +3.23040962e-01 -3.87270063e-01 +4.68784720e-01 -4.33527052e-01 +4.93444085e-01 -3.50903571e-01 -1.83253661e-01 -6.74729764e-01 -4.82089259e-02 -8.42794538e-01 -5.47235250e-01 -4.37645793e-01 +2.05240443e-01 +2.96873003e-02 +3.86477560e-01 -5.90475321e-01 -5.40027142e-01 +7.26902485e-01 -5.26198268e-01 +6.38463497e-01 -1.82593726e-02 +8.90052557e-01 -5.14990628e-01 -7.29184687e-01 +7.62708068e-01 -1.21110308e+00 -6.86245859e-01 +2.74434090e-01 +8.82594764e-01 +3.90612543e-01 +1.02075264e-01 +3.20433289e-01 +2.84614056e-01 -2.07678467e-01 -6.02188408e-01 +3.31691533e-01 -6.97837353e-01 +5.33042431e-01 -7.37545341e-02 -1.07239521e+00 -4.42133695e-02 -1.35360062e-01 -3.24868530e-01 +9.49377775e-01 -2.22815827e-01 -2.62814671e-01 -5.46919823e-01 +8.39644372e-01 +3.57238412e-01 -7.73427725e-01 -3.47409815e-01 +1.47671923e-01 -6.59292281e-01 -3.29643726e-01 +1.72388732e-01 -3.02845299e-01 -1.38853562e+00 +3.65764618e-01 +1.54152739e+00 -3.06224853e-01 +4.19792563e-01 +4.76949438e-02 -9.99489903e-01 +1.31758824e-01 -4.74786550e-01 +1.50833223e-02 -2.80429363e-01 -7.65559196e-01 +4.50979829e-01 +4.25984979e-01 +1.42445013e-01 -3.00651819e-01 -1.65208948e+00 +1.75446644e-01 +2.87344694e-01 -3.08641523e-01 +2.00160116e-01 -3.21040064e-01 +3.44761819e-01 +2.99644291e-01 +4.86529112e-01 -4.18004483e-01 +1.60241202e-01 -3.21644187e-01 -2.47702390e-01 +4.38287994e-03 +2.27059931e-01 -6.02297246e-01 -2.94918120e-01 +6.05431378e-01 +2.24077538e-01 -4.34652388e-01 +5.47371030e-01 -9.30528715e-02 +1.09033450e-01 +2.08210215e-01 -7.96258077e-02 -6.54002249e-01 +6.53656065e-01 +1.92558765e-01 +4.69983071e-01 +3.62693667e-02 -9.93437693e-02 +4.29531634e-01 +7.28452682e-01 +8.82645845e-01 +6.59736633e-01 -3.62506747e-01 -2.81523794e-01 +1.18201464e-01 +8.84765804e-01 +4.46215495e-02 +2.19111785e-01 +4.83852118e-01 -1.31558090e-01 -9.19448674e-01 -5.90335369e-01 -7.49747306e-02 +9.01388586e-01 +2.69707322e-01 -2.24169448e-01 +3.60833496e-01 -1.76502153e-01 +2.16767266e-01 +4.35165912e-01 -1.76767692e-01 +2.44148299e-01 -1.22112028e-01 -9.51041043e-01 -9.88968536e-02 -2.95240819e-01 +2.93617342e-02 -6.79363430e-01 +6.52239859e-01 -3.75023186e-01 +3.31862032e-01 +1.76910579e-01 -2.43166819e-01 -3.28969091e-01 +3.02103221e-01 +3.54409873e-01 -2.33601272e-01 +5.56560636e-01 +6.16155192e-02 +9.21552256e-02 +1.28106564e-01 +7.78581381e-01 +4.20490861e-01 +2.42928416e-01 +1.04691625e+00 +2.21729234e-01 +3.27501684e-01 -7.49046266e-01 -1.66142955e-01 -4.56724524e-01 +1.69796795e-02 +1.01837516e-01 -4.87726063e-01 -2.08026469e-01 -1.92373425e-01 +7.76533306e-01 -3.28309953e-01 +7.61893332e-01 +3.35058838e-01 -5.94337761e-01 -1.50798991e-01 -2.79158592e-01 +5.68484934e-03 +6.53817296e-01 +2.62513816e-01 +4.95293856e-01 -6.22821331e-01 +6.44644141e-01 -2.09648922e-01 +2.30661765e-01 +9.58276153e-01 -3.04928750e-01 +4.55488637e-02 -5.29760242e-01 -4.13382463e-02 -3.06001380e-02 -5.52412152e-01 +6.16546333e-01 +9.96925756e-02 -3.47845286e-01 -5.56266606e-01 -6.09869838e-01 +4.84781682e-01 +1.07996516e-01 +2.41094068e-01 -1.28124511e+00 -2.64093965e-01 -3.58251095e-01 +3.92821789e-01 +1.58916786e-01 -2.52041630e-02 -5.03297687e-01 -3.36238034e-02 -1.74593061e-01 +3.98540676e-01 +1.14424348e-01 -1.33894160e-01 -1.09432518e-01 +4.53607403e-02 -9.65612650e-01 -2.50080287e-01 +5.40891230e-01 -3.51169020e-01 -1.15028284e-01 -3.69485468e-01 +4.27309841e-01 +8.62471759e-01 +1.44494623e-01 +6.15418732e-01 -4.98557776e-01 -3.49195272e-01 -8.20055485e-01 +1.80982217e-01 +2.91289806e-01 -3.57222229e-01 -1.40820406e-02 +2.58472860e-01 -4.67524469e-01 +8.38437080e-02 -1.24237694e-01 +1.52704958e-02 -4.77211207e-01 +1.70125797e-01 -3.64989430e-01 +4.74204242e-01 +3.88282239e-01 -6.30971491e-02 +2.00908646e-01 +9.49370936e-02 -1.97835520e-01 -3.27260315e-01 -8.00675154e-01 +7.44494140e-01 -2.24148445e-02 +1.80992216e-01 -1.40930474e-01 -9.18325603e-01 +9.26203355e-02 -2.68934846e-01 -1.25403628e-01 -1.46144703e-01 -3.29852998e-01 +3.80929291e-01 +3.42885822e-01 +4.71482068e-01 +4.74877685e-01 -6.32912517e-01 +6.74567595e-02 +1.92083448e-01 +1.75747037e-01 +7.09111094e-01 -7.18170822e-01 +2.56713033e-02 +4.60638434e-01 -8.45568717e-01 -6.37509763e-01 -2.81054586e-01 +1.09130251e+00 -4.45531964e-01 +4.35085803e-01 +1.22188725e-01 +2.19664469e-01 -6.06313273e-02 -3.23796093e-01 -4.71243709e-01 +6.52433813e-01 -3.12580466e-01 +3.58874589e-01 +4.73235130e-01 +2.08394468e-01 -1.74064294e-01 -7.69160628e-01 -7.46331513e-02 +1.18916023e+00 +3.57859321e-02 -4.10682112e-01 -1.41955614e-01 +1.08955204e-01 +4.70389605e-01 -1.00824766e-01 -2.79723674e-01 +1.53230894e+00 +3.49325061e-01 -5.07816851e-01 +1.05212927e+00 +3.08868855e-01 +6.67517543e-01 -5.41575432e-01 -6.16233200e-02 +1.73906580e-01 +8.89262706e-02 +1.36703119e-01 -4.28768903e-01 +2.93717504e-01 -9.30255592e-01 -3.71693343e-01 +8.11969519e-01 +6.43323362e-01 -9.00647163e-01 +1.80848073e-02 -8.17121416e-02 -3.73860061e-01 -6.22090638e-01 +4.66990501e-01 +7.41010904e-02 -1.07761823e-01 +1.24937937e-01 +1.14801741e+00 -1.19321354e-01 -4.82450217e-01 +4.00739402e-01 +3.04283023e-01 -3.48838359e-01 +7.13604510e-01 -6.45067215e-01 -1.70677766e-01 -2.26502880e-01 +5.78071833e-01 -1.31811976e-01 +1.05692081e-01 +1.21506929e-01 -2.79631853e-01 -3.81417483e-01 +1.32257462e-01 +9.94306266e-01 +1.56979039e-01 +5.27648568e-01 -1.73333749e-01 -4.61690158e-01 -5.01436532e-01 +6.20505884e-02 +2.66466707e-01 -1.86789125e-01 -7.88278580e-01 +8.05455744e-01 -9.57232654e-01 -2.65498251e-01 -4.27519679e-01 -1.06888676e+00 +5.73744297e-01 -1.37076929e-01 -4.68627155e-01 +7.41624475e-01 -1.04762487e-01 +4.75091815e-01 +6.51881754e-01 -4.46553171e-01 -1.93293244e-01 -9.72353593e-02 -1.70428622e+00 -1.19646406e+00 -3.43131125e-01 -1.18875849e+00 +4.22757655e-01 -1.04828918e+00 -1.55386984e-01 +1.65219471e-01 +5.07205762e-02 -4.31720056e-02 +8.98850039e-02 -2.27180701e-02 -1.00247681e+00 +3.68973054e-02 -5.86000860e-01 -8.10260177e-01 -8.25518102e-04 +3.07628095e-01 -4.65156704e-01 -3.03385317e-01 -6.43721879e-01 +1.11566365e-01 +1.15067609e-01 -1.83367491e-01 -1.32064497e+00 +6.66700602e-01 +5.93741611e-02 +5.74234910e-02 -1.32042125e-01 +4.85856622e-01 +8.75923276e-01 +1.06236851e+00 -6.10403717e-01 -1.66882321e-01 +1.21806353e-01 -7.34593794e-02 +5.82642972e-01 -4.89048064e-02 -2.82033384e-01 +8.56204629e-02 +3.09021950e-01 -6.09802067e-01 +6.17309928e-01 +4.24788177e-01 -4.14738566e-01 +3.09386909e-01 +5.64759254e-01 -1.35673273e+00 -2.71013170e-01 -6.70217633e-01 -9.39213783e-02 -6.46936893e-02 +2.97852069e-01 -2.68391550e-01 +2.19455466e-01 +6.55643523e-01 -4.62025821e-01 -2.74838030e-01 -1.02535331e+00 +1.70841202e-01 -3.25293750e-01 +3.03893745e-01 -8.16301107e-01 -4.15001810e-01 -9.96941984e-01 -5.89814901e-01 -8.14726830e-01 -8.36904764e-01 -1.74067771e+00 +1.31478083e+00 -4.09676850e-01 -9.88532662e-01 -8.16087544e-01 -1.91971436e-01 -1.55952424e-01 +5.25267959e-01 +4.96674031e-02 -1.17154133e+00 -8.07642043e-02 +1.97992519e-01 +2.85670429e-01 -2.98700303e-01 -4.02179539e-01 +5.49415290e-01 -4.55461353e-01 -2.95578778e-01 -6.55670226e-01 +4.54960763e-01 +6.19369507e-01 -5.62396169e-01 -3.66321445e-01 +1.94399670e-01 -3.24316889e-01 +1.87965244e-01 -6.09964430e-01 +2.21271798e-01 +5.69881618e-01 -2.51114756e-01 -1.80267856e-01 -6.58871830e-01 +6.32465899e-01 -3.13022509e-02 -5.64045668e-01 +2.26533458e-01 -4.20407385e-01 -1.24281690e-01 -1.61771178e-01 +1.03944492e+00 +1.15772925e-01 +1.96913138e-01 +6.48406625e-01 -1.20087779e+00 -6.36438787e-01 +7.28470206e-01 -4.96552318e-01 -5.98530948e-01 -4.65055138e-01 +2.18419537e-01 +8.36075768e-02 -7.95110703e-01 +9.91438568e-01 -1.11572362e-01 -6.04134321e-01 +9.51287448e-02 -3.94166052e-01 -2.29402408e-01 -8.06319863e-02 +4.14546967e-01 +2.21788064e-01 +2.45872393e-01 +4.05370057e-01 +5.18030405e-01 +1.11815281e-01 -4.92697716e-01 -2.83437312e-01 -8.53093743e-01 +2.05615103e-01 -2.59642363e-01 -3.50349903e-01 +4.80145589e-02 -5.00987828e-01 +1.33040681e-01 -9.59895015e-01 +3.82382065e-01 +4.78885680e-01 +3.03592235e-01 +2.47235909e-01 +2.88019091e-01 -5.47669232e-01 +3.66083644e-02 -8.26912522e-01 +8.88720214e-01 +5.17031908e-01 -1.62113816e-01 +5.71872890e-01 -1.22104943e+00 +5.59566438e-01 -5.62696576e-01 +2.71873027e-01 +2.52830654e-01 +6.21929824e-01 +1.58780798e-01 -1.07921697e-01 +4.42973703e-01 -2.99439821e-02 -2.09620774e-01 -4.44632232e-01 +3.54543179e-01 +4.04894829e-01 +6.28921986e-02 +2.89110336e-02 -2.76363268e-02 -1.13349545e+00 +9.19973627e-02 +3.69937643e-02 -1.74860895e-01 +9.57925320e-01 +8.39820877e-02 -2.58789718e-01 -4.71647352e-01 +1.24790061e+00 -3.59142921e-03 -2.94329643e-01 -4.87298936e-01 +6.64586484e-01 -5.81673086e-01 +1.37396300e+00 -1.49043277e-01 -1.16751301e+00 +4.53116447e-01 +3.59965004e-02 -6.19140208e-01 +2.00517714e-01 +2.77290583e-01 +4.23851371e-01 +5.87320328e-01 +9.02329028e-01 +1.71007905e-02 -6.30957007e-01 +2.61614531e-01 -3.60775054e-01 -1.48221982e+00 -2.11829782e-01 -4.80370641e-01 +1.29803813e+00 -1.82876706e-01 +1.90523461e-01 +1.27579466e-01 +5.90018809e-01 +4.67863455e-02 -1.43595919e-01 -1.55391060e-02 +4.72410321e-01 -8.27992056e-03 -3.41724366e-01 -4.13939685e-01 -3.80499035e-01 +2.73490343e-02 -2.25647762e-01 +6.33382797e-01 +2.61612505e-01 +1.12210542e-01 +1.75849393e-01 +4.80353385e-01 +5.66870391e-01 -3.41605693e-01 +2.49135762e-01 -2.26948351e-01 -5.74387968e-01 +1.57755479e-01 +7.43014157e-01 +2.37699702e-01 +3.14913660e-01 +1.01626113e-01 -2.70680070e-01 +2.83407032e-01 -8.15589428e-01 -7.46689513e-02 -7.54897892e-01 -7.31511265e-02 +1.90496206e-01 -3.50522935e-01 +1.44123614e+00 +3.57444704e-01 -3.38771909e-01 +7.83173859e-01 +1.37177765e-01 +1.83576092e-01 +6.19427264e-01 +1.20437717e+00 +5.09790927e-02 +4.69725765e-02 -4.05584455e-01 +1.12587258e-01 +2.21097499e-01 +4.95805174e-01 +9.40017223e-01 +5.71575940e-01 +4.27771926e-01 +8.54345739e-01 +2.80562222e-01 +2.33503710e-02 -4.22396839e-01 -2.57414222e-01 +8.84077072e-01 +3.61608267e-02 +2.01789752e-01 -1.26718819e-01 -3.24590147e-01 -7.66647458e-01 +4.85108286e-01 +5.15314221e-01 -4.77455884e-01 -2.76849121e-01 +1.43317819e-01 +1.42197102e-01 -1.35005698e-01 +1.99680567e-01 +2.55289823e-01 +6.90515190e-02 +1.01528630e-01 +1.75970241e-01 -2.87106752e-01 -6.77630156e-02 +5.74561954e-01 +5.73140919e-01 +6.02500290e-02 +2.98193395e-01 +7.56448090e-01 -7.71377385e-01 +6.46794448e-03 +4.61706728e-01 -8.22247446e-01 -5.20189822e-01 +4.75395292e-01 +2.29636863e-01 -2.73754418e-01 -3.02505612e-01 +1.58332109e-01 +9.83863696e-02 +5.02734065e-01 -1.95411235e-01 -3.45706999e-01 +5.58704555e-01 -1.16974553e-02 +9.89072442e-01 +4.55667049e-01 +1.14154422e+00 +2.39833847e-01 +5.73882163e-01 -4.45753969e-02 -3.32528166e-02 -8.46030861e-02 +6.36930883e-01 +5.53113580e-01 -3.14516813e-01 +1.01350749e+00 +6.93274379e-01 +1.01151812e+00 -3.52915406e-01 +2.63593972e-01 +1.27820566e-01 +5.97022891e-01 -3.09308637e-02 +1.63029063e+00 -6.02243960e-01 +1.01880658e+00 +4.18216646e-01 -6.12194352e-02 -4.56270754e-01 +4.82133538e-01 +8.68697345e-01 +1.96302205e-01 -1.51634157e-01 +1.21961963e+00 -2.86635995e-01 -1.98546857e-01 +9.92700979e-02 +3.95898558e-02 -2.14178115e-01 +3.71391661e-02 +4.66788083e-01 +5.53173304e-01 -2.91198194e-01 -6.87740862e-01 +1.03624892e+00 +3.22376281e-01 -1.53877437e-01 -8.88383865e-01 -3.60641837e-01 -3.09112668e-01 -1.01441264e-01 -7.50411451e-01 -1.66796982e-01 +2.12362140e-01 +1.30257750e+00 -2.82940455e-02 -4.29212265e-02 +2.89481461e-01 +2.13992536e-01 +5.72203040e-01 -1.00718111e-01 -2.47946605e-01 -1.98043481e-01 +4.35762927e-02 -6.00287080e-01 +7.81213880e-01 +1.00081253e+00 +5.82940459e-01 -7.09761828e-02 +6.52283072e-01 +5.30668318e-01 -1.29411250e-01 +8.26907277e-01 +7.14529276e-01 +3.56124967e-01 +1.25213134e+00 -1.05457783e-01 +7.24607766e-01 +1.49769858e-01 -3.65323693e-01 +3.79306912e-01 -2.11651251e-01 -3.06495488e-01 +8.94846082e-01 +1.08771384e+00 +2.88957916e-02 +1.11531138e+00 +6.57390416e-01 +3.86751175e-01 +6.54559016e-01 +6.78598225e-01 -8.50777209e-01 +1.45042181e-01 +5.40011823e-01 -1.36138558e-01 +3.11505292e-02 +1.90051407e-01 +1.50021398e+00 +6.34302795e-01 +1.16475031e-01 +1.60821483e-01 +1.96657002e-01 +3.48044038e-01 -5.99189755e-03 +7.81752467e-01 +5.06809175e-01 +1.03383116e-01 +3.65243465e-01 -2.08965391e-01 -4.68051016e-01 +7.46817112e-01 +4.25485134e-01 +4.71913874e-01 -5.65179646e-01 -4.12754327e-01 +8.31484973e-01 -3.70472282e-01 +5.31350732e-01 +8.79957795e-01 -1.28078401e-01 -1.10959217e-01 -3.08731288e-01 +5.36146283e-01 -4.78542030e-01 +7.04214513e-01 +1.45465583e-01 +1.44127592e-01 +1.12912104e-01 -3.47764999e-01 +3.60975653e-01 +2.14352202e+00 +2.97245026e-01 +1.07537067e+00 -8.74709338e-02 +2.43223116e-01 -5.66559911e-01 +4.81245071e-02 +5.10006368e-01 -1.29122961e+00 -7.24594891e-01 +1.02279268e-01 +1.76005137e+00 +4.88451540e-01 +1.39489308e-01 +6.19502246e-01 +1.29871145e-01 +1.81903645e-01 +1.25337708e+00 +3.13717186e-01 +2.68124659e-02 +2.58707118e+00 +4.97456253e-01 -6.75439715e-01 -4.57049608e-01 +1.77019179e+00 -8.07021279e-03 +1.41661286e+00 +4.46992815e-01 -3.03563714e-01 -4.11499321e-01 +1.38025377e-02 +5.28654397e-01 +2.83757240e-01 -2.23859742e-01 +6.29537180e-02 +2.72528559e-01 +5.24288654e-01 +4.84043211e-02 +2.69400299e-01 +1.76080212e-01 -9.02760625e-01 -3.42557341e-01 -2.99205124e-01 +4.30732429e-01 +2.38420628e-02 -8.83799732e-01 -3.39641660e-01 +4.81784880e-01 -1.19429186e-01 -4.80778873e-01 -1.15587819e+00 -1.05290003e-01 -3.75971764e-01 +1.82053540e-03 +8.61989707e-02 -4.03200313e-02 -1.15989029e-01 +1.71225354e-01 -2.37636998e-01 +2.80920416e-01 -7.39463627e-01 -2.76258439e-01 -5.07298708e-01 +6.81471080e-02 +1.02921295e+00 +2.78951883e-01 -3.75347763e-01 +1.12397623e+00 -2.71972805e-01 +1.61011040e-01 +1.16182494e+00 -4.35054004e-01 +1.41799554e-01 +6.42201483e-01 -5.62258482e-01 +9.83248174e-01 +4.08921301e-01 -1.51640013e-01 +1.63562536e-01 +3.44998837e-01 -8.73519719e-01 +8.18295419e-01 +3.05307329e-01 +8.98363233e-01 +3.42926085e-01 +9.85763311e-01 +1.60122007e-01 -2.87678659e-01 -6.10887945e-01 +5.06180704e-01 +4.40906972e-01 -8.45697243e-03 +2.90353179e-01 -9.96673822e-01 +4.88679647e-01 -6.59781396e-01 -1.42727286e-01 -1.44396693e-01 -3.73547047e-01 +5.66259086e-01 -1.58977151e-01 -2.16555029e-01 -1.05984360e-01 +1.04155672e+00 +2.09879708e-02 +4.61261421e-01 -1.93902838e+00 -1.38335481e-01 -3.99998456e-01 -1.42174676e-01 +3.66388530e-01 +3.77912074e-01 -9.14469719e-01 +1.22041941e+00 +3.34460050e-01 -4.91387218e-01 -3.06046400e-02 +8.64437819e-02 -6.51285350e-01 -3.87557715e-01 +1.19565725e+00 -2.60912150e-01 +2.92963535e-01 +4.28098291e-02 -3.09301168e-01 -3.54346871e-01 -2.92747915e-01 -9.88519907e-01 +1.40790021e+00 -1.83143139e-01 +9.83355522e-01 +1.08284450e+00 +1.36084700e+00 -1.93964131e-02 +1.53924644e-01 +3.22134234e-02 +5.48897982e-02 -4.74745557e-02 +1.03206670e+00 +3.43203515e-01 +1.60083890e-01 -9.12735388e-02 +7.24360496e-02 +2.73502171e-01 +1.76043898e-01 +5.00248313e-01 -2.44565219e-01 -5.14038026e-01 -2.55302601e-02 +1.66717052e-01 -6.89557612e-01 +3.72116685e-01 +2.43443474e-01 +2.04062507e-01 +1.29681110e-01 -4.51886505e-02 -1.89914882e-01 -5.50240755e-01 +3.22780669e-01 +7.16554523e-02 -1.66553587e-01 -4.57649261e-01 +8.10444541e-03 +4.05976176e-01 -3.23961884e-01 +4.86367941e-02 +8.38315189e-01 -8.80923646e-04 -7.45908082e-01 -2.55973697e-01 +7.31297612e-01 +3.67708087e-01 -7.17868268e-01 -2.80609965e-01 -5.05133629e-01 +1.95821553e-01 -3.25066417e-01 +2.62865305e-01 +2.30235741e-01 -5.13080120e-01 -5.38143337e-01 -4.64445129e-02 +1.36862710e-01 -5.44557154e-01 -1.19766124e-01 +1.72748700e-01 -7.94371426e-01 -4.22324300e-01 -2.30246246e-01 +2.06357569e-01 -6.01895392e-01 +4.96629357e-01 +1.82792544e-01 -2.95294881e-01 +1.11060388e-01 -1.45972621e+00 -1.12127852e+00 -8.21959615e-01 -2.60000408e-01 -3.01275790e-01 +2.26443753e-01 +7.90185332e-02 +1.24571943e+00 -6.41519055e-02 -1.07588015e-01 -1.23650920e+00 +2.69934200e-02 -1.44791588e-01 +1.99754775e-01 -6.06027544e-01 +2.69453585e-01 -7.91346729e-01 -7.84757257e-01 +5.70427418e-01 -1.02797484e+00 +2.61165917e-01 +4.37432051e-01 -9.07999933e-01 -4.32704836e-01 -5.93864739e-01 -1.06921799e-01 +1.08552620e-01 +2.31395975e-01 -8.41649249e-02 +3.48053575e-01 -8.05507421e-01 +5.06215394e-01 +5.36363184e-01 +2.48033613e-01 -7.04924166e-01 +1.05963206e+00 -3.39094311e-01 -1.32422224e-01 +5.54878294e-01 +6.38887346e-01 +4.33632761e-01 -8.57466459e-01 +6.32623732e-02 -3.64218891e-01 -4.08430696e-01 -8.58144835e-02 -1.50908336e-01 +3.08675110e-01 +7.90194929e-01 -8.61956298e-01 -2.83437580e-01 +1.51418643e-02 -5.65534174e-01 +6.06412232e-01 +1.41688108e-01 -3.39366078e-01 -3.21337521e-01 +7.83098638e-02 -4.87385243e-01 -1.90676033e-01 +6.88775182e-01 -1.43669069e-01 +1.10368347e+00 +4.89880830e-01 -2.15798959e-01 -3.34087849e-01 +5.49957156e-01 -5.69798797e-02 -2.27959737e-01 +2.34228432e-01 +7.47483552e-01 -7.14444160e-01 +1.10135627e+00 -1.31214112e-01 -8.04520488e-01 -1.07146531e-01 -5.95887601e-01 +2.30406299e-01 +5.92484653e-01 +4.40562576e-01 +8.16346705e-01 +6.40741110e-01 -4.55158263e-01 +2.28898406e-01 -7.11894184e-02 +1.13371408e+00 -2.48824760e-01 -1.14181745e+00 +4.79452372e-01 -5.47123849e-01 +4.90533769e-01 -7.54425347e-01 -3.79227370e-01 +1.77412212e-01 +5.22092342e-01 -1.01513363e-01 +2.33849958e-01 +1.12259284e-01 -2.15507224e-01 -7.68557072e-01 -4.05023366e-01 +4.14050967e-01 -7.28949547e-01 +5.23717284e-01 -4.62947398e-01 +2.70874619e-01 -2.55672246e-01 +2.38845274e-01 +5.08278251e-01 -8.97864625e-02 +2.24272013e-01 +1.02096595e-01 +3.84584308e-01 -3.54616754e-02 -2.03815833e-01 -8.38488400e-01 +5.32470822e-01 +3.91188502e-01 -5.89907058e-02 +2.07888454e-01 -4.24143851e-01 +8.07411492e-01 -3.24043632e-01 -1.44442350e-01 -5.47058880e-01 -1.19322193e+00 -4.64868456e-01 -2.60913163e-01 -1.29502749e+00 -1.46288240e+00 +8.22513644e-03 -1.90317109e-01 +4.61233437e-01 -3.40689300e-03 -6.27222419e-01 +6.17853224e-01 -1.22855738e-01 +1.86707094e-01 +6.48610115e-01 -5.63690364e-01 -4.94513482e-01 -4.39731836e-01 -1.19488025e+00 -7.25524962e-01 +5.88515624e-02 -2.83668607e-01 -6.28065392e-02 +5.11595786e-01 -7.34851480e-01 +8.69487971e-02 +1.47193223e-01 -4.46423367e-02 -3.36590363e-03 -9.18314159e-02 -1.09942958e-01 -9.73593056e-01 -2.69585580e-01 -1.13279149e-01 -4.18267757e-01 +4.28973958e-02 +1.78969666e-01 +2.40291089e-01 +3.44211131e-01 -7.03580901e-02 -7.86950350e-01 -1.06325400e+00 -2.58543968e-01 +3.78117561e-01 +3.03033561e-01 -2.75303602e-01 -8.33079696e-01 -1.72099903e-01 -4.27740872e-01 -3.26573133e-01 -1.22547781e+00 +6.57931447e-01 +1.47792056e-01 -3.34960893e-02 -3.09932735e-02 +1.05620873e+00 +8.31440017e-02 +1.26154900e-01 +3.41190100e-01 -1.61860347e-01 +6.92473710e-01 -3.06577802e-01 -6.46979034e-01 +3.51427376e-01 -4.40076962e-02 -8.06528986e-01 +5.37833273e-01 -3.69781196e-01 -2.85870492e-01 -1.29951388e-01 -4.32926118e-01 +3.42170089e-01 +2.76037246e-01 +6.59340061e-03 -6.86237097e-01 -4.18207854e-01 -8.82667005e-01 -2.90638328e-01 -1.66769636e+00 -4.47273284e-01 -6.31904125e-01 -7.92439878e-01 -8.87226522e-01 +1.21442109e-01 -2.83209026e-01 +4.41832632e-01 -1.41268778e+00 +4.46394980e-01 -8.99207175e-01 +5.16791046e-01 +1.29157019e+00 +2.13011831e-01 +4.75439012e-01 -1.14121819e+00 -9.61591244e-01 -2.38157198e-01 -1.53114569e+00 +3.31873268e-01 +3.92703801e-01 +8.07682931e-01 -3.36221069e-01 +2.73979187e-01 -2.57524788e-01 -3.90424401e-01 -1.50178158e+00 +2.31764659e-01 -5.69867909e-01 -4.79663685e-02 -3.64706546e-01 +1.69560716e-01 +6.48015559e-01 +1.00012493e+00 +1.09904200e-01 +6.01150274e-01 +1.17466927e-01 -3.92976701e-01 -5.95583856e-01 -1.49332061e-01 +2.69997239e-01 -5.09314299e-01 -5.30897617e-01 +3.00653011e-01 +9.09844786e-02 +1.83118939e-01 +1.58012688e-01 +2.86581516e-01 -3.55177999e-01 +3.22173864e-01 -2.71117389e-01 -9.57496911e-02 +9.75674093e-02 +1.55054256e-01 +8.44919324e-01 +3.21912020e-01 -3.48341912e-01 +4.69213724e-01 +6.96095526e-02 +6.53509498e-01 +3.27877313e-01 -7.01560304e-02 +8.49204659e-01 +2.88694292e-01 +1.12689696e-02 +3.65701884e-01 +4.15470839e-01 +4.19201493e-01 +5.19231737e-01 +4.73097056e-01 +4.28238094e-01 -2.34271795e-01 +9.15644094e-02 +7.76482761e-01 -7.93376192e-02 +4.15630173e-03 +8.58770460e-02 -2.67634243e-01 +8.93093571e-02 +2.28734329e-01 +6.38798773e-01 +7.36404359e-01 +5.84427595e-01 +3.04634124e-01 -1.87847704e-01 +3.06595981e-01 -2.06801981e-01 +3.22255120e-02 +4.20539737e-01 -1.24494560e-01 -9.90176573e-02 -7.91163594e-02 +9.97298583e-02 -8.34375381e-01 -5.03373325e-01 +5.95548376e-02 +2.43177220e-01 +2.21813977e-01 +1.39605209e-01 -1.47193387e-01 +5.10594964e-01 -4.96791214e-01 -6.05819285e-01 +7.60786057e-01 -3.74970764e-01 -3.07127774e-01 +4.89083290e-01 +9.55221295e-01 +5.49050942e-02 +3.16790164e-01 -8.66745338e-02 -3.25456053e-01 +7.52829731e-01 -1.36255071e-01 -3.63599032e-01 +3.49761426e-01 +4.67462450e-01 +4.72567052e-01 +7.82887340e-01 +9.15380657e-01 +4.34324861e-01 +3.73812824e-01 -1.54275134e-01 -4.35039066e-02 +2.13774234e-01 +5.43886364e-01 +2.17954502e-01 +1.02386601e-01 +5.23750126e-01 +2.43933097e-01 +4.06771481e-01 +3.45591009e-01 +3.64930391e-01 +2.17137560e-01 -3.71711180e-02 +4.17654485e-01 +2.07253411e-01 +5.65765202e-01 +3.02734077e-01 +8.32023844e-02 +7.66433477e-01 -8.49106610e-01 +1.61180437e-01 -7.96206892e-02 +3.54419440e-01 +2.33028352e-01 +1.25402629e-01 +1.61091194e-01 +1.29610881e-01 -9.45960820e-01 -3.33801538e-01 +2.36651123e-01 -7.91800246e-02 -9.28403437e-02 +9.66468990e-01 -5.09307861e-01 -2.11665523e-03 +1.73509270e-01 +5.26916444e-01 +1.63287103e-01 -4.80671018e-01 -8.31715524e-01 +4.36966531e-02 -4.80389476e-01 -9.21865851e-02 +8.17579702e-02 -2.35203594e-01 +2.16442943e-01 -1.46886647e-01 -9.99423638e-02 +4.56730634e-01 -2.54470170e-01 +3.10160726e-01 +4.15905476e-01 -1.04862058e+00 +8.27131793e-03 +4.62937206e-02 -6.04244694e-02 +9.10524130e-02 +5.37112057e-01 -1.04690067e-01 -4.92801905e-01 +5.23953438e-01 +1.70445949e-01 +1.87030911e-01 -4.08493668e-01 -1.13274403e-01 +1.24466360e+00 -1.11799046e-01 -5.27338743e-01 +7.34150708e-01 -1.16062434e-02 -2.37257823e-01 -8.39572132e-01 +8.75346586e-02 +3.73341292e-01 +5.73206961e-01 -1.63991198e-01 +1.23832750e+00 +1.61927402e+00 -6.64430261e-01 -2.78005064e-01 +2.38979310e-01 -1.70412678e-02 -6.06629193e-01 +1.00940394e+00 -4.76890057e-02 -4.02594149e-01 -1.07195807e+00 -1.08768666e+00 +3.68688047e-01 +1.28866780e+00 -5.52369595e-01 -2.93555260e-01 -4.41081583e-01 -5.06605268e-01 +2.57922113e-01 -4.03701842e-01 -4.99065965e-01 -1.03309751e+00 +3.23524177e-01 +5.02011657e-01 -9.51584894e-03 +2.08549067e-01 +1.03067562e-01 +6.80365980e-01 +1.18780099e-01 -7.71104872e-01 +1.71201292e-03 -9.62418973e-01 +1.77462137e+00 +9.71431732e-01 -6.83240175e-01 +9.29085314e-02 -5.62357724e-01 +6.44811243e-02 -8.69111568e-02 -1.32785559e-01 -8.56410503e-01 -5.96810132e-02 -1.17980468e+00 -9.83058751e-01 +5.88789463e-01 +7.97865748e-01 -4.15793628e-01 -2.73306131e-01 +6.46306649e-02 +6.34313345e-01 -4.37258840e-01 +7.25574568e-02 +1.84615761e-01 +1.44840360e-01 -1.97849125e-01 +7.80471027e-01 +7.15960205e-01 -5.26898205e-01 -3.49176049e-01 -3.18105109e-02 -3.63509834e-01 +2.10231975e-01 +5.99609762e-02 +3.55634898e-01 +4.87729818e-01 +3.39034170e-01 +4.07953084e-01 +6.14680767e-01 -3.84437442e-01 -2.03741062e-03 +2.39896208e-01 +2.30729604e+00 -2.28579924e-01 -3.57466519e-01 -1.25377452e+00 +1.23013794e-01 -2.34958649e-01 +1.17385459e+00 +2.55510509e-01 +3.94036084e-01 -9.99106541e-02 +1.28504321e-01 -4.65387493e-01 +9.69725773e-02 +3.18798780e-01 -7.45969176e-01 -1.89873531e-01 +4.91405159e-01 +8.92133057e-01 -1.28811395e+00 +1.63656041e-01 -3.26010615e-01 -1.64294943e-01 -1.08940586e-01 -8.45045924e-01 +1.84115243e+00 +1.50115430e+00 +3.22706223e-01 +5.68799257e-01 -2.37536564e-01 +5.08407950e-02 -7.16908276e-01 +2.32458815e-01 -4.60976154e-01 -2.95836568e-01 +1.94006607e-01 -2.85028964e-01 +2.10622048e+00 -5.02787828e-01 +1.70825338e+00 -7.24494457e-01 +2.91374683e-01 -2.17579260e-01 -5.65248489e-01 +7.91066214e-02 +5.02150431e-02 -2.17683792e-01 -6.27845585e-01 +7.29693234e-01 +3.53574753e-01 +9.37262550e-02 +2.89831072e-01 -2.32907217e-02 +6.56421185e-02 -3.91011029e-01 +2.90948808e-01 -2.02145904e-01 -5.31198680e-01 -2.49932632e-01 +2.31082901e-01 +4.35183436e-01 +3.06505144e-01 -1.12940133e+00 -4.12271291e-01 +3.40230882e-01 +4.65439618e-01 -6.52978003e-01 +1.88585609e-01 +3.06787550e-01 -6.55893564e-01 -4.56714481e-02 -8.80660117e-01 +5.78767538e-01 +3.35411996e-01 -4.45453733e-01 -1.80557877e-01 +3.53026807e-01 +3.19264263e-01 -6.22498155e-01 -5.71001768e-01 -2.27043867e-01 -2.11616769e-01 +8.37276131e-02 -1.50224254e-01 +3.18358898e-01 -2.02699676e-01 -8.51328894e-02 +8.01222101e-02 +5.17537475e-01 -1.89124271e-01 -2.26393506e-01 -6.46896064e-01 +3.06855649e-01 +3.47287238e-01 -3.33243102e-01 -8.49489570e-01 +3.27772439e-01 -1.07018006e+00 -6.15344346e-01 +4.87572700e-02 +4.05465245e-01 -1.09498799e-01 -4.05363679e-01 -4.22473490e-01 +1.82182387e-01 -2.76311976e-03 +9.53432545e-02 +2.16829151e-01 +7.53606498e-01 -1.86386973e-01 +4.39575046e-01 -9.97340143e-01 +1.11937535e+00 -7.40754902e-02 +7.10179806e-01 -1.56760857e-01 +9.27167594e-01 +6.58888221e-01 +1.04496217e+00 +2.08835319e-01 -3.03428948e-01 -3.63734692e-01 -1.27764761e-01 -2.01030627e-01 +8.05520773e-01 -2.40749598e-01 -7.82956481e-02 -1.18324053e+00 -2.27570772e-01 +2.48670369e-01 +4.79744583e-01 +9.16496813e-01 +1.82501704e-01 +2.32803762e-01 +2.70206571e-01 -1.20023239e+00 -6.57944530e-02 +1.36205340e-02 +1.06906779e-01 -5.05821943e-01 -8.47573876e-02 -7.83901215e-02 -1.98545277e-01 +4.44000602e-01 -7.47759938e-02 +2.89465915e-02 +2.50919461e-01 -4.21978980e-01 +3.86651039e-01 +2.15067297e-01 -2.73551811e-02 +2.38753960e-01 -1.72433816e-02 -5.88466823e-01 +5.17299175e-02 -3.91159803e-01 +4.02981550e-01 -7.47276664e-01 -4.27858710e-01 +1.02708435e+00 -1.73079744e-01 +3.58299464e-01 +3.54453996e-02 -3.57122391e-01 +1.94784835e-01 -2.44405940e-01 +1.23213015e-01 +6.74155205e-02 -3.72354746e-01 +1.74914911e-01 -5.84092259e-01 -5.95540941e-01 +7.97207236e-01 -9.54861343e-01 +1.07625023e-01 -4.32141066e-01 +2.81704724e-01 +1.43522894e+00 +5.34327030e-01 -1.02709636e-01 +5.02926946e-01 -7.52350390e-02 -5.37878811e-01 +6.42806768e-01 -1.50471628e-01 -6.06479459e-02 -1.45684287e-01 -1.25738725e-01 +1.03477269e-01 +3.99438351e-01 +1.21467121e-01 +4.83940780e-01 +5.81702948e-01 -9.91491824e-02 +5.55431187e-01 -1.26312351e+00 +4.55381423e-01 -7.14805573e-02 +3.79539095e-02 -3.17025125e-01 +4.54626888e-01 +3.76322180e-01 -3.36230844e-01 -8.66143644e-01 +1.29258400e-02 +1.02887332e+00 +1.33384734e-01 +5.54726832e-02 -8.34507227e-01 +7.22297907e-01 +5.57630002e-01 +5.48866510e-01 +4.79291260e-01 -1.68427110e-01 -5.29747128e-01 +5.61657429e-01 -6.65564910e-02 +4.75508362e-01 -5.03940761e-01 -3.78656805e-01 +4.40412521e-01 +1.69466779e-01 -4.25324112e-01 -7.84601092e-01 +6.75379783e-02 -4.63349491e-01 -5.10207474e-01 +9.72521245e-01 +1.64407402e-01 +5.02637684e-01 +1.30111307e-01 -7.08777905e-01 -7.89958015e-02 +8.61524045e-02 -7.15436935e-01 +2.63469011e-01 +2.90777702e-02 -7.58284450e-01 +4.41361874e-01 +2.48958003e-02 +8.54248479e-02 -1.93956450e-01 -4.03659016e-01 +1.40337276e+00 +2.47776024e-02 +3.95401090e-01 -1.04051828e+00 -2.07157359e-01 +2.60158718e-01 -8.21872503e-02 -8.24839354e-01 +3.57804179e-01 -6.34284377e-01 +6.31949723e-01 -4.60082829e-01 +7.57838547e-01 -5.70739567e-01 +4.21911418e-01 -3.12560230e-01 +6.47974014e-01 -3.19501311e-01 +8.66080672e-02 -4.08569068e-01 +5.56094348e-01 +4.10497159e-01 -1.47318572e-01 +1.01775122e+00 +3.64543766e-01 -3.01960140e-01 -1.82205588e-01 -5.81778049e-01 +3.80679190e-01 +7.24569738e-01 +5.60677499e-02 +2.02270359e-01 -1.12848349e-01 -4.77989316e-01 +4.32787240e-01 -5.83373792e-02 -2.04631135e-01 +2.78383166e-01 -1.64340556e-01 -3.45573395e-01 +1.79683879e-01 -1.37022376e-01 -3.99390399e-01 -2.13590220e-01 -1.72664151e-02 -1.13404974e-01 +1.35201305e-01 -4.59935933e-01 -4.22722958e-02 -1.35176152e-01 +3.62931818e-01 -1.72920451e-01 -1.36907145e-01 +4.77202207e-01 +1.49954455e-02 -7.00517446e-02 -7.09849820e-02 -3.55962515e-01 +3.48399103e-01 -1.14941988e-02 -5.54503910e-02 +4.90349591e-01 -8.59958112e-01 -7.30555877e-03 +9.09271091e-02 +2.88388617e-02 -5.20791590e-01 +3.25147331e-01 -4.34616566e-01 +7.70634592e-01 -5.57615161e-01 -2.42536291e-01 +8.37700814e-02 -7.97908157e-02 -5.47624379e-02 +7.00731650e-02 -2.60097682e-01 -6.11074388e-01 +2.03945220e-01 -6.77091023e-03 +2.06585199e-01 -6.49027348e-01 +3.25581878e-01 +9.34042931e-01 +2.78936863e-01 +7.38025486e-01 -1.62288044e-02 -5.63953161e-01 -5.63849509e-01 +3.00275296e-01 +1.99357450e-01 -6.73933148e-01 +4.86579627e-01 -8.06584954e-02 -4.82661992e-01 +5.89629747e-02 +9.99361202e-02 +6.79306686e-01 +1.96905751e-02 +1.53048575e-01 +2.39404187e-01 +5.20935422e-03 +4.69749093e-01 -2.76866704e-01 +2.51124986e-02 +2.95854032e-01 +9.85390469e-02 +9.63419303e-02 +7.95330465e-01 -1.29737511e-01 +6.78134143e-01 -4.78538066e-01 +2.05796622e-02 -1.29960477e-01 -1.36544809e-01 +3.02767634e-01 +1.38022780e-01 -8.36714953e-02 -4.82734084e-01 -2.78297649e-03 +8.01615939e-02 +9.85087514e-01 -3.40440899e-01 -1.95634469e-01 +1.38629496e-01 -1.27649277e-01 -3.14429887e-02 -2.18336433e-01 +1.54433143e+00 +2.82225639e-01 +4.13043439e-01 -1.41480863e+00 -2.97725111e-01 +3.63500297e-01 -1.03629673e+00 -3.21680307e-01 -1.71971291e-01 +2.10903957e-01 -1.08899809e-01 -2.46306852e-01 -3.41463655e-01 -5.46818197e-01 -3.12446207e-02 -8.15967083e-01 +4.30706590e-01 +4.94590312e-01 +3.60919207e-01 +7.30113447e-01 -3.73231083e-01 -1.34360000e-01 -2.16273740e-01 +6.72121227e-01 +9.05378386e-02 +1.00627253e-02 -4.63137358e-01 -8.50349307e-01 -8.10429573e-01 +3.18153769e-01 -9.49385405e-01 -7.23684371e-01 +6.30669117e-01 +1.09071881e-01 +2.33262882e-01 +3.09272498e-01 -2.96186626e-01 -6.46804720e-02 +3.51828218e-01 -4.86822307e-01 -1.77549243e-01 -6.34088993e-01 -1.93145677e-01 -6.60973310e-01 -5.75428843e-01 -1.11175939e-01 +6.53528124e-02 -4.47632730e-01 -6.53304160e-01 +1.81390345e-01 -2.32071757e-01 -2.44258448e-01 -1.23166300e-01 -3.16302061e-01 -5.71457803e-01 -6.86135888e-01 -1.06235480e+00 +4.38695610e-01 -1.15373087e+00 +4.08175029e-02 +1.06829153e-02 -5.27495205e-01 -7.36234963e-01 -1.85873032e+00 +2.91344076e-01 +2.17074722e-01 +2.99714915e-02 +9.91552621e-02 +7.88133740e-01 -4.37292039e-01 -3.51479650e-01 -5.10673940e-01 +2.13528931e-01 -2.81576484e-01 -6.06958449e-01 -1.80140600e-01 +3.37828696e-01 +3.30539644e-01 -1.39566138e-01 -8.10323179e-01 +6.84097767e-01 -6.89961910e-01 -4.47937369e-01 -2.19820976e-01 -9.90623832e-01 -3.63762796e-01 -3.13529462e-01 +1.87565267e-01 +6.63412929e-01 -4.80192564e-02 +2.38507628e-01 +3.50714713e-01 -2.95350820e-01 -1.73462421e-01 +7.26825356e-01 +2.07642421e-01 +3.42167169e-01 +3.44719142e-01 -3.71980667e-01 -7.90817797e-01 +8.83785069e-01 -8.75673473e-01 -2.96062529e-01 -7.37861753e-01 -9.76447821e-01 +2.75595356e-02 +1.82877198e-01 -7.75796950e-01 -4.64095235e-01 +8.99965942e-01 -3.43584687e-01 +1.78241327e-01 -3.48147862e-02 -1.04240334e+00 -7.95449793e-01 +1.27657747e+00 -5.03447473e-01 +8.18745196e-01 -4.69641328e-01 +2.60662168e-01 +8.71379580e-03 +1.14156365e-01 +1.00342132e-01 -1.59201190e-01 +6.59224316e-02 -1.21328928e-01 -1.23165920e-01 -1.43972540e+00 +1.26459968e+00 -1.23789012e+00 -2.06787437e-01 -4.72140908e-02 -2.48800546e-01 +1.34560621e+00 -1.09911812e-02 +2.10862175e-01 -1.03757930e+00 +4.26288903e-01 +1.45306027e+00 -5.40237576e-02 +2.34289855e-01 +1.45262226e-01 -4.21218693e-01 -1.05618894e+00 -1.71106443e-01 -1.48472890e-01 -1.06354378e-01 +2.94554621e-01 +6.35264754e-01 +2.81360775e-01 +8.26279402e-01 +2.88149834e-01 +4.11601365e-02 +5.16441725e-02 -4.63050008e-01 +3.11850369e-01 +2.87565857e-01 -5.79192698e-01 +1.80484802e-01 -4.64864224e-01 -4.24328119e-01 -2.67865866e-01 -1.37940630e-01 -4.96413738e-01 +4.21836227e-01 +4.34685871e-03 +7.87621021e-01 -1.65332869e-01 +5.32065146e-02 -2.79557139e-01 +5.92537820e-01 +1.55556393e+00 -6.29121661e-01 -4.47954774e-01 +6.81923851e-02 -7.43939579e-01 +8.26406926e-02 -2.01720923e-01 -2.40186051e-01 -3.71967435e-01 -1.11562979e+00 -5.71951330e-01 +2.07599755e-02 -5.72002053e-01 -1.91245154e-02 +7.13993669e-01 -1.03245664e+00 -6.64860010e-01 -1.27647072e-02 +5.89594960e-01 -2.71312669e-02 +4.62637931e-01 -7.61739731e-01 -7.98874438e-01 -1.18084094e-02 -4.26373668e-02 -1.94455069e-02 +4.33059603e-01 -3.06487046e-02 +1.22254632e-01 +1.76312208e-01 -6.97895944e-01 +2.01712862e-01 +2.13587970e-01 +3.96445304e-01 +8.87682796e-01 +2.92317301e-01 -1.34823263e-01 -3.36748302e-01 +2.62542143e-02 +1.08699061e-01 +4.27773774e-01 +7.52173901e-01 +5.31471491e-01 -6.87727451e-01 -2.63163242e-02 +3.35649014e-01 -9.25164402e-01 +5.01209460e-02 -5.92655957e-01 -1.67870913e-02 +7.08971769e-02 +1.63343959e-02 -3.16724002e-01 +5.00142813e-01 +3.19281220e-01 +2.82797188e-01 -4.27259415e-01 -3.07563126e-01 +4.48286645e-02 +5.94021305e-02 +7.51574457e-01 +8.08872938e-01 -7.18932301e-02 -2.98468638e-02 +8.94822121e-01 -2.40643993e-02 +3.78215432e-01 -6.16473794e-01 +2.21376359e-01 +5.98221943e-02 +8.36594105e-01 +1.56961188e-01 +2.48149961e-01 -1.82818636e-01 +8.27238739e-01 +5.61945617e-01 -1.26287788e-01 +1.13259923e+00 -6.27018064e-02 -8.87421072e-01 -9.64449227e-01 +2.14565784e-01 +7.43228197e-01 +1.67477205e-01 -4.44797844e-01 -7.67368555e-01 +4.63392645e-01 -9.49049115e-01 -3.73148680e-01 -1.98298901e-01 -5.00758052e-01 +3.78439426e-01 +7.18604147e-01 -1.03825355e+00 -3.46899629e-01 -6.84548855e-01 +5.35303652e-02 +8.07689428e-01 +3.11054230e-01 -3.72556806e-01 +1.45146036e+00 -8.28991413e-01 +8.88590515e-02 -3.36761683e-01 -7.18869448e-01 +2.65326470e-01 +2.89188206e-01 +6.56760216e-01 -6.97242737e-01 -5.81165016e-01 +1.06090056e-02 +1.86653093e-01 +2.80485362e-01 -3.29760015e-01 +2.39766210e-01 +6.58595741e-01 +3.27516735e-01 -1.90048814e-01 -9.19251978e-01 -6.56898141e-01 -2.20400572e-01 +1.96916863e-01 +1.21577412e-01 -9.19200480e-02 +4.76738036e-01 -4.39539522e-01 +3.35795313e-01 -4.10554446e-02 -6.82806849e-01 -9.49861586e-01 +2.56573558e-01 -4.42566454e-01 +3.39828074e-01 +2.45405942e-01 -5.12063682e-01 +3.87384474e-01 -9.34729353e-02 +4.44233298e-01 +3.10506433e-01 -4.31984887e-02 -5.52950442e-01 -2.67868876e-01 +1.86924741e-01 -1.25349653e+00 +8.24035704e-01 +3.37048143e-01 +2.38477722e-01 +7.33506799e-01 -7.05047920e-02 -3.67512912e-01 -1.29011273e-01 -9.39459130e-02 -1.58396989e-01 +8.38094130e-02 -1.51116073e-01 -5.49341381e-01 -2.39693314e-01 +3.86877418e-01 -1.58710524e-01 +2.43043095e-01 +1.07873954e-01 +4.20217030e-02 -2.25742757e-01 -6.43903494e-01 -1.96237385e-01 -1.04756624e-01 +3.40312630e-01 -1.93396851e-01 +4.67464477e-01 -4.69294377e-03 +3.65704477e-01 -1.83388982e-02 +4.07510772e-02 +7.77153492e-01 +8.95348370e-01 +8.39506760e-02 -5.85086703e-01 -1.34111062e-01 -8.87094140e-01 +1.25285852e+00 +2.56650835e-01 +9.05851871e-02 +4.38797861e-01 -2.39046216e-01 -6.22998774e-01 +3.05014849e-01 -8.33822191e-01 -2.32120872e-01 -5.53415895e-01 -1.49535045e-01 +4.52757627e-01 +3.75068158e-01 -4.29498166e-01 +4.09561545e-02 +6.08474791e-01 -7.10194111e-01 -4.03088816e-02 +4.94114757e-01 -2.45867670e-01 +2.99597494e-02 +1.05303276e+00 -6.78542197e-01 +2.88943976e-01 -3.71084690e-01 +1.55757219e-01 +6.07129857e-02 +4.13991481e-01 -9.20925021e-01 +6.77657127e-01 -2.09960267e-01 +4.85999763e-01 +9.31017920e-02 +2.06800154e-03 +2.72095233e-01 -4.54986542e-01 +3.02821964e-01 -1.18402267e+00 -2.85366476e-01 +8.70277524e-01 +3.11065298e-02 -9.46784019e-01 +1.56447649e-01 -9.15961742e-01 +1.38804436e-01 -4.55938548e-01 -3.69468272e-01 +4.35973942e-01 -2.47632459e-01 -4.11700159e-01 +5.05348034e-02 -4.53851491e-01 -5.92127666e-02 -1.19881415e+00 +9.20032442e-01 +9.03425664e-02 +4.54683989e-01 +1.29956827e-01 +6.30477369e-01 +2.04493567e-01 -3.71503711e-01 +1.59983948e-01 +7.11388171e-01 +1.21958125e+00 -2.06728876e-01 -6.14821129e-02 -1.24965943e-01 +4.36721236e-01 +2.68094689e-01 +1.85514018e-01 +1.90339997e-01 -8.67611915e-02 +2.96664804e-01 +2.28062868e-01 +2.28894472e-01 -4.54556905e-02 -2.36009538e-01 +4.38139498e-01 -2.85109729e-01 +2.26988763e-01 -4.46201824e-02 -1.71568602e-01 +1.53001681e-01 -5.29036000e-02 -2.99330235e-01 -5.63403547e-01 -5.00822365e-01 +9.12125111e-02 -9.21443999e-02 -1.27484456e-01 +3.84813339e-01 -1.14943659e+00 +7.69851863e-01 -2.75733948e-01 -7.86708117e-01 +1.14562564e-01 +4.11395669e-01 +6.43123090e-02 +5.58081090e-01 -1.27004072e-01 -5.65455735e-01 +1.19582939e+00 +2.44212687e-01 -1.05874085e+00 -6.42922401e-01 +5.05324900e-01 -2.04849318e-01 +7.63650179e-01 +6.37067735e-01 +3.61946642e-01 +1.93667650e-01 +4.00863796e-01 +7.44641721e-01 +8.86431158e-01 -1.03417546e-01 -1.07384674e-01 +5.07993996e-01 -4.25092340e-01 -9.52132568e-02 -8.24410170e-02 +8.74925137e-01 -4.19142723e-01 -1.42070413e-01 -8.13993096e-01 -7.82845616e-02 -4.79951985e-02 +8.24097931e-01 -5.80062926e-01 +1.17945910e-01 -4.12231237e-01 +7.12078810e-02 +8.80381092e-02 +3.56187791e-01 +9.67831552e-01 +4.61731285e-01 -2.89667338e-01 +1.78978249e-01 +3.41361791e-01 -5.22779584e-01 +5.98139822e-01 +5.88395059e-01 +4.97210860e-01 +2.31401157e+00 +3.85305732e-01 +6.75592899e-01 +3.35073173e-01 +3.11955392e-01 -2.90597260e-01 +3.71666938e-01 +4.10457343e-01 +1.54980317e-01 -5.84196866e-01 +8.87133628e-02 +8.13334584e-01 +5.01691163e-01 +4.01473567e-02 +4.40683424e-01 +5.11141727e-04 -6.41394913e-01 -8.16831887e-01 +1.25594690e-01 +2.65457273e-01 -4.20162439e-01 +2.52077460e-01 +4.24317449e-01 -6.62609994e-01 +8.65542516e-02 -7.98959553e-01 -3.80247176e-01 -7.05298841e-01 -4.80748326e-01 +2.55476266e-01 +4.28573154e-02 +3.77438851e-02 -3.15089464e-01 +9.95792031e-01 +5.53202450e-01 +5.60759604e-01 +3.05978626e-01 -6.87526047e-01 +8.14301074e-01 +3.37078571e-01 -3.95876706e-01 -2.25198045e-01 +4.97750819e-01 -9.69346881e-01 -1.54930651e-01 -6.54629886e-01 +3.33495392e-03 