#Parameter# /vanilla-lstm-builder/_0 {128,64} 131073 ZERO_GRAD
-2.82184422e-01 +6.19314730e-01 +4.34940040e-01 +2.16256216e-01 +3.94357711e-01 -3.19136232e-01 -5.29214799e-01 -3.75149548e-02 -9.20349881e-02 +7.46929884e-01 +1.93291940e-02 +7.10337088e-02 -9.20939147e-01 +5.37397444e-01 +1.15877259e+00 -3.34307551e-01 -3.70114684e-01 -3.07875667e-02 -1.70094967e-02 -7.20035553e-01 -1.45987526e-01 -2.21156821e-01 +6.33563623e-02 +2.82160416e-02 +1.96643487e-01 +5.35216451e-01 +3.56286734e-01 +5.07142305e-01 +5.59809245e-02 -1.70991085e-02 +1.89851135e-01 +4.28231433e-02 +2.70516068e-01 -1.35246292e-01 +7.20537841e-01 +5.10611594e-01 +2.09075212e-01 +4.68419611e-01 -4.52270150e-01 -8.36146176e-01 -1.05559930e-01 -2.94708423e-02 -3.17708790e-01 +2.71685254e-02 +7.29696035e-01 +1.04561043e+00 +3.31672609e-01 -9.30636376e-02 -1.39394134e-01 +1.72052518e-01 +6.40699744e-01 +4.60092217e-01 +3.33336473e-01 +4.46502239e-01 +4.21841532e-01 -3.83550793e-01 +5.59008598e-01 -2.16521785e-01 +2.53226638e-01 +5.20556808e-01 +5.12110412e-01 +5.17750382e-01 -2.19079126e-02 -2.61959612e-01 -7.37772956e-02 +4.41308439e-01 +6.55532658e-01 +1.17268980e+00 +5.00143096e-02 -4.60112482e-01 -1.24171689e-01 -1.98130682e-01 -4.84025478e-01 +4.29560989e-01 +3.12430978e-01 -7.45332778e-01 +4.10466045e-01 -6.10054424e-03 +4.65324163e-01 -1.75959215e-01 +1.44834995e-01 +2.47616947e-01 +1.97542751e+00 +7.50562549e-02 +3.18201482e-01 +5.00805855e-01 -4.55663949e-01 +6.11147463e-01 +5.25362551e-01 +8.84620667e-01 +5.54881394e-01 -4.55744535e-01 +5.04694700e-01 +4.66199577e-01 -2.58788198e-01 +4.34625626e-01 -2.26076022e-01 +2.17677563e-01 -9.59292412e-01 +5.15373684e-02 +8.44357684e-02 -9.81004685e-02 -2.11332500e-01 +5.51543295e-01 -1.12851476e-02 +4.73269850e-01 -3.56029794e-02 +8.19308981e-02 -1.01593256e+00 -1.30272949e+00 -6.18537486e-01 -4.38959062e-01 +9.73084867e-02 +1.11867465e-01 +1.24493408e+00 +6.93141699e-01 -5.10090292e-01 +1.22737311e-01 -2.93449968e-01 -1.71918958e-01 -8.85553002e-01 -4.40979719e-01 -8.46174300e-01 +4.77079809e-01 -4.61121112e-01 +7.02741981e-01 +9.93174836e-02 -1.38177052e-01 -6.00149870e-01 -3.08031052e-01 -1.55114129e-01 -2.48531535e-01 +2.06639320e-01 +6.11528993e-01 -1.81126729e-01 -4.46040720e-01 +9.35850590e-02 +9.67305720e-01 +2.81592846e-01 -2.05812722e-01 -2.59602785e-01 -1.59855723e-01 +5.07174693e-02 +5.81821918e-01 +1.46220341e-01 -1.48608431e-01 +5.83012581e-01 +2.81203508e-01 -2.31733337e-01 -4.74164933e-01 +2.74410397e-01 -4.61098760e-01 -1.58891872e-01 +4.90224689e-01 -6.79804802e-01 -5.25816262e-01 +1.25371397e+00 +4.19413090e-01 +1.13304012e-01 +1.34145379e-01 -1.58934981e-01 +3.97851765e-02 +1.91910833e-01 +3.01432371e-01 +6.92535713e-02 +3.25058289e-02 +4.21543598e-01 +4.13108245e-03 +1.49336886e+00 +5.39086998e-01 -2.96142157e-02 -8.27522695e-01 +3.72145504e-01 +6.12045228e-01 +4.62704211e-01 -9.20072079e-01 +7.75792181e-01 +1.06532745e-01 +2.25926340e-01 +2.75097877e-01 +3.39501500e-02 +4.36300933e-01 +1.49306977e+00 +5.66720545e-01 +2.43198872e-01 +1.26017824e-01 +6.52905628e-02 +9.06566858e-01 -7.12868392e-01 +1.03043199e-01 -2.47705832e-01 -5.91263473e-01 -1.47069246e-01 +8.32548067e-02 +3.76955390e-01 -1.83841914e-01 -1.68492407e-01 +5.87185085e-01 +4.03297573e-01 -5.57771921e-01 -1.34927005e-01 +8.55379999e-01 -2.38250762e-01 -9.47215557e-01 +2.67264247e-01 -8.69267285e-01 +1.80239096e-01 +7.83381835e-02 +3.50604117e-01 +2.19121337e-01 +1.02808857e+00 +4.59662348e-01 +4.38608266e-02 +1.03592718e+00 +4.42553014e-01 +1.21176541e-01 -2.81562448e-01 -1.32667243e+00 -7.35441029e-01 +9.58643854e-01 +5.89379013e-01 -8.31874534e-02 -9.65422988e-01 +1.52358562e-02 +4.96560521e-02 +6.96584284e-02 +1.67235196e-01 -2.92553186e-01 +3.57145630e-02 +3.56969714e-01 -1.62330961e+00 -7.85551965e-03 +3.78030449e-01 +2.96961576e-01 +4.29252774e-01 -3.05188686e-01 -1.84384093e-01 -4.37122136e-01 -1.98864102e+00 +5.15795767e-01 +6.77994132e-01 -7.65041858e-02 -1.60140499e-01 +3.17840695e-01 +4.02480215e-01 -1.99147999e-01 -6.53724849e-01 +6.35040700e-02 +6.13116473e-02 -5.19838810e-01 -5.00776358e-02 +3.08364332e-01 -4.98983741e-01 +9.74104345e-01 +2.71704733e-01 +3.09322383e-02 +1.48476243e-01 -3.68566327e-02 -2.76298404e-01 +1.66674450e-01 +3.01601738e-01 -1.33864120e-01 -2.93579608e-01 +8.63911733e-02 -9.50661302e-02 +7.60904029e-02 +5.31684697e-01 -2.92467266e-01 +1.53755084e-01 -1.57180488e-01 -1.72341537e+00 -1.63976669e-01 +1.04368210e-01 -1.10769011e-01 -8.83826334e-03 -1.44213438e-01 -4.06693876e-01 -6.94079161e-01 -1.55511066e-01 +2.69781947e-01 +4.60963137e-02 -6.85242712e-02 -5.27655602e-01 -3.88120174e-01 +1.65342793e-01 -7.74138629e-01 +4.88396361e-02 -6.44719839e-01 +1.02811301e+00 +6.22332335e-01 -6.33450210e-01 -2.36435175e-01 +1.44305795e-01 -2.60934323e-01 +5.84326863e-01 +2.44365305e-01 +4.76549625e-01 +4.92467821e-01 -1.86281413e-01 +6.23041242e-02 -2.72097349e-01 -9.44668353e-01 +5.91019928e-01 +3.01571307e-03 +4.04323906e-01 +3.59961390e-01 -1.70388028e-01 +4.74890471e-01 +4.65067267e-01 -1.48166806e-01 -6.37982786e-01 +6.00642145e-01 -5.83492935e-01 +1.35389999e-01 +7.18731880e-01 -2.17844591e-01 -6.91327155e-01 +3.02480042e-01 -5.23454547e-01 -1.22168374e+00 -7.81962693e-01 -2.17478514e-01 -1.32021534e+00 -1.13482487e+00 -1.14649914e-01 -8.76066387e-01 +1.92099124e-01 +7.67992660e-02 +7.03894019e-01 -5.88534534e-01 -3.66328627e-01 +1.02065630e-01 +2.68269986e-01 -2.04075670e+00 -1.51430929e+00 -3.72736365e-01 +1.61010697e-01 +2.95892686e-01 -1.38206732e+00 -5.10899842e-01 -8.44592035e-01 -9.91524756e-01 +1.15861118e+00 -1.15007019e+00 -7.79996395e-01 -1.41588998e+00 -1.47517848e+00 -1.52611449e-01 +9.49626341e-02 -4.51314539e-01 -3.07360798e-01 -1.15415764e+00 +2.09071279e-01 +3.74905527e-01 +1.98112667e-01 +1.26310840e-01 -4.68844980e-01 -2.72539437e-01 -1.74419075e-01 +2.15892121e-01 -5.91225224e-04 +3.30943204e-02 -8.32653761e-01 +1.66938782e-01 +4.66034323e-01 -6.38504103e-02 +4.05063061e-03 +9.65769738e-02 +7.38266408e-01 -7.38842860e-02 +1.11321628e+00 -6.15195632e-01 -3.24806809e-01 -3.15141767e-01 -6.67083621e-01 +3.58794004e-01 +5.13755344e-03 +8.17659423e-02 -2.01431200e-01 -2.14851275e-02 +2.03146897e-02 -3.67994070e-01 -9.18856040e-02 +4.58349854e-01 +1.46699071e-01 +3.40550482e-01 +1.34890568e+00 +6.17982030e-01 +1.02404928e+00 +6.42478287e-01 +6.39601648e-01 +5.17774783e-02 +1.59986526e-01 +1.08480804e-01 +2.62152195e-01 -4.99074459e-01 -6.78840637e-01 +1.50550380e-01 +3.05257082e-01 -3.21336895e-01 -4.76145506e-01 +8.96806717e-02 -2.08193317e-01 +3.48544985e-01 -6.10319555e-01 -1.93300862e-02 +1.29477966e+00 +7.30919465e-02 -2.21937731e-01 +7.07964599e-01 +2.31719702e-01 +4.19581860e-01 -2.79908836e-01 +2.01842040e-01 -3.22427034e-01 -5.82992077e-01 -5.85285187e-01 +4.29521203e-01 +4.57106799e-01 +5.53875268e-01 +3.50511312e-01 +1.64862022e-01 +3.44274610e-01 +1.17826648e-01 -6.39145076e-02 +1.33456111e+00 -3.29188734e-01 +7.35693276e-02 -1.84225589e-01 -6.28923297e-01 +1.53557941e-01 -2.52427161e-01 +3.40202093e-01 -1.96336489e-02 +1.83564037e-01 -7.18714356e-01 -3.69800866e-01 +1.41020074e-01 +6.57996118e-01 +2.40829930e-01 -8.59045327e-01 +4.00062203e-01 +3.10721993e-01 +7.67675757e-01 -1.26328313e+00 +2.63510048e-01 -2.25745514e-01 -1.24722429e-01 +1.71605363e-01 -2.24245715e+00 +7.08791912e-01 +1.75968349e-01 +2.87836879e-01 -5.71628585e-02 +1.10236049e-01 -9.24177527e-01 +8.03342581e-01 -1.26076162e+00 -9.98235226e-01 +5.44676840e-01 +8.69679868e-01 +6.85692966e-01 -2.58022994e-02 -4.80182976e-01 -8.14572036e-01 +1.33097863e+00 -1.01862669e+00 -1.29445648e+00 -6.69972479e-01 +9.07687545e-02 -6.00044072e-01 -3.36469680e-01 -8.49760652e-01 -2.01871067e-01 -1.00525165e+00 +3.77030075e-01 +1.42862454e-01 -6.24940574e-01 -1.18163848e+00 -9.04481471e-01 -7.95673072e-01 -1.52400926e-01 -7.59054840e-01 +2.05405243e-02 -3.65497977e-01 -2.07683370e-01 +1.45367354e-01 -1.38552696e-01 +9.40831900e-01 +7.64742672e-01 -3.04202884e-01 -5.50213695e-01 +8.94150883e-02 -6.97539330e-01 +3.55254635e-02 -4.17795731e-04 +4.80742782e-01 -2.58857906e-01 -1.65544115e-02 +2.10221440e-01 +4.63562869e-02 +7.90229917e-01 -5.19855559e-01 -3.50510955e-01 +5.84463775e-01 -2.00674728e-01 +1.14322329e+00 +7.69938976e-02 +1.86950818e-01 -4.50498499e-02 -1.39568007e+00 +3.68855655e-01 -4.35722739e-01 +4.12199050e-01 +6.83804631e-01 +3.60403992e-02 -2.74217222e-02 -4.73990738e-01 -3.78908753e-01 -2.54233092e-01 -9.33604240e-01 +6.68790162e-01 -2.33437434e-01 -2.10159063e-01 -2.68484235e-01 +1.09736823e-01 +8.37708414e-01 -7.63081363e-04 -5.00473320e-01 -5.46459973e-01 +1.55096054e-01 -2.33793259e-01 -3.70565832e-01 -4.28809017e-01 +3.98276091e-01 -6.43160999e-01 +5.17065451e-02 -3.37059647e-02 +1.61624581e-01 -6.70632541e-01 +4.19080973e-01 +5.58915913e-01 -1.03311397e-01 +1.13411911e-01 +2.15677381e-01 -1.16621614e-01 -3.85051519e-01 +8.16067815e-01 +1.24769777e-01 +3.57112736e-01 +5.00256479e-01 -6.45969450e-01 +6.78361237e-01 -4.62530166e-01 -2.99510568e-01 +4.17674392e-01 +7.99858570e-01 +6.62723482e-01 -1.42241681e+00 +4.78982061e-01 +4.26660359e-01 -3.84064674e-01 -6.08500481e-01 +1.35125065e+00 -6.19581826e-02 +3.32260996e-01 +1.26069024e-01 +8.50330815e-02 -1.63541585e-01 +6.59721196e-02 +4.46198493e-01 -2.76566386e-01 -1.77286923e-01 +3.93019915e-01 -2.11883664e-01 +2.27399170e-01 +2.68008375e+00 +1.09598029e+00 -1.30839241e+00 -2.01731041e-01 -1.05290902e+00 +7.91559100e-01 -6.41178340e-02 -4.82468009e-01 +4.35456008e-01 -1.83641762e-02 +1.71102965e+00 -3.36489558e-01 +5.29586673e-01 -1.49856377e+00 +8.84955347e-01 +1.50001478e+00 -2.07096189e-01 -2.91752547e-01 +7.39075601e-01 -3.83671045e-01 +1.50374509e-02 +1.49852395e+00 +3.76255542e-01 +9.08271909e-01 -6.27528071e-01 +1.49920130e+00 +1.02945876e+00 -5.73433280e-01 -1.13734208e-01 -1.26483440e+00 -2.27009833e-01 +5.15495598e-01 +2.48627454e-01 +1.95263643e-02 +4.13982093e-01 -5.90670705e-01 +7.68268585e-01 +3.36678207e-01 -2.86940604e-01 +5.78657389e-01 -8.76706600e-01 -7.97717571e-01 +2.27188647e-01 +1.07294846e+00 -1.32042634e+00 -1.19272172e+00 -1.47607923e+00 +2.27649093e-01 -1.19540773e-01 +3.01176012e-01 -6.43329620e-01 +6.45487070e-01 +1.44763842e-01 -8.62010598e-01 -5.26162744e-01 +1.12177230e-01 -2.62632847e-01 -6.31673157e-01 -9.39300358e-01 +6.28886402e-01 +4.72434640e-01 +1.01623273e+00 +5.35974503e-01 +6.88235164e-01 -1.73980087e-01 +2.26341903e-01 +8.78330231e-01 -3.94271314e-01 +1.11281648e-01 -9.24039841e-01 +3.43720496e-01 -1.44566447e-01 +6.20195344e-02 +3.33963856e-02 -6.23612553e-02 -3.94307196e-01 -6.28059864e-01 +1.17541492e-01 -8.04024875e-01 -2.92924196e-02 +3.45449410e-02 -1.71904236e-01 -1.78087518e-01 -2.57573545e-01 -5.10881171e-02 -2.81396538e-01 -6.08147919e-01 +1.71535105e-01 +4.02485020e-02 +1.80376649e-01 -7.68307567e-01 +3.73612016e-01 +1.88790023e-01 -3.85000110e-01 -4.12351042e-01 +4.98156279e-01 +4.11879122e-01 +3.56719673e-01 +2.04302847e-01 -4.07210141e-01 -1.94489613e-01 -5.28779685e-01 -2.00670913e-01 +2.20290273e-01 -1.59591272e-01 +2.73807496e-01 -6.85790122e-01 -1.91044793e-01 -5.73366940e-01 +3.11733007e-01 +5.87047219e-01 -2.44746789e-01 +1.04692936e-01 +1.26150012e-01 +7.70252585e-01 +1.26948166e+00 +3.75373125e-01 -8.97591263e-02 +1.01310086e+00 +3.29956859e-02 +3.06990921e-01 +3.87276351e-01 -6.56387359e-02 +3.16596448e-01 +6.64304316e-01 -3.35332841e-01 -2.32221469e-01 +3.28799486e-01 -8.15454841e-01 -7.80414581e-01 +3.33004653e-01 +7.43293464e-01 -2.27901861e-01 +2.97657549e-01 -3.09235662e-01 +3.09795856e-01 -1.39123464e+00 +3.62213641e-01 +1.00560975e+00 -1.69435716e+00 -1.60474586e+00 -4.25051868e-01 -6.26223147e-01 +3.32185954e-01 +2.47220676e-02 +5.89157164e-01 -1.41940963e+00 +5.96895456e-01 +8.88703644e-01 +1.93495959e-01 -7.31818795e-01 -1.63024396e-01 +6.87576056e-01 -5.86934108e-03 -1.39806435e-01 -5.00666320e-01 -4.41490501e-01 -8.24308753e-01 -1.14019608e+00 +4.03571963e-01 -8.96638513e-01 +1.70045719e-01 -2.58882493e-01 +8.14150870e-02 -4.67143878e-02 -3.71563405e-01 -4.30013649e-02 -3.49599123e-01 +9.41960514e-02 -6.30740285e-01 -6.37016892e-01 +1.57405958e-01 -5.59297949e-02 -3.24444592e-01 -1.97375759e-01 -3.43928844e-01 -3.22813758e-05 +4.68436420e-01 +5.80346465e-01 +3.11897308e-01 -8.02390993e-01 -3.98585618e-01 -1.41610384e-01 +2.14952216e-01 +5.34401715e-01 +9.88333300e-02 +7.37176895e-01 +9.30832326e-03 +5.35650730e-01 -5.00182845e-02 +1.20984244e+00 +1.89590454e-01 -1.97233066e-01 +4.19229478e-01 -3.19951236e-01 +2.70875365e-01 +1.43113434e-01 -7.70883262e-01 -3.18899490e-02 +1.17515765e-01 +6.70884490e-01 -3.13072175e-01 -4.85226363e-02 -9.68819797e-01 -2.78883100e-01 -4.08791937e-02 +2.97779515e-02 -3.40557545e-01 -2.53941953e-01 -5.50970845e-02 -8.43278617e-02 -2.00448811e-01 +5.79649389e-01 -5.00205338e-01 -2.33593825e-02 +4.19156164e-01 +6.13988578e-01 -8.98084939e-02 -1.14593482e+00 +1.66676864e-01 -9.28469293e-04 -2.22491935e-01 +9.96016324e-01 -7.23498225e-01 +1.18624873e-01 +1.38518244e-01 +9.48543623e-02 +3.52286756e-01 -1.94036797e-01 -7.84541249e-01 +1.34230331e-01 +3.40276808e-01 -6.38455391e-01 +1.64469123e-01 -9.69329029e-02 -4.31248784e-01 +4.26369123e-02 -5.31144068e-02 -4.93259355e-02 +1.00897633e-01 -2.47627929e-01 -3.10713023e-01 +4.69067425e-01 -4.42542613e-01 +3.08206171e-01 -4.47840065e-01 +5.74456342e-02 -6.74045801e-01 +3.08882803e-01 +1.25543237e-01 +5.95349610e-01 +3.82632494e-01 +7.08622187e-02 -3.08564603e-01 +4.83759567e-02 +3.90449762e-01 -6.35324538e-01 -1.03287303e+00 -2.39031717e-01 +1.31514117e-01 +1.36131346e-01 -3.06617796e-01 -2.69317567e-01 -2.74335176e-01 -4.17451262e-02 +4.68603909e-01 -6.33447349e-01 -4.36730683e-01 -4.75924313e-01 -7.03560650e-01 -1.96479008e-01 -5.64754486e-01 -4.90259022e-01 +5.40356815e-01 +8.27858783e-03 -3.92051578e-01 +5.16446531e-01 -6.92929626e-01 +3.14089715e-01 -2.51457036e-01 +6.21140361e-01 -8.56017053e-01 -2.77341515e-01 +4.12512720e-02 +3.65816563e-01 -4.97290283e-01 +2.50839263e-01 -5.74334383e-01 -8.16331059e-02 -1.64917201e-01 -4.65707541e-01 +2.56481498e-01 +2.09131852e-01 -5.31734042e-02 +4.38500702e-01 -7.47076929e-01 -3.90590429e-01 -2.82502826e-02 -5.02962828e-01 -8.36376727e-01 +6.14565790e-01 +2.45863721e-01 +1.91548020e-01 -1.98158115e-01 -3.98104966e-01 -2.17996817e-02 -4.64314580e-01 -8.19651186e-01 -1.99438468e-01 -3.33319873e-01 +2.74091244e-01 -6.20713979e-02 -2.39225075e-01 +3.63934785e-01 +2.16197863e-01 +5.64417601e-01 -4.07772541e-01 -2.51163274e-01 -4.42709059e-01 +2.01336816e-01 +4.34366792e-01 +3.21836025e-01 +1.78619057e-01 +6.99535728e-01 +8.92098099e-02 +4.10463363e-01 +2.45710105e-01 +3.37127984e-01 +5.28106503e-02 -2.30460018e-01 +4.28916961e-01 +2.06658810e-01 -2.22653121e-01 -2.18898788e-01 -3.49808782e-01 -4.92747426e-01 +1.04206860e-01 -5.47456861e-01 -3.16602051e-01 +1.76399007e-01 -1.20661032e+00 +3.88839871e-01 -8.53545070e-01 +7.56622434e-01 -3.68019909e-01 +7.30140209e-01 +5.41395359e-02 +6.65121675e-01 -1.41442791e-01 -1.92442536e-01 -6.20792150e-01 -1.26341581e-01 -3.10712546e-01 -5.74064434e-01 -4.41768199e-01 +6.48163334e-02 -2.70882756e-01 +3.54656279e-01 -8.39626133e-01 -2.51436550e-02 -5.64049244e-01 -2.21008375e-01 +4.30923561e-03 -1.41348571e-01 -6.33555744e-03 -1.10520077e+00 -3.98833513e-01 +5.61396927e-02 -7.11390853e-01 +4.92949709e-02 +5.46302378e-01 -5.96218295e-02 -3.55306506e-01 +1.57436579e-01 -6.68459952e-01 -1.17234271e-02 +5.36172464e-02 +1.11664839e-01 +2.37379611e-01 -7.24200666e-01 +1.03956580e-01 -5.40921748e-01 -1.55418503e+00 -4.81141776e-01 +3.90490353e-01 +2.51973569e-01 -8.22958291e-01 +3.80743176e-01 -6.13018095e-01 -3.82213116e-01 -1.55940846e-01 +4.68024075e-01 -8.46373081e-01 +5.02435148e-01 -1.35692164e-01 +5.16671956e-01 +1.03822090e-01 -2.89231684e-04 -5.07845402e-01 -5.87779045e-01 -1.31710261e-01 +4.14050743e-03 -1.03399503e+00 +9.73101199e-01 -4.31350559e-01 +1.00758672e-01 -8.29247713e-01 -3.26093256e-01 +5.14975905e-01 +1.57476139e+00 -4.89564985e-01 -8.04622412e-01 -2.48306140e-01 -5.50660074e-01 +4.89937097e-01 -6.01992309e-01 +9.29234624e-01 +5.14229476e-01 -6.53781414e-01 +2.55983233e-01 -1.26294777e-01 +7.02888191e-01 +2.12252319e-01 +2.44365428e-02 +4.23283100e-01 +3.02846938e-01 +6.31320655e-01 -5.45167506e-01 +7.21579731e-01 +7.30086505e-01 +5.55159390e-01 -8.37659687e-02 +1.21809386e-01 -2.04543937e-02 +2.45207995e-01 +1.17880674e-02 +1.77885830e-01 +5.26050270e-01 +5.71363807e-01 -5.05877197e-01 +6.98674440e-01 -2.84316719e-01 +6.79982781e-01 -6.45602643e-01 -6.43532097e-01 -5.06485701e-01 +2.73517698e-01 -5.68872988e-01 -5.29592223e-02 -2.31657222e-01 -9.29451823e-01 -5.39870203e-01 -3.27623673e-02 +2.71383554e-01 +2.62406170e-01 +1.04656231e+00 +6.88459814e-01 -5.39760172e-01 +4.97869641e-01 +3.79862845e-01 -1.66685492e-01 -2.47768804e-01 -1.02965444e-01 -3.77128780e-01 +8.61485451e-02 +8.91090855e-02 +3.09267938e-01 -4.05773282e-01 -8.14285725e-02 +1.29104406e-01 +5.97727418e-01 -7.97542259e-02 -2.47972727e-01 +1.87829182e-01 +2.46498100e-02 -9.15047884e-01 +1.88696533e-01 -1.31744638e-01 +4.05155532e-02 +6.17682822e-02 +3.59875649e-01 -3.93950164e-01 -3.65269482e-01 +2.42543370e-01 -3.33812922e-01 -4.76515830e-01 +1.99054629e-01 +3.24152738e-01 -3.93448025e-01 -4.37232018e-01 -3.05546343e-01 -6.13230467e-01 -1.82648569e-01 +6.22167625e-02 -5.10324180e-01 +2.08112717e-01 -3.96615386e-01 +1.51537538e-01 -2.69059867e-01 -4.10175830e-01 -1.40484452e-01 +1.39956288e-02 -2.78260022e-01 -6.30988538e-01 -1.07321955e-01 -6.88820183e-01 +7.70384520e-02 -8.91419530e-01 -1.68654397e-01 -1.51071861e-01 -2.97186881e-01 +8.30854475e-02 +7.18008876e-01 -6.02080643e-01 -1.32612669e+00 +6.19032383e-01 -4.52141017e-01 +4.05364424e-01 -8.20180416e-01 +1.25225663e+00 +1.04999709e+00 -1.08663356e+00 +4.43979561e-01 +1.46700585e+00 +4.52131122e-01 +2.56714165e-01 -1.62627661e+00 +2.90242195e-01 -6.75648749e-01 -4.93909448e-01 -1.07367182e+00 -4.01533663e-01 -1.98746845e-01 -1.26210070e+00 +7.46820271e-01 -5.00977814e-01 -3.51111218e-02 -3.53909247e-02 -5.61919928e-01 -7.33125925e-01 -1.92919150e-02 -1.57265395e-01 +2.56639183e-01 -1.71445742e-01 +3.25112551e-01 +2.21090601e-03 -1.60517275e-01 +4.46451716e-02 -4.08207588e-02 -5.94726279e-02 +3.87790948e-01 -9.52207923e-01 +6.74982667e-01 -1.41604578e+00 -5.94273269e-01 +7.12676227e-01 +2.75060564e-01 +4.15785797e-02 +5.38140535e-01 -1.70200527e-01 -9.15773571e-01 +5.53097367e-01 -2.55229443e-01 -6.87001467e-01 +4.37579975e-02 -6.13340400e-02 +5.91155231e-01 +1.73244789e-01 -4.96167809e-01 +4.13166702e-01 -5.50693750e-01 +1.04957283e-01 +6.92362726e-01 -8.29895794e-01 -2.08396986e-01 +7.07406938e-01 +3.85066777e-01 -4.88502562e-01 +1.52704135e-01 -2.88801819e-01 +5.90436995e-01 +2.69635230e-01 -9.54892576e-01 +5.01422286e-01 -1.73507527e-01 -2.68335640e-01 -3.89089704e-01 +2.96780944e-01 -5.65811753e-01 +3.33554476e-01 +1.83989003e-01 -2.95418918e-01 -1.29520309e+00 +6.59855187e-01 -4.60972458e-01 +3.78655791e-01 -8.02874684e-01 +4.18055624e-01 +4.04146522e-01 -3.60798717e-01 +6.40688956e-01 +3.20345044e-01 +5.61293542e-01 +4.65931475e-01 -1.39681756e+00 +3.06663543e-01 -1.41929314e-01 +2.81401891e-02 -6.21294677e-02 -4.81153488e-01 +1.93051919e-01 -3.03482473e-01 -3.72580916e-01 -1.92344800e-01 -1.61654785e-01 +5.70993908e-02 -8.07798922e-01 -6.40601218e-01 -1.66922018e-01 +2.36980185e-01 -3.92291903e-01 -1.62033930e-01 +8.76218617e-01 -6.09725118e-01 +1.35772809e-01 +6.86634362e-01 +7.20041454e-01 -1.77667901e-01 -1.59317955e-01 +2.96824992e-01 -1.06867766e+00 -8.13541412e-01 +1.93203375e-01 -4.47677135e-01 +4.41940576e-01 -1.31113112e-01 +2.74073005e-01 +1.69855312e-01 -1.99501917e-01 -1.94078863e-01 +1.81075707e-01 -2.34154567e-01 +7.55956829e-01 -3.46101761e-01 +7.82966912e-01 -4.47727740e-01 +6.83479309e-01 -2.97543239e-02 +2.08507061e-01 +5.07578731e-01 +2.84598380e-01 -3.25581193e-01 +4.32733476e-01 +1.02519214e+00 +3.90919179e-01 -1.13578923e-01 +3.74660008e-02 +1.04448371e-01 -9.79019925e-02 -1.74012240e-02 -3.07068467e-01 +2.07344413e-01 -3.43867928e-01 -2.71970686e-02 -8.09557319e-01 -2.42948905e-01 -3.34185302e-01 +8.35423470e-01 +5.08830696e-02 -7.20587149e-02 +1.50320739e-01 +7.61854798e-02 -5.56467593e-01 -4.59054917e-01 -1.43948466e-01 -8.58499825e-01 +8.32938552e-02 -3.37070078e-01 -5.91837704e-01 -5.05972803e-01 +4.89893615e-01 -7.00109780e-01 -6.39735818e-01 +3.55429828e-01 +1.40428782e-01 -1.25894696e-01 +2.72948891e-01 +7.24677667e-02 -2.61219759e-02 -3.62446338e-01 +3.76435757e-01 -8.34677458e-01 +5.29403567e-01 +5.32895505e-01 +8.10770631e-01 +3.11888784e-01 +4.39075008e-02 +5.21581054e-01 +3.48909587e-01 -2.32256308e-01 -1.70977414e-01 -1.93330631e-01 -3.34371865e-01 -4.19734344e-02 -2.41794184e-01 +1.78043097e-01 +5.08220136e-01 -2.72053212e-01 +7.04549968e-01 -3.10171247e-01 +5.38869023e-01 -8.09569284e-02 +3.18159312e-01 -2.36933846e-02 -6.00849271e-01 +2.29386911e-02 -5.00254810e-01 +1.61293726e-02 -3.67500216e-01 +2.78745890e-01 -2.28476420e-01 +4.43404466e-01 +5.33312976e-01 -4.85575974e-01 -5.60787022e-01 +4.33774590e-01 +1.18684106e-01 -7.56706148e-02 -2.37144276e-01 -1.35362208e-01 -5.27351499e-01 +1.66211307e-01 +4.75216568e-01 +1.06801319e+00 -2.86123365e-01 +4.99201536e-01 -3.54426265e-01 +2.03039736e-01 +1.58937141e-01 -2.68673390e-01 +2.87735343e-01 +6.31945133e-01 -2.97234446e-01 +3.69817227e-01 +6.80255175e-01 +8.83269235e-02 +4.16019112e-01 +1.54258102e-01 -5.75851083e-01 +1.56375557e-01 +5.86370528e-01 +9.89134610e-02 +3.01159084e-01 +1.66793644e-01 +6.05305672e-01 +3.75344247e-01 -3.37123483e-01 +1.10890165e-01 -4.89585221e-01 +1.25126028e+00 +4.47832420e-02 -5.87951951e-02 +8.80089551e-02 +1.83496237e-01 +6.36854842e-02 +5.05059123e-01 +1.73900440e-01 -1.83788359e-01 +4.71513897e-01 +1.23523496e-01 -9.76054370e-03 +1.81725234e-01 -5.33054233e-01 +4.91609186e-01 +2.47231975e-01 -6.59707427e-01 +1.98710606e-01 +3.51488233e-01 +5.57002604e-01 +6.71131909e-02 -1.73858032e-01 +5.07144965e-02 +4.49218988e-01 +2.99551878e-02 -3.29917729e-01 +6.61489487e-01 -3.71873230e-02 +4.40126866e-01 -1.02488029e+00 +2.73635685e-01 -2.71090180e-01 -2.32282445e-01 +8.78497362e-01 +6.56518698e-01 -2.38478556e-01 +2.20782552e-02 +2.48750940e-01 -3.74431605e-03 +4.98853028e-01 +1.98665723e-01 +2.49799132e-01 +5.04029244e-02 -3.84385586e-01 +5.94704002e-02 -6.27871811e-01 +1.32544562e-01 +4.25516337e-01 +9.33665037e-01 -2.12037489e-01 +5.30297935e-01 +7.05719352e-01 +4.49975841e-02 -8.95567536e-02 -6.58854723e-01 -6.80408239e-01 -2.63550669e-01 +1.60054058e-01 +2.64307499e-01 +7.03774452e-01 +3.72763723e-01 +2.01282591e-01 +5.26907519e-02 +1.86090951e-03 -5.81022501e-01 +4.21055257e-02 -2.31260672e-01 -6.20483994e-01 -2.61675090e-01 -4.14121389e-01 -7.02814236e-02 -3.35784443e-02 -1.06465846e-01 +5.45813978e-01 -1.88634813e-01 +1.32951513e-01 +5.37764668e-01 +3.71136516e-02 -1.71867773e-01 +7.39485681e-01 +6.37113631e-01 -8.18285644e-02 -1.33194938e-01 -3.90225768e-01 +5.96260488e-01 -1.70542821e-02 -2.94231564e-01 -5.72485566e-01 +1.94461234e-02 +6.38059825e-02 -2.58774310e-01 -6.73722446e-01 +2.76964623e-02 -8.59928787e-01 +3.01988006e-01 -2.94046402e-01 +2.04609722e-01 -2.98028463e-03 +6.97122440e-02 -2.76201308e-01 +3.11213404e-01 +4.55204934e-01 -5.05915463e-01 -4.99259293e-01 -4.21891063e-01 -6.43714786e-01 +2.62063265e-01 -6.04642272e-01 -2.75165647e-01 +1.69882402e-01 -6.74159288e-01 +4.04742807e-02 -2.82070518e-01 -4.59909618e-01 +1.99755847e-01 +5.36387861e-02 +1.27762705e-01 +2.08093487e-02 -1.00648654e+00 +2.07814977e-01 -3.74993533e-01 -2.78726697e-01 -1.55680263e-02 +9.39378023e-01 -7.83926025e-02 +5.55827260e-01 -6.00538477e-02 +2.16480419e-01 -3.46674919e-01 -3.40530336e-01 +2.00086340e-01 +3.71519417e-01 -8.46391916e-01 -2.62877345e-01 -7.49825478e-01 +1.51174560e-01 +6.27485812e-02 -1.20895773e-01 -2.05198109e-01 -2.27606893e-01 -5.05217128e-02 +2.53895670e-01 -8.84757161e-01 +5.99809647e-01 +7.94167817e-02 +1.98551089e-01 +3.29131424e-01 -5.65458298e-01 +1.68788150e-01 +4.26038444e-01 -2.13390440e-01 +3.71716827e-01 +2.62388498e-01 +2.54277736e-01 -7.19973519e-02 -1.16130900e+00 -2.24016070e-01 -8.99122477e-01 -7.97096312e-01 -5.57143807e-01 -1.72022313e-01 -9.28928196e-01 -7.21640110e-01 -9.00585949e-01 +5.30679524e-01 +2.74459898e-01 +3.37675177e-02 -8.38966072e-01 -3.86260182e-01 +1.04826666e-01 +3.06210548e-01 +2.10174635e-01 +2.55080052e-02 -3.47402483e-01 -3.03597927e-01 +1.57967314e-01 -2.44606152e-01 +6.59036279e-01 +4.82435316e-01 -2.18644459e-02 -2.83975989e-01 +7.09673762e-02 +2.03318477e+00 +1.04643464e+00 -3.69141507e-03 +5.07086158e-01 +1.90473278e-03 -3.71392667e-01 -9.36425865e-01 -4.03632164e-01 +6.46377027e-01 +5.22840202e-01 -2.88831055e-01 +6.36769772e-01 +3.20517391e-01 -2.36920834e-01 -1.01943530e-01 +1.59251601e-01 -1.06416059e+00 -2.36524001e-01 +1.15976430e-01 -5.57519495e-01 -4.49370056e-01 -5.53623475e-02 -7.25181848e-02 -3.10495913e-01 -3.00606906e-01 -1.53312743e+00 -5.07969558e-01 -5.77071309e-01 +5.70589164e-03 -1.43034220e+00 -2.02693835e-01 -7.59281099e-01 -1.29090726e-01 +7.30126128e-02 -5.90516627e-02 -9.13230181e-01 -8.40643421e-03 -1.39003468e+00 -3.35714400e-01 -6.38549924e-02 -3.58814448e-01 +7.23621175e-02 -2.14290380e-01 +1.69993013e-01 +3.16318065e-01 -9.48047638e-02 -4.85593021e-01 -9.36813951e-02 +2.69525617e-01 +6.11285686e-01 +9.44114700e-02 -7.16004670e-01 -4.06732976e-01 +5.79564013e-02 -3.95244896e-01 +4.77005281e-02 +2.53135562e-01 -1.27789319e-01 +2.20848341e-03 -3.87371033e-01 -1.57551348e-01 -4.84743804e-01 +2.70368457e-01 +9.73941833e-02 +8.82550240e-01 -1.44461095e-02 -8.28149736e-01 -2.46736050e-01 -5.27619123e-01 -6.07590079e-01 +9.76248533e-02 -1.14449047e-01 -1.85439035e-01 -9.99833271e-02 -1.19586468e+00 +4.01873980e-03 +1.38145223e-01 +2.05675423e-01 -2.24487901e-01 -3.69692534e-01 -6.70073271e-01 +3.36916089e-01 -3.99207026e-01 -3.46590757e-01 -3.87845635e-01 -3.46645147e-01 -3.54942381e-01 +4.57477391e-01 -4.00239587e-01 +3.58896285e-01 -7.38911688e-01 +4.98267747e-02 -2.21377760e-02 -1.63397014e-01 +2.63486892e-01 +1.22010976e-01 +4.05128270e-01 +2.04602599e-01 -7.69066215e-01 -9.06083062e-02 +5.27645588e-01 +4.51666564e-01 +3.67549688e-01 +4.83440198e-02 -7.62024581e-01 +2.90100217e-01 -3.44392955e-01 +5.52264929e-01 -2.92528242e-01 +1.49454951e-01 +1.94171779e-02 +2.88881451e-01 +1.26485932e+00 +3.57888013e-01 -6.08800948e-02 -7.93986320e-01 -1.37045398e-01 -1.18146703e-01 -4.47182596e-01 +4.77930218e-01 +1.91958696e-01 +3.43685508e-01 -2.50425190e-01 -2.30356768e-01 -5.01018524e-01 -3.97927463e-01 +1.90842956e-01 -3.54378521e-02 +9.60122198e-02 +4.12554651e-01 -1.04754828e-01 -3.57337773e-01 -6.62824750e-01 -2.82831341e-01 -3.22828233e-01 +2.70223022e-01 -6.42812669e-01 +2.68786818e-01 +5.20010829e-01 -4.44666982e-01 +8.96767676e-01 +1.09700523e-01 +2.05701813e-01 -2.92620748e-01 +2.12673679e-01 -7.07752407e-01 +6.99959099e-02 -4.52441871e-01 -2.69275874e-01 +1.59808714e-02 -5.42339027e-01 -2.37418666e-01 -2.15107292e-01 +1.79770797e-01 +3.58412489e-02 +4.16781812e-04 -3.70712131e-01 -6.20741062e-02 +1.50102988e-01 -1.19661987e+00 -1.30088657e-01 -5.37286818e-01 -4.51992005e-01 -4.82966661e-01 -6.45736158e-02 +5.65942705e-01 +1.64707765e-01 +2.95147896e-01 -4.19336826e-01 -1.82263523e-01 -1.31432354e-01 +1.01447308e+00 -1.54812336e-01 -4.17670667e-01 +1.01978309e-01 -4.94415224e-01 -3.72114807e-01 -3.82687062e-01 +3.44589293e-01 -7.80892372e-01 +1.12564832e-01 +4.74903733e-01 -1.69562161e-01 +1.36742488e-01 -3.74348015e-02 +9.51124012e-01 -3.19131553e-01 +1.19316272e-01 -4.22917269e-02 -2.40358353e-01 +1.35760263e-01 +5.34648113e-02 +6.96224809e-01 +5.29409766e-01 -1.25143439e-01 +8.78147960e-01 +1.45160332e-01 -2.38305092e-01 +1.00062203e+00 +6.33100331e-01 -2.12733597e-02 +3.59892964e-01 +2.44276509e-01 +3.11985791e-01 -1.17245568e-02 +2.19868273e-01 +2.18684107e-01 -2.22734749e-01 -8.41069102e-01 -3.47165437e-03 -1.92694306e-01 +6.23986006e-01 +6.07185781e-01 +8.75716507e-01 +7.01143444e-01 +2.28978097e-01 -4.78012487e-03 +1.07363844e+00 -6.60439551e-01 -1.16381669e+00 +7.18777299e-01 +2.51865625e-01 -9.73502636e-01 -1.53348014e-01 +1.06261480e+00 +7.56617904e-01 -1.98678136e-01 +7.01137662e-01 +2.24704862e-01 +4.20928329e-01 +8.46248150e-01 +3.97970855e-01 +4.39241916e-01 -4.30158943e-01 +6.62672341e-01 +5.78076839e-01 +1.36849403e-01 +1.30442226e+00 +5.78809083e-01 -1.20075017e-01 +9.86873627e-01 -5.60885072e-01 +5.67732513e-01 -4.24860388e-01 -2.08906397e-01 -1.74570501e-01 -3.33057016e-01 +1.96738765e-01 +4.61489737e-01 -2.18785778e-01 -8.85214925e-01 +1.44285811e-02 -4.03481394e-01 -5.39795101e-01 -3.56034756e-01 +4.65057462e-01 +2.66947120e-01 +7.74007797e-01 -2.86512077e-01 +2.56744117e-01 -2.49737993e-01 +1.15692891e-01 -1.17668664e+00 -1.99516088e-01 +2.63700962e-01 +3.67545784e-01 +3.70679468e-01 -2.67737180e-01 -2.04011545e-01 +4.30496752e-01 -9.82409939e-02 -3.14157665e-01 -7.63865292e-01 +5.36012411e-01 -3.89511317e-01 +3.91160250e-01 +4.81760465e-02 -2.06224680e-01 +1.66201100e-01 -2.31459126e-01 +1.81668088e-01 +7.37287283e-01 +8.33264351e-01 +2.99289018e-01 -7.91886687e-01 +4.58337605e-01 +1.14973128e-01 +9.60915923e-01 +2.01945722e-01 -5.40333867e-01 +1.71265695e-02 +8.57483968e-02 +6.70550317e-02 +4.83815849e-01 +3.93662512e-01 +1.97613433e-01 -5.30203022e-02 +4.82608736e-01 +3.78596276e-01 +1.62782654e-01 +5.05516529e-01 +2.40634069e-01 +6.71505462e-03 +1.08929157e-01 +8.61313269e-02 +1.85786176e+00 -9.19299051e-02 -1.23071682e+00 +4.23882782e-01 -2.82377809e-01 +2.74835378e-01 -2.54412383e-01 +1.06181644e-01 -8.21710527e-01 -1.27301112e-01 -1.38247296e-01 +6.13244995e-02 +1.42399564e-01 -4.39105719e-01 +4.69726980e-01 -7.10809082e-02 -1.52870309e+00 -3.50065768e-01 +3.08591455e-01 -2.94760410e-02 -3.85626107e-01 -1.06671703e+00 -7.37498343e-01 +3.68464112e-01 +4.06033963e-01 -3.91763508e-01 -3.85599971e-01 -6.48714304e-01 -6.72345877e-01 -4.76132393e-01 -4.56880420e-01 -7.44185271e-03 -6.20758593e-01 -6.46902144e-01 +1.65531921e+00 -3.92390549e-01 -1.50062943e+00 -2.36375153e-01 -2.60081261e-01 -1.36492699e-01 -3.56111854e-01 +2.21619129e+00 +8.29650402e-01 -2.04136819e-02 +1.26770973e+00 +1.31211326e-01 +7.12107539e-01 -7.42093027e-01 -2.86825848e+00 +7.49775350e-01 -8.26480538e-02 +1.36481570e-02 -3.17855179e-01 -4.33624208e-01 +1.54891938e-01 -4.56748277e-01 +1.53307557e+00 -3.59539211e-01 +6.65789723e-01 -4.42212403e-01 -2.44481742e-01 -2.54642344e+00 +3.23101819e-01 -1.75677609e+00 +1.30886436e+00 +3.42077255e-01 +6.88496754e-02 +3.73918980e-01 +3.16845924e-01 +1.93848833e-01 +3.84419888e-01 +5.41217268e-01 -3.18898767e-01 +2.45996624e-01 +1.06074345e+00 +6.31429851e-01 -1.37946039e-01 +8.68232846e-01 -6.00450575e-01 -1.03243195e-01 +1.04076183e+00 +3.28265816e-01 -4.04757187e-02 -5.09948492e-01 +2.81755850e-02 -8.71040344e-01 +7.18344450e-01 -3.38344902e-01 +3.56029481e-01 -5.26105881e-01 -5.45224786e-01 -4.64857459e-01 -1.21363193e-01 -7.42927670e-01 +5.02874911e-01 -8.29776466e-01 -4.11406040e-01 +3.09119672e-01 +8.79849643e-02 -1.24050081e-01 +1.66285053e-01 -9.29764062e-02 +4.83237803e-01 +2.98561215e-01 -2.72157073e-01 -1.06785074e-01 +4.51200902e-02 +8.15672576e-02 +4.83826518e-01 +3.81946921e-01 -3.44823629e-01 +1.06571287e-01 +3.94946635e-01 -3.77278924e-01 +6.46527112e-01 +7.38710821e-01 -2.58309036e-01 -4.11898732e-01 +9.14188862e-01 -4.11139458e-01 +6.66005135e-01 -6.12094104e-01 +1.65260717e-01 -4.43879575e-01 +1.48104203e+00 -2.51344204e-01 -3.20056170e-01 +1.26523450e-01 +3.67961498e-03 +3.08436044e-02 +4.40775976e-02 -3.45316976e-01 +5.88985980e-02 -7.56439269e-01 -9.55853462e-02 +2.63832420e-01 +6.34680927e-01 -2.45089799e-01 +4.21995670e-01 -4.76523191e-02 +2.02897012e-01 +8.58172536e-01 -3.68599892e-01 +5.83488345e-01 -1.11884761e+00 +6.24936402e-01 +5.85488915e-01 -5.38860083e-01 -8.67970109e-01 -7.49278441e-02 +3.00488412e-01 +1.81928620e-01 +2.06076756e-01 +4.97862399e-02 -4.22598004e-01 -1.27239764e-01 +8.75681520e-01 +1.55126050e-01 +3.00979197e-01 +4.54091668e-01 -9.49410498e-01 -1.17143624e-01 +7.31015563e-01 +5.06216109e-01 -6.52088642e-01 -3.40270996e-03 +2.15235204e-01 +4.59154934e-01 +4.39231068e-01 +2.42277291e-02 -2.39163578e-01 -7.75830299e-02 -8.15586805e-01 -2.22265899e-01 +7.06571043e-01 +3.03052992e-01 -1.37952462e-01 +2.17821598e-01 +3.52535099e-01 -1.51007295e-01 +1.01162827e+00 +2.27723598e-01 +1.68349862e-01 +4.68566656e-01 +6.23816490e-01 +3.73507470e-01 -8.04492310e-02 +3.06947142e-01 +4.93845433e-01 +1.45994857e-01 -7.27680027e-02 +5.99386133e-02 -8.75869632e-01 +3.87761235e-01 +5.67242563e-01 -3.61767799e-01 +3.34621221e-01 -1.87364712e-01 +4.22999144e-01 -2.38840371e-01 +8.89137611e-02 +2.46846661e-01 -2.47267187e-01 +1.82677627e-01 +7.52664804e-01 +2.16035083e-01 -7.04052031e-01 -3.05704832e-01 +3.19524519e-02 -3.75156701e-01 +3.53783727e-01 +9.48607922e-01 -9.96256545e-02 +1.18929006e-01 +2.38779813e-01 -9.09843445e-02 -2.19854936e-01 +4.46872532e-01 -3.92052919e-01 -2.68249571e-01 -7.44182169e-01 +6.12596512e-01 -2.31092703e-02 +4.74795848e-01 +1.09102261e+00 +4.17097181e-01 -4.09210891e-01 -8.61088157e-01 +1.12496100e-01 -6.53966606e-01 +7.60092974e-01 +4.00466263e-01 +4.68401164e-01 -2.16309518e-01 -4.68695909e-01 +6.19395971e-01 +1.29262894e-01 -9.48610723e-01 -2.12907031e-01 -7.68954679e-02 +4.60730851e-01 +6.97987854e-01 -4.91393566e-01 +3.21991146e-02 -1.62630051e-01 +4.48165268e-01 +1.43523231e-01 -4.70363200e-01 +8.73257667e-02 -5.05716741e-01 -1.85717732e-01 +2.04644695e-01 -1.48000583e-01 -8.65726292e-01 +7.09591329e-01 +2.01850563e-01 +1.66685447e-01 -3.08177590e-01 +9.09589648e-01 -6.81047797e-01 +5.22688687e-01 -1.42028881e-02 +3.52553666e-01 -6.20855577e-02 +4.72771704e-01 -2.25583851e-01 +6.46642804e-01 -1.42809615e-01 +1.10078901e-01 +1.28082156e-01 -2.21001759e-01 +5.51426172e-01 +1.40079660e-02 -3.23352739e-02 +9.17994261e-01 +1.53182164e-01 -5.09699345e-01 +2.31478759e-03 +1.06211913e+00 +1.65152118e-01 +4.81685668e-01 +2.21549422e-01 -5.75155951e-03 +1.65702477e-01 +6.38873994e-01 +6.38213277e-01 +2.01774701e-01 +1.05812824e+00 +9.33378160e-01 +3.48071754e-01 -9.51197818e-02 -3.41073006e-01 +1.67771304e+00 -1.39476568e-01 +3.24355721e-01 +6.21994913e-01 +4.34910774e-01 -1.09689653e+00 -3.40916485e-01 -1.02787927e-01 +3.33374858e-01 -2.90337563e-01 -5.19191064e-02 +1.03736675e+00 +4.63444173e-01 -8.18799913e-01 +3.54109518e-02 +5.38781822e-01 +8.67036223e-01 -4.44304287e-01 +8.84439722e-02 +6.41486406e-01 -1.06314850e+00 -3.48531567e-02 -7.79429495e-01 +1.23038673e+00 +5.56637704e-01 +1.36230671e+00 +3.30341309e-01 -3.75382781e-01 +9.35228094e-02 +2.89283186e-01 -1.25639653e+00 -2.78573185e-01 +6.75900280e-01 -3.91717367e-02 +6.13341391e-01 -3.41664292e-02 +3.48223001e-01 +4.14613485e-01 -5.51754057e-01 +5.45394979e-02 +5.16040958e-02 -4.21709776e-01 -2.48665392e-01 -1.06682813e+00 -1.26973414e+00 +9.48641822e-02 -2.80823588e-01 +8.65593016e-01 +8.90010819e-02 +1.02460730e+00 -6.00061007e-02 -7.63425827e-01 -8.68233204e-01 +2.13099688e-01 +1.43194282e-02 +3.90075415e-01 -1.78995952e-01 +1.23018289e+00 +1.08926989e-01 +1.32963479e+00 +1.04387009e+00 +2.33896375e-02 +1.04132369e-01 +2.17187945e-02 -5.09948134e-01 -1.35461181e-01 -1.36572376e-01 -1.08592637e-01 -1.02069223e+00 -2.39336208e-01 -8.86823177e-01 +6.57789484e-02 +2.08529696e-01 -9.55092430e-01 -2.35619292e-01 -1.99096143e-01 +6.94467962e-01 +4.02375460e-01 -8.59932303e-01 -1.46019738e-02 -9.26210880e-01 -5.20994604e-01 -6.31933734e-02 -1.74374032e+00 +7.29671866e-02 -1.13692351e-01 -2.61579603e-01 +5.57223102e-03 -3.62607569e-01 -3.47422212e-01 -4.28027362e-02 +2.77897239e-01 -1.16550408e-01 +9.90242809e-02 +2.81764030e-01 -1.45519578e+00 +1.59245908e-01 +1.29348502e-01 -1.05217695e-02 -9.84880686e-01 -5.40932477e-01 +3.48262399e-01 -1.68053180e-01 -4.93032157e-01 -1.68006673e-01 +1.77923679e-01 -4.71955627e-01 -7.96555042e-01 -8.26395869e-01 -2.43268684e-01 -6.06841862e-01 -9.60856676e-02 +3.75132322e-01 +2.93462932e-01 +3.47607106e-01 -3.93645674e-01 -7.34207749e-01 -8.29505682e-01 -4.13288742e-01 +9.61987674e-02 -2.96024859e-01 +1.53693259e-01 +2.16655046e-01 +3.81917953e-01 +6.93581998e-01 +1.45091861e-01 +2.79073060e-01 -3.84999424e-01 +2.87159026e-01 +1.26878572e+00 +5.92461303e-02 +2.99183965e-01 -5.45332670e-01 -1.54892635e+00 +8.57485592e-01 -7.39827693e-01 +2.88911223e-01 +8.38178933e-01 +3.73374134e-01 +1.36503148e+00 -6.00890160e-01 -3.56641024e-01 -6.82869136e-01 +6.28572106e-02 +1.37523115e-01 -7.84878612e-01 -6.27133965e-01 -3.23920995e-01 -2.84408122e-01 +3.90919857e-02 +5.14408529e-01 +7.69254267e-01 -5.64895809e-01 -2.08812624e-01 +5.71206100e-02 +3.75292391e-01 -1.52700984e+00 -2.23298863e-01 -3.26677501e-01 -4.25821006e-01 -1.01041332e-01 -7.23383248e-01 +5.14999807e-01 -1.20131826e+00 +7.34085739e-01 -3.72864544e-01 -6.09700501e-01 -3.61438960e-01 +2.13441983e-01 -2.73463316e-02 -2.15779275e-01 -1.79569274e-01 -6.84919134e-02 +6.62269369e-02 -6.80903137e-01 +1.24673136e-01 +1.15290284e-02 +1.46876812e-01 +1.68564737e-01 -6.58567190e-01 +3.74836802e-01 +1.02846824e-01 +8.70317280e-01 +2.46883497e-01 +7.64440238e-01 +7.04178095e-01 +8.77823234e-01 +7.09108472e-01 -1.93758607e-01 +6.72958314e-01 +6.07067406e-01 +1.72927022e-01 -1.26944602e-01 +1.54247386e-02 -1.12769023e-01 +8.04305896e-02 +2.35003978e-01 -2.10358053e-01 +1.87532790e-02 +2.82093823e-01 +5.91557980e-01 +2.74281859e-01 -2.84044474e-01 -1.02369595e+00 -5.95016122e-01 +3.19983095e-01 -3.32648516e-01 -3.98879260e-01 -5.54861903e-01 +3.66148621e-01 -1.22305739e+00 +2.41875827e-01 -9.39649343e-01 -1.37264982e-01 -3.05084646e-01 -6.80477619e-01 -3.66697401e-01 +9.39992011e-01 -2.50754297e-01 -3.19897324e-01 -3.09044421e-01 +3.54258507e-01 -4.93039697e-01 +2.68800288e-01 +2.28592798e-01 -1.16390809e-01 -5.08488953e-01 -8.13867971e-02 +3.37387830e-01 +2.88141847e-01 -3.76764655e-01 +5.70673704e-01 +6.40550256e-02 -4.62203026e-01 +6.81046724e-01 -4.08952832e-02 +6.48546815e-01 +2.05361858e-01 -4.04589102e-02 -5.02447546e-01 +5.52944541e-02 -8.07040513e-01 +3.13729048e-01 -3.69810313e-01 -2.38006823e-02 +2.05752909e-01 -4.49083000e-01 -1.02061343e+00 -1.54783040e-01 -6.04003407e-02 -2.83022314e-01 -3.14467371e-01 +4.42274302e-01 +9.57807675e-02 +2.86831290e-01 +5.18199444e-01 -3.41369897e-01 -8.22731927e-02 +2.34973192e-01 -2.14859158e-01 +1.50241172e+00 +6.14102006e-01 +1.74677894e-01 +1.54553158e-02 -5.93886733e-01 +1.65090412e-01 +9.94041145e-01 -5.77508390e-01 +7.64416857e-03 -3.35537255e-01 +1.33766606e-01 -3.67311656e-01 -2.88567990e-01 -1.45090863e-01 -3.29511166e-01 +7.56091714e-01 +4.91299778e-01 -5.67732692e-01 -3.93006474e-01 -2.29334787e-01 -9.90870416e-01 +1.69045746e-01 +2.48767640e-02 -1.02788568e-01 -3.20831761e-02 -8.60101879e-01 +4.65914369e-01 +3.31993610e-01 -4.82628793e-01 -1.50664493e-01 +3.09683472e-01 -1.71959788e-01 +5.84470741e-02 -5.49707770e-01 +4.61827040e-01 +2.12200925e-01 +2.82860845e-01 -9.06380355e-01 +4.87143308e-01 -1.84558257e-02 +1.01365149e+00 +7.86735490e-02 +6.38440847e-01 -2.29464054e-01 -2.41103292e-01 +2.80803949e-01 +4.28401738e-01 +5.78755021e-01 +3.59210342e-01 +1.85510501e-01 +9.23837245e-01 -1.10084116e-01 +6.80703700e-01 -2.94781059e-01 -6.91101432e-01 -1.72272712e-01 -5.52423835e-01 -1.67020753e-01 -3.43414068e-01 -7.23069549e-01 -1.43919364e-01 -3.70102912e-01 +1.00062215e+00 -4.68111962e-01 -3.15180391e-01 +5.81825256e-01 +8.86021405e-02 -1.89828441e-01 -3.11742723e-01 -1.08960831e+00 -5.18990755e-01 +4.88732815e-01 +3.48970711e-01 +1.97093710e-01 +8.38367343e-02 -6.15455285e-02 +2.10654944e-01 -5.68502843e-01 +7.40909725e-02 -3.07797134e-01 -2.76976615e-01 -3.31559926e-02 +8.27575848e-02 +8.67907703e-01 -6.78178728e-01 -7.57678002e-02 +9.04081091e-02 +3.48267076e-03 -1.58666387e-01 -3.66008610e-01 -1.09079733e-01 +2.50505894e-01 -5.90920627e-01 +1.85048521e-01 -7.97759593e-01 -1.00572295e-01 +8.73092055e-01 +3.25409383e-01 -2.47842535e-01 +4.37817961e-01 +1.72517031e-01 +4.27916586e-01 +4.20680195e-02 -1.86502862e+00 -8.43640044e-02 -1.85199603e-01 -6.45643294e-01 -3.47649395e-01 +8.02044451e-01 -6.16010964e-01 -4.01114076e-01 -2.33622342e-01 -8.13506067e-01 -3.93457890e-01 -1.35131216e+00 +5.47191858e-01 +3.44621867e-01 -3.83830406e-02 -5.17493822e-02 +2.17855841e-01 +2.47621790e-01 +2.77303636e-01 -9.57593381e-01 -1.09426990e-01 +2.58310176e-02 -1.62024164e+00 +6.90765977e-01 -1.50480473e+00 +8.25986788e-02 +5.07527962e-02 +5.15387177e-01 +1.23943157e-01 -9.60505188e-01 +1.30230129e-01 -2.36217901e-01 -2.48275310e-01 +2.61271298e-01 +7.20223486e-01 +4.09974128e-01 -2.27781311e-02 -9.87900615e-01 +2.14160487e-01 -1.03459692e+00 -3.60023052e-01 +1.08380876e-01 -1.03208327e+00 +4.99085873e-01 -1.73660445e+00 -1.66933906e+00 +4.78111356e-01 +5.99324942e-01 -2.81640500e-01 -7.65258133e-01 -1.68325603e-01 -3.00527155e-01 +1.05570428e-01 -2.58371413e-01 -1.73671111e-01 +8.37755680e-01 -8.08978975e-01 -6.03632569e-01 -6.11331761e-02 +2.16621518e-01 -1.87843330e-02 -2.50973273e-02 -3.93764615e-01 +2.64306188e-01 +1.43684697e+00 -4.28671598e-01 -2.23504946e-01 +2.17222758e-02 +1.69818223e-01 -3.69773507e-01 -2.43477240e-01 -4.17862535e-01 -3.20056915e-01 +1.52255431e-01 +2.20796973e-01 +1.50135875e+00 +3.04509282e-01 +3.97964001e-01 -5.40694296e-02 -5.89741826e-01 -2.99118429e-01 -2.54091918e-01 +7.28199780e-01 +4.73384589e-01 +2.11635247e-01 +3.28785747e-01 +5.70135415e-01 -4.15019654e-02 -2.97007244e-02 +3.71605679e-02 +3.93930644e-01 -2.10773811e-01 +9.67817232e-02 +2.58408606e-01 +4.53692526e-01 -3.84198338e-01 +6.84833586e-01 +1.59341186e-01 +5.58772730e-03 -3.96636456e-01 +9.41793025e-02 +2.02149248e+00 +4.04520869e-01 -5.22734523e-01 -2.56256878e-01 +9.11334008e-02 -9.18609202e-02 +3.81444991e-01 -6.40844479e-02 -3.32269222e-02 +3.35354328e-01 -1.01944947e+00 +6.67858049e-02 +2.19307825e-01 +3.60616893e-01 -9.35904980e-02 -1.18710406e-01 +7.74583593e-02 +4.19251710e-01 -1.20653659e-01 -6.49040714e-02 +3.55769426e-01 +1.18659042e-01 -1.56751037e-01 +3.04300994e-01 -1.04952209e-01 +2.97296524e-01 -9.18429673e-01 -5.54275453e-01 +7.41594374e-01 -1.27674282e-01 +3.13878059e-01 +2.49662057e-01 +4.53477561e-01 +4.25865561e-01 -4.25900310e-01 +4.33234483e-01 -6.78788006e-01 +5.76148331e-02 -3.25356126e-01 -9.04554352e-02 +1.70602813e-01 +1.59192353e-01 +1.61988080e-01 +5.01865745e-01 +2.74378359e-01 -2.40993902e-01 -8.28535974e-01 -2.60938615e-01 -2.55873770e-01 -6.53629526e-02 +5.94924837e-02 -3.41325790e-01 +1.92522034e-01 +4.93431427e-02 -1.75709248e-01 +6.96200609e-01 -1.25459778e+00 -9.97134924e-01 -5.14552593e-01 -5.67798577e-02 +2.34965190e-01 -2.76992396e-02 +5.48493803e-01 +3.27029437e-01 +3.19199026e-01 -4.26727198e-02 +3.26587081e-01 -1.48678690e-01 -2.58489400e-01 -3.07673603e-01 +2.71443967e-02 -5.86098552e-01 -2.00045109e-01 -1.70958489e-01 +3.37476015e-01 +1.85711935e-01 +7.62617111e-01 +2.09794298e-01 -2.79597342e-01 -2.45584950e-01 -8.38595927e-02 +8.80887866e-01 -2.91610241e-01 +1.69943988e-01 -6.04463220e-01 +4.23303336e-01 +1.06781289e-01 +3.46545666e-01 -6.13505431e-02 +6.84163213e-01 -2.81862058e-02 +4.66039866e-01 -5.88692486e-01 -1.06247351e-01 +6.85032070e-01 -3.94959569e-01 +4.92653549e-01 +1.51372507e-01 -1.92958921e-01 +2.02191025e-01 +3.39526057e-01 +1.25016440e-02 -2.54296005e-01 -6.68306351e-02 -4.79882330e-01 +2.47894630e-01 -7.64891446e-01 +1.34170532e-01 +2.87432969e-01 -2.45680630e-01 +1.95526779e-01 +5.69480836e-01 +8.35492790e-01 +3.50974709e-01 +1.25952646e-01 +3.65219414e-01 -2.17331544e-01 +4.66418147e-01 -9.18881148e-02 +5.79757512e-01 -4.97096151e-01 -3.11163872e-01 -7.22283199e-02 +1.08558106e+00 +1.92801702e+00 -8.32658112e-01 -4.80850972e-02 -3.17368507e-02 +4.08073626e-02 -3.19748223e-01 +1.13560103e-01 +5.19991934e-01 +2.39515707e-01 +7.24774539e-01 +5.72837949e-01 +8.75432253e-01 +6.56218410e-01 +9.66184556e-01 +1.84795007e-01 +2.12588334e+00 -9.46256936e-01 +7.10663870e-02 -2.85860468e-02 +2.68134326e-01 +1.12949586e+00 +3.38359654e-01 +3.53073537e-01 +5.97469687e-01 +1.16048083e-01 -1.02310404e-01 +1.53292529e-02 +5.50720692e-01 -1.53252497e-01 -5.50169170e-01 +8.82697999e-02 -1.67402342e-01 -6.45886660e-01 -3.16990256e-01 +2.33340994e-01 -3.33700299e-01 +4.15416300e-01 +1.42252864e-02 -1.56758392e+00 +1.07501137e+00 +6.30691588e-01 -6.49072155e-02 -3.40302855e-01 +3.33466172e-01 +5.39355218e-01 +5.32909334e-01 -5.20271182e-01 +3.73631954e-01 -6.88004076e-01 +1.91969439e-01 +1.06456935e+00 -1.34430933e+00 +4.49779093e-01 -4.54764813e-01 +1.82275936e-01 +2.91644543e-01 +4.16748941e-01 +4.55272555e-01 -4.24681216e-01 +1.06988475e-01 +4.43074763e-01 -1.03189945e+00 -3.08976322e-01 -3.25270146e-02 -1.10689409e-01 +5.34134746e-01 +3.41836989e-01 +1.74174145e-01 +1.86537325e-01 -5.35007477e-01 -6.90540612e-01 +1.50689483e+00 -6.16068661e-01 -1.18048668e+00 +3.70214581e-01 +2.36988321e-01 +8.86703491e-01 -8.33998844e-02 +8.39906693e-01 +8.49464059e-01 -9.77509618e-02 +9.85713527e-02 -1.02030538e-01 +4.70434517e-01 -1.48418772e+00 -2.51486361e-01 -2.04129830e-01 +1.60312667e-01 -5.03406227e-01 +4.51215357e-01 +3.84093285e-01 -2.01808158e-02 +4.51932736e-02 -4.62379381e-02 -3.42214972e-01 -3.72461408e-01 -1.00521755e+00 -6.96327209e-01 +9.57368612e-01 -4.08183694e-01 -7.56005272e-02 +2.74757355e-01 -1.81331325e+00 +1.35134709e+00 -5.16723335e-01 -3.45062792e-01 -2.64384389e-01 +7.43595837e-03 -1.13631867e-01 +1.63905576e-01 +8.73715281e-01 +5.65161169e-01 -1.93930137e+00 -5.95014870e-01 -3.26763690e-01 -8.70853961e-01 +3.81321371e-01 -5.64276040e-01 +6.73313141e-01 -3.23021486e-02 -3.37538868e-01 -5.00074148e-01 -3.09057862e-01 +8.34624469e-01 +1.24120796e-02 +3.44342589e-01 -2.58276343e-01 -3.71873081e-01 +9.29993093e-02 -1.59813404e-01 +7.09506929e-01 +2.20677912e-01 +8.37210357e-01 +1.63842455e-01 -3.70019168e-01 -2.09737897e-01 -1.22739479e-01 -1.54096496e+00 +1.58271566e-01 +4.52674441e-02 +5.64090550e-01 -4.82837200e-01 -3.46065201e-02 +4.21801835e-01 +2.72015572e-01 +3.65716428e-01 +8.68825018e-01 -3.09987277e-01 +1.96910679e-01 -8.72511268e-02 -3.77045184e-01 -5.60884237e-01 -4.81883921e-02 +7.59691224e-02 -2.44061321e-01 +1.40175849e-01 -6.35801256e-01 +4.83126938e-01 +5.40811539e-01 +1.69467162e-02 +4.84093688e-02 +1.14585900e+00 -1.02553278e-01 +7.93725789e-01 -1.09943859e-01 -4.15045083e-01 +6.34806678e-02 +1.54474750e-01 +5.60181260e-01 +3.41477275e-01 +4.48091090e-01 -1.42216831e-01 -5.20713210e-01 +4.46294188e-01 +2.24278122e-02 +1.10428408e-01 +1.06801629e-01 -8.58974308e-02 -4.79947150e-01 -5.29980659e-01 +5.72246797e-02 -9.39242780e-01 +5.90778053e-01 -5.66949189e-01 +3.42470109e-01 +7.90762529e-02 -6.99954703e-02 +5.20352662e-01 -9.68803287e-01 -9.91379082e-01 -6.63367629e-01 -1.02161300e+00 -1.15026027e-01 -2.73572445e-01 +1.89529136e-01 +3.89212489e-01 +1.04437041e+00 +5.70880137e-02 +5.60830295e-01 +6.65518701e-01 +4.92850304e-01 -9.09737527e-01 -4.87094671e-01 -7.19489872e-01 +2.98174582e-02 -3.38457972e-01 -6.09633744e-01 -2.30854955e-02 +4.83718067e-01 -1.72019199e-01 +8.07329863e-02 -2.92318553e-01 +9.66834426e-01 -3.59257579e-01 +7.79739842e-02 -4.37311351e-01 -5.46558917e-01 +5.97252369e-01 -3.14751834e-01 -1.51561335e-01 +2.12545857e-01 -1.43860340e-01 +4.88344699e-01 -8.25400352e-01 -2.49097541e-01 +2.82641083e-01 +3.20895731e-01 +1.01458855e-01 +8.11080113e-02 -2.90240854e-01 -5.32069445e-01 +1.65061995e-01 -5.07709265e-01 +5.45205891e-01 +1.38483539e-01 -2.68181115e-01 -2.01776549e-01 +6.19206727e-01 -1.08670443e-01 +5.13823211e-01 +6.08096719e-01 +2.69993335e-01 -2.24328935e-01 +2.24538162e-01 -4.30500209e-01 -1.26508272e+00 -5.69067478e-01 +1.92111973e-02 -1.49132773e-01 +7.54839629e-02 -2.69276708e-01 +1.25246033e-01 -4.51688886e-01 -1.02003801e+00 -2.15013325e-01 -1.44634023e-01 +7.30618179e-01 +5.21430016e-01 -1.64291278e-01 +2.83556245e-02 -1.61663741e-01 -5.14244437e-01 +3.00522745e-01 -6.14668608e-01 +3.41570854e-01 -9.70822871e-02 +8.21431577e-01 +4.10407186e-01 +1.28144875e-01 +2.27481917e-01 +2.31533516e-02 +1.82413220e-01 +1.18351126e+00 -3.06917995e-01 -7.79578626e-01 +4.79727685e-01 -8.25948060e-01 -8.30471039e-01 +2.27023304e-01 +6.30588923e-03 +6.88195154e-02 +2.84347385e-01 +1.02795467e-01 -3.83401841e-01 +8.40869993e-02 -4.61729318e-02 +1.25788599e-01 +1.90322921e-01 -1.23730004e+00 -7.57385850e-01 -5.76972187e-01 -4.93169039e-01 -3.10557872e-01 -6.10749900e-01 -5.99688172e-01 +2.50289310e-02 -1.98324844e-02 -6.83234692e-01 -9.81028005e-02 +2.95877736e-02 -6.09130621e-01 -5.17381251e-01 +6.09577239e-01 -6.33015215e-01 +2.75091499e-01 +6.33468390e-01 +2.83944666e-01 -3.89165193e-01 -4.42208320e-01 +1.12745202e+00 -5.29530704e-01 +2.33646289e-01 -5.85923254e-01 +4.11759198e-01 +6.73079967e-01 -2.03387380e-01 -3.62537131e-02 +1.45342931e-01 +1.67951003e-01 +8.10329199e-01 +7.54068911e-01 -4.66765285e-01 -8.61536503e-01 -1.68535995e+00 -4.26740199e-01 +4.86430340e-02 +1.85984839e-02 +3.02677602e-03 -8.09316337e-01 +4.30193841e-01 +8.37582275e-02 +4.75779712e-01 +4.53449368e-01 +8.75015378e-01 -4.26332682e-01 +1.89965665e-01 +3.04831028e-01 +6.10292912e-01 -1.87519893e-01 -2.66631618e-02 +5.45921385e-01 -1.10268474e+00 +4.04664576e-01 -4.02227908e-01 -8.61258030e-01 +4.94053870e-01 -1.14037432e-01 -2.03780904e-01 +1.37122333e-01 -3.34574431e-01 -1.38794291e+00 +4.05253500e-01 +3.03816646e-01 -1.03534505e-01 -2.61963248e-01 -2.05436826e-01 -4.90257651e-01 -1.03849256e+00 +1.94407433e-01 -8.28894079e-02 -2.23332494e-01 +5.22722483e-01 -2.71357536e-01 -9.71743092e-02 +5.26922643e-01 +4.64036167e-02 +2.07134038e-01 -4.30386156e-01 -2.58362174e-01 +1.27256572e-01 +1.78597748e-01 +3.52966815e-01 -3.52131963e-01 +2.57234666e-02 -1.89260170e-01 +3.76662761e-01 -8.65893066e-02 +5.43648720e-01 +5.51271975e-01 -2.58410275e-02 +5.95962286e-01 +6.36089027e-01 +3.04041177e-01 +3.02895129e-01 +2.22450405e-01 +3.81841250e-02 +3.85788381e-01 +2.01589316e-01 +9.85158607e-02 +5.43747246e-01 +3.06034852e-02 +1.39273703e-01 +3.29345435e-01 +5.80571055e-01 +1.29793450e-01 -5.13151824e-01 +4.46545295e-02 +4.11678925e-02 +3.86385560e-01 -8.10893551e-02 +3.65779102e-01 -2.97252648e-02 -8.78792163e-03 +3.42510045e-02 +1.09864458e-01 +4.93488669e-01 +3.14589202e-01 +2.60619611e-01 -3.51953566e-01 -3.88868690e-01 +2.51501501e-01 -3.49161923e-01 -4.57425416e-01 +1.52686700e-01 +4.58225250e-01 +8.77497137e-01 +3.11160922e-01 -2.38755077e-01 -1.56406224e-01 +1.20599292e-01 -9.32923928e-02 +5.34157217e-01 +2.11830791e-02 +5.81163287e-01 +1.07600808e+00 +2.46675521e-01 +3.13419908e-01 -7.00325966e-01 -4.86993968e-01 +2.74462491e-01 -1.69155914e-02 +1.90654993e-02 +3.49405169e-01 +2.43220493e-01 -2.08942279e-01 +3.14139158e-01 -2.21309558e-01 +4.72609907e-01 -6.65764332e-01 +5.17777264e-01 -8.60730469e-01 +7.59095788e-01 -1.12768136e-01 -1.67605922e-01 +2.57749259e-01 +2.92643100e-01 +2.47698456e-01 +2.06877440e-01 -5.36184192e-01 -1.54466227e-01 -5.72113216e-01 -1.57375894e-02 -1.22547805e-01 -3.23047310e-01 +3.44107985e-01 +3.54009978e-02 -3.01659107e-01 -7.29459152e-02 +3.26198161e-01 +1.92739204e-01 +1.03689730e+00 -3.94985527e-01 +1.53694794e-01 -4.66401696e-01 +9.88630593e-01 -1.93502128e-01 -1.56424135e-01 +3.84248607e-02 -2.58139729e-01 +8.20669949e-01 +2.54425071e-02 +2.32355013e-01 +1.50914878e-01 -2.93237776e-01 +3.58785719e-01 -1.94997430e-01 -8.41456652e-01 +6.50887251e-01 -2.68568188e-01 -8.84976268e-01 -2.50760525e-01 -2.51911789e-01 -4.58396405e-01 +2.13167757e-01 -6.40824363e-02 +3.66009772e-02 +2.38052174e-01 +1.90120369e-01 -4.11619574e-01 -2.65569657e-01 -1.58235896e+00 -1.84360489e-01 -2.14147642e-01 -9.06696379e-01 +9.34737623e-02 -2.92919785e-01 -5.40640801e-02 -9.81918156e-01 -5.97500324e-01 -3.02174896e-01 +7.26779640e-01 -3.51867378e-01 +3.01918000e-01 -1.01512182e+00 -6.72463059e-01 -1.27382100e-01 -1.04376328e+00 +3.87387872e-02 -6.89178169e-01 +3.16190004e-01 -2.80203700e-01 +1.77614152e-01 -1.45367312e+00 +1.99018978e-02 -1.23981094e+00 -4.28029716e-01 +6.96571171e-02 -1.56130850e-01 -7.22167715e-02 +4.48359758e-01 -9.52774845e-03 -2.61930853e-01 -1.48434579e-01 +3.01469296e-01 -3.54757607e-01 -1.46937236e-01 +2.11607993e-01 -5.15448630e-01 -1.99495554e-01 +2.74649322e-01 +6.16852820e-01 -5.19071937e-01 -2.94043303e-01 -2.86649585e-01 -6.88283443e-01 -1.14597887e-01 -2.75631487e-01 +8.63484025e-01 -6.96854830e-01 -6.80165365e-02 +6.11504793e-01 +1.06564425e-01 -5.14759123e-01 -1.47213005e-02 +9.13076222e-01 +2.85552174e-01 +2.64157414e-01 +1.84586242e-01 +9.56224024e-01 +4.41494226e-01 +7.64180943e-02 -4.26636815e-01 -6.72444224e-01 +2.18787551e-01 -6.15120709e-01 +6.16699457e-01 -1.75411656e-01 -2.50675768e-01 +2.65166670e-01 -1.23441637e+00 +2.97227740e-01 +4.73129153e-01 -1.28934085e+00 +5.38649678e-01 +9.27814990e-02 +9.95997429e-01 -1.34814113e-01 -6.93342209e-01 +2.94263735e-02 -1.54682966e-02 -8.45800936e-01 +7.75300920e-01 -1.17461599e-01 -8.64180028e-01 -1.32466722e+00 -4.09142792e-01 -5.47572672e-01 +6.68077618e-02 +3.70866954e-01 -1.35943398e-01 +5.66239119e-01 +6.43490255e-02 +6.66221082e-02 +5.80968201e-01 -1.50535667e+00 -1.65454283e-01 +1.11494863e+00 -2.46634230e-01 +4.65155005e-01 +1.84134588e-01 +3.74059677e-01 +6.53029978e-02 -9.92212221e-02 -6.33698523e-01 -2.57219486e-02 -5.27328014e-01 +1.07947826e-01 -2.45467350e-02 +2.98650861e-01 -6.86643362e-01 +5.25440633e-01 -1.97059825e-01 -1.28467560e-01 -9.66651440e-01 +1.35633573e-01 +1.79578319e-01 +3.40420246e-01 -9.65975672e-02 +2.92936593e-01 -3.28503639e-01 -4.13845807e-01 -5.66852033e-01 +7.87804604e-01 +1.67900801e-01 -7.19036818e-01 +2.93205082e-01 -6.61454573e-02 +1.72029421e-01 -6.18047297e-01 -9.78668220e-03 +4.48539257e-01 +3.01762462e-01 -6.32156193e-01 +5.27256072e-01 +2.90972650e-01 -9.09197211e-01 +1.82837337e-01 -2.74124056e-01 -4.07984853e-03 -4.96642947e-01 -2.43479863e-01 -1.92849115e-01 +4.35015885e-03 -9.54457000e-02 -1.27376750e-01 +5.03556132e-01 +6.96125805e-01 -1.81132942e-01 -3.34891006e-02 -2.34622583e-02 -7.24541128e-01 -7.06972718e-01 -1.50368840e-01 +2.08912864e-01 -3.15363258e-01 +6.52968109e-01 +3.47308904e-01 -1.69327572e-01 -2.01946408e-01 +3.11768830e-01 +1.12156308e+00 -1.15191436e+00 -5.92139006e-01 +2.51465768e-01 -7.34480917e-01 -7.42232203e-01 -4.93004978e-01 -1.47747248e-01 -4.62127268e-01 -6.83728978e-02 +4.28503245e-01 -1.04961157e-01 +6.47680983e-02 -1.31042171e+00 +5.85402250e-02 +1.42798230e-01 +3.60055417e-01 -4.80023742e-01 +5.21379471e-01 -3.33076209e-01 -1.63251787e-01 +9.18295085e-01 +1.59879327e+00 -5.09675704e-02 +3.86741340e-01 +3.91349345e-01 +1.88863277e-01 +2.80439019e-01 -6.19569756e-02 +4.81397986e-01 -1.50617631e-02 +2.98241109e-01 +4.63689834e-01 -6.52095199e-01 -7.34229684e-01 +3.29451114e-02 -9.32712108e-02 -2.35967293e-01 +3.29888612e-02 -4.73303318e-01 +4.72308695e-01 -3.13286260e-02 +3.84500027e-01 -3.07362497e-01 +7.84336627e-01 -1.23778999e+00 +5.85407019e-01 -1.54313779e+00 -1.93571597e-02 +1.08867836e+00 +3.86878520e-01 -5.31607926e-01 +4.13686037e-01 +6.81126237e-01 +4.82363313e-01 -3.20232779e-01 +7.49111176e-01 +5.76921344e-01 +1.01459944e+00 +6.52817369e-01 +2.23371938e-01 +7.55795836e-02 -6.08580947e-01 +6.34744048e-01 -2.80347079e-01 -3.89278620e-01 -1.75294593e-01 +6.67042673e-01 -9.51782167e-01 -3.28242481e-01 -1.03089833e+00 -1.15500502e-01 +3.31137568e-01 -2.93173566e-02 +9.53536257e-02 +7.53167495e-02 -3.00855994e-01 -3.45083356e-01 +2.31156856e-01 -8.11559975e-01 +3.87196481e-01 +5.36623716e-01 -1.43391654e-01 -1.27519238e+00 +2.37627000e-01 +1.08738530e+00 +1.08145565e-01 -2.77645975e-01 -5.16502321e-01 -3.65275741e-01 +4.91951779e-02 -3.93805444e-01 +5.66272378e-01 +4.26508307e-01 +5.86781884e-03 -4.42407504e-02 +3.05698037e-01 +6.44528940e-02 +7.04343796e-01 +1.74114615e-01 -1.60180151e-01 -5.42292953e-01 +2.76047766e-01 +7.84497499e-01 +2.30039552e-01 +4.62691009e-01 +5.23137927e-01 +8.61153603e-01 +3.77099030e-02 +3.31443571e-03 -1.66610345e-01 +8.54967117e-01 -4.25790660e-02 -6.47546425e-02 +9.33690965e-01 +1.52756706e-01 +2.99536139e-01 +9.75978449e-02 +7.96175241e-01 -5.59209228e-01 -2.80731320e-01 +8.57816485e-04 +7.78051972e-01 +7.24962175e-01 +3.06054205e-01 +8.66657495e-02 +1.26567185e-01 +7.99039602e-01 +3.84517252e-01 +2.79623061e-01 +4.24622059e-01 -2.97106773e-01 -4.47829247e-01 -2.39315063e-01 -2.10493103e-01 -5.43964565e-01 +1.13975370e+00 +5.40281534e-01 +7.96247274e-02 +6.81733012e-01 -4.10229564e-01 -2.18704920e-02 -3.95710528e-01 -3.51373106e-01 -6.69835865e-01 -5.35225123e-02 -5.21164179e-01 -6.11272573e-01 -5.61924934e-01 -1.73941135e-01 +2.83473939e-01 +1.75499678e-01 -1.58136323e-01 -2.53602982e-01 +5.27949572e-01 +2.33371884e-01 -1.97315946e-01 +2.35439792e-01 -4.82256740e-01 +4.54843789e-01 +1.69880837e-02 +1.71734273e-01 +2.89421469e-01 -1.32806182e-01 +1.70082390e-01 +9.51189578e-01 -5.13824344e-01 +6.83916390e-01 -4.88896310e-01 -4.52750027e-01 -3.03302258e-01 +1.07547748e+00 -6.70064539e-02 +2.27594733e-01 -7.16611445e-01 +1.88769162e-01 -3.75413775e-01 +1.11932151e-01 -8.90198816e-03 -2.19281122e-01 -3.22242118e-02 +4.59024698e-01 -5.09198427e-01 -5.72046757e-01 -3.48114669e-01 +2.70917654e-01 +5.23419380e-01 +6.23250782e-01 +7.45069563e-01 -4.08163518e-01 -1.71975553e+00 +7.02952445e-01 +2.18020186e-01 +1.07382500e+00 +9.96847823e-02 -3.97810608e-01 +2.15637609e-01 -1.29524708e+00 -2.82243401e-01 -3.40356469e-01 +5.92282832e-01 +3.53587449e-01 -1.29267350e-01 +1.18865073e+00 -8.14207941e-02 +8.04453015e-01 -2.67462283e-01 -3.36697906e-01 +3.04448485e-01 -3.53830874e-01 -1.73208922e-01 -3.11031282e-01 +1.79410845e-01 -5.05184293e-01 -3.24499398e-01 +1.36080787e-01 -2.45862216e-01 +1.02282941e-01 +8.83853495e-01 +1.19499719e+00 -4.67375726e-01 +5.63050210e-01 +7.46394694e-02 -5.89184523e-01 -4.52228546e-01 -3.46511841e-01 -6.70803308e-01 -2.33511910e-01 -6.43009126e-01 +1.04784906e+00 -1.37562916e-01 +5.45975603e-02 -3.65236312e-01 +1.85329735e-01 +6.80312634e-01 +2.89101779e-01 +1.78243965e-01 -1.26479626e-01 -4.85655479e-02 -3.96991760e-01 -2.05947801e-01 +1.18329799e+00 -2.80819714e-01 +7.70495117e-01 -2.95476764e-01 -2.72864085e-02 +6.04897380e-01 +1.24228366e-01 +2.80695409e-01 -1.62871778e-01 -1.12388504e+00 -1.90603454e-02 +2.33379960e-01 -3.15447971e-02 +1.42515093e-01 -2.07606196e-01 -3.08861881e-01 +2.05234587e-01 -1.46090845e-02 -3.15198272e-01 +7.68762052e-01 +4.38300446e-02 +3.31094041e-02 -5.63907981e-01 +8.59078586e-01 -2.07194760e-01 +2.00115010e-01 +2.50028968e-01 +3.75625074e-01 -6.85461685e-02 +1.35198981e-01 -2.16487169e-01 +4.27837729e-01 -4.84879047e-01 -5.58362678e-02 +5.27858257e-01 -1.52928993e-01 -1.83133692e-01 +1.52509958e-01 +5.60828090e-01 -4.73714590e-01 +1.35634542e-01 +3.81764621e-01 +2.48727068e-01 -7.77617931e-01 -1.18579224e-01 +9.81558323e-01 +6.74567223e-01 -2.85812974e-01 +5.20764828e-01 -5.52852392e-01 +4.54643577e-01 -1.06810346e-01 +5.28064549e-01 -2.36205801e-01 -1.86498970e-01 -6.38856530e-01 +8.70577525e-03 -8.12592685e-01 +7.95607090e-01 -4.07959759e-01 +4.49617893e-01 -1.12965786e+00 -3.71025354e-01 +5.11587337e-02 -1.38797164e-01 +2.96941757e-01 +7.31748044e-01 -6.98980272e-01 -5.11874497e-01 -7.36199379e-01 -1.79682314e-01 -4.78754967e-01 +3.14436704e-01 +4.98839438e-01 -6.25493169e-01 +3.26857030e-01 +5.02462238e-02 -9.12881076e-01 -2.31210873e-01 +2.12428927e-01 +1.84698507e-01 +4.05676998e-02 -2.64410913e-01 +5.19440293e-01 -1.15590775e+00 +1.30186990e-01 -5.90284705e-01 -1.58205569e-01 -4.78600770e-01 +2.34250650e-01 +3.45636845e-01 -1.66775987e-01 +1.26334161e-01 -2.93852538e-02 -5.43602645e-01 -7.42792547e-01 -3.87110323e-01 +5.64671278e-01 +2.92561173e-01 +4.86768752e-01 -5.96772850e-01 -4.48941439e-01 +2.43155211e-01 -1.22335218e-02 +5.03397882e-01 +7.27955461e-01 +8.92234147e-01 -3.07873577e-01 -1.44075513e-01 -8.02827120e-01 +2.16317877e-01 -3.47694397e-01 -4.23579186e-01 +5.88174090e-02 +2.14356288e-01 +3.37836929e-02 +1.03911436e+00 +2.84821447e-02 +1.90420076e-01 -1.00477610e-03 +3.91439945e-01 -2.93359756e-01 -1.89256623e-01 +1.88043147e-01 +1.76823642e-02 -6.03602529e-02 +2.87743509e-01 +4.02664095e-01 -6.94310009e-01 -5.35382748e-01 -7.41207898e-02 +2.34145463e-01 -1.48624822e-01 -7.19580233e-01 -1.06433630e-01 +4.55866680e-02 +1.04979519e-02 -2.33594552e-01 +2.73930132e-01 +1.31623268e-01 +6.36322647e-02 -3.32059741e-01 -1.58129051e-01 -4.28642333e-01 -9.45419192e-01 -2.84986228e-01 +3.34671468e-01 +1.89599767e-01 +5.07177450e-02 -6.62138104e-01 -5.59488773e-01 +1.18881248e-01 +1.47875100e-02 +1.89717546e-01 +2.43960992e-01 +3.81682478e-02 +1.14030391e-01 +3.02238646e-03 -9.16611310e-03 -5.57853639e-01 +5.19827008e-01 -7.33942747e-01 -5.07961810e-01 +6.26542687e-01 +2.32089952e-01 +9.93468702e-01 -1.22292846e-01 -4.64050740e-01 -2.67050803e-01 +2.21004128e-01 -5.79981446e-01 +2.44167611e-01 -1.46827847e-01 -3.19845945e-01 +7.23261386e-02 -5.28813839e-01 -3.29996161e-02 +2.73862302e-01 +7.73926020e-01 -1.31345630e-01 -3.08313429e-01 +1.44102320e-01 -1.43457323e-01 -6.19341910e-01 -1.04473865e+00 +2.23379135e-01 +2.69051623e-02 +6.03827417e-01 +7.01297104e-01 +4.91392702e-01 +3.94621730e-01 +8.93865883e-01 +8.12742412e-02 -7.51975358e-01 +5.07284820e-01 +3.84308279e-01 +7.60300815e-01 +3.59191000e-01 -1.26214385e+00 -1.82883739e-01 +4.65167850e-01 -1.33856046e+00 +2.40903080e-01 +2.57358938e-01 -7.38881886e-01 -5.71822047e-01 -6.37795746e-01 -5.11486173e-01 -2.34836608e-01 -1.75541842e+00 +8.97721291e-01 -4.03914601e-01 -5.71533263e-01 -3.17507982e-01 -1.72640336e+00 -6.00694776e-01 +6.41623512e-02 -3.30206789e-02 +6.06634796e-01 -3.93473655e-01 -8.19750726e-01 +1.14857161e+00 -1.21619105e-01 +1.26937896e-01 -1.89959899e-01 -4.53766249e-02 -3.57885808e-01 +7.25510657e-01 +3.67267072e-01 +1.51284084e-01 -2.49093249e-02 -7.17416763e-01 +5.47880113e-01 -3.85924071e-01 -4.39368546e-01 -2.71827668e-01 +5.83465934e-01 +1.10566847e-01 -5.17945826e-01 +2.24864647e-01 +4.43861812e-01 +7.85494089e-01 +1.65521905e-01 -1.20863296e-01 -4.14876901e-02 -5.65127909e-01 +3.17581385e-01 +2.77262449e-01 -5.38166523e-01 -3.62011343e-01 -2.10322157e-01 -2.29087323e-01 +5.00277162e-01 +2.36842737e-01 -7.64505565e-02 +4.81986105e-01 +3.42555903e-02 +6.24483466e-01 +2.29664817e-01 +7.65518069e-01 -3.39291334e-01 +2.95502603e-01 +1.10988259e+00 -2.00947039e-02 +5.04171908e-01 +1.29765123e-01 +8.26454163e-02 -6.59791147e-03 +5.54347873e-01 -3.85893047e-01 -1.16931826e-01 -1.75625280e-01 +1.90587148e-01 -7.07130283e-02 -5.57446420e-01 -2.71421462e-01 +5.43339998e-02 +1.07615459e+00 +3.32908660e-01 +3.86595875e-01 +3.00300890e-03 -5.20929277e-01 +9.99958720e-03 -9.13562000e-01 -3.35325003e-02 -4.62205440e-01 +1.90191735e-02 -4.38500822e-01 -8.34939957e-01 -6.82676435e-02 +1.00124300e+00 +5.99955693e-02 -1.86585948e-01 +4.09722745e-01 +2.24392354e-01 -4.55351293e-01 +4.90983337e-01 -7.26555943e-01 +3.77417028e-01 +1.09510016e+00 -3.61415297e-01 -6.24387622e-01 -5.92207491e-01 +9.61760104e-01 +2.84151696e-02 -1.04793632e+00 -5.72961271e-01 +1.44023132e+00 -2.89273057e-02 +1.44506216e+00 +3.71941090e-01 +4.32786047e-01 +1.20729125e+00 -3.49819869e-01 +1.61861396e+00 -2.43514404e-01 +5.14204681e-01 -8.89683366e-01 +2.31797218e-01 +3.66826564e-01 -1.06993246e+00 +4.34896797e-01 +8.02356303e-01 +1.81946069e-01 -5.83597839e-01 +4.25377369e-01 -3.90568972e-01 -9.20220315e-01 -2.29413018e-01 +7.38668799e-01 -2.54203349e-01 +2.93821722e-01 +2.21855119e-01 +6.95458472e-01 +1.60481226e+00 +5.53919256e-01 +9.30214286e-01 +8.02331090e-01 -1.78389892e-01 -2.81676263e-01 -1.45159617e-01 +1.36155844e+00 +6.89085186e-01 +3.49023640e-01 +2.33728260e-01 +9.91685212e-01 +4.17080447e-02 +6.46127701e-01 +1.40893251e-01 -7.53757432e-02 +1.56525150e-02 +2.54046232e-01 +1.26101281e-02 +4.96116251e-01 +2.89248884e-01 -3.76526624e-01 -2.18945011e-01 -1.30234823e-01 +5.57129502e-01 -5.76502681e-01 -3.57408881e-01 +3.24175388e-01 +4.22160596e-01 +1.61850202e+00 -8.12396526e-01 -3.09157744e-03 -1.13262758e-01 -3.54625046e-01 -1.11138582e-01 -4.19622481e-01 -3.92630816e-01 -4.81749296e-01 +2.09939495e-01 +4.17638510e-01 -1.73436821e-01 +2.65061796e-01 -4.09442559e-02 +3.48853767e-01 +6.98057055e-01 +5.16483724e-01 +2.63164192e-02 +6.90728903e-01 -7.38310143e-02 +1.59203887e-01 +1.07056272e+00 -4.91019160e-01 -1.88539192e-01 +3.44441235e-01 +8.61776806e-03 +1.72575310e-01 -1.37076348e-01 +4.09968607e-02 +2.77849287e-01 +8.46624076e-02 -2.47913852e-01 +4.68991995e-02 +4.14747447e-01 +8.68847892e-02 -3.36447120e-01 +6.89550340e-02 +3.03686559e-02 -2.33816326e-01 +6.44994602e-02 +4.82717276e-01 -3.02503835e-02 +1.06914163e-01 -1.49117142e-01 +1.10792510e-01 +2.31676221e-01 -1.97848111e-01 +7.17371237e-03 +5.45953929e-01 -5.18337451e-02 -2.56191362e-02 -5.06471545e-02 +9.29733098e-01 +3.60607862e-01 -4.77165759e-01 -3.95204350e-02 -4.24918473e-01 +2.35794950e-02 -7.36122653e-02 +1.00683093e-01 +1.19387627e-01 -8.74174088e-02 -1.18608989e-01 -3.86217944e-02 -3.01380828e-02 +1.61295533e-01 +1.89868361e-02 +8.79217327e-01 -9.81616415e-03 -8.99239555e-02 +4.03636068e-01 +1.07772630e-02 -3.02331656e-01 +8.60247195e-01 -1.48964852e-01 -2.13293791e-01 -4.72616673e-01 -1.59748960e-02 -3.39518100e-01 -1.10300049e-01 -9.99846905e-02 -4.32538390e-01 +2.63636500e-01 +2.80846357e-01 +2.05580041e-01 +3.50949794e-01 -3.04668039e-01 -4.12410945e-01 -1.46501511e-01 -3.34323674e-01 +6.41277656e-02 -4.22708482e-01 +3.87920514e-02 +1.56230986e+00 +9.50576067e-02 +3.54994982e-01 -5.32384813e-02 -2.13401392e-02 -4.13413733e-01 -2.83462673e-01 +2.34731391e-01 -1.73716262e-01 -1.94849625e-01 -1.35377511e-01 +7.00167660e-03 -1.77431703e-01 +4.30957079e-01 +9.02568325e-02 +1.09748624e-01 +3.08833513e-02 +2.73148209e-01 +4.55604047e-01 -4.96011198e-01 +3.76327634e-01 -3.05422515e-01 +4.95515049e-01 +2.16447324e-01 +6.66833758e-01 -4.09567773e-01 -1.26215955e-02 -2.20135033e-01 +2.18115319e-02 -7.29279339e-01 -7.28859231e-02 +1.52296886e-01 -2.65719265e-01 +5.82909465e-01 +3.15940946e-01 -2.93132454e-01 +1.44642815e-01 -4.13578510e-01 -2.53097981e-01 +2.22023893e-02 +2.59351619e-02 -5.65383315e-01 +7.52958804e-02 -2.66256809e-01 +1.68379068e-01 +2.02457264e-01 +5.89088857e-01 -1.17539540e-01 +1.07049949e-01 +1.00110799e-01 +2.55938351e-01 -2.73248017e-01 -1.19877517e-01 -2.25691095e-01 +1.94158003e-01 +5.28003350e-02 -2.07747847e-01 +7.18882978e-01 +2.37797238e-02 +1.23875991e-01 -1.62890822e-01 -5.55953607e-02 -4.31819744e-02 -2.04547375e-01 +2.71180838e-01 +6.56424880e-01 -6.60344139e-02 +4.78684576e-03 +4.60270554e-01 -2.40773141e-01 +5.95844924e-01 +5.63250557e-02 -3.04447025e-01 -5.74562550e-01 +1.37219191e-01 +1.08588979e-01 -4.17985111e-01 +1.31174728e-01 +3.55529904e-01 -4.98761535e-01 +1.16098091e-01 -1.27958193e-01 +4.09005523e-01 -8.41150526e-03 -2.76959799e-02 +2.69066915e-02 +2.95767277e-01 -8.14896822e-01 -2.56097257e-01 +2.12484598e-01 +2.94692039e-01 -1.55643478e-01 +3.67432117e-01 +1.59488901e-01 +2.68718675e-02 -3.70126903e-01 +2.84709513e-01 +3.40614915e-01 -4.63823564e-02 -5.12566231e-02 -4.85330343e-01 -2.84835398e-01 -1.86736956e-01 +2.61487007e-01 +1.16931103e-01 -5.03873408e-01 -6.07315361e-01 -2.55923241e-01 -1.29657221e+00 +1.95046172e-01 +9.56040025e-01 -5.11330962e-01 -4.43543792e-01 +2.02793017e-01 +4.02933151e-01 +1.86419144e-01 +6.80493653e-01 -4.21584137e-02 -6.10817015e-01 -2.68471748e-01 -3.94831635e-02 -9.04696211e-02 +6.09084778e-02 -1.90595508e-01 +3.49273920e-01 +2.23608360e-01 +2.05470875e-01 +2.92861938e-01 -7.89538547e-02 +1.74148679e-01 +1.74882770e-01 -1.08609296e-01 -3.90506200e-02 -2.15889320e-01 -3.25825989e-01 +1.38446301e-01 -2.03863025e-01 +1.23061776e-01 +2.08879579e-02 -1.85536668e-02 +2.18980357e-01 +4.69818532e-01 -4.07871246e-01 +6.49474338e-02 +6.20894879e-02 -1.55111670e-01 +3.06131691e-01 -2.28218660e-01 +3.61874968e-01 +1.98682547e-01 -5.72080791e-01 +2.21073300e-01 -2.43105024e-01 -4.53033596e-01 +4.99445722e-02 +2.31828287e-01 +3.43052417e-01 +2.28477865e-01 +2.35906228e-01 -2.23885760e-01 -8.05002078e-02 -7.35484138e-02 -2.24855825e-01 -1.84631988e-01 -2.01995894e-02 +2.79791206e-01 -2.95687914e-01 -4.32134986e-01 +3.70652974e-03 +6.19830012e-01 -4.98633891e-01 -1.03207126e-01 -5.34496605e-01 -1.85708642e-01 -3.05306703e-01 -2.52261341e-01 -6.08034842e-02 -5.89497745e-01 -5.88917965e-03 -1.75495416e-01 +1.65318534e-01 -2.71033138e-01 -4.54261452e-01 +2.20205829e-01 -5.83186686e-01 -4.51757967e-01 +8.88608843e-02 -2.53062576e-01 -1.84277102e-01 +3.15928161e-01 -4.19950217e-01 -7.19478250e-01 -7.05921352e-01 +3.02782990e-02 -2.01092675e-01 +5.90009630e-01 -3.26990098e-01 +6.22314289e-02 -3.42018111e-03 +4.72851902e-01 +7.57608712e-02 -5.12115359e-01 -1.51095346e-01 -2.82046884e-01 +4.23843652e-01 -4.73572284e-01 -2.29019046e-01 +4.83247072e-01 -1.00068617e+00 -7.49704123e-01 -9.07665908e-01 -2.87760913e-01 -2.47042194e-01 -1.34299263e-01 -7.03596547e-02 -4.94411826e-01 -4.30398881e-01 +3.06821048e-01 +3.04594133e-02 -4.31747347e-01 -4.38466489e-01 -2.24074372e-03 +3.59840661e-01 +2.55050689e-01 +1.07831381e-01 -5.40184498e-01 +3.94622423e-02 -4.02281620e-03 -2.92758495e-01 -6.24050438e-01 -4.06496525e-01 -4.79001552e-01 -4.42093283e-01 -1.65987983e-01 -6.58192411e-02 -2.08369657e-01 -4.42302302e-02 -5.58532834e-01 -2.84225196e-01 +1.43661761e+00 -2.93843448e-01 +3.47025901e-01 +2.49221437e-02 +1.58317521e-01 +1.44407764e-01 +5.77255189e-01 -2.52206981e-01 +4.92831230e-01 -6.71512410e-02 +2.95730919e-01 +5.72381437e-01 +3.69469196e-01 +1.27028859e+00 +1.98177919e-01 -5.22925079e-01 -6.33380651e-01 -6.06523931e-01 -5.04676485e-03 -3.60915542e-01 +5.30266948e-02 -7.97695294e-02 +1.62004545e-01 -2.02619255e-01 -3.08995605e-01 +1.15154231e+00 -1.71042591e-01 -5.25186658e-01 -8.37364912e-01 +1.52661681e-01 +4.06254232e-01 -4.62177634e-01 +7.90667176e-01 -6.41953647e-01 +1.93091124e-01 -7.60118067e-01 +6.12802505e-01 -1.02438128e+00 +4.03997421e-01 -3.08701247e-01 -4.35362548e-01 -3.97308124e-03 +5.60147688e-03 -1.64387301e-01 +6.56907499e-01 +6.69415534e-01 -1.51609510e-01 -3.23688447e-01 +2.30584159e-01 +7.43170679e-01 -1.90086275e-01 -1.24007940e-01 +1.55279920e-01 -4.12516952e-01 +2.48782501e-01 +3.41868699e-02 +5.55727184e-01 +1.13740698e-01 +8.76936764e-02 +1.43298313e-01 -7.59371265e-04 -2.74020672e-01 +9.63640213e-01 +1.12594211e+00 +2.21229851e-01 -9.80390608e-02 -2.12557688e-02 -2.90326566e-01 +6.25721738e-02 -7.68607780e-02 -8.65586996e-01 -4.95084524e-01 -6.46665633e-01 -6.99341446e-02 -7.48458624e-01 -8.60404849e-01 -7.85708249e-01 -2.34833658e-01 +2.30808184e-02 +3.71871531e-01 -2.03110963e-01 -7.69228041e-01 -7.35191584e-01 -6.13500178e-01 -1.14835098e-01 -5.15559673e-01 -1.96071640e-01 +1.56695083e-01 -4.31707442e-01 +3.09444964e-02 -4.72225994e-01 -3.67865384e-01 -4.93576258e-01 -3.17058340e-02 -1.71470389e-01 +4.96198326e-01 +4.82161462e-01 -5.22473156e-01 +1.14441603e-01 +4.66766775e-01 -1.52381450e-01 +2.71528158e-02 +4.44730192e-01 -2.83680737e-01 -7.61218369e-01 +3.12768906e-01 -1.00606300e-01 +1.90169990e-01 +6.30244911e-02 +9.17027056e-01 +8.81524980e-01 -2.20247492e-01 +1.25689387e+00 -1.91751812e-02 +6.76665068e-01 +1.26947236e+00 +1.28338015e+00 -1.12539601e+00 -7.08029091e-01 -3.75585079e-01 -1.56814829e-01 +1.19256809e-01 +8.62586737e-01 +2.55453408e-01 +1.45471007e-01 -5.93860336e-02 +1.16358645e-01 -3.01235199e-01 +5.63182160e-02 +6.49918541e-02 +1.79423600e-01 -4.98805903e-02 +1.58118412e-01 -5.68636715e-01 +9.37115014e-01 -1.23961747e+00 -1.03178537e+00 +2.89940573e-02 -7.18228161e-01 -7.34831572e-01 -2.18185946e-01 +4.25989360e-01 +3.97825509e-01 +1.20207481e-02 +1.14071503e-01 +6.19110048e-01 -1.29964435e+00 +8.05623770e-01 -2.68821716e-01 +7.10574210e-01 -1.26580203e+00 -3.02958935e-02 -9.95424867e-01 -4.03461784e-01 -3.43541890e-01 +9.77105945e-02 -2.62060791e-01 +2.90865541e-01 +1.15977274e-02 -3.42764735e-01 -1.20573759e+00 -6.26364529e-01 +4.18390781e-01 -6.09616399e-01 +4.15778130e-01 -4.43810582e-01 +3.18427473e-01 -4.99427080e-01 -3.83405566e-01 +1.46355838e-01 -3.44133586e-01 -4.49408859e-01 +4.58263636e-01 +6.24305427e-01 +4.41780388e-01 -1.18760109e+00 -1.30513191e-01 -3.08639929e-02 +7.24056661e-01 -1.37636200e-01 -1.77540109e-01 -1.63941455e+00 +9.04352009e-01 +4.43629652e-01 +3.46901685e-01 -2.63449490e-01 +3.95717859e-01 +4.05767590e-01 -7.43114769e-01 -4.61899221e-01 +5.01944184e-01 +9.29867476e-02 -2.22462952e-01 +1.92559585e-01 -1.91745266e-01 -5.21824479e-01 +5.08259892e-01 +3.98525774e-01 -6.79328799e-01 -4.89923030e-01 +1.91680610e-01 +4.12857383e-01 -7.03724146e-01 +3.50843787e-01 -5.12832880e-01 -7.39647225e-02 -3.80856246e-02 -3.87961954e-01 -5.48333645e-01 +4.14695412e-01 +5.86816549e-01 +7.05885530e-01 +1.96086422e-01 +3.50332826e-01 +9.41257715e-01 +6.85894191e-02 +4.90682572e-01 -5.68400681e-01 +1.16155401e-01 -5.03633678e-01 -4.26116496e-01 -2.51872241e-01 -5.99516749e-01 -1.62196755e-01 +9.93130326e-01 -6.18973523e-02 +1.63251057e-01 -5.22956371e-01 -9.86412913e-02 +2.66935229e-01 +3.19250733e-01 -9.63589549e-03 +3.67684126e-01 +2.34749932e-02 +1.60371497e-01 +1.61406681e-01 +2.87504047e-01 +1.33781993e+00 +1.62969038e-01 +5.15740693e-01 +4.71296519e-01 -7.92729780e-02 -2.65123010e-01 +1.18485905e-01 -1.45887569e-01 +2.48815283e-01 -2.17702817e-02 +1.66715711e-01 -3.21723223e-01 -6.00374937e-01 +2.72193938e-01 +1.01060942e-01 -5.90885758e-01 +1.41677022e+00 -3.37241590e-01 -7.26035535e-02 +4.34096940e-02 +1.57499039e+00 -4.49961036e-01 -9.60156798e-01 +4.36903834e-02 +9.84675810e-02 +5.15989542e-01 -1.11021984e+00 +6.23456538e-01 +6.21718727e-02 -1.06119943e+00 +1.06205530e-01 +9.10152555e-01 +3.82351965e-01 +1.97390169e-01 +2.50150710e-01 +4.71450657e-01 -5.21455646e-01 +1.51492739e+00 +2.59333313e-01 -5.65847099e-01 +6.05952144e-01 +3.80036324e-01 +5.33647835e-01 -1.23504388e+00 -5.76317310e-01 +1.08425200e+00 +6.04703188e-01 -1.30228728e-01 -5.86386442e-01 -1.78225428e-01 +4.17527556e-01 -4.31902051e-01 -4.57809240e-01 +5.42103469e-01 -3.55232328e-01 +4.88679437e-03 -2.67770588e-01 +1.13792919e-01 -3.41490418e-01 -7.24321008e-02 -1.36926734e+00 -3.95476848e-01 -5.66515923e-01 +2.69945830e-01 -6.69310868e-01 -4.27065730e-01 +1.98781669e-01 -1.45199895e-01 +1.06157672e+00 -1.14116812e+00 +4.21662539e-01 +6.44841611e-01 -2.00353518e-01 -3.32157314e-01 -8.28140453e-02 -5.34367025e-01 +8.40137005e-02 -1.27492696e-01 -7.19728023e-02 -4.09298986e-01 +3.49169195e-01 +4.38165665e-01 +4.49494094e-01 +1.13954619e-01 -4.49671894e-01 +5.56769557e-02 -4.06413712e-02 -1.93086982e-01 +2.15717956e-01 -4.87486362e-01 -2.91129470e-01 -8.31909105e-02 +1.15967683e-01 -1.63265854e-01 +9.97000486e-02 +1.08679458e-02 +3.31272513e-01 +2.42242411e-01 +3.07117134e-01 +2.18297660e-01 +6.68155730e-01 +5.58891594e-02 +5.77523530e-01 +4.09759521e-01 -7.68406808e-01 +3.99461329e-01 -2.03761965e-01 -1.38995975e-01 +1.50928289e-01 +9.31521118e-01 -4.50892597e-01 +4.98775423e-01 +4.82966900e-01 -4.41602111e-01 +3.72782558e-01 -1.24389201e-01 -2.05860779e-01 +5.46267807e-01 +4.02551085e-01 +2.78470039e-01 +2.03916401e-01 +7.77261376e-01 -9.74958718e-01 +3.79270613e-01 +1.88071027e-01 +3.24843168e-01 +1.68632090e-01 -4.59692657e-01 +8.97515178e-01 -3.45677376e-01 +2.82184482e-01 +6.41327858e-01 +5.97544573e-02 +2.39208862e-01 +5.14962316e-01 +5.55082858e-01 +7.32875526e-01 +4.05568063e-01 +1.20532252e-02 -2.92877525e-01 +3.20907682e-01 +3.33905578e-01 +4.88330185e-01 +7.47948959e-02 +8.26024592e-01 -3.39647084e-01 -2.63782237e-02 -6.94625914e-01 +6.68900430e-01 -4.41348478e-02 -4.22333598e-01 -5.03570616e-01 +1.22661814e-01 +3.78626496e-01 -8.53119791e-01 -3.74884963e-01 +6.56412914e-02 +8.06268871e-01 +5.14370382e-01 -4.57113564e-01 +4.07258451e-01 -2.06419323e-02 +3.61042023e-01 +4.54257578e-01 +6.55149400e-01 +3.05394739e-01 -1.34262174e-01 -2.66314484e-02 -3.07057817e-02 -5.76850176e-01 +2.17301682e-01 +1.86205581e-01 +6.22652829e-01 +1.06721830e+00 +3.82468134e-01 -4.09904867e-01 -5.76122582e-01 -8.03014264e-02 +2.48110056e-01 -4.31986481e-01 -4.21655744e-01 -2.74447501e-01 +8.06191504e-01 +1.04127362e-01 +1.81264982e-01 -4.30018641e-02 +2.44061992e-01 -7.34348834e-01 +8.01030040e-01 +5.85504770e-01 -5.87417126e-01 -3.25065732e-01 +7.49967098e-02 +2.39804745e-01 -1.64500877e-01 -5.28802097e-01 +2.88929343e-01 +1.05335593e-01 +4.08410132e-01 -1.24919705e-01 -5.89311361e-01 -4.81608838e-01 +3.33861083e-01 -8.84059608e-01 +4.42187823e-02 +2.01658905e-01 +5.90720057e-01 +2.57456869e-01 -8.08434933e-02 +2.88493127e-01 -3.68587792e-01 +8.46893862e-02 -1.78653494e-01 -4.32810128e-01 -4.90814932e-02 +2.68450946e-01 -7.00158596e-01 +2.37123698e-01 -3.34985018e-01 +1.12976328e-01 -8.45293283e-01 -6.58071220e-01 -1.39110279e+00 -4.41126078e-01 -3.49766612e-01 -7.14210808e-01 -6.39728248e-01 +9.22396064e-01 +4.33255106e-01 +2.15459451e-01 +1.39426470e-01 +5.95436357e-02 -1.47013485e-01 -8.56339097e-01 +9.28603113e-02 +1.53617695e-01 -5.93988784e-02 -1.41401619e-01 +3.91125709e-01 -7.49189407e-02 -1.55435562e-01 -7.23189473e-01 -9.31860268e-01 +2.13876724e-01 -2.41849989e-01 +1.52506540e-02 -6.63387299e-01 -2.06332818e-01 -1.43513411e-01 +2.21599534e-01 +7.07755446e-01 -4.49588120e-01 +6.66302502e-01 +6.88753873e-02 +5.45935273e-01 -9.16378558e-01 -4.99698594e-02 -3.36252362e-01 -4.43855852e-01 +2.13187560e-01 +1.50657073e-02 +2.35652328e-02 +3.31375957e-01 +4.04349804e-01 -3.81563425e-01 -7.09531307e-02 +3.52007508e-01 -2.92677730e-01 -1.64140791e-01 +3.38189006e-01 -1.92379296e-01 -3.86792958e-01 -1.93240583e-01 +4.43243027e-01 +2.67931789e-01 -8.96739900e-01 +1.20671779e-01 +5.55120766e-01 -9.75806415e-01 +8.56156170e-01 -4.67708617e-01 -4.05705631e-01 +2.90238976e-01 +3.75792533e-01 +2.03747898e-01 -9.54985619e-01 -3.64576459e-01 -3.67311895e-01 -6.87253952e-01 +3.52525264e-01 -8.21950078e-01 -3.56123477e-01 +3.00420970e-02 -1.28627026e+00 +8.93968463e-01 +3.05070400e-01 -3.13323557e-01 +4.96651456e-02 -6.02089167e-01 -4.30080444e-01 -1.20606530e+00 -2.51820087e-01 +8.93309861e-02 +4.22182620e-01 +8.30073059e-01 -4.59150702e-01 -2.50575900e-01 -4.28758442e-01 -3.82298559e-01 +1.22446772e-02 -6.62129998e-01 +1.89495776e-02 -2.76406497e-01 -9.33011621e-02 -2.26804450e-01 -1.88042700e-01 +3.61470371e-01 -2.11532205e-01 +1.85567364e-01 +4.28301126e-01 +5.49361050e-01 -6.99586749e-01 -1.32657886e-01 -1.88465446e-01 -1.50670096e-01 -2.05447435e-01 -2.27790728e-01 +7.94352740e-02 +2.02163339e-01 +3.85656416e-01 -1.47782654e-01 +9.90224838e-01 +2.01846123e-01 +1.94148436e-01 +1.26415282e-01 -8.33342254e-01 -1.13552801e-01 +1.94097370e-01 +4.50550824e-01 +4.77945283e-02 -2.10668012e-01 -3.27332050e-01 +3.90583724e-01 +9.47702676e-02 +9.03486192e-01 +1.72583342e-01 +3.92131507e-01 +1.79794133e+00 -1.56739187e+00 -2.45084763e-01 +6.81399524e-01 -2.90738530e-02 +2.58820415e-01 -1.09958601e+00 +1.89952254e-01 +2.66966760e-01 -1.25415727e-01 +6.38321638e-01 +6.11507297e-01 +1.37771800e-01 -4.01803821e-01 +4.62857962e-01 +9.58484039e-02 -4.98273879e-01 -2.21679211e-01 +1.07082343e+00 +2.30433773e-02 +5.49010038e-01 -1.36190578e-01 -1.33727178e-01 -4.87899743e-02 -5.13609707e-01 +8.60996768e-02 +2.81308651e-01 -2.23742709e-01 +3.53178829e-01 +3.65669221e-01 -5.97188175e-01 -7.61712313e-01 +6.90239847e-01 +2.58942336e-01 +4.86958295e-01 -7.73265421e-01 -1.02984393e+00 -5.55085838e-01 -9.32090998e-01 -6.10649467e-01 +1.37381613e-01 +2.96429873e-01 +1.49287328e-01 -3.88074577e-01 -1.54253006e-01 -2.84140050e-01 -1.22557737e-01 +2.09391087e-01 +1.67478004e-03 -1.85170650e-01 +8.50386083e-01 -3.97993773e-01 +3.89537334e-01 +4.02581364e-01 +3.18815827e-01 -4.01550680e-01 +1.65099591e-01 -1.01028353e-01 -1.01323855e+00 +1.38036355e-01 -1.24069929e-01 -2.17224449e-01 -6.56024516e-01 +1.48376358e+00 +1.41099036e+00 -7.54265487e-01 +6.30642474e-01 +9.57938075e-01 +3.69105130e-01 -1.39825106e-01 -6.93371654e-01 -2.63659835e-01 -6.51699841e-01 +2.14938000e-01 -9.84941244e-01 +5.32154441e-02 -1.11984611e+00 -2.46515825e-01 +4.62223254e-02 -2.03307763e-01 +1.08193421e+00 -7.01544881e-02 -5.34431398e-01 -1.58618525e-01 +6.67514980e-01 -7.73543477e-01 +1.01949120e+00 -1.38891444e-01 +1.02677926e-01 +2.40280554e-01 +1.78114459e-01 -2.76649207e-01 +1.76353440e-01 +4.02168542e-01 +3.68590474e-01 -6.38942420e-01 -1.65147558e-01 -2.31230427e-02 -2.96899229e-02 -6.74912184e-02 +4.01226878e-02 -2.37143233e-01 -4.07831013e-01 +6.80737942e-02 +4.40884717e-02 +3.04158423e-02 +5.31380236e-01 +3.04479510e-01 +2.45799497e-01 -2.83703208e-01 -3.41919154e-01 -3.70182246e-01 +1.89525500e-01 +1.97834268e-01 -5.76280296e-01 -1.99630126e-01 -5.00576377e-01 +5.36068380e-01 -5.50791882e-02 +1.99244961e-01 +7.00502574e-01 +1.17957164e-02 +1.82339296e-01 -2.94792000e-02 +3.95573318e-01 +6.15962625e-01 -3.73303264e-01 +3.45460296e-01 +1.84961170e-01 +1.60857569e-03 -2.71332264e-01 +3.77867341e-01 +1.23567015e-01 +1.01508155e-01 -1.75586894e-01 -3.30837220e-01 +4.19784933e-02 +6.39351606e-01 -2.13600695e-02 -9.62217376e-02 +1.43899485e-01 +5.68182431e-02 +2.75512397e-01 -2.27796108e-01 +2.21030951e-01 +3.17461520e-01 +9.20459449e-01 +2.91626193e-02 +4.10079837e-01 +6.02321088e-01 +1.21020060e-02 -3.62756625e-02 -1.84572905e-01 +4.22199845e-01 +2.04059169e-01 +9.34789479e-02 +2.17764840e-01 -1.19014017e-01 -1.84883907e-01 -2.47155860e-01 -4.18175906e-02 +4.38524604e-01 -5.70045769e-01 +3.09201539e-01 -1.27758846e-01 -6.57065570e-01 -1.89386904e-01 +1.79057028e-02 -1.70483798e-01 +6.05130494e-02 -6.32211983e-01 +1.05144799e-01 +2.21302271e-01 +1.92023173e-01 -5.62158883e-01 +2.57777572e-01 -1.58303395e-01 +1.44396588e-01 +5.91138899e-01 +1.09441198e-01 -4.24403138e-02 +7.07006216e-01 +2.42972746e-01 -7.84610629e-01 -7.03134954e-01 -6.33576930e-01 -2.65736639e-01 +3.73149328e-02 +4.49418038e-01 -8.79305661e-01 +3.60237688e-01 +8.55802447e-02 +1.85004622e-01 -3.97761703e-01 -8.53653431e-01 -8.36046338e-02 -1.24459147e-01 -1.02007560e-01 +2.05832608e-02 -6.17913425e-01 -1.17534637e-01 +1.29065013e+00 +5.85402310e-01 +1.72973752e-01 +8.11338365e-01 -9.28001225e-01 -7.52237976e-01 -5.00864863e-01 +2.24137589e-01 -3.17878157e-01 -6.29757524e-01 +2.17899665e-01 +3.84390354e-02 +1.99105293e-01 +1.96815714e-01 -1.56323820e-01 -6.51742145e-02 -2.76304543e-01 +2.42343871e-03 +1.26991630e-01 -2.90625393e-01 -4.13447410e-01 -1.31615222e-01 +6.04825318e-01 +6.60140336e-01 +5.90619028e-01 +5.45595944e-01 +4.24667075e-02 -5.08851409e-01 +3.56931165e-02 -2.05882058e-01 -1.68798804e-01 +3.53640229e-01 -2.43751332e-01 +7.25039169e-02 +2.34198049e-01 -4.52559322e-01 +2.43566394e-01 -3.22498381e-01 -8.63309056e-02 +2.00265884e-01 -3.81141543e-01 -6.81702018e-01 +3.20393831e-01 -7.63832867e-01 +5.35359442e-01 -8.11109468e-02 +3.05332839e-01 -2.15099111e-01 +1.87809005e-01 -1.08675444e+00 -2.91656435e-01 -1.02520674e-01 -6.88498497e-01 -2.73175448e-01 +1.81309476e-01 +5.49031384e-02 -1.82453945e-01 -2.15487763e-01 -2.69483536e-01 -4.18440491e-01 -4.73161310e-01 -4.06598359e-01 -7.72407725e-02 -3.68482083e-01 +9.86158773e-02 +8.15136075e-01 -3.53273481e-01 +4.89066653e-02 -1.61181188e+00 -3.26495558e-01 +7.44341552e-01 +3.96662876e-02 -4.89324294e-02 -3.80722553e-01 -4.76560384e-01 -1.22071750e-01 -7.10822046e-01 +3.40622187e-01 -1.97792664e-01 -1.16647995e+00 +2.01267511e-01 -7.22293973e-01 -7.54582658e-02 +2.00668409e-01 -1.29402071e-01 +4.01012987e-01 -2.46992707e-01 -5.20483434e-01 +5.82152545e-01 +2.66934633e-01 -1.19547755e-01 -6.00220114e-02 -4.98294294e-01 -6.27323985e-01 -5.41942537e-01 +5.98053932e-01 -3.94690841e-01 +4.39529091e-01 +1.14354610e+00 +4.28432018e-01 -3.34637493e-01 -1.85380839e-02 +2.95886725e-01 -2.92136669e-01 -1.41902253e-01 -6.82727098e-01 -9.23245728e-01 -2.13958681e-01 -1.12418912e-01 -1.13778286e-01 +6.65240645e-01 +4.00599211e-01 +8.43882024e-01 -4.79830444e-01 -1.95313290e-01 -9.62089449e-02 +3.21649373e-01 +1.79175168e-01 -1.24766957e-02 -6.85823858e-01 +2.39332527e-01 +1.36179253e-01 -3.26458454e-01 +6.47236407e-01 -5.55658698e-01 -9.51581821e-02 +5.24908304e-01 +4.92561489e-01 +2.10039988e-01 -5.85612059e-01 +1.09505236e-01 -1.12857521e+00 +4.92271841e-01 -2.35415790e-02 +3.57814819e-01 -3.38108122e-01 -6.08989187e-02 +1.96758956e-01 +3.67905498e-01 +4.60509092e-01 -3.95373404e-01 -8.78718853e-01 -7.29221106e-01 +2.81943977e-02 -2.87980527e-01 +5.46823084e-01 +2.90514469e-01 +4.94397730e-01 -2.97262490e-01 -8.05222571e-01 -2.44000778e-01 +5.41985035e-02 -4.43605967e-02 -7.07882404e-01 -2.24067226e-01 +3.96704048e-01 +4.92520601e-01 +2.47609615e-01 -4.12781298e-01 +8.49356830e-01 +1.84347138e-01 -3.03395689e-01 -7.33418688e-02 -9.50316936e-02 -4.07106936e-01 +4.20652092e-01 -1.63557395e-01 +9.42360997e-01 +4.83742058e-02 -2.28073344e-01 -2.43959930e-02 -8.40562806e-02 -5.25108397e-01 +6.15028083e-01 +2.59522468e-01 +5.64679384e-01 +4.02015179e-01 -6.53685704e-02 -1.29953057e-01 -3.25583041e-01 -3.22702408e-01 +2.62577474e-01 -4.93956357e-02 -8.31777573e-01 -2.60217160e-01 -1.02848746e-01 -2.30554938e-01 +1.04194462e+00 -1.76279917e-01 -6.30990922e-01 -2.79586434e-01 -1.57274216e-01 -1.13339193e-01 +1.58460036e-01 -5.36930680e-01 -8.04293633e-01 +5.07469356e-01 -3.56356680e-01 -1.25715658e-01 -6.61407709e-01 -1.16062152e+00 +2.46059299e-01 +1.12702203e+00 +1.75243661e-01 -9.34066065e-03 +2.50173628e-01 +5.61543405e-01 -5.76453507e-01 +8.60290900e-02 +4.96755719e-01 -1.04788899e-01 +6.59911573e-01 -1.47058502e-01 -4.50637609e-01 -7.79190123e-01 -7.81815350e-01 -7.30888069e-01 +2.04525724e-01 -6.50741458e-02 +1.72105998e-01 +1.35791886e+00 -3.89179081e-01 -6.43709779e-01 -7.48312101e-02 +3.00521284e-01 -1.62473723e-01 +9.66406539e-02 -5.04230142e-01 -5.56607187e-01 +4.02989089e-01 -5.97418807e-02 +8.34616363e-01 -4.23539668e-01 -4.67885137e-01 +2.11130872e-01 +1.20882237e+00 -6.61933124e-01 +3.05904951e-02 +1.17295170e+00 -2.35651776e-01 +7.68330023e-02 +1.03999805e+00 +6.00073278e-01 -2.45274045e-03 +1.64583504e+00 -5.48264444e-01 +6.47331655e-01 +2.72713423e-01 -7.51015306e-01 +1.11669970e+00 +1.30198956e+00 -4.76326108e-01 -5.75388968e-01 +3.04615438e-01 -2.13714138e-01 -4.36609983e-02 -6.63098097e-01 +2.56557792e-01 -4.88522589e-01 -6.52830154e-02 +1.17355132e+00 +8.39540735e-02 -4.95654494e-01 -7.25895107e-01 +9.61695790e-01 +1.91711545e-01 +6.31140769e-01 -4.69433159e-01 +1.50680661e-01 -3.00991666e-02 -3.60396087e-01 -3.34376544e-01 +3.12907517e-01 -1.36785343e-01 -1.69351906e-01 -2.19856471e-01 +3.02162230e-01 -3.45497549e-01 -8.07163790e-02 +6.52312100e-01 -7.44240463e-01 +3.65674764e-01 +5.87787867e-01 +5.80589592e-01 -9.13750827e-01 +1.58610344e+00 -2.37274930e-01 +6.87607378e-02 -1.25884879e+00 +3.30471963e-01 +3.81991506e-01 +2.11556405e-01 +3.50205243e-01 -7.18521699e-02 +9.87053663e-02 -2.14204371e-01 -3.31111342e-01 +1.56007990e-01 -7.59696424e-01 +6.02280438e-01 -2.22566321e-01 -6.83500767e-01 -4.21579033e-01 -3.26613545e-01 +5.62205017e-01 -8.81469786e-01 -8.24260652e-01 -6.64947629e-01 -2.18589753e-01 -2.60641158e-01 -3.99199784e-01 -3.26108336e-01 -3.59545112e-01 -1.78619400e-01 -1.92668259e-01 +1.70216318e-02 -4.22225356e-01 -1.59601438e+00 -1.10421583e-01 -6.65525973e-01 -4.52756077e-01 +8.38844895e-01 +3.68985832e-01 -4.00543571e-01 +1.05780356e-01 +6.31351054e-01 +1.06881177e+00 +8.40567574e-02 -1.18995547e+00 -5.68923473e-01 -8.11242104e-01 +6.08912408e-01 -4.71431881e-01 +7.55540505e-02 -9.19542551e-01 -2.30186582e-01 +5.76479323e-02 -3.76504511e-01 -1.99905872e-01 -1.97593123e-01 +1.09348916e-01 +1.98230177e-01 -9.88439694e-02 -7.77210176e-01 +4.61425602e-01 -4.42833930e-01 +2.25660503e-01 +4.22914833e-01 +2.83247352e-01 -2.28243880e-02 +7.04476058e-01 +5.23641050e-01 -1.34992570e-01 -2.59228200e-01 +5.87370455e-01 -1.46284327e-01 -1.57319069e-01 -4.48057102e-03 +2.27559537e-01 +4.92767334e-01 -4.48991179e-01 -1.55861020e-01 -1.10103226e+00 -2.06077918e-01 -1.21540928e+00 +3.41999978e-01 +4.04150426e-01 +1.45450801e-01 -8.92543197e-01 +5.46314642e-02 -5.09203672e-01 -6.19133636e-02 +3.60011697e-01 +1.75102323e-01 +3.99915218e-01 -5.64752221e-01 -3.20824385e-01 -5.10547638e-01 -1.03145257e-01 +2.19626009e-01 +8.56814459e-02 +5.04667908e-02 +3.25658560e-01 -6.62798062e-02 -5.77499747e-01 -8.63349199e-01 +2.16819197e-01 -1.80231277e-02 -4.88678873e-01 -3.34711112e-02 +6.45475626e-01 -6.92436934e-01 -9.42275226e-01 +4.19702411e-01 -1.78927988e-01 -2.87476182e-01 -4.11018729e-01 -2.99035341e-01 -9.29718137e-01 -2.12068170e-01 -1.81599185e-01 +7.59553254e-01 +1.48812041e-01 +2.65163362e-01 -3.10751367e-02 +1.10844299e-01 -7.91227892e-02 -5.35871871e-02 -7.10085809e-01 -6.87511504e-01 +1.14931449e-01 +1.74812943e-01 +6.11231387e-01 +6.00631773e-01 +5.31030238e-01 +6.39756739e-01 +1.30805656e-01 -1.79098356e+00 -1.35049522e+00 -1.74764976e-01 -2.60103822e-01 +7.52157867e-01 -6.02176726e-01 +2.26836845e-01 +7.05482543e-01 +2.47144833e-01 +1.47348046e-01 +2.22825706e-02 -6.37256026e-01 +3.13647777e-01 -2.57324666e-01 -1.53477073e-01 +2.37301752e-01 +8.48462880e-02 -3.11804682e-01 +2.24524587e-01 -5.57384372e-01 +6.24526292e-03 -9.58821237e-01 -5.50509095e-01 -7.44392455e-01 +1.71633884e-01 +1.04098402e-01 +8.34268451e-01 -3.80901664e-01 +1.69905841e-01 +2.31678650e-01 +3.82782459e-01 -4.41647589e-01 -9.30149138e-01 +1.74161792e-01 -2.05943614e-01 +1.22643322e-01 -6.91553578e-02 +3.83497864e-01 -1.87453881e-01 -6.75009238e-03 -5.51740170e-01 +2.29318842e-01 -6.67282641e-02 -5.77162981e-01 +2.42950857e-01 +5.00105977e-01 -3.87147129e-01 +3.84918660e-01 -2.09023640e-01 -6.46426916e-01 +9.52881500e-02 -5.29243350e-01 +2.38414019e-01 -4.26710129e-01 -3.51135224e-01 -9.01374295e-02 +7.11044371e-01 -5.44208825e-01 +9.42994297e-01 +7.48704970e-02 +4.64405835e-01 -2.03263052e-02 +1.83552638e-01 +6.15859516e-02 +5.50959587e-01 -2.15489462e-01 +8.51031244e-01 -5.74502312e-02 -1.87427357e-01 -3.05462908e-02 +4.85389411e-01 +9.35825855e-02 -2.59515136e-01 -7.56149352e-01 +2.95063943e-01 -7.93531418e-01 +4.26829979e-03 +2.56532103e-01 -4.36081827e-01 -2.93781161e-01 -4.41580653e-01 -1.96154118e-01 +2.28796244e-01 -2.75025308e-01 +1.02091885e+00 -5.15978038e-01 -6.28321886e-01 +5.61925471e-01 -2.77942657e-01 -8.55877578e-01 -1.90128028e-01 +1.00301802e-01 +7.14838028e-01 +6.97190404e-01 +8.12399447e-01 -1.06769013e+00 +3.96042019e-01 +1.63975239e-01 -7.20615638e-03 +6.47396982e-01 -3.38875175e-01 -9.85684544e-02 -2.45906770e-01 +2.05422476e-01 +7.67044544e-01 -1.48199037e-01 -5.09487271e-01 +2.38305882e-01 -3.41612548e-01 -3.79317343e-01 -2.48934194e-01 +2.13683218e-01 +2.99504995e-01 -4.58399624e-01 -2.90760219e-01 +1.77398339e-01 +5.96730649e-01 -5.54600835e-01 +1.43020406e-01 -4.22132611e-02 -6.27399058e-05 -1.61064118e-01 -5.90247512e-01 +6.30696654e-01 +9.53536808e-01 -2.29460284e-01 -3.76344435e-02 -5.92832446e-01 -5.33179380e-02 -5.17615378e-01 -5.99647999e-01 +4.93127704e-01 -7.45307267e-01 -1.91445231e-01 -8.98359418e-02 +5.21464705e-01 +3.99147272e-01 -2.94749528e-01 -1.21125147e-01 -4.07904476e-01 +9.50376511e-01 +9.17154774e-02 +1.02031255e+00 +1.35331720e-01 -2.22730190e-01 +1.98541626e-01 -1.50661886e-01 +8.39990154e-02 +2.55428463e-01 +6.56069040e-01 +3.15401778e-02 -2.00529799e-01 -5.92832565e-01 +2.37905174e-01 +7.50184059e-01 +5.35304368e-01 -2.34151721e-01 +6.99840605e-01 -1.05778217e-01 -3.93508002e-02 -7.38919750e-02 +5.02194583e-01 -2.68327862e-01 +1.00709605e+00 +8.00347269e-01 +4.10615623e-01 -6.38230085e-01 -4.74808440e-02 +3.80311251e-01 +6.40375614e-02 +5.15213907e-01 +7.12944806e-01 +1.76212694e-02 +6.85339689e-01 +6.03251219e-01 +5.26926160e-01 +3.00877970e-02 -3.47806662e-01 +7.22983247e-03 +1.67342985e+00 +2.37684861e-01 +1.12389736e-01 +1.47340819e-01 +1.39034033e-01 +2.41879046e-01 +4.12450165e-01 -5.80022097e-01 -4.84194010e-01 -6.08502686e-01 +6.67201728e-02 +1.16096653e-01 -1.11200595e+00 -1.28472865e-01 +1.40085310e-01 -1.34787798e-01 -1.68044955e-01 +7.22409546e-01 +1.20713758e+00 +1.05385154e-01 +8.38584378e-02 +1.47206113e-01 -2.14046031e-01 -1.76631883e-01 +1.24743089e-01 -8.58449578e-01 +3.01372498e-01 -1.11892974e+00 +7.44636536e-01 +2.50018120e-01 +1.72343671e-01 -4.55764741e-01 +2.51737148e-01 -7.59126693e-02 +2.42702678e-01 -3.27050358e-01 -5.70731275e-02 -1.33624411e+00 +4.29911822e-01 -3.29008251e-01 -4.27318752e-01 +4.24470305e-01 +1.21302769e-01 +1.65108427e-01 -6.39337078e-02 +5.34911230e-02 -7.17884675e-02 -4.57514048e-01 +7.47382641e-01 -1.69531003e-01 +3.87043446e-01 -4.90576178e-01 -5.89247584e-01 -6.84413651e-04 +1.29213452e+00 +2.03930569e+00 -3.50575037e-02 -3.98873389e-02 -1.06513642e-01 +1.09513871e-01 +4.65309054e-01 -1.10470086e-01 +9.31522474e-02 -2.27884278e-02 +1.17428577e+00 -1.00501657e+00 +7.96057940e-01 +1.03130376e+00 +2.05392912e-01 -2.12682113e-02 +6.37266338e-01 -7.10616291e-01 -1.59300253e-01 -5.73188126e-01 +4.05075490e-01 +7.82156050e-01 +7.69283295e-01 -7.29542851e-01 +2.57298052e-01 +2.84767836e-01 +5.03350973e-01 -7.21408308e-01 -8.00481081e-01 -1.11238509e-01 -3.52166742e-01 +3.03244025e-01 -6.62865162e-01 -3.07600558e-01 +3.91105205e-01 +2.19662055e-01 -5.89385092e-01 -8.72402132e-01 +1.40093207e-01 +5.70509017e-01 -5.69547117e-01 +2.53864843e-03 -1.72428954e-02 +2.83318013e-01 -6.33950293e-01 -3.64577502e-01 -1.00875460e-01 +3.20863813e-01 -7.62252927e-01 -3.90795678e-01 +5.89086972e-02 +2.21867502e-01 -1.92007869e-01 +8.22265327e-01 +2.66664892e-01 +6.37697220e-01 +5.36763012e-01 -8.64739537e-01 +3.63956749e-01 +1.06480646e+00 -9.18625891e-02 +2.56989479e-01 +1.99014723e-01 -3.00724283e-02 -5.60587458e-02 -3.82823825e-01 -4.06185770e-03 -4.70588356e-01 -7.29432404e-01 +5.71467616e-02 -2.98483640e-01 -6.10320330e-01 +1.08313406e+00 -3.43038172e-01 +4.66707237e-02 -8.99106935e-02 +3.12777966e-01 -2.73430228e-01 +3.42827260e-01 +5.07351100e-01 +1.02443767e+00 -1.12714088e+00 -2.72809505e-01 -3.25709760e-01 +4.38626409e-01 +1.55142620e-01 -3.21996421e-01 -4.62019145e-01 -1.48796558e-01 +9.15188968e-01 -3.87486398e-01 -1.42737973e+00 -3.64292681e-01 -3.26760113e-01 -5.12316763e-01 -1.11262667e+00 -5.14216721e-01 -3.46064061e-01 -2.35879242e-01 -1.95877716e-01 +4.67616707e-01 +7.84173012e-01 -4.90304351e-01 +4.82930362e-01 -4.03384678e-02 +4.61938053e-01 -1.40404761e+00 +9.01380926e-02 -1.49543181e-01 -5.68062961e-01 -7.92480782e-02 -4.63279724e-01 +8.30589421e-03 +6.49791300e-01 +1.35176376e-01 +5.83392084e-01 -4.06416148e-01 -3.02644104e-01 -6.29311800e-01 +2.77023435e-01 -9.21068549e-01 -2.76689380e-01 +3.63572478e-01 +6.79072261e-01 +5.25679708e-01 -5.96090592e-02 -3.72905880e-01 -2.23420084e-01 +4.03701991e-01 -4.41607714e-01 +8.28443885e-01 -1.12308212e-01 +6.38854980e-01 +5.49647175e-02 +8.27699676e-02 +2.39546984e-01 +1.44349918e-01 +1.50910273e-01 +8.15956473e-01 -3.77532631e-01 +2.68134713e-01 -7.57141411e-01 -9.62603986e-02 +1.14225201e-01 +4.05287176e-01 +6.53823793e-01 +1.67020917e-01 -5.01587614e-02 +4.83809412e-02 +6.22863770e-01 -8.78813490e-02 +1.39276966e-01 -1.36975665e-02 +3.90993021e-02 -1.05341002e-01 +1.88881129e-01 +2.82580227e-01 +7.04287946e-01 -9.99125391e-02 -1.79284662e-01 +1.78740442e-01 -2.15072542e-01 +1.51637211e-01 -2.79072762e-01 +1.82123445e-02 +4.41086501e-01 +1.12240291e+00 -6.96473569e-02 +5.02620399e-01 -3.85440320e-01 +4.60852712e-01 +1.99589267e-01 -2.70275354e-01 -2.91142017e-01 -8.22900653e-01 -8.68831854e-03 +1.23663239e-01 +3.14122349e-01 +1.27381563e-01 -1.83955893e-01 -9.32589471e-02 +3.32281888e-01 -8.76448452e-02 -4.93008345e-01 -3.21163744e-01 -2.21000053e-02 +4.13690090e-01 -2.72378832e-01 +2.06073999e-01 -4.11212593e-01 -7.16476917e-01 -2.03124747e-01 +2.50330865e-01 -4.89867955e-01 -2.87291676e-01 +2.60259598e-01 +6.01048112e-01 -5.01289964e-01 +2.51207817e-02 -8.28672051e-01 -1.41187772e-01 +2.51373291e-01 -1.04292345e+00 -2.49985188e-01 +2.38985792e-01 -9.84223306e-01 -4.78794962e-01 +4.21876490e-01 +5.04743099e-01 -5.83537638e-01 +1.97588965e-01 -1.34136379e-01 -5.34707725e-01 +4.04102862e-01 +1.55305356e-01 +5.45461714e-01 +1.10502589e+00 +3.16921294e-01 -1.07400000e+00 -8.79274905e-01 -7.67953873e-01 -2.06081778e-01 -1.05203465e-01 +9.84629035e-01 -1.84142813e-02 +6.53469086e-01 -4.91838455e-01 -1.53766438e-01 +1.06037378e+00 -2.71479100e-01 +9.20819938e-01 -4.80801910e-02 +1.99305892e-01 -7.04195142e-01 +6.51773989e-01 +5.68338037e-01 -5.92778921e-02 -5.88788807e-01 +4.75387931e-01 +5.88808656e-01 -2.99833447e-01 +1.12916254e-01 -3.81736547e-01 -3.76779705e-01 +8.53365839e-01 +2.52430677e-01 -2.43514031e-01 -1.01433825e+00 +4.33259070e-01 -4.78446096e-01 +1.34004211e+00 -3.85026727e-03 +2.31492102e-01 -5.12426496e-01 +2.53389090e-01 +6.47470772e-01 +2.37249553e-01 -1.50045097e-01 -2.45825142e-01 +4.32907850e-01 -1.00429123e-02 -4.19468373e-01 +3.21764410e-01 +4.55106825e-01 +2.32947648e-01 -2.18439344e-02 -5.14491022e-01 +7.87293673e-01 -1.00129437e+00 -3.63489747e-01 -1.91308722e-01 -3.83805901e-01 +1.29298076e-01 +7.19788015e-01 +4.52490568e-01 +1.29381740e+00 -3.93711478e-01 +1.34809226e-01 +8.44128281e-02 -6.59521699e-01 -6.74038678e-02 -5.49731791e-01 -2.87901703e-02 +2.62241989e-01 +1.28385082e-01 +2.78968364e-01 +5.22979423e-02 -7.64374197e-01 -3.68951738e-01 +1.21829182e-01 -1.05854440e+00 +6.75022230e-02 +2.87644804e-01 -1.21620424e-01 +3.96365166e-01 -3.87908459e-01 -2.81524777e-01 +6.48394406e-01 +1.61470212e-02 -2.66141117e-01 -2.10467458e-01 +1.07924604e+00 +7.72390664e-01 +3.52207959e-01 +5.71838319e-01 -5.21749854e-01 -5.50793350e-01 -1.90490985e+00 -1.68711275e-01 -6.31016552e-01 +1.59869462e-01 +1.08842885e+00 -4.53376472e-01 +3.00454527e-01 +2.28150353e-01 +6.50784731e-01 +7.59018436e-02 +5.02629802e-02 -7.06328869e-01 -7.94721544e-01 -2.48831287e-01 -2.69604802e-01 -6.51212394e-01 +3.49273771e-01 -9.56055582e-01 +2.23288998e-01 -5.31778932e-01 -2.21384987e-01 -2.79571027e-01 -2.29289122e-02 -6.10356927e-01 +1.28336385e-01 +4.71188247e-01 -1.87930822e-01 -2.10106209e-01 -8.66057396e-01 +1.70164630e-01 -3.79951969e-02 -2.28895426e-01 -9.28904295e-01 +4.49291080e-01 -3.97816338e-02 -9.17819142e-03 +6.25360385e-02 -2.92160809e-02 +4.43772376e-01 +2.71987051e-01 +1.04555428e-01 +6.22706056e-01 -8.29336762e-01 -3.40483844e-01 +3.98683071e-01 +1.04024693e-01 -1.42457366e-01 -2.30634645e-01 +1.14567116e-01 -1.17250741e-01 -4.08778191e-01 -1.76523030e+00 -1.08682859e+00 -2.33432129e-01 +4.99631256e-01 -2.31332183e-01 -7.92682409e-01 +1.16497850e+00 +9.05686438e-01 -2.93130696e-01 -2.14643255e-01 +4.58558172e-01 +1.95998922e-01 -2.22763872e+00 -1.28639817e+00 +1.87485531e-01 -7.45739460e-01 +9.05465662e-01 -5.85629225e-01 -7.47238219e-01 +4.51915652e-01 -1.40129161e+00 -2.71376938e-01 -3.96734416e-01 +7.68797025e-02 -8.49048376e-01 -7.72230566e-01 -6.18841946e-01 +1.05096243e-01 -1.62811840e+00 +1.24696863e+00 -5.81551790e-01 +2.17316687e-01 -1.43236905e-01 +4.25901592e-01 +6.23665512e-01 -9.21656191e-02 -4.28327948e-01 -1.22041807e-01 -6.87885404e-01 +1.65363520e-01 +1.72087267e-01 +1.05640218e-01 +9.24839139e-01 +2.26814941e-01 +3.11776921e-02 +1.82531029e-01 +2.47977287e-01 -1.80961136e-02 +2.12986335e-01 -1.27228335e-01 -1.58566803e-01 -5.44040978e-01 -2.83092409e-01 +1.90612525e-02 +3.22841555e-01 -2.18303934e-01 +1.49037197e-01 +3.23270202e-01 -2.73381889e-01 +1.64760903e-01 -5.68748266e-02 +2.86921173e-01 +2.36279428e-01 -2.41904274e-01 -5.09064019e-01 +4.72818434e-01 -1.56111851e-01 +7.19255090e-01 +2.90803671e-01 +6.19090319e-01 -5.14060020e-01 +1.44799995e+00 +2.44427156e-02 -7.99269855e-01 +8.39288950e-01 -3.91982228e-01 +2.80447066e-01 +4.93133515e-01 -3.49202752e-01 -5.70722699e-01 +9.47697759e-01 +1.31020069e+00 -4.21196371e-01 +6.88289851e-02 +5.79080820e-01 +8.83267224e-01 -1.15021777e+00 -1.43300140e+00 -3.51314992e-01 -2.27976307e-01 +2.33345076e-01 +3.47384334e-01 -1.57265455e-01 -1.72728345e-01 +3.61520261e-01 +8.00755560e-01 -5.79500377e-01 +2.65515178e-01 -3.81970674e-01 +3.26461762e-01 -3.32124501e-01 +5.36619350e-02 +1.15061831e+00 +1.33509114e-01 +5.18214226e-01 +5.85665166e-01 +9.75539923e-01 -6.56254172e-01 -5.41262142e-03 +4.16879624e-01 +7.98236907e-01 +8.77932385e-02 +2.83381969e-01 -7.41246819e-01 -9.19991851e-01 -5.39284289e-01 +3.00468475e-01 +7.04851925e-01 -7.77398199e-02 +1.63565770e-01 -8.61501217e-01 +1.20104268e-01 +1.87684432e-01 +4.06131387e-01 +4.85911071e-01 +1.94094360e-01 -3.58276457e-01 -2.38715291e+00 -2.36882210e+00 +4.57636207e-01 -6.73024654e-01 +1.02856016e+00 +5.30055575e-02 +4.48476166e-01 +8.68968010e-01 +1.98256660e+00 +8.85540619e-02 -1.22579122e+00 -2.13883415e-01 +8.52803648e-01 -4.57602471e-01 +2.51324207e-01 -3.81138057e-01 +1.65513903e-01 +1.29314899e+00 -3.14180888e-02 -9.41798985e-01 +1.75394624e-01 -1.31555009e+00 +7.54053533e-01 -1.16335416e+00 -1.34837914e+00 -2.23830652e+00 -1.14730620e+00 +5.42317152e-01 +1.92950249e-01 +3.68588775e-01 -1.44987538e-01 +4.81440336e-01 -2.69955158e-01 -2.21595079e-01 -6.73508525e-01 -1.02462560e-01 -6.90798879e-01 -1.87928118e-02 