#Parameter# /vanilla-lstm-builder/_0 {128,64} 131073 ZERO_GRAD
+5.83931804e-01 -4.05844420e-01 +1.93963684e-02 -1.31938353e-01 +1.68569297e-01 -3.41368020e-01 -2.76860863e-01 -1.39235646e-01 +1.75600812e-01 +2.79387133e-03 -1.74123362e-01 +1.77682340e-01 -5.54009140e-01 -2.39082295e-02 -2.43685648e-01 +2.79054016e-01 -4.84910548e-01 +2.45425269e-01 +3.11814342e-02 -2.85253882e-01 +1.54363010e-02 +1.46903947e-01 +2.39619732e-01 -1.32571384e-01 -1.48379147e-01 -1.97306320e-01 +7.47484788e-02 -3.86530578e-01 -3.38087291e-01 -2.69992232e-01 -7.89126098e-01 -2.62797862e-01 +1.49677798e-01 -5.18688234e-03 -9.99877229e-02 -3.45841408e-01 -6.56879097e-02 +1.09111071e-01 -2.29604214e-01 +2.12609470e-01 +3.67176294e-01 +2.41078269e-02 -4.68755588e-02 -6.83736727e-02 -1.82966262e-01 -1.46982357e-01 -3.06656241e-01 -1.67853445e-01 +3.01357955e-02 -1.39579490e-01 +1.49551556e-01 -1.99948907e-01 -6.12467289e-01 -2.11854815e-01 -2.15320647e-01 -4.80354041e-01 +1.89594224e-01 -1.16206966e-01 -5.59722483e-01 -6.89769506e-01 -2.82716930e-01 +3.19917053e-01 -7.12392271e-01 -1.39016151e-01 +2.93898314e-01 -4.52351987e-01 +1.77508872e-02 -2.08466634e-01 +8.35904181e-02 +2.06095397e-01 +2.96783959e-03 -3.72992419e-02 -4.07039315e-01 -1.08285725e-01 -2.41622671e-01 -7.19314873e-01 +3.16197008e-01 +3.23752463e-01 -6.50066510e-02 -4.69720662e-01 +7.32291713e-02 +4.85196561e-02 +5.82481325e-01 +4.17331278e-01 -7.33659029e-01 +3.07310075e-01 -3.05445224e-01 -2.99938738e-01 +3.08934540e-01 +1.61045879e-01 +7.75558725e-02 +3.53381127e-01 -5.44353187e-01 -3.17140818e-02 +1.27425209e-01 -2.68617384e-02 +2.77349740e-01 +6.07314527e-01 +2.03402594e-01 +9.07565132e-02 +6.96654171e-02 -4.86712992e-01 +4.59120184e-01 -4.20426309e-01 +2.41618037e-01 +3.94202352e-01 -2.12681547e-01 -3.24497104e-01 +4.60916199e-03 +1.48354724e-01 +1.56885192e-01 +3.59577328e-01 +2.58525342e-01 +2.83774287e-01 +1.88133240e-01 +1.02956280e-01 -3.21895570e-01 +2.78938655e-02 -1.71094403e-01 +7.20942989e-02 -6.72490150e-03 -2.09082901e-01 -4.26431090e-01 -3.19032967e-01 +2.64981896e-01 +3.19214053e-02 +4.94407684e-01 +4.10082191e-01 -3.45483810e-01 +5.09389043e-01 -1.19807839e-01 +1.65720105e-01 -4.45326418e-01 +3.64141822e-01 -6.51630700e-01 -2.81581998e-01 +4.07724977e-02 -9.12242103e-03 +4.04203653e-01 -1.47519499e-01 +8.46998930e-01 +1.36921138e-01 +4.57081765e-01 +2.72248406e-02 +7.46419191e-01 +3.01404417e-01 +4.80152011e-01 -8.71791393e-02 -1.64336786e-01 +2.30981588e-01 +2.87383907e-02 +8.49662349e-03 +2.98768371e-01 +2.04710931e-01 -3.10373306e-01 -3.71493101e-01 -4.71045941e-01 +2.39628777e-01 -1.98227614e-01 +2.14111045e-01 +3.36307473e-02 -7.41487384e-01 +7.18496084e-01 -2.29066327e-01 +2.88271904e-01 +2.46486217e-01 -4.96478081e-02 -2.37771839e-01 -2.76431628e-02 -4.09160018e-01 -7.36342967e-01 -7.00219944e-02 -5.25679775e-02 +1.65882230e-01 -1.22099601e-01 -7.25749657e-02 -1.21678695e-01 +1.96078345e-01 -3.33346725e-01 +4.95211184e-01 -2.49340922e-01 +6.28549695e-01 +1.64196223e-01 +2.18768626e-01 +2.55667716e-01 -4.43202168e-01 -4.71095502e-01 +6.29281998e-01 -2.10850656e-01 -3.01806986e-01 +1.97476700e-01 +6.78717554e-01 -5.96186481e-02 +2.45843567e-02 +5.03485799e-02 -8.49281624e-02 -5.29872298e-01 +2.57801879e-02 -2.47914866e-01 +4.48571205e-01 +9.92027998e-01 +2.29567569e-02 +1.49635166e-01 -1.87360227e-01 +3.68472487e-01 +6.49872899e-01 +8.49335611e-01 +8.30682456e-01 -2.66544938e-01 -4.55827951e-01 -9.97703820e-02 -2.37544432e-01 +3.97176772e-01 +3.09898287e-01 +1.08109796e+00 -1.74335822e-01 +4.65674430e-01 +4.19168919e-02 -4.38059837e-01 +3.22441012e-01 +1.35891676e-01 +1.02149522e+00 +2.84042098e-02 +7.81683624e-01 -8.10264200e-02 -1.67133033e-01 +3.93059939e-01 +2.61382870e-02 +2.49334961e-01 +2.62263894e-01 -5.84655464e-01 +2.67224282e-01 -3.95850778e-01 -4.73679841e-01 -3.38593036e-01 -4.32108670e-01 +3.73542130e-01 +3.42093766e-01 -6.46488249e-01 -1.38757244e-01 +8.41633141e-01 +1.83831632e-01 -1.13417558e-01 -7.03153551e-01 -2.89262801e-01 +7.16399968e-01 +6.52986616e-02 +4.88765836e-01 -1.87946275e-01 -1.76792622e-01 +6.86949432e-01 -9.06577036e-02 -9.30038333e-01 -1.52030343e-03 -7.15953529e-01 -1.28568681e-02 -2.44917333e-01 +1.77680239e-01 +2.75889665e-01 +5.08140167e-03 +2.25402623e-01 +3.39429826e-01 +1.54905647e-01 -1.69118166e-01 -1.82714820e-01 -1.37317568e-01 +2.74558246e-01 +6.84464304e-03 +1.24271552e-03 +1.75015926e-01 +4.56527770e-01 -3.69348705e-01 -8.23583677e-02 -3.10515165e-01 +1.27728239e-01 -2.35367771e-02 -1.06072396e-01 -2.31633440e-01 -4.25953902e-02 +1.22117534e-01 +2.58300096e-01 +1.63390338e-01 +5.96837066e-02 +2.45917276e-01 +1.97343409e-01 +6.83355629e-01 +2.28093024e-02 +6.80204108e-02 -7.34750777e-02 -3.78784597e-01 +3.05281699e-01 +3.99573445e-01 +7.79750943e-02 -1.07513070e-01 -1.82044104e-01 +3.50118987e-02 -4.66216445e-01 +5.39209485e-01 -2.19156474e-01 +2.96334088e-01 +4.49972413e-02 +5.89178409e-03 +2.82719284e-01 +1.90284802e-03 +1.01119608e-01 +1.00012265e-01 +2.13069230e-01 +8.23931694e-02 +7.27720261e-01 +4.32437152e-01 +4.96132523e-01 -1.24688514e-01 -5.78841627e-01 +3.57666045e-01 +2.79723287e-01 +1.93896472e-01 +3.83000046e-01 +2.44652495e-01 +3.70857686e-01 +6.81831166e-02 -3.88094693e-01 +1.72576904e-01 -2.23805159e-01 -7.12947026e-02 +1.55512169e-01 -2.33902127e-01 +3.99051428e-01 +3.23032200e-01 +4.36409831e-01 +1.93278745e-01 +2.23546475e-01 +7.19263852e-01 -3.23900670e-01 -8.39856267e-02 +1.27762154e-01 +1.03208937e-01 +2.42463365e-01 -3.84333991e-02 +3.60543132e-02 -1.32418573e-01 +9.91071939e-01 -1.79563254e-01 -1.08135387e-01 -3.51507872e-01 -1.63031742e-01 -3.88475507e-01 +4.32662666e-01 +1.33434713e-01 +5.20262301e-01 +3.92465830e-01 -4.17410046e-01 +2.69461304e-01 -3.03766429e-01 -2.83291876e-01 -2.49684662e-01 -1.04008473e-01 -7.41628706e-02 +7.04709828e-01 +5.53904399e-02 +3.72818291e-01 -3.28140199e-01 -3.52715343e-01 +2.56753713e-01 +4.71158206e-01 +1.41703442e-01 +1.22715421e-01 -1.13957353e-01 -1.07745886e-01 -4.03325558e-01 -2.94166476e-01 -1.75030734e-02 -3.98958102e-02 +5.76573372e-01 +1.37062311e-01 -1.38411611e-01 -1.07248567e-01 +1.83393553e-01 +1.95810229e-01 +3.24475616e-01 +8.76134261e-03 -1.47904843e-01 -3.05409551e-01 -3.90889853e-01 -1.64681256e-01 +5.11677489e-02 +5.32821529e-02 +6.85768843e-01 +2.48708904e-01 -2.15428337e-01 -2.19521910e-01 -4.08934087e-01 +1.42784983e-01 +2.31442899e-01 -5.42095125e-01 -3.65446329e-01 +1.39369741e-01 -7.84688294e-01 -2.91246951e-01 -6.92306697e-01 -3.76893163e-01 -8.54207426e-02 -5.02327085e-01 -3.85405868e-01 -1.77328527e-01 +9.73986089e-01 +1.95300907e-01 +6.32774085e-02 +5.67743361e-01 -2.11872920e-01 -1.80659547e-01 -4.51511800e-01 +3.04396749e-01 -2.78127883e-02 -1.10743210e-01 -1.65493146e-01 -1.51944429e-01 -2.27921177e-02 +5.67789853e-01 +5.34301162e-01 -3.52758229e-01 -5.02075672e-01 +3.76599550e-01 -9.91131589e-02 -2.33597308e-01 -5.48407808e-02 -9.18995142e-02 +3.00576746e-01 +3.85421395e-01 -1.70696974e-01 -2.88425028e-01 +1.59990773e-01 -4.65305120e-01 +8.32033381e-02 -2.75518578e-02 -1.04913458e-01 -6.57686591e-02 -4.22914177e-01 -2.50046235e-02 -4.23690379e-02 -6.71702087e-01 -3.57550055e-01 -1.59955859e-01 +3.06953847e-01 +9.22775939e-02 -7.40942806e-02 +4.27382588e-01 -6.13391936e-01 -3.62685025e-02 +7.10448530e-03 +1.18255690e-01 +5.48779428e-01 -8.01900926e-04 +6.27566397e-01 +4.91070777e-01 -1.70283452e-01 -4.36764419e-01 -8.92240167e-01 -2.30296701e-01 +1.34639055e-01 +4.09886450e-01 -1.66936606e-01 -1.25378504e-01 -1.06257526e-03 -8.75673115e-01 +4.08082604e-01 +3.06705266e-01 +5.21519601e-01 +2.40943030e-01 +1.62517339e-01 +5.69233894e-02 -6.44777715e-01 +1.95903555e-01 -1.37350187e-01 +4.27716225e-01 -1.39146447e-01 +3.79104972e-01 -4.70615983e-01 +2.42217585e-01 +3.01945060e-01 -3.90543453e-02 -5.82001805e-02 +4.44279402e-01 -1.44466266e-01 +2.97670178e-02 +2.97922611e-01 -6.71615541e-01 +2.42021352e-01 -5.24770617e-02 +9.05334353e-01 +5.00747144e-01 -1.88416064e-01 -3.34362239e-01 -2.76377976e-01 +1.58431724e-01 +6.47871256e-01 -1.52306901e-02 +1.87969029e-01 -2.16553643e-01 +4.09767449e-01 +4.64005232e-01 -3.19566056e-02 -3.64962742e-02 -4.05092299e-01 -1.16458848e-01 +3.59705448e-01 -1.95197329e-01 -9.31743532e-02 -1.27108812e-01 +3.07874918e-01 -2.16871589e-01 +3.25684667e-01 -3.90737243e-02 -2.73410618e-01 -1.65273383e-01 +2.15154812e-01 -1.99610610e-02 -5.14834344e-01 -6.28500879e-02 -2.57340550e-01 +3.31321061e-02 +2.84658223e-01 -1.34028220e+00 -5.27849019e-01 +3.97228658e-01 +3.62486467e-02 -6.34065330e-01 -5.86590171e-01 -3.42032522e-01 -4.12266195e-01 +3.30798663e-02 -2.47801661e-01 -1.81923971e-01 +2.85360426e-01 -7.49309734e-02 +3.01792264e-01 +6.80125654e-01 +6.04340196e-01 +5.36287248e-01 -5.41579723e-01 -3.53874713e-01 -8.30079257e-01 -6.28760234e-02 -4.38765019e-01 +2.01820254e-01 -5.37335038e-01 +2.12891132e-01 +5.68941534e-01 +7.52187194e-03 +4.58302259e-01 +4.28452253e-01 -2.05716729e-01 -3.31249344e-03 -3.51726592e-01 +4.50854868e-01 +6.37908101e-01 +3.17331344e-01 +2.04251558e-01 -6.22589171e-01 -1.54267147e-01 -4.44960147e-01 +3.26086342e-01 +8.93767715e-01 -2.09941626e-01 -4.00950819e-01 -5.05766630e-01 +2.81179398e-01 -2.41569638e-01 -2.33465374e-01 -1.16973668e-01 +2.15039209e-01 -2.09042132e-01 +6.15522079e-02 +2.30428651e-01 +2.82856703e-01 -1.26115155e+00 +1.93073193e-03 +1.57401726e-01 +1.12690046e-01 +1.25676259e-01 +2.68163621e-01 +1.70189530e-01 +2.13687450e-01 +3.27868983e-02 +1.41706869e-01 -2.40427360e-01 -1.24708444e-01 +1.07678488e-01 -2.58496463e-01 -5.26583314e-01 -5.65027833e-01 +6.23136796e-02 -5.49210072e-01 -2.70682182e-02 +1.30540609e+00 +1.33803949e-01 -2.54944503e-01 +3.10012132e-01 +1.47638574e-01 -4.63260740e-01 -4.69548345e-01 -2.01561674e-01 -3.79838169e-01 -5.12414157e-01 -3.96443546e-01 -1.23777553e-01 +2.38180369e-01 -1.35295421e-01 -6.44205809e-02 +2.62248367e-01 +2.53578335e-01 +2.23589495e-01 +1.44844264e-01 +2.30726838e-01 -7.10139871e-01 +4.88835543e-01 -1.07616019e+00 +6.89562440e-01 +7.48932719e-01 -1.92746252e-01 +2.64864653e-01 -1.04730250e-03 +6.67867184e-01 +2.22349942e-01 +3.89352530e-01 -8.50778282e-01 +9.71341908e-01 -3.55147980e-02 +4.88883555e-01 -1.08530009e-02 -3.95122394e-02 -3.49302620e-01 +4.24262136e-01 +4.66683865e-01 +1.33276880e-01 -1.66579977e-01 -3.69823128e-01 +1.32667944e-02 -4.43327367e-01 +2.72844940e-01 +9.32780132e-02 -2.90112853e-01 -1.98545039e-01 -4.63293307e-03 -3.91940624e-01 +3.44598293e-02 -4.41638559e-01 -2.18939483e-01 +6.18948601e-02 +2.41289333e-01 +4.63572860e-01 -2.46366397e-01 +3.24166894e-01 -4.91123170e-01 -1.68506607e-01 -3.90776902e-01 -1.12581119e-01 -5.49169004e-01 +2.15494454e-01 +4.31008697e-01 -2.00565711e-01 +2.47912109e-01 +3.02704394e-01 +3.39063257e-03 +3.17424446e-01 -4.02389228e-01 +2.52332926e-01 -1.09527715e-01 -1.27085373e-01 -1.24285936e-01 -8.89457464e-02 -3.73909384e-01 -1.56809717e-01 +6.21995509e-01 +3.76649261e-01 -2.98931867e-01 -3.53601843e-01 -3.45766217e-01 +4.19589989e-02 -4.20505255e-01 +5.47084287e-02 +7.93038532e-02 -1.62680000e-01 +2.48978272e-01 -1.27400637e-01 -9.40591767e-02 -6.79493695e-02 -3.11282128e-01 -1.58116743e-01 +3.13651681e-01 -6.68779835e-02 -1.04117237e-01 -2.05887854e-01 -8.56092647e-02 -1.35784179e-01 -7.15386093e-01 -4.40744698e-01 +1.54190347e-01 -2.87855063e-02 -5.88804856e-03 -8.61132920e-01 -9.61218476e-02 +4.80535865e-01 -3.13237339e-01 -4.52092737e-01 -3.19986999e-01 -3.73429716e-01 -7.76297003e-02 -4.65049654e-01 -4.59629655e-01 +2.30980173e-01 -9.30382669e-01 -9.25108492e-02 -4.98663127e-01 -4.44332659e-02 +8.54556561e-02 -4.25953060e-01 +1.11980188e+00 -4.21645045e-01 +1.02211758e-02 -5.12108803e-01 +3.57512623e-01 -1.55968770e-01 +9.49570358e-01 +2.19357744e-01 -1.25659823e-01 -3.52430940e-02 -1.15154386e+00 -1.82783529e-01 +6.35203600e-01 +3.09870094e-01 -3.78486484e-01 +1.77153468e-01 -6.48756504e-01 +5.20943820e-01 +1.23634815e-01 -2.51188517e-01 +1.10114031e-01 +1.25907052e+00 +2.68913329e-01 +1.86905757e-01 -1.80973828e-01 -8.93410563e-01 +5.05371213e-01 -1.31438106e-01 +4.29044366e-01 -1.20630607e-01 -5.60797930e-01 -2.53326297e-01 -1.24800513e-02 +1.00122786e+00 +1.15010820e-01 +2.02467114e-01 -1.12228222e-01 +1.36938229e-01 +1.58218086e-01 +5.27340889e-01 -4.43302006e-01 -3.97737920e-02 -3.13380659e-01 -8.56052935e-02 -6.88251480e-02 +1.20758533e-01 -4.77840155e-01 -1.19214332e+00 +1.36590108e-01 +3.04636240e-01 +1.64278463e-01 +5.54871082e-01 +7.84419298e-01 +1.34882972e-01 +3.43971282e-01 -8.66742432e-01 +1.46890342e-01 -2.84418344e-01 +2.99678624e-01 -3.47334683e-01 +7.18655229e-01 +1.57621711e-01 -2.93548435e-01 +2.89312363e-01 -4.64377582e-01 +2.93905795e-01 -3.41896564e-01 -3.45757008e-02 +2.27432385e-01 +3.27734828e-01 -2.68293321e-01 -2.76217163e-01 -1.07935414e-01 +1.98317230e-01 +4.32367295e-01 +1.27873987e-01 -7.98299074e-01 -1.99982867e-01 +2.68859088e-01 -3.50653291e-01 +1.70413688e-01 -2.12337598e-01 -3.10301930e-01 -5.82726181e-01 +8.18505883e-02 +8.99927616e-01 -8.16160619e-01 -1.06210358e-01 -2.06748560e-01 -7.08445013e-02 +2.88498074e-01 +1.40660405e-01 +9.53203365e-02 +2.14566544e-01 +3.45176995e-01 +4.32961017e-01 -2.97237813e-01 -3.91612679e-01 +6.16727710e-01 -2.75159270e-01 +4.95222867e-01 -1.62306368e-01 -1.86534449e-01 -1.41482875e-01 +1.20521180e-01 -6.85609102e-01 -5.57008326e-01 +1.37162432e-01 -2.95770615e-02 +1.05495960e-01 +1.60841897e-01 -2.80266643e-01 +6.60849642e-03 +6.15562141e-01 -9.16919231e-01 -6.32716566e-02 +1.29509404e-01 -4.71852958e-01 -2.95282245e-01 -2.25051552e-01 -2.22996861e-01 -1.84317995e-02 -7.79735446e-01 -6.27600610e-01 +8.03838819e-02 -7.07834899e-01 -1.07421875e-01 -1.23116612e-01 +1.51941821e-01 -5.62659085e-01 -6.88580200e-02 -5.78705132e-01 +4.45167899e-01 -2.61105478e-01 +4.83172238e-01 +1.82356074e-01 -2.25966826e-01 -7.94425309e-01 +2.07000300e-01 +6.95267558e-01 +6.42396569e-01 +1.78409010e-01 -1.88989684e-01 -4.53034222e-01 -3.61410081e-01 -1.70615315e-01 +2.05119908e-01 -1.00235116e+00 +1.37352839e-01 +3.68825555e-01 +1.14595652e-01 +6.34359121e-01 -2.64983680e-02 -4.71773386e-01 +5.58678627e-01 -2.46051967e-01 +4.84288007e-01 +2.73889750e-01 -3.50446582e-01 +3.47691149e-01 -6.83803916e-01 +2.21730724e-01 +2.79936314e-01 +3.58066522e-02 -1.61451280e-01 -2.25138590e-01 +9.34469625e-02 +8.75427723e-01 -5.99172473e-01 +2.55578548e-01 -2.85594881e-01 -4.01204288e-01 +7.45771825e-01 -3.89017463e-01 -2.38907441e-01 -8.95423070e-02 -2.34376803e-01 +6.62582810e-04 +5.29617846e-01 +5.24644136e-01 -1.33470014e-01 +3.21431428e-01 -3.40381712e-01 +2.37909853e-02 +6.45860553e-01 -5.32498598e-01 +2.43435517e-01 +4.28330421e-01 +2.29025379e-01 +4.43194687e-01 +2.78626177e-02 +2.94447482e-01 -2.91276753e-01 +1.00798137e-01 +3.10610324e-01 -8.90056118e-02 +9.40030590e-02 +9.10176396e-01 +4.40571748e-04 +2.46937662e-01 -2.55461216e-01 -2.84316421e-01 -4.29894365e-02 -1.02148943e-01 -6.30928934e-01 -2.69661844e-01 +2.53810972e-01 -2.14883253e-01 +5.39912656e-02 -1.01167157e-01 -1.80824384e-01 +3.21957059e-02 +2.07967922e-01 +2.70446092e-01 -4.15394068e-01 -1.51597723e-01 +2.73601890e-01 +1.90146312e-01 +1.95672214e-01 +5.11291385e-01 -3.68418209e-02 +7.14472592e-01 -6.61307424e-02 +7.98038244e-02 -5.63797295e-01 +1.06752515e-01 +1.68340489e-01 -8.16977739e-01 +4.25507911e-02 -3.08802038e-01 +3.00853252e-01 -2.55654246e-01 +2.48607576e-01 -8.40969741e-01 -8.65990147e-02 +9.77353528e-02 +2.20428735e-01 +2.45114386e-01 +6.30354807e-02 -2.25129828e-01 -4.99390125e-01 +2.06797138e-01 -1.23788464e+00 +2.80225240e-02 +2.91984856e-01 -7.26065099e-01 -1.17634594e+00 -8.84376541e-02 +2.51819082e-02 -3.22889626e-01 -4.76175070e-01 +2.71346480e-01 -5.37928522e-01 +1.11837246e-01 -7.31449425e-01 +1.73818469e-01 +1.81445450e-01 -3.62540893e-02 +3.01842242e-02 -2.88360924e-01 +5.53408682e-01 +2.11540982e-01 +5.81368744e-01 +4.26558685e-03 -4.92794991e-01 -4.43201154e-01 +2.93936998e-01 -3.59866351e-01 -1.82401523e-01 +2.65404791e-01 -2.57417530e-01 +2.30420451e-03 -5.27923286e-01 -8.73069286e-01 -1.39599040e-01 -7.36596286e-01 -3.31066787e-01 +6.35352671e-01 +5.46336830e-01 -2.33087435e-01 -3.98577303e-01 -6.55235432e-04 +5.73673666e-01 -2.36433372e-01 -2.74808835e-02 +2.79387861e-01 -4.34525251e-01 +2.31351733e-01 -2.01296464e-01 -1.35699093e-01 -3.95469338e-01 -5.17881997e-02 +2.88878739e-01 -4.38418001e-01 +1.67890102e-01 -1.26563296e-01 -6.34592652e-01 +5.89428484e-01 +2.18600556e-01 -4.31295514e-01 +7.12126255e-01 -3.05792540e-01 +2.21005917e-01 -2.21430928e-01 +9.58349109e-02 +1.04489788e-01 +2.17606410e-01 +2.61697084e-01 -3.23484927e-01 +3.81514430e-01 -5.71229815e-01 -2.39400238e-01 +1.63977787e-01 -3.72591078e-01 +1.76245973e-01 +4.89884079e-01 +3.73393536e-01 +4.88844931e-01 +4.40853909e-02 -1.06089320e-02 -3.07518363e-01 +1.30447432e-01 -4.42319155e-01 +8.20162222e-02 -6.26976117e-02 -1.97522923e-01 +1.91207752e-01 -2.90304482e-01 -1.33854926e-01 -1.92991003e-01 +6.89238846e-01 +1.46213889e-01 -2.24616081e-02 +2.71095872e-01 -5.08266911e-02 +7.63118118e-02 +2.96269566e-01 -2.43691653e-01 +1.78415418e-01 -4.52330010e-03 +1.34128183e-01 -2.43278787e-01 -7.80516565e-01 -6.67922437e-01 -3.39926302e-01 +3.66114318e-01 +1.34940147e-01 -1.71740264e-01 -1.67445242e-02 -5.02406284e-02 -4.22150642e-02 -4.24450114e-02 +2.73111939e-01 -1.11358590e-01 -3.79796594e-01 -4.22105402e-01 -2.31794447e-01 -1.76586449e-01 -1.04032017e-01 -1.04545310e-01 -5.13847232e-01 +1.86087847e-01 -6.04811966e-01 -2.56395042e-01 +2.54456788e-01 -1.22933336e-01 -1.28192931e-01 -1.96743429e-01 -5.54388762e-01 -4.53785202e-03 +4.06198874e-02 -1.08719200e-01 -1.57542989e-01 -1.57860875e-01 +1.37925118e-01 -7.99522817e-01 -1.95703804e-01 +3.47332865e-01 -4.28598672e-01 +1.72348708e-01 -7.73531675e-01 +3.53774697e-01 -1.72462165e-01 -3.92452657e-01 +6.30545557e-01 +1.96459144e-01 -4.78175312e-01 -4.41387534e-01 +2.46328518e-01 +5.50185479e-02 +5.95165133e-01 +1.78656384e-01 -7.65498459e-01 +3.98200363e-01 -7.09187627e-01 +2.61559300e-02 +6.53518140e-01 +3.74536842e-01 -1.82303250e-01 +1.55258194e-01 +2.17161141e-03 -1.22194372e-01 +4.27903324e-01 +1.53024867e-02 -1.16719395e-01 +6.87887013e-01 +4.72748339e-01 +3.66035163e-01 -2.41680115e-01 -3.82039070e-01 -1.15330532e-01 +2.16653481e-01 +1.81994841e-01 +3.77901405e-01 -2.53501564e-01 -5.47486424e-01 +2.72295386e-01 +1.00954548e-01 +5.33133566e-01 -5.90218417e-02 +2.11712062e-01 +8.53629336e-02 +1.09212883e-01 +6.49735108e-02 -2.78611332e-01 +4.18412298e-01 +2.03595776e-02 +2.17979118e-01 -1.92277983e-01 +3.32269937e-01 -6.08510733e-01 -1.75405115e-01 +8.64170849e-01 +3.41108680e-01 -1.88250124e-01 +5.98797679e-01 -5.66595018e-01 +1.74813390e-01 +6.10177636e-01 +8.88590276e-01 -2.85899311e-01 -4.37381901e-02 -1.64960295e-01 +2.84413397e-02 -1.51682317e-01 -1.11612523e+00 +5.33758521e-01 -6.78695142e-01 +3.76512527e-01 -5.87675571e-01 -1.79745659e-01 -8.77981335e-02 -4.12323624e-01 +2.41130009e-01 -2.76261568e-01 +3.65433127e-01 +5.01559794e-01 -1.57135129e-01 +4.64813828e-01 +2.50841290e-01 +3.59795690e-01 -1.80123493e-01 -1.81893229e-01 -3.03974859e-02 -2.84545682e-02 +6.94647312e-01 +4.25598204e-01 -9.14124623e-02 -2.73683101e-01 +2.31792063e-01 +1.82444334e-01 +2.56101508e-02 +7.41833687e-01 +7.31167197e-01 +4.18099493e-01 +2.47298807e-01 -7.93601573e-01 +3.12814176e-01 +2.76107997e-01 +3.21301103e-01 +2.15291485e-01 -8.78531411e-02 -1.29876971e-01 +1.97650865e-01 -1.25905842e-01 -6.18394278e-02 -1.05352297e-01 -4.15433347e-02 +4.91328567e-01 +5.66375889e-02 +3.05484414e-01 +3.19199920e-01 +1.23882912e-01 +4.31988508e-01 +2.09921822e-01 +2.26240456e-01 -8.44153017e-02 +4.89159934e-02 -4.46935773e-01 +2.19282821e-01 -3.80381227e-01 +1.31832017e-02 +5.82220793e-01 -2.32469767e-01 +5.97049236e-01 +1.03309736e-01 -2.40382358e-01 -6.32451773e-01 -4.43523258e-01 -3.61160874e-01 +9.00325030e-02 +1.03516221e-01 -7.68767655e-01 -3.90731215e-01 -3.52048576e-01 -1.66270867e-01 -4.69411284e-01 +2.67913759e-01 -8.89948979e-02 +3.66642863e-01 -3.54198590e-02 +4.05914128e-01 -3.13852191e-01 -4.84497458e-01 -5.56777418e-01 -6.62714362e-01 +2.85006434e-01 -4.56005871e-01 +3.20918232e-01 -2.44439393e-01 +3.11734676e-01 +2.74386168e-01 -3.34498078e-01 -1.05077960e-01 -3.39379519e-01 -1.07197382e-01 +3.12767439e-02 +4.40382510e-01 -2.29562059e-01 -3.24805558e-01 -4.79750276e-01 +1.68237746e-01 +3.44610900e-01 +1.60580445e-02 -4.19698954e-02 +4.56996709e-01 +4.75103498e-01 -3.97415191e-01 -5.60092032e-01 +1.81944028e-01 -6.98866010e-01 -2.13856995e-01 +6.87333822e-01 -7.16085911e-01 -4.45104569e-01 +3.00448146e-02 +2.81505018e-01 +4.50909361e-02 -9.28747728e-02 +3.03353399e-01 -4.71263051e-01 -6.48257971e-01 +5.31359613e-01 -3.48472208e-01 -4.19994220e-02 -5.02474964e-01 -3.14893812e-01 -7.03279674e-02 -1.52304858e-01 +2.74264097e-01 +2.90608853e-01 +4.68516171e-01 +2.70515867e-02 +1.54507920e-01 +1.01775602e-01 +2.86367565e-01 -1.87448114e-01 +1.08296320e-01 -4.00248021e-01 +2.38733873e-01 -1.66150369e-02 +7.11087227e-01 -2.57206261e-01 +1.73969314e-01 -2.46445417e-01 +1.98972061e-01 +9.29503664e-02 +2.27695420e-01 +3.28464359e-02 +3.31949830e-01 -1.60043642e-01 -2.10149020e-01 -2.22452790e-01 -2.62862980e-01 -4.17664081e-01 -1.35866091e-01 +2.88086236e-01 +2.84985781e-01 -3.34255286e-02 -1.06483921e-01 +1.79964721e-01 -3.02436799e-01 +2.13462159e-01 +4.49659944e-01 +5.84674597e-01 +4.95501002e-03 -1.16218977e-01 +9.41167399e-02 +4.24980611e-01 +6.64612889e-01 +2.11056128e-01 -7.81509206e-02 +5.81962317e-02 -2.77516633e-01 +1.64003506e-01 -7.03364387e-02 -1.09020114e+00 -3.22019309e-01 -6.93816543e-02 +2.12678403e-01 +4.72800702e-01 +1.72344953e-01 -8.57465327e-01 -1.55418634e-01 -3.51169586e-01 -2.58144885e-01 -7.04372406e-01 -3.86033386e-01 +9.31608081e-02 -7.35109970e-02 -1.04815699e-01 +2.29700729e-01 -8.24987367e-02 +3.42293948e-01 -4.75748442e-03 +3.15513521e-01 -5.94156124e-02 +5.60351670e-01 -2.09779680e-01 -2.03348935e-01 +2.63302416e-01 +7.80914605e-01 +3.98083895e-01 +2.06592515e-01 -1.42047748e-01 +5.59521377e-01 +2.00701982e-01 +3.59614074e-01 -5.24410665e-01 +5.77530444e-01 -3.77967092e-03 -4.53561991e-01 +9.66028776e-03 +8.00393283e-01 -3.59389573e-01 -3.33112806e-01 +2.84890503e-01 +1.37912050e-01 +3.99371296e-01 -4.11818236e-01 +3.43540281e-01 +6.50451839e-01 -4.05152212e-04 -5.49221337e-01 -2.06326023e-02 -7.22970903e-01 +2.75068134e-02 -7.24327266e-01 +2.88838208e-01 +9.28346276e-01 -1.70759507e-03 -3.66740793e-01 +1.33155137e-01 -3.55903715e-01 -4.07121003e-01 -3.06299895e-01 +1.96511656e-01 +3.39909941e-01 -4.04483706e-01 +1.08429983e-01 -2.68073976e-01 +4.39035058e-01 -2.69295156e-01 +4.70929354e-01 -7.81026110e-02 +9.90451425e-02 -7.90918469e-02 +2.01724365e-01 -8.75554904e-02 +1.87345013e-01 +3.43810081e-01 -7.18517601e-02 +1.63523301e-01 +1.21706955e-01 -1.59272835e-01 +2.74771731e-02 +1.20734669e-01 -9.83272940e-02 +6.17583655e-02 +6.19402587e-01 +4.03574347e-01 +2.98244715e-01 -2.11446896e-01 +5.14911115e-01 -9.23793256e-01 +1.41740546e-01 -3.10701013e-01 -7.40583539e-02 -7.92628713e-03 +1.10899478e-01 -3.11527550e-01 -4.43165511e-01 +3.37115198e-01 +2.54386783e-01 -8.13007057e-02 +2.14852452e-01 -7.31769800e-01 +7.04846680e-02 +1.00207599e-02 -3.73998046e-01 -4.74700369e-02 -6.58032656e-01 -3.72142196e-01 -6.01103723e-01 +6.68151736e-01 +3.56435061e-01 -1.05030403e-01 -3.25104028e-01 -7.98837915e-02 +5.39766252e-01 -9.91413221e-02 -1.26311807e-02 +4.12823945e-01 -4.02206462e-03 +1.78363249e-01 +3.68031740e-01 +5.39248437e-02 -5.08999348e-01 -4.23934102e-01 -5.63810050e-01 +7.38359034e-01 -2.30324954e-01 +5.50209105e-01 -4.30367172e-01 -1.37389705e-01 -8.31047475e-01 -5.23775578e-01 -2.21255586e-01 +2.06950024e-01 -3.67003620e-01 +1.53157771e-01 +1.04734607e-01 -4.37215894e-01 +3.37451935e-01 -4.33307171e-01 -6.58145696e-02 +3.17310452e-01 -1.03047319e-01 +3.33665460e-01 -2.87788123e-01 -4.89192694e-01 +2.58044213e-01 -3.40607136e-01 -2.82311112e-01 +1.64811805e-01 -2.47929960e-01 -5.09996712e-01 -1.67705506e-01 +2.56627321e-01 +2.02776313e-01 -2.06666917e-01 +2.38320723e-01 +5.65364242e-01 -7.90827721e-03 +8.41582477e-01 +2.85979062e-01 +3.90855642e-03 +2.47607961e-01 -2.60266662e-01 +3.50197196e-01 +4.95788157e-01 +6.57729506e-01 -6.18748605e-01 -7.27347210e-02 -8.89185846e-01 -4.73155230e-01 +7.62268424e-01 -5.03400266e-01 -1.95864305e-01 +7.23277688e-01 +2.85149008e-01 -4.18136984e-01 -2.84443468e-01 +1.65068552e-01 +5.75069606e-01 -3.39893997e-01 +4.54879329e-02 +7.32948601e-01 -4.32913452e-01 +9.42303240e-02 +3.50500673e-01 +7.37234235e-01 +3.98452915e-02 -1.15296483e-01 +6.62669241e-02 +2.84360081e-01 +6.66186392e-01 +4.80399221e-01 -1.23795867e-01 +4.49757338e-01 -3.06184560e-01 -5.06298393e-02 +2.64668584e-01 -4.51386161e-02 +3.56554389e-01 +3.13051909e-01 -2.94724494e-01 -5.45570403e-02 -1.95515007e-01 +3.89951169e-01 +2.77386636e-01 +2.54941612e-01 +6.01379514e-01 +2.62049705e-01 +1.27943337e-01 +6.30535856e-02 +5.78426532e-02 +1.26257554e-01 +2.64980823e-01 -1.21816918e-01 +2.06363469e-01 +2.96454877e-01 +3.45865667e-01 -1.36115402e-01 +2.82318592e-01 -6.68265000e-02 +3.85047197e-01 -6.88071728e-01 +2.83631086e-01 +3.72806609e-01 +1.15918629e-01 +1.73756983e-02 +3.04637611e-01 -2.38977745e-01 -2.57917494e-01 -2.53181249e-01 +3.37024480e-01 +2.01114967e-01 +4.50624228e-01 +6.15387917e-01 +3.15602601e-01 +2.49037534e-01 -2.94791013e-01 -5.86154640e-01 +3.13465923e-01 +8.63855660e-01 +2.36983687e-01 -9.13107544e-02 +1.52224705e-01 -2.25916088e-01 -2.02170849e-01 +2.58322120e-01 -6.94815040e-01 +4.21029538e-01 -4.82717007e-01 +3.74038249e-01 +1.88415915e-01 +7.51464739e-02 -1.97065398e-01 +1.00096554e-01 -2.22899526e-01 +5.39304674e-01 +2.36574605e-01 +5.59335463e-02 +3.52452934e-01 +1.13583267e-01 -4.10330385e-01 -2.01560557e-01 +2.48965591e-01 +3.40618372e-01 +1.13238782e-01 -3.83093238e-01 +1.18404150e+00 -2.43307799e-01 -2.80194283e-01 +1.36570826e-01 +1.04714227e+00 +2.05503583e-01 -1.54094845e-01 -3.75666589e-01 +3.58856350e-01 -9.81531739e-02 +1.37289989e+00 +3.24352592e-01 +3.76895815e-01 +6.22357666e-01 -3.50963473e-01 -7.15247393e-02 +7.19969347e-02 +8.33833635e-01 +5.04807085e-02 -2.60182559e-01 -2.58783132e-01 +2.80419320e-01 -9.93728191e-02 -1.41827673e-01 +7.15490818e-01 +3.16741765e-01 -9.45107564e-02 -3.54665935e-01 +2.07756951e-01 -4.99419533e-02 +3.54671925e-01 +2.36775741e-01 +2.20881149e-01 -1.21643342e-01 +1.50579780e-01 -6.27829671e-01 -3.42771769e-01 -3.30873102e-01 -8.48609861e-03 +6.49958193e-01 -3.02163154e-01 +2.55598545e-01 -4.48621139e-02 +9.52987745e-02 +5.49241900e-01 +1.92919686e-01 -2.06769437e-01 -3.81580979e-01 +3.13278466e-01 -3.69267515e-03 -2.01038927e-01 -2.38489896e-01 -2.11260796e-01 -3.10041070e-01 +2.78680861e-01 -3.72046053e-01 +1.17633410e-01 +1.56777948e-01 +9.24965292e-02 +1.76899344e-01 +5.06189883e-01 +6.29420578e-01 -5.85428715e-01 -2.56884605e-01 -7.35277772e-01 -1.67832628e-01 +1.64115094e-02 +5.54407835e-01 +2.11864151e-02 -2.02582911e-01 +9.43201303e-01 -1.81872472e-01 +4.69161034e-01 +4.91159894e-02 -2.51801997e-01 +3.24636132e-01 -9.20287147e-02 -2.61331588e-01 +8.54225010e-02 +4.37866181e-01 +6.09141648e-01 +6.93682432e-01 +3.80285025e-01 -8.00270960e-03 -1.74401656e-01 +7.11637914e-01 +1.87409341e-01 +2.30741605e-01 +6.81423008e-01 -5.07133782e-01 -3.06463063e-01 -3.49675328e-01 +2.36154586e-01 +2.51634985e-01 +6.09692752e-01 +4.06893373e-01 +7.40021616e-02 -5.44940472e-01 +4.38746095e-01 -3.95291001e-01 +2.94563711e-01 +1.18929341e-01 -3.18172783e-01 -2.21522346e-01 +2.35047396e-02 +1.69453904e-01 +2.13793069e-01 +6.66667759e-01 -2.04810888e-01 +4.68656659e-01 -5.66142023e-01 -1.91858634e-01 -1.87923029e-01 +3.41816902e-01 +2.50972837e-01 -1.87728703e-01 +2.55274177e-01 +2.01215416e-01 +4.76653755e-01 +1.79735050e-01 -7.51452567e-03 +3.71612579e-01 -3.65377516e-01 -2.77238995e-01 +1.45643222e+00 -3.04125756e-01 +6.57301307e-01 -2.44389728e-01 +3.89026701e-01 +3.98408294e-01 +1.85980111e-01 +3.88760805e-01 -9.72946361e-02 -3.05437565e-01 +6.22520335e-02 +1.59333616e-01 -3.67812932e-01 +6.49357319e-01 +4.05280143e-01 -9.68098342e-02 -1.57053605e-01 +1.30024459e-02 +5.33429146e-01 +3.62545073e-01 -3.64010364e-01 -1.65244803e-01 +7.49409869e-02 -4.37496185e-01 -3.49827558e-01 -1.22757539e-01 -2.21450012e-02 +2.35275328e-02 +7.18770772e-02 +1.89297289e-01 +2.28158861e-01 +1.03993215e-01 -1.94798574e-01 -2.49814361e-01 -4.53017771e-01 +5.28924093e-02 -4.54518721e-02 -3.75144005e-01 -2.15030298e-01 -2.10340887e-01 +4.26277876e-01 +4.69568640e-01 +4.45853025e-01 +1.51870802e-01 -3.92912477e-01 +4.93766069e-01 -6.09295189e-01 -3.39490354e-01 +8.31630826e-02 -1.59797102e-01 -4.14352268e-01 -6.06220186e-01 +4.35758829e-01 +2.26361588e-01 +1.11416411e+00 -4.73772138e-01 +1.93631634e-01 -2.12003410e-01 -2.45727915e-02 +6.88508572e-03 +7.59867966e-01 -8.98480535e-01 +7.63161406e-02 -3.34114850e-01 -4.39789295e-01 -1.71775743e-01 +3.34890604e-01 +5.73253155e-01 -7.05848113e-02 +3.45993973e-02 +1.55861363e-01 -2.90989354e-02 -3.17177057e-01 +2.09406018e-02 -2.80256234e-02 -9.34848040e-02 +3.94973099e-01 -8.32872614e-02 +1.57497585e-01 +2.72448301e-01 -4.45658006e-02 -2.65487880e-01 -2.56307989e-01 -9.00943670e-03 -7.33563483e-01 +7.32272193e-02 -1.17093492e+00 -8.08284152e-03 -5.68798423e-01 -5.51830679e-02 -1.91390902e-01 -1.22959566e+00 +9.68052819e-03 +7.03411549e-02 -7.25207388e-01 -3.45701635e-01 -1.66844875e-01 +4.79178995e-01 +2.46325120e-01 -3.65671873e-01 -5.28671369e-02 +4.24427122e-01 +2.01826289e-01 +1.27984181e-01 -2.31838942e-01 -4.16332841e-01 +4.72668298e-02 -4.43777621e-01 -9.40058172e-01 +3.19448948e-01 +3.93630564e-01 -7.02292204e-01 +4.22998399e-01 -9.17519152e-01 +2.07182020e-02 -8.74692082e-01 +2.38877416e-01 +8.96245465e-02 +6.08099580e-01 -2.74260700e-01 +3.99449356e-02 -5.45199573e-01 +3.18413198e-01 +1.46246165e-01 -4.55497622e-01 +8.81488100e-02 -8.25734138e-02 +7.28663523e-03 -3.79414529e-01 -3.01005006e-01 +3.23559791e-02 +1.14521749e-01 -5.38310945e-01 +2.94104546e-01 +1.61025479e-01 -1.36456341e-01 -5.90508401e-01 +7.75467038e-01 +4.72093187e-02 +7.36348405e-02 -4.37648684e-01 +9.03275330e-03 -4.68389452e-01 -1.92867637e-01 +8.00158679e-02 +8.08109343e-02 +4.99013573e-01 -9.48744118e-01 -7.09959090e-01 -9.95464087e-01 -2.39180103e-01 -5.45461297e-01 +2.16955066e-01 +1.36478078e-02 +6.88860178e-01 -8.07857752e-01 -5.08957684e-01 +6.57771006e-02 +2.19642058e-01 +4.31709588e-01 +1.00191027e-01 -2.54018515e-01 -4.75095838e-01 +1.07001677e-01 -2.08321586e-01 -2.09263235e-01 +5.09674668e-01 +2.70694137e-01 -4.72245842e-01 +7.63872340e-02 +2.30830804e-01 -2.72127334e-02 +2.86530972e-01 -2.72550464e-01 +1.75952390e-01 +2.04828694e-01 +2.69897699e-01 +3.44442457e-01 -7.19209373e-01 +3.75132799e-01 -6.10107243e-01 +5.39865673e-01 +3.79045866e-02 -2.74996787e-01 -4.76927221e-01 +1.16584158e+00 -2.61782020e-01 +6.11896664e-02 -5.53671181e-01 -3.18357974e-01 +1.62342668e-01 -1.17601775e-01 +5.19049466e-01 +4.41516712e-02 +3.70800681e-02 -3.56567413e-01 +4.35171604e-01 +1.20061234e-01 -1.85648516e-01 +9.18165967e-02 -2.19663605e-01 -6.65185034e-01 +3.95085663e-02 -2.27113366e-01 -1.05040140e-01 +1.11111909e-01 -1.27089592e-02 +2.16601476e-01 -3.80057365e-01 -1.28377989e-01 -4.18560535e-01 -1.08910903e-01 -2.12875664e-01 +1.68645531e-01 -7.93861091e-01 +2.01211587e-01 +2.72607300e-02 +1.96691319e-01 -6.94566146e-02 -3.34064275e-01 -6.81110024e-02 -1.04288124e-01 +6.82795569e-02 +6.37512147e-01 +3.73673849e-02 +2.36355811e-01 +4.49337453e-01 -9.80163440e-02 +7.61783421e-02 -1.50360346e-01 +4.91460353e-01 +3.84731352e-01 +2.49736935e-01 -3.60713333e-01 +1.70390278e-01 -2.49100209e-04 -5.96565723e-01 +2.76281476e-01 +5.96420288e-01 -2.16981061e-02 +4.60885763e-01 +2.08272293e-01 -6.56179115e-02 -2.01240823e-01 +4.85253513e-01 -9.75759387e-01 +3.27268243e-01 -2.49598529e-02 +5.04919142e-02 -1.32025316e-01 -5.46122670e-01 +1.01447269e-01 -3.49981636e-01 -6.02112234e-01 -2.14017347e-01 -5.56344911e-02 -5.63949227e-01 -2.79957473e-01 -1.01491153e+00 +6.10467494e-01 -4.97658581e-01 +1.60527959e-01 +2.42624864e-01 -2.50007182e-01 -2.77954824e-02 -1.69474006e-01 -4.95527655e-01 +6.48816764e-01 -5.69538891e-01 -2.36979529e-01 -3.12494725e-01 -2.04963051e-02 +4.20262031e-02 -5.17209806e-02 +8.02649200e-01 +2.52155125e-01 +2.26183355e-01 -7.32038379e-01 -7.32601881e-02 -8.30433190e-01 +4.95779216e-01 +4.51925099e-01 -5.62794387e-01 -6.95519447e-01 -5.60676038e-01 +1.35660514e-01 +2.49309346e-01 +4.68632340e-01 +1.93548873e-01 +7.52165839e-02 -9.13519412e-02 +8.99744853e-02 +2.03246281e-01 +1.64841413e-02 +2.16984302e-01 +1.23092639e+00 -3.96226883e-01 +3.78931880e-01 +1.42204836e-01 -6.61115646e-01 +4.09896642e-01 -1.27299488e-01 +2.24806458e-01 -1.04880616e-01 -8.92979085e-01 +6.71587959e-02 -4.27709013e-01 +7.55468547e-01 -7.11205676e-02 -4.58433386e-03 -5.98214008e-02 -3.81185189e-02 +5.06758355e-02 +2.37792179e-01 -2.56409705e-01 +2.31113896e-01 -3.44752967e-01 -2.57848442e-01 +3.11661400e-02 +1.14890747e-01 -8.48176256e-02 -3.98168832e-01 +5.45048535e-01 -1.98041826e-01 +1.28395051e-01 +9.99291480e-01 -6.21905446e-01 +3.60733628e-01 -1.45020783e-01 +7.57927060e-01 -7.39207506e-01 +6.82962477e-01 -4.79821682e-01 -7.82366991e-01 -6.94456816e-01 -8.91274214e-01 +3.74840081e-01 -1.88990027e-01 -4.05889064e-01 -2.97775835e-01 -1.96845323e-01 -3.67269307e-01 +4.00844187e-01 -9.76200104e-01 +9.46319327e-02 -9.13760483e-01 +3.13954800e-01 -3.09733823e-02 +3.44645590e-01 +5.00392467e-02 +1.51246697e-01 +1.51175946e-01 +2.24466056e-01 +7.76896536e-01 +3.04215006e-04 +1.43835515e-01 +2.43861973e-01 +2.14272276e-01 +3.38505030e-01 -2.63008803e-01 -1.84417851e-02 -4.60791022e-01 +2.39100501e-01 -3.96240592e-01 -4.14528638e-01 +2.18439430e-01 +2.71812201e-01 +7.42781878e-01 -3.76309246e-01 -1.04996681e-01 +6.71677470e-01 +2.46636257e-01 -1.51681900e-01 +8.81391943e-01 +8.46083537e-02 +7.19187677e-01 -6.26457706e-02 +7.86457539e-01 -3.44697624e-01 +4.23864335e-01 -1.90364689e-01 +6.95815161e-02 +2.25390747e-01 +2.08752573e-01 +7.62065411e-01 -2.69541919e-01 +6.85648978e-01 -3.12403440e-01 +2.44704276e-01 -2.74002463e-01 -3.50115031e-01 +7.75486350e-01 +1.14944410e-02 +2.99181759e-01 -1.96171731e-01 -1.92187056e-01 -2.10697263e-01 -4.34184551e-01 -1.62693951e-02 +2.50393730e-02 +6.95237815e-01 +5.18547297e-01 -3.18434238e-01 +1.42218351e-01 -5.24846494e-01 +1.71312585e-01 +1.99353784e-01 +2.08210647e-01 +1.06206192e-02 -2.56069690e-01 -8.25740471e-02 +1.87713936e-01 +1.36748981e-02 -1.01099357e-01 -1.93885803e-01 +1.59644783e-01 +4.27880228e-01 -1.23589240e-01 +4.54798400e-01 +8.12514484e-01 +3.29181850e-01 +5.94289243e-01 +2.35956803e-01 -1.31921768e-01 +3.90232056e-02 -1.41495273e-01 -3.73937428e-01 +5.75399697e-02 -2.23425314e-01 +3.67947698e-01 +1.56289309e-01 -3.61296237e-01 +1.16246551e-01 +9.41019319e-03 +1.64510850e-02 +7.46337891e-01 +1.20820791e-01 -1.97715148e-01 -3.48224372e-01 +5.99402823e-02 -2.03506976e-01 -5.46924882e-02 +2.14607626e-01 -7.89340958e-02 -2.67251134e-01 -3.67745161e-01 -4.32179511e-01 +9.16191489e-02 -1.55747861e-01 +4.51732874e-02 +3.31582099e-01 +8.58503804e-02 -6.09763086e-01 -4.15300608e-01 -3.92778888e-02 -2.71449327e-01 -1.20342243e+00 -5.69325015e-02 +5.86453259e-01 -2.05247775e-02 -2.09348470e-01 +1.14035167e-01 -1.42864600e-01 +2.83441037e-01 -1.72097012e-01 +1.07202642e-01 +1.36705026e-01 -2.19900444e-01 +1.00954659e-01 -1.65722296e-01 +4.15447146e-01 +5.85353851e-01 -1.02150373e-01 +4.05783743e-01 -5.03643975e-02 +2.70767629e-01 -7.46003449e-01 -5.65075815e-01 -1.76901892e-02 +5.07719338e-01 +3.31903577e-01 -4.56275463e-01 +1.76638380e-01 -2.41852894e-01 -2.59502053e-01 -4.35348675e-02 -1.78956434e-01 +2.20669731e-01 -4.96426821e-02 -3.51401865e-01 +3.22487593e-01 +3.93873632e-01 -3.35029997e-02 +1.47885233e-01 +2.53694355e-01 -5.46744764e-01 -2.63592899e-01 -4.80821371e-01 +1.02378361e-01 +3.53764623e-01 -4.31462198e-01 +5.03336072e-01 +2.46067002e-01 +1.42787486e-01 +3.05372030e-02 +1.70171171e-01 -2.01355070e-01 +2.01492459e-01 -2.21980885e-02 +6.65709555e-01 +5.39813638e-01 +8.79663676e-02 +4.61795986e-01 +6.91004455e-01 +7.14897513e-02 -3.65330696e-01 +2.16093764e-01 +1.67043060e-02 +3.85918379e-01 -5.06458879e-01 +5.33465156e-03 +2.80275673e-01 -2.46441796e-01 -8.10070097e-01 +2.36430347e-01 +2.10080549e-01 +3.75181228e-01 +8.75802189e-02 -3.07051539e-01 -5.15599251e-01 +1.45447388e-01 +1.00619531e+00 +4.15705472e-01 +4.33618307e-01 -1.49039343e-01 +7.26142883e-01 -1.33272922e-02 -5.75795889e-01 -4.01987851e-01 -1.20181993e-01 +4.51943159e-01 +4.79374528e-01 +1.89266875e-01 -4.05188441e-01 -6.17465854e-01 -5.34777045e-01 -1.00064588e+00 -1.13892078e-01 -8.42490122e-02 -4.07721758e-01 -8.41280296e-02 +3.17616105e-01 +1.49834156e-01 -2.74891108e-01 +3.06337118e-01 +3.61165494e-01 -1.07989781e-01 -2.18586862e-01 -1.39013017e-02 +1.70320377e-01 -3.70419145e-01 -7.71396756e-01 +3.98564041e-01 -1.54195920e-01 -2.25899547e-01 +6.10832453e-01 -1.28891289e-01 +8.22233200e-01 +5.25141776e-01 -2.02480271e-01 -3.36498588e-01 +2.95526445e-01 +1.62041023e-01 +4.41358507e-01 -2.88564324e-01 +2.13070899e-01 +7.39594474e-02 +2.35202998e-01 +1.55079752e-01 -1.64447471e-01 +5.22927791e-02 +2.17300266e-01 +4.80384290e-01 +6.55205965e-01 -8.62927288e-02 -2.70145357e-01 +2.08554417e-01 +1.69267863e-01 +4.75631088e-01 +3.75791907e-01 +9.51380908e-01 +5.13896346e-01 +2.23441288e-01 +1.64891899e-01 -2.55888134e-01 +6.03425980e-01 +2.77977109e-01 +1.34690523e+00 +2.06398353e-01 +1.65206969e-01 +4.16173637e-01 +3.96697253e-01 +9.64508653e-02 +9.10429955e-01 +1.26332688e+00 +3.14684749e-01 +4.00324106e-01 +3.66804779e-01 +2.13202327e-01 +4.77139354e-01 +6.56273663e-01 -1.85887977e-01 +4.92604285e-01 -9.05627549e-01 +3.81504238e-01 -6.97481692e-01 +3.99825983e-02 -2.27585703e-01 -1.87709183e-01 +1.98430315e-01 +6.85612261e-01 -2.92938799e-01 +3.78218830e-01 +4.89468165e-02 -8.17953169e-01 +4.85786796e-01 +2.27070838e-01 +3.14235896e-01 +7.04308599e-02 +1.15190819e-01 -3.28061908e-01 +2.38759547e-01 +3.66499461e-03 -5.34061864e-02 -4.12517548e-01 +1.58363372e-01 -6.10533357e-01 -1.36656135e-01 +1.82827502e-01 +3.27314168e-01 +3.00405920e-01 -7.93755412e-01 -9.02637541e-02 +3.61749120e-02 +6.08732164e-01 -6.84053376e-02 +2.17388391e-01 +3.11750680e-01 +1.51037440e-01 -6.27660811e-01 +7.40064740e-01 +4.94862378e-01 +1.35650681e-02 -3.75834294e-02 +1.23812646e-01 +5.89064837e-01 -1.48218483e-01 -4.57026452e-01 +8.95685732e-01 -4.22117338e-02 -7.04976618e-01 +2.73808211e-01 +6.21512115e-01 -7.22712934e-01 +4.74674731e-01 +6.12782761e-02 -6.35742784e-01 -7.31495246e-02 -5.80135763e-01 +2.82099307e-01 +5.01414120e-01 +5.19772470e-01 -1.38619095e-01 -8.90951529e-02 +4.86753024e-02 -4.05573219e-01 +1.43814296e-01 -2.83967763e-01 -3.64425480e-01 +5.82485080e-01 -5.53782642e-01 +5.33512414e-01 +3.25231910e-01 +8.48854557e-02 +8.25859085e-02 +4.53730077e-01 -2.88865000e-01 -4.07946497e-01 -7.36055493e-01 -5.32418489e-01 -4.21529077e-02 -4.73928005e-01 +8.95400703e-01 +5.42241216e-01 +3.38518709e-01 -2.39708766e-01 -4.61120578e-03 +1.19845964e-01 +5.19633964e-02 -6.13771737e-01 +2.47124210e-01 -1.84370756e-01 +4.24052496e-03 +2.92050898e-01 -7.51976192e-01 -2.96882957e-01 +4.82189566e-01 +7.21720457e-01 -1.12629101e-01 +7.72287726e-01 +4.87910435e-02 +2.86667906e-02 +1.46797910e-01 +3.60153884e-01 +3.24193865e-01 -2.58567750e-01 +2.80877680e-01 -2.43044179e-02 +2.34286323e-01 +2.42909804e-01 +7.05232024e-02 +3.74068826e-01 +6.31426811e-01 +2.32490197e-01 +6.20118856e-01 +2.79550970e-01 +3.53802919e-01 +7.82883540e-02 +3.08892995e-01 +5.79700053e-01 +9.01736096e-02 +5.73266149e-01 -1.10239193e-01 -1.32371232e-01 +2.64653832e-01 -9.69228819e-02 -1.04246579e-01 -2.12512419e-01 +3.66354138e-01 +1.47914395e-01 -1.50867224e-01 -1.11579485e-01 +2.22823769e-02 +7.90708959e-02 +4.26931828e-01 +4.69550073e-01 +1.97733283e-01 -1.16237707e-01 +5.08000135e-01 +2.03354582e-01 -4.56668913e-01 -3.86988111e-02 -2.48903215e-01 +5.35384715e-01 -4.01682407e-01 +2.47252762e-01 +6.03041768e-01 -1.00612249e-02 +2.10268185e-01 -8.63799304e-02 -5.36574461e-02 +1.68524772e-01 +9.97590184e-01 +6.02355301e-02 +2.53166765e-01 +4.06387687e-01 -3.32991034e-01 -1.90845117e-01 -9.27312747e-02 +1.21349983e-01 -4.23433632e-01 +2.53286391e-01 +6.48802817e-01 +7.02736108e-03 +9.96184722e-02 -1.56070068e-01 +3.82480949e-01 -4.18630093e-02 +7.64801875e-02 -6.92351401e-01 +5.92594266e-01 +6.05601609e-01 +9.62164700e-01 +7.19273984e-01 -2.56394058e-01 +4.07416880e-01 +2.74790972e-01 +5.66939175e-01 +6.54276669e-01 +9.16843772e-01 +2.35398695e-01 +7.06817508e-01 +4.06513028e-02 +3.73193055e-01 +3.28251541e-01 -1.22181542e-01 +2.13347718e-01 +3.23687792e-02 +3.77986193e-01 +2.94253618e-01 +1.87164083e-01 +3.73696923e-01 -1.60914630e-01 +1.81677178e-01 +6.24647960e-02 -1.80643871e-01 -9.66677368e-02 +5.72699122e-03 +7.08633568e-03 -1.34419173e-01 -6.91886365e-01 +1.58832055e-02 +3.11143517e-01 +1.27391458e-01 -1.48037355e-02 -9.78450179e-02 +2.56789476e-01 -1.54876644e-02 +1.55368954e-01 -1.09120764e-01 -4.17397439e-01 -1.87215760e-01 +8.27874690e-02 -3.58599186e-01 +4.35432911e-01 -7.17471957e-01 -6.00566752e-02 +7.74203539e-02 +5.33884525e-01 -3.26921612e-01 -1.52203754e-01 -3.71229164e-02 -2.13904619e-01 -1.40987083e-01 -8.44112039e-02 +2.69715816e-01 -3.49623829e-01 -8.98807272e-02 -3.42493206e-01 +3.34581994e-02 -9.90209132e-02 +3.37960273e-01 -1.44257680e-01 -6.84196711e-01 -1.44502521e-01 +4.67807725e-02 -3.22484300e-02 +6.99989451e-03 +7.38529637e-02 +1.00707933e-01 -7.07197964e-01 +1.67463034e-01 -5.07181287e-01 +2.38900617e-01 -4.27108288e-01 +4.50057924e-01 +1.46109000e-01 -4.36456710e-01 -2.38939300e-02 +1.12108149e-01 +3.16582978e-01 -3.26730937e-01 -2.20709547e-01 -4.15868536e-02 -1.04845233e-01 -5.21385372e-01 -4.37642992e-01 -1.26807302e-01 -3.24963063e-01 -7.55380318e-02 +3.97954851e-01 +4.31423485e-01 -1.07242286e-01 -2.33520567e-01 +1.13301734e-02 +1.74327135e-01 +7.13582933e-02 -1.59075081e-01 +3.19640517e-01 -1.48568317e-01 +2.55667329e-01 +1.85872555e-01 -5.35017967e-01 -5.32843247e-02 -5.49340211e-02 -4.26284730e-01 +1.96398184e-01 -8.78135562e-02 +4.12276745e-01 +2.74716858e-02 -1.45539731e-01 +2.06974372e-01 -2.08744586e-01 -6.18178129e-01 -5.63875167e-03 -1.64889663e-01 -2.57355005e-01 -3.00669074e-01 +2.28139665e-02 +7.16528818e-02 -6.42521739e-01 -1.58571005e-01 +4.52467566e-03 -2.02795793e-03 -3.10113505e-02 +5.52922934e-02 -1.99205562e-01 -2.03159332e-01 -3.32854003e-01 -4.10488158e-01 -4.29254800e-01 -3.27276677e-01 -2.31004193e-01 -6.50950611e-01 +6.72373831e-01 -3.17750387e-02 -2.28744015e-01 -4.80364352e-01 -8.84649903e-02 -4.38073397e-01 +8.79409984e-02 +5.71537971e-01 -4.38305318e-01 +4.38010365e-01 -4.74993795e-01 -1.09181397e-01 +6.88672900e-01 +7.15706110e-01 -2.13075757e-01 +3.75639915e-01 -4.36150849e-01 +2.63477769e-02 +3.44151199e-01 +1.33415610e-01 +1.79942161e-01 +3.27667296e-01 -1.13550350e-01 +3.02374154e-01 +1.33862719e-01 -8.32808912e-02 +1.23809539e-01 +9.83687700e-04 +2.85327703e-01 +4.16469276e-02 -1.84313029e-01 -2.86994547e-01 -1.00292213e-01 +3.15247983e-01 +1.33520186e-01 -7.54219061e-03 +6.84249640e-01 -1.00763835e-01 +4.28145617e-01 -1.06102467e-01 +1.25423566e-01 -7.35079050e-02 -2.07828224e-01 -2.65619606e-01 +5.62288612e-02 -4.04535741e-01 -1.31922036e-01 -6.94765225e-02 -2.93132991e-01 -1.14312470e-01 +8.19927175e-03 +2.84884065e-01 +5.31309508e-02 -2.91860700e-01 +1.95456028e-01 +1.09432034e-01 +8.21989030e-02 +6.74806297e-01 -3.95086437e-01 -6.52579427e-01 +9.26410854e-02 +2.23937124e-01 +1.55244827e-01 +1.39660686e-01 +5.01423776e-01 +2.69948989e-01 +3.23376834e-01 +9.12106112e-02 +5.85553110e-01 +1.04547106e-01 +6.42419338e-01 +1.24779448e-01 -4.85253215e-01 +1.08391321e+00 -2.47384965e-01 -1.91578686e-01 +1.69299290e-01 -3.41489404e-01 +9.81728196e-01 +9.56142172e-02 +5.89958429e-01 +1.56902149e-01 +2.36954331e-01 +1.73151642e-01 +2.29544938e-01 -2.17382818e-01 -3.30703497e-01 +3.56876940e-01 -6.89390302e-01 -5.07240713e-01 +5.80492496e-01 +2.90877253e-01 +6.85575247e-01 +2.59417072e-02 -2.23817989e-01 -3.34963053e-01 -1.45826086e-01 +2.34243959e-01 -5.12662828e-01 +5.34848511e-01 -1.22015893e+00 +6.30659401e-01 +5.29628769e-02 +8.43049169e-01 +1.98448956e-01 +6.92944452e-02 +6.21190704e-02 -1.38254285e-01 +2.41915256e-01 +8.82183686e-02 +2.50121504e-01 -5.59131205e-01 -2.47463554e-01 +1.09936230e-01 +7.21849442e-01 -4.26878065e-01 -1.90455951e-02 +6.44534349e-01 -4.89502370e-01 +3.55258167e-01 -4.75534618e-01 +2.64399290e-01 -3.60668510e-01 +2.87850618e-01 +7.29069650e-01 +3.53884846e-01 +3.11544893e-04 +1.12968743e-01 +4.00279701e-01 -1.60519662e-03 -1.83426104e-02 +6.93741143e-01 -4.99374837e-01 -1.60606563e-01 -7.85744488e-02 +4.62794065e-01 -6.39798522e-01 -4.12540138e-01 +2.19750434e-01 +3.11495453e-01 +5.98925889e-01 +4.89876747e-01 +4.17035520e-01 +2.06282154e-01 +7.30083406e-01 -3.19850236e-01 +5.92128813e-01 +1.01927845e-02 -3.06786954e-01 -2.21094951e-01 +6.73521578e-01 -7.15776756e-02 -5.27265370e-01 +1.37412861e-01 -2.58047640e-01 +8.24501097e-01 +4.18069661e-01 -9.88106549e-01 +1.73827633e-01 +1.16371781e-01 +8.80511224e-01 -6.15764499e-01 -4.93448496e-01 -5.71956813e-01 -6.81614205e-02 -5.50960660e-01 -4.59527761e-01 -1.33329558e+00 -1.42315269e-01 +1.72376961e-01 +3.84313256e-01 -7.32509077e-01 -2.15352163e-01 +3.35678980e-02 +1.54395327e-01 +1.18468747e-01 -6.53568685e-01 +1.67821467e-01 -6.58213317e-01 +1.99620170e-03 -2.14147106e-01 -5.19856438e-02 +3.91700000e-01 +2.49340594e-01 +3.98459673e-01 +1.54191390e-01 -3.24538618e-01 -9.71646160e-02 +1.07796513e-01 +1.10972494e-01 +3.33282888e-01 +1.23931421e-02 +4.63108271e-01 -2.50790805e-01 +4.08160299e-01 +3.25164974e-01 +8.52688670e-01 -1.61210850e-01 +4.56307977e-01 +6.57400414e-02 +2.89558947e-01 +4.33675706e-01 +2.68267244e-01 -3.34910870e-01 +6.24180734e-01 -5.13429567e-02 -2.99219608e-01 -3.42116393e-02 -4.07811515e-02 +3.59598994e-02 +5.08884311e-01 +1.02937274e-01 -1.87516183e-01 -1.49409890e-01 +2.43341953e-01 -5.82355745e-02 +4.53297973e-01 -6.41504899e-02 -9.66744125e-03 -1.77429289e-01 +6.53709322e-02 -4.71651495e-01 -2.01526761e-01 +1.81570332e-02 -2.10509941e-01 -4.70516644e-02 -2.07842529e-01 +1.50772199e-01 -4.10769194e-01 +1.62119776e-01 -2.68077999e-02 -2.95216024e-01 -9.40495655e-02 +2.40536526e-01 -4.02917266e-01 -1.90079007e-02 -2.91078836e-01 -3.75215948e-01 +2.20969975e-01 +2.50829637e-01 +6.36769712e-01 +4.19713184e-02 +1.77200481e-01 +4.77324337e-01 +4.98587005e-02 +1.64801762e-01 +4.16030198e-01 +3.16568732e-01 -1.76396206e-01 -5.70911884e-01 +4.32080060e-01 +2.24419683e-02 +4.64657173e-02 +1.04795039e-01 +1.23644389e-01 -1.63775850e-02 +9.89480734e-01 +3.28050554e-01 -2.09898919e-01 +4.41231132e-01 -2.63177425e-01 +3.88704360e-01 -3.57197553e-01 +1.53091416e-01 +1.29535168e-01 +7.83953607e-01 +4.53193545e-01 -4.80151385e-01 -1.53202955e-02 +3.31377499e-02 -1.70233533e-01 +8.72324482e-02 +1.67696089e-01 -2.87612379e-02 -7.38765597e-02 +5.20619035e-01 -4.55034971e-01 -7.11865397e-03 -5.28386682e-02 +7.56868795e-02 -2.72339523e-01 -2.13119641e-01 +1.29107758e-01 +2.06984673e-02 -6.45399690e-02 -3.88947099e-01 -2.16811568e-01 +3.05062532e-01 +7.56937742e-01 +3.74643840e-02 -1.68504547e-02 -7.97359765e-01 +3.20590019e-01 +1.16898410e-01 +8.89291704e-01 +9.02063474e-02 -3.29143181e-02 +3.13856080e-02 +1.73336983e-01 -4.38967258e-01 +1.91837884e-02 -1.28788009e-01 +1.57537907e-01 -1.76627710e-01 -5.90876639e-01 +3.02341789e-01 -3.78109783e-01 +4.68595922e-02 -2.43931428e-01 -3.94716620e-01 -2.82404810e-01 +2.63681203e-01 +2.72694379e-01 -1.27491370e-01 +9.10350159e-02 -2.81821132e-01 -6.10023201e-01 +6.34152964e-02 +2.34874055e-01 +5.52180290e-01 +5.91186434e-02 -3.21220040e-01 +3.00225914e-01 -1.35633111e-01 +2.76209414e-01 +5.15650809e-01 +2.94902977e-02 -1.47522062e-01 +2.40537554e-01 +5.31550646e-01 +2.04886869e-02 -1.98212504e-01 -1.84893250e-01 -1.99203581e-01 -5.46514392e-01 -4.55435455e-01 -8.27624261e-01 +6.89817891e-02 -3.28129202e-01 -3.10865313e-01 -1.58967569e-01 -9.63484719e-02 -4.40485895e-01 +3.98124844e-01 -6.00431085e-01 -8.66620094e-02 +5.32639503e-01 -2.56753843e-02 -1.04092920e+00 +5.36382616e-01 -5.57334900e-01 -4.63001192e-01 +1.09156206e-01 +7.41085410e-02 -3.65877479e-01 +4.74604636e-01 -5.56481302e-01 -1.70268103e-01 +4.02787626e-01 +3.29422802e-01 +8.69741201e-01 -2.31610835e-01 +9.97294337e-02 -2.48594448e-01 +1.52221128e-01 +1.25348017e-01 +8.02506328e-01 -1.07704543e-01 +8.37022543e-01 -2.29147911e-01 +8.64965916e-01 -7.66658112e-02 -2.54871488e-01 +3.06913346e-01 -6.97821379e-01 -2.77288914e-01 +3.01457644e-01 -9.04711902e-01 +7.29794204e-01 +2.42165148e-01 +2.57195622e-01 +4.41213220e-01 -1.29273370e-01 +3.93002108e-02 -4.97243106e-01 -6.13504788e-03 +3.87104720e-01 +1.15942276e+00 +1.61991641e-01 +6.71388566e-01 -8.55554193e-02 -3.64817172e-01 -3.08299959e-02 +5.04075229e-01 -7.90187530e-03 -1.13380122e+00 +7.28257671e-02 -2.76194364e-01 +1.56526163e-01 -6.89024031e-01 +8.38808775e-01 -2.31922314e-01 -9.05013859e-01 +2.62340337e-01 -5.06809413e-01 -6.67270541e-01 +4.89638180e-01 +3.96081731e-02 -2.24504888e-01 +1.93911865e-01 -2.29515404e-01 +7.56492913e-01 +1.19088329e-02 -6.63799942e-01 +3.93569589e-01 +8.44748225e-03 +7.35296488e-01 -3.77076827e-02 +7.07141235e-02 -3.94831061e-01 -5.12276709e-01 -4.85412836e-01 +1.66124418e-01 -6.41928017e-01 +1.59933999e-01 +4.10790801e-01 +3.22222084e-01 -9.86785814e-02 -2.74427176e-01 -3.49099278e-01 +2.70802602e-02 +3.21103930e-01 -5.04038155e-01 -5.70543483e-03 -6.99263275e-01 -1.13776200e-01 -1.36195958e-01 -9.52762514e-02 -6.37144549e-03 +1.02442585e-01 +5.89323416e-02 -3.04604739e-01 +3.09650414e-02 +3.36512983e-01 +2.13698983e-01 +1.21011861e-01 -3.25667232e-01 +2.15187058e-01 -4.79958713e-01 +2.37163424e-01 -5.78897834e-01 -3.48368555e-01 -4.28013861e-01 +5.71700446e-02 +6.65857017e-01 -2.25524828e-01 -2.32916679e-02 +2.89868005e-02 +6.97850883e-02 +6.72857696e-03 -7.33451322e-02 +1.35852769e-01 +2.69023143e-02 -7.67029971e-02 -2.55839527e-01 -1.09426968e-01 -3.00675863e-03 -5.34711257e-02 +2.62958944e-01 -1.30577236e-01 -6.65962994e-02 -6.62604570e-01 -3.62556726e-02 +2.11614892e-01 -1.97131723e-01 -2.59441257e-01 +6.82182610e-02 -2.40520537e-01 +1.66022554e-01 -5.60335629e-03 -3.83789718e-01 -1.12783514e-01 -2.32215077e-01 -1.13197863e-01 -5.10396004e-01 -1.56890929e-01 -1.91393718e-01 -1.33065432e-01 -7.03917205e-01 +3.60595882e-02 -2.38586381e-01 -6.69390440e-01 +2.00419679e-01 -1.54358029e-01 -3.31012368e-01 -8.09950352e-01 -4.62158978e-01 -4.42522392e-02 -3.79092574e-01 -5.30574620e-01 -6.88130036e-02 +1.78506505e-02 +2.20076799e-01 -2.56529808e-01 -1.46276027e-01 +2.37534642e-01 -6.48750365e-01 -3.15646976e-01 -5.57281435e-01 -1.04152165e-01 -2.21303850e-01 -6.80318952e-01 +1.00784326e+00 +3.20788734e-02 -4.23003823e-01 -6.96923554e-01 +2.87334800e-01 -5.45160651e-01 +6.47989094e-01 +3.76065880e-01 -5.71455002e-01 +2.22166404e-01 -4.61224347e-01 -1.99784189e-01 +6.91801071e-01 +5.19501269e-01 +1.29303008e-01 +4.29793298e-01 -3.21985096e-01 -1.22000631e-02 +3.02828252e-01 -7.67193511e-02 +1.73101634e-01 +7.19385922e-01 +2.37693921e-01 +9.47118402e-02 +5.42541623e-01 -4.31519568e-01 +4.02475923e-01 +9.78170931e-02 -4.41577882e-02 -8.21410492e-02 -1.75119877e-01 -1.91216066e-01 +2.25053519e-01 +4.67975140e-01 -5.93375042e-02 +2.73643792e-01 +5.99511027e-01 +1.59532353e-01 +3.12246501e-01 +1.50033370e-01 -3.14834267e-02 +2.56271750e-01 -2.81770825e-01 +1.35333806e-01 -1.67263463e-01 +3.36727172e-01 -1.07328735e-01 -3.35144162e-01 +4.30191666e-01 +5.53731173e-02 +7.13422075e-02 +3.82634282e-01 -2.07772031e-01 +3.97960126e-01 +2.40924269e-01 +1.39863893e-01 -2.03988373e-01 +2.64928967e-01 +1.17349356e-01 +3.26145366e-02 +2.19468966e-01 -2.13940635e-01 +7.16217756e-02 +1.88816741e-01 +5.59687912e-02 -3.30879927e-01 +3.64978254e-01 -4.54161644e-01 +9.75274026e-01 -8.48483205e-01 +1.48815393e-01 -4.74568456e-01 -7.40029812e-01 +5.37812054e-01 +1.66551918e-01 -1.51608735e-02 -2.27650777e-01 +1.08629661e-02 +3.53990346e-01 +2.10747182e-01 +2.29770809e-01 -8.36650208e-02 +2.57704645e-01 -7.69328251e-02 -2.36806870e-02 -1.57296494e-01 +5.81533909e-01 +4.25087772e-02 +3.24055195e-01 -1.84024587e-01 +4.93438184e-01 -3.63272280e-01 +1.76196963e-01 +7.17917860e-01 -3.09141755e-01 +2.12943986e-01 +4.23617899e-01 +3.16497892e-01 +2.76661128e-01 +8.63393009e-01 +5.88106513e-02 +5.08497953e-01 -5.30235805e-02 +2.32578203e-01 +1.23418427e+00 -4.85078365e-01 +4.46765810e-01 +2.48854868e-02 -3.83246578e-02 -1.17239326e-01 +4.46144849e-01 -8.11636895e-02 +4.34580088e-01 +4.99248281e-02 +5.39600611e-01 -2.41855055e-01 +2.08461732e-01 +1.73954517e-01 -4.44502741e-01 +2.14838758e-01 -6.21225893e-01 +3.31861347e-01 +4.15430427e-01 -1.13433704e-01 +7.59441018e-01 -1.79828942e-01 +4.54602957e-01 -1.11406729e-01 -1.10993139e-01 -1.49502769e-01 -9.56877246e-02 +3.31867069e-01 +4.57128622e-02 +9.20819864e-02 +1.03195079e-01 -7.80007467e-02 +6.80591643e-01 +1.09106684e-02 +4.19437021e-01 -9.41630974e-02 +1.08416162e-01 -7.80005634e-01 -1.84133872e-01 +3.47544611e-01 +1.61964461e-01 +2.39719413e-02 +1.38730770e-02 -6.47523999e-01 -3.07522744e-01 -4.57180113e-01 +2.48427942e-01 -4.28783000e-01 -3.91558319e-01 +7.72066116e-02 +1.56682149e-01 -1.62667841e-01 -1.00758903e-01 +3.25169474e-01 +1.15173593e-01 +3.19821000e-01 +2.88389713e-01 -6.21035039e-01 +6.14826530e-02 +8.07689410e-03 -1.67723209e-01 +3.29031736e-01 +3.02190065e-01 +6.45943806e-02 -7.42814541e-02 +6.98689967e-02 -2.21593514e-01 +4.54766005e-01 -7.29303956e-02 +1.10412717e-01 +4.15439159e-01 +3.00790250e-01 +4.73064184e-02 -2.06747368e-01 -1.76125258e-01 -7.78796196e-01 -7.87456706e-02 -3.80193114e-01 +5.74581921e-01 +3.61269414e-01 -2.88771510e-01 +3.69831830e-01 -2.25175053e-01 -7.56826997e-01 -3.29688281e-01 -5.37921131e-01 +2.34488934e-01 +7.63044506e-02 +1.19803786e-01 -3.77800763e-01 +2.57137358e-01 -2.90002406e-01 +7.82835186e-01 +3.63356143e-01 +1.89445898e-01 -1.87995628e-01 +1.38503179e-01 +9.40895855e-01 +3.87137495e-02 -3.87776166e-01 +6.66228533e-01 +2.45369717e-01 -6.25739157e-01 -6.21009409e-01 -1.16009474e+00 -1.43485755e-01 -4.32198912e-01 -8.73026073e-01 -4.50923651e-01 -6.47750869e-02 +1.69377439e-02 -8.93729031e-02 +1.87526599e-01 -5.07622436e-02 +6.56376123e-01 +2.47120887e-01 -6.92345142e-01 -1.45435959e-01 -1.76872164e-02 -3.91102359e-02 -3.14552873e-01 +2.23584071e-01 +3.01475734e-01 -6.98634535e-02 -2.09069639e-01 -2.48514283e-02 -2.11409226e-01 -3.40155214e-01 +3.26957434e-01 +5.84162734e-02 -2.50356585e-01 +3.27791333e-01 -2.31548607e-01 -2.10149795e-01 +2.69133419e-01 +5.12865007e-01 +3.49650770e-01 -1.88619211e-01 +2.47265417e-02 +8.96946609e-01 +2.44406849e-01 -4.14440364e-01 +4.71521705e-01 +4.77004707e-01 +3.03648949e-01 -7.44513094e-01 +9.05812681e-01 +2.12488584e-02 +3.04113030e-01 -2.47511372e-01 +6.96923910e-03 -4.98325795e-01 +5.84139675e-03 +4.31765407e-01 +3.67554396e-01 +6.30365074e-01 -2.18113795e-01 +1.01856077e+00 -2.65028894e-01 -1.11327015e-01 +2.54361272e-01 +3.31555963e-01 +6.98015332e-01 -3.49642098e-01 -3.59853685e-01 -5.77400923e-01 +9.90560204e-02 -1.23651743e-01 -1.97475441e-02 -4.84728068e-01 -5.71281254e-01 +3.40017229e-01 -5.56172132e-01 -7.79347196e-02 +3.28984320e-01 -4.00786996e-01 -5.75111330e-01 -1.99497536e-01 +3.95749062e-01 +1.47396222e-01 -2.98611876e-02 -3.10194880e-01 +3.61124068e-01 -2.30597168e-01 +5.19051075e-01 +2.01169178e-01 -2.60699451e-01 -5.17701581e-02 +9.11256764e-03 -4.34616543e-02 +9.79825914e-01 -4.85132754e-01 -1.76486135e-01 +3.79732370e-01 +6.14132583e-01 -3.43881130e-01 -2.49732599e-01 +2.08978668e-01 +6.04632497e-01 +4.25297357e-02 -2.29679540e-01 -2.50166148e-01 -2.49096155e-01 -3.55731666e-01 -5.46294488e-02 +5.72104573e-01 +7.41143286e-01 +2.49413610e-01 +3.23721915e-02 +4.66245234e-01 -1.24628633e-01 +7.18207955e-02 -5.55337965e-01 +3.29439521e-01 +7.02366650e-01 -2.41858050e-01 -2.64906079e-01 -7.49282613e-02 +1.47940153e-02 -2.61514992e-01 +1.03980601e-01 +9.45700705e-02 +1.16188161e-01 +1.41236424e-01 +4.50746000e-01 +6.51933312e-01 +6.12308562e-01 +2.03928962e-01 -4.46068376e-01 -3.09898347e-01 -2.01408952e-01 +1.69943094e-01 -1.07411936e-01 +2.67756969e-01 +1.71489492e-01 -4.22272414e-01 +5.05748868e-01 -3.18870336e-01 -1.28714040e-01 -1.21647477e-01 -2.88622588e-01 -2.95839071e-01 +3.32681060e-01 +2.44633660e-01 -2.12870285e-01 -3.30391340e-02 -6.40128314e-01 -8.45237868e-04 +4.01229024e-01 +5.14767647e-01 -2.11680502e-01 +7.23292291e-01 -4.59765971e-01 +1.39666349e-01 +6.43642470e-02 +2.90268272e-01 +1.28535759e+00 +2.07801908e-01 -3.61714587e-02 -8.35226402e-02 +6.34876266e-02 -1.95575003e-02 +1.06833838e-01 -5.65095246e-01 -4.67904180e-01 -4.75288987e-01 +4.50759500e-01 -4.40487355e-01 -3.99097949e-01 +4.40146595e-01 -1.88588336e-01 -7.15616941e-01 +2.05369622e-01 +6.39877915e-01 +4.23338354e-01 -7.85337925e-01 -5.41334264e-02 +3.95315379e-01 -1.31034166e-01 -2.50746071e-01 -1.70395300e-01 +2.00463951e-01 -6.53804600e-01 +2.40202561e-01 -1.37202293e-01 -8.35610628e-01 +1.70319691e-01 +1.91780493e-01 -1.41516656e-01 +1.63043290e-01 -1.36310622e-01 -1.04291171e-01 +3.75409126e-01 +1.12594135e-01 -2.22596135e-02 -2.08757237e-01 +5.08601248e-01 +1.83450766e-02 +4.83389884e-01 -4.92694557e-01 -2.67378956e-01 +2.28787825e-01 -3.55557978e-01 -3.92051429e-01 -2.23668650e-01 +3.75622772e-02 -2.37247199e-01 +5.26137471e-01 -1.58554539e-01 -4.72953945e-01 +6.42792881e-02 +1.94934011e-01 +1.44367680e-01 -2.00351343e-01 +5.42756855e-01 -1.67203590e-01 -9.58505273e-02 -3.40489626e-01 -1.73111096e-01 +6.09259270e-02 +1.02918230e-01 -7.48452842e-01 +6.50416434e-01 -4.31207895e-01 -1.27249971e-01 -1.60745651e-01 -3.76600660e-02 -2.84740686e-01 -5.41169882e-01 +2.32298791e-01 -2.22043768e-01 -1.62283145e-02 +4.31900293e-01 +4.12477940e-01 -3.39466393e-01 -8.91769826e-02 +4.11869884e-01 -1.26888137e-02 +2.55074888e-01 -3.69314790e-01 +8.71347427e-01 +1.45175278e-01 -3.19067738e-03 +8.57282043e-01 -7.27173463e-02 -1.95943221e-01 -1.63796335e-01 +4.24395740e-01 +3.98091555e-01 +4.95555364e-02 +4.30274695e-01 -1.25839278e-01 -1.51951104e-01 +5.40703237e-01 +1.25542283e-01 +7.21362710e-01 +1.79391075e-02 +4.02482063e-01 +6.95480108e-01 +2.39582643e-01 +5.92463553e-01 -4.28746045e-01 +7.24031031e-01 +1.55111447e-01 +3.64017487e-01 +1.55062050e-01 -2.58391023e-01 -5.58311880e-01 -3.09466809e-01 -1.83921710e-01 +4.15269375e-01 +2.59401083e-01 +4.03606206e-01 +3.17070223e-02 -1.93888679e-01 -2.44987756e-01 +1.70197099e-01 -1.62516832e-01 -5.64519048e-01 -4.70240414e-01 +2.97301933e-02 +5.17462850e-01 +6.17368162e-01 +3.95033091e-01 -2.72048086e-01 -3.24063569e-01 -6.77960932e-01 -1.70016453e-01 -9.64082703e-02 +3.67659032e-01 +3.87406759e-02 -6.92125738e-01 -4.81574148e-01 +3.36832315e-01 +1.32949218e-01 -1.37631476e-01 +1.90849409e-01 +1.78841054e-01 +1.88996345e-01 +2.42263880e-02 -2.46593207e-02 -1.64697226e-02 -4.79729623e-01 +3.62346061e-02 -1.77272424e-01 -8.38719159e-02 -3.79485995e-01 -1.86023325e-01 +1.11232102e+00 -3.12286109e-01 +1.20998830e-01 +2.48616874e-01 +6.38981938e-01 +7.29805648e-01 +1.32154751e+00 +4.49579626e-01 -5.97538233e-01 -8.32692385e-02 -4.53221142e-01 +3.84639800e-01 +1.12338138e+00 +9.11461592e-01 +1.64587170e-01 -3.09872814e-03 -1.78448126e-01 +8.20104033e-02 +7.08322704e-01 -7.17334971e-02 -1.32815123e-01 +6.15730047e-01 +4.67741609e-01 +4.61990595e-01 -2.28180327e-02 -5.70488274e-01 +1.43614709e-01 -1.54360130e-01 -7.50397071e-02 +1.98315084e-01 +1.90188307e-02 -3.15905631e-01 +1.88018739e-01 -3.22967738e-01 -9.49177071e-02 +4.15896140e-02 +4.96203452e-01 +7.12332875e-02 +3.72133762e-01 -4.24675122e-02 -9.79738474e-01 +4.56083328e-01 +3.61895889e-01 -1.91474751e-01 -2.37722516e-01 +4.69093144e-01 -7.60343075e-01 -3.04796398e-01 +5.84786117e-01 +1.04350876e-02 +2.26261094e-01 +4.37925279e-01 +9.94968534e-01 -1.63654953e-01 -1.36120334e-01 +3.48122604e-02 +9.44953442e-01 -4.87688988e-01 -1.36701083e-02 +4.73343283e-01 +4.77728635e-01 +6.43862903e-01 -1.41558006e-01 +8.54200363e-01 +4.79950994e-01 +3.17149490e-01 +4.40707058e-01 +4.99389440e-01 +2.52429485e-01 -9.08403620e-02 +5.54102898e-01 +8.01883042e-01 -1.56390816e-01 +9.42844748e-01 +1.09596126e-01 -6.60126731e-02 +2.71619052e-01 +2.58007795e-01 +6.60615146e-01 -5.17466247e-01 +9.17019963e-01 -1.89088017e-01 -2.96664625e-01 -4.55005884e-01 +1.22185774e-01 +7.89752454e-02 +2.14458659e-01 +1.79634884e-01 -3.30307871e-01 -5.88223189e-02 -2.16083288e-01 +2.91905731e-01 +5.77669322e-01 -5.57773888e-01 -2.98456773e-02 +1.56433091e-01 -5.24988651e-01 -4.54827577e-01 +2.94021275e-02 +4.87814518e-03 +4.87469107e-01 -6.75165514e-03 -1.39231130e-01 +3.35115828e-02 -1.15725107e-01 -5.19671798e-01 +4.94269490e-01 +2.31003463e-01 -3.15426677e-01 -4.90488380e-01 +5.75626552e-01 +6.76846266e-01 +2.05626735e-03 +4.49131399e-01 +5.97231209e-01 +5.15469015e-01 +6.50630593e-01 -8.53664339e-01 -2.69173175e-01 +5.73302984e-01 -2.89642096e-01 +2.02840775e-01 +2.97729015e-01 +5.44475615e-01 +7.05802441e-01 +3.88964832e-01 -5.14267564e-01 -6.76517725e-01 +5.60517967e-01 +2.67369837e-01 +3.77038151e-01 +3.26394737e-01 +3.82682346e-02 -5.23444891e-01 -3.48422736e-01 -2.41753012e-01 +7.23949492e-01 -2.34703153e-01 +1.93424776e-01 +6.10672832e-01 +1.37078658e-01 +3.33061725e-01 -5.41449070e-01 +2.91734576e-01 -5.46681285e-01 +2.81302363e-01 -1.73385590e-01 -1.67973801e-01 -2.54999906e-01 +1.20525129e-01 +4.32732373e-01 +1.15961321e-01 +6.47164434e-02 +1.41752645e-01 -1.01376757e-01 -3.48210573e-01 -1.79673150e-01 +1.42707795e-01 -1.53489634e-01 -1.45941257e-01 -2.01236308e-02 -1.32369831e-01 -5.03321648e-01 +3.23718111e-03 +7.12427974e-01 +2.00479895e-01 +5.94318569e-01 -6.96078002e-01 -3.37789029e-01 +6.61810040e-01 +9.43314672e-01 -2.76252031e-01 +3.27117890e-01 +9.51697081e-02 +4.61262017e-02 +3.83672351e-03 -8.27739835e-02 -9.41155255e-02 -2.61249896e-02 +7.25815222e-02 +3.27840507e-01 -8.77961874e-01 -6.27726734e-01 -3.63240302e-01 +2.72324950e-01 -1.06119528e-01 -6.10620249e-04 -5.64385831e-01 +3.05012912e-01 -1.34058714e-01 -6.38652146e-01 +6.90248370e-01 +3.97144496e-01 -8.55874956e-01 -3.47617120e-01 +1.50356039e-01 +2.67398089e-01 -6.81419149e-02 -7.33550042e-02 +1.44625813e-01 -3.54845375e-01 +1.80483572e-02 -1.63966581e-01 -1.98197678e-01 -2.40795612e-01 +3.61446470e-01 +6.05727911e-01 -2.79406041e-01 +2.50301927e-01 -3.91974330e-01 -1.63824663e-01 -1.59228161e-01 +4.95549664e-02 +4.00936335e-01 -6.09495819e-01 -2.83652097e-02 +3.23082060e-01 +2.74816863e-02 +3.11667442e-01 -1.69215783e-01 -1.76705763e-01 +1.84818223e-01 +4.08305228e-01 -1.61013622e-02 +5.25173903e-01 +5.05701184e-01 -1.09759741e-01 +7.78663903e-02 -1.54589236e-01 -1.75913006e-01 -5.45737557e-02 +4.72849816e-01 -2.80774590e-02 -9.07863379e-02 +2.71141142e-01 +4.73477207e-02 +8.32850933e-02 +1.56425297e-01 -7.28810057e-02 -7.49146342e-01 -4.56778295e-02 +4.64891821e-01 +3.11783552e-01 -6.56899333e-01 +2.52232164e-01 -2.29193807e-01 -6.87287450e-01 +5.94718695e-01 -3.68453622e-01 +1.39672337e-02 +2.59182215e-01 -2.50115752e-01 +2.52633303e-01 -2.16615111e-01 +2.83019781e-01 -1.77014142e-01 +1.51696533e-01 -6.81660175e-01 +4.52235550e-01 +3.45205188e-01 +4.14376050e-01 -3.98575440e-02 +3.36261928e-01 -4.57296014e-01 +1.66503042e-02 -1.77053183e-01 -1.28583848e-01 -7.14337230e-02 +5.52755952e-01 -3.54609221e-01 -2.31480315e-01 -1.23148099e-01 -5.56865036e-01 +1.31657317e-01 -5.31198382e-01 -2.60109484e-01 +4.03970718e-01 -4.61918302e-04 -5.14395297e-01 +1.40296832e-01 +1.22774184e-01 -3.25614363e-01 +1.36799380e-01 -5.03618605e-02 +8.03818703e-01 -1.93156078e-01 +4.05468166e-01 +3.05932611e-02 -3.56774211e-01 -3.00333530e-01 -6.16714805e-02 +1.82195008e-02 -3.23961582e-03 -7.71964416e-02 +3.01913798e-01 -3.57118249e-01 -4.78686810e-01 +9.89808217e-02 -2.46676892e-01 +2.73177892e-01 -5.21727383e-01 +4.67931867e-01 -7.44755983e-01 -2.03079104e-01 +5.64588547e-01 -2.28456795e-01 -2.63836086e-01 +8.26599523e-02 -2.07986847e-01 +3.71325575e-02 +3.49241868e-02 +6.66712746e-02 -3.68532866e-01 +3.64882141e-01 -3.92584443e-01 -3.38441320e-02 +1.56391263e-01 -8.77318457e-02 +9.52714309e-02 -2.45665312e-01 +4.47025150e-01 -2.47560799e-01 +7.51195401e-02 -1.02733508e-01 +1.49521247e-01 -7.03594148e-01 -6.47825375e-02 -2.29918569e-01 -4.18168366e-01 +5.94637096e-01 +4.91336226e-01 -3.42013747e-01 +3.20550241e-02 -6.99237049e-01 -3.49693857e-02 +1.44967183e-01 +3.23267758e-01 +3.35316539e-01 -3.59839857e-01 +1.98700368e-01 +1.37307420e-01 -1.36389136e+00 +5.44724405e-01 -1.58119686e-02 -8.37262124e-02 -3.86907279e-01 -1.06319956e-01 -7.54948482e-02 +5.75269461e-01 +8.59684885e-01 -8.79557371e-01 -1.58276241e-02 -5.19100010e-01 +6.64232254e-01 +1.74361199e-01 +8.26243699e-01 -3.29588026e-01 +1.79221824e-01 +8.36202353e-02 +8.50329101e-01 +4.26609725e-01 -1.44076392e-01 +2.82231152e-01 +3.76212075e-02 +2.50379443e-02 -3.41894090e-01 -1.61119953e-01 -2.04855338e-01 -2.08248675e-01 -8.42127562e-01 +4.44023281e-01 -4.52332795e-01 -6.41116202e-01 +1.67759974e-02 +4.16253060e-01 -1.58281744e-01 -5.67184985e-01 +2.75098264e-01 -3.55349064e-01 +1.29335940e-01 +1.37130141e+00 +3.71442705e-01 +5.89187630e-02 -3.41825545e-01 +7.36984089e-02 -3.59127760e-01 +1.50047287e-01 +1.27464980e-01 -1.20659530e-01 -7.93827295e-01 -5.55527747e-01 +2.28235871e-02 -3.05364877e-01 -1.56633705e-01 +5.05383909e-01 -9.26662311e-02 +3.76630127e-01 -1.63268402e-01 -6.65561929e-02 -8.86641443e-02 +3.65936846e-01 -7.13512003e-02 +1.79389939e-01 -1.49794519e-01 -2.09987625e-01 -3.68604958e-01 +1.78595081e-01 -5.98476231e-01 -3.17943305e-01 +6.55050501e-02 -7.41906986e-02 +1.01212807e-01 -1.03705078e-01 +1.20945841e-01 +1.10339597e-01 +4.35085863e-01 +3.91097456e-01 +2.93419491e-02 -1.96170703e-01 -4.35895741e-01 +3.15392613e-01 -4.89402078e-02 -3.80231768e-01 +4.69598264e-01 +3.68354805e-02 -1.55741110e-01 -1.45854443e-01 -4.90561157e-01 +9.22322497e-02 -2.96979785e-01 +6.97421372e-01 -1.11675158e-01 -5.34399569e-01 -1.54502854e-01 -3.36578518e-01 -1.67512164e-01 -2.93369621e-01 -4.53929650e-03 -5.19271195e-02 +2.21343786e-01 -2.73377299e-01 +4.50772256e-01 -1.95504189e-01 +2.20222190e-01 +2.11611405e-01 -6.92275107e-01 +1.30942747e-01 -1.17349230e-01 +2.33880416e-01 -1.02969036e-01 +5.12693763e-01 -5.75359523e-01 +1.34224629e+00 -4.90653962e-01 +3.33401382e-01 -1.06796443e-01 +1.21522188e-01 +5.92795372e-01 +3.06074768e-01 +7.31761307e-02 -9.51223299e-02 +3.63362998e-01 -5.57715237e-01 +3.53927433e-01 -8.24366868e-01 +3.72276902e-01 +4.02169824e-01 +4.33560796e-02 -6.32443488e-01 -6.43377900e-01 +4.49770182e-01 -2.52555430e-01 +3.97317052e-01 -4.63664442e-01 +1.69487938e-01 +1.93518296e-01 +1.66269198e-01 +2.67460108e-01 -6.21878207e-01 -1.16490303e-02 -1.39954535e-03 +3.29767793e-01 -1.59398913e-01 -1.66398555e-01 -4.88340586e-01 +3.89099836e-01 +2.55177379e-01 -3.24934036e-01 +1.44032151e-01 +2.97580868e-01 -5.13432585e-02 +9.20888782e-02 +1.64133504e-01 +1.95101425e-01 +2.80117363e-01 +3.48229706e-01 +5.72484493e-01 -3.23414207e-01 +2.95323819e-01 +1.63278461e-01 +5.09499848e-01 -3.34360376e-02 -1.57058865e-01 -1.69032309e-02 +7.41299093e-01 -5.35324216e-01 +1.06740332e+00 -4.45763588e-01 +7.53234684e-01 -4.93428916e-01 -3.26369792e-01 +2.12377757e-01 -9.78332400e-01 +1.20818818e+00 +3.06996912e-01 +1.47905231e-01 +1.03849983e+00 +9.12716329e-01 -5.70525110e-01 -1.46363914e-01 +3.91923964e-01 +6.21699929e-01 +8.63510251e-01 -5.45708556e-03 -1.23112512e+00 -7.42007196e-01 -3.93488973e-01 -4.65433717e-01 +1.76619694e-01 +1.53906643e-01 +6.62364960e-01 +5.85823834e-01 -7.40748346e-01 -4.80659813e-01 -2.86594898e-01 -5.67321539e-01 -2.87861288e-01 -1.46517873e-01 +7.61373341e-01 -2.13916838e-01 +6.54098541e-02 +6.97203353e-02 +1.74461812e-01 +2.93981344e-01 +1.88732758e-01 +2.95581192e-01 +2.99648400e-02 -2.80942917e-01 +2.90548638e-03 +4.64270294e-01 +8.96886230e-01 +1.08499326e-01 +1.43998081e-03 -1.26020864e-01 +1.29119605e-01 -1.12043522e-01 +2.76819438e-01 +2.24000230e-01 -2.53924672e-02 +2.50232309e-01 -4.25404966e-01 +2.24254727e-01 -4.48236674e-01 +2.38874257e-02 +1.49276644e-01 +5.65396920e-02 -8.54784787e-01 +8.06885719e-01 +5.46665788e-01 -1.22538246e-01 +8.34745049e-01 +4.83842254e-01 -2.20069550e-02 +4.54442978e-01 -5.21302640e-01 +2.82324195e-01 -8.29284787e-02 +2.99228668e-01 -3.03210825e-01 +1.47380739e-01 -1.70338303e-01 -2.60230422e-01 +5.74803591e-01 -2.32580855e-01 +4.12391946e-02 -4.80788797e-01 +1.22885540e-01 +1.93516865e-01 +5.17442077e-02 +3.33403587e-01 -5.80869913e-01 +3.12842160e-01 -7.14477241e-01 -7.86659002e-01 +6.33286774e-01 -5.57471871e-01 -3.39580864e-01 +8.98288786e-02 +6.08029142e-02 -5.58644831e-01 +2.58090198e-01 +5.64527214e-01 -3.18670981e-02 +3.73755217e-01 -3.16491425e-01 +1.29348978e-01 +1.53694957e-01 -4.23110694e-01 +1.89781934e-01 -5.37657678e-01 +2.56811023e-01 -3.25796694e-01 +8.30864385e-02 +2.88279623e-01 +9.94480625e-02 +4.15817313e-02 -1.13472864e-01 -5.62242806e-01 -2.72122055e-01 +1.40439451e-01 +1.28932148e-01 +2.63699833e-02 +3.48818079e-02 +1.24640191e+00 -3.07557821e-01 +3.20159256e-01 -3.14972252e-01 +2.98378795e-01 -6.29599616e-02 -4.63392943e-01 +5.20973861e-01 +9.72375497e-02 +2.63194501e-01 -1.57207310e-01 +4.24515456e-02 +4.12095994e-01 -4.21037197e-01 +6.01591170e-02 -7.89960265e-01 -1.71694294e-01 +2.01768696e-01 -3.05990994e-01 +2.63715982e-01 +6.86159432e-01 +7.54342675e-02 -9.73110870e-02 +3.11759353e-01 +1.13025144e-01 +9.36281562e-01 -7.85244256e-02 -1.87474817e-01 -1.73935086e-01 +3.26184064e-01 +5.32587826e-01 +6.25710964e-01 +4.76826280e-02 -2.70098448e-01 -4.24758315e-01 -4.42998290e-01 +1.15433730e-01 -4.43030834e-01 -2.01104041e-02 +6.18252099e-01 -7.18164593e-02 -1.24962367e-02 +5.12827456e-01 +3.78059655e-01 +6.35531321e-02 -2.56150752e-01 +4.07334179e-01 -1.81880578e-01 -2.51091540e-01 +6.39097631e-01 +1.58203363e-01 -4.37168658e-01 +6.94429204e-02 +2.80456066e-01 -5.68253808e-02 +1.75611168e-01 +2.53426939e-01 +1.16345413e-01 +7.77622044e-01 +8.04846957e-02 +3.74666043e-02 +4.72042888e-01 +1.50183380e-01 +3.38122755e-01 +2.44900972e-01 -3.96464080e-01 +1.13859378e-01 +4.53287035e-01 +8.90935212e-02 -1.48301572e-01 +1.06118374e-01 +3.32065761e-01 +1.00642547e-01 -1.22218452e-01 +4.21187997e-01 -7.25643709e-03 -5.72605491e-01 -2.82111377e-01 +4.83765267e-02 +2.93663114e-01 -1.55360907e-01 +1.01448677e-01 -2.12301970e-01 +9.07413006e-01 +1.28467783e-01 +1.20390996e-01 -2.21071258e-01 +5.21303356e-01 +1.77794963e-01 -1.68917477e-01 +1.90181583e-01 -2.61649579e-01 -9.47935134e-02 -3.72378081e-02 +3.25989366e-01 +3.07032734e-01 +6.80957377e-01 +4.78807628e-01 +9.14567590e-01 -3.24599922e-01 +8.02178025e-01 -5.93201160e-01 -4.57318962e-01 +5.17438278e-02 +7.56773353e-01 -3.29690665e-01 -2.24562883e-01 +6.42407686e-02 -4.94137436e-01 -4.61116999e-01 +4.54011112e-01 -7.42357820e-02 +2.16733217e-01 +2.12983176e-01 +9.41087957e-03 +4.82240558e-01 +1.38186485e-01 +5.70709594e-02 +4.67791677e-01 +1.05244614e-01 +3.40952456e-01 +1.00351381e+00 +4.35462177e-01 +5.98882020e-01 -4.43224251e-01 -2.02922568e-01 +3.99864674e-01 -4.08327192e-01 -3.18627059e-01 +8.31278741e-01 -2.79307663e-01 +6.65292144e-02 -4.94217336e-01 -4.76801515e-01 +3.71774673e-01 +4.39840555e-01 +1.88666016e-01 +2.57251918e-01 -3.72811675e-01 +4.72638577e-01 -1.34886965e-01 +8.57989907e-01 +5.79223782e-02 +8.74416411e-01 +7.48297334e-01 -6.25852346e-02 -9.02321488e-02 +5.31604528e-01 +6.08013570e-01 -6.94257021e-02 +3.35028887e-01 +4.96294141e-01 -1.23036221e-01 +3.04145902e-01 +2.26664662e-01 +1.84945688e-01 -2.72035807e-01 +6.00116365e-02 -2.00532749e-01 +4.67457265e-01 +2.37432659e-01 +1.34718195e-01 +6.41431034e-01 -1.08586699e-01 +4.09213722e-01 -4.74353611e-01 -4.99858171e-01 +4.99572575e-01 -1.63273558e-01 -2.13911280e-01 +6.74310327e-01 +2.00043440e-01 +6.07441723e-01 -2.23477900e-01 -2.40614384e-01 +6.60342455e-01 -2.82949358e-01 -2.20975559e-02 +1.84754506e-01 -2.20057547e-01 -2.17014074e-01 -2.92892277e-01 -4.47285175e-01 -6.73699260e-01 -2.45157406e-01 +1.75778463e-01 +8.12768340e-02 -3.07256371e-01 -4.24447022e-02 -2.03588352e-01 +6.07379138e-01 +3.39843065e-01 +1.28979340e-01 +2.23875605e-02 -5.21020532e-01 -3.71665925e-01 +1.99237227e-01 -1.13396637e-01 +2.45344397e-02 +3.20974946e-01 +4.12684798e-01 +4.89735277e-03 +3.54644835e-01 +4.84588929e-02 -5.65738976e-01 +2.47201487e-01 -1.45106867e-01 +2.52882410e-02 +2.38726854e-01 -2.51840837e-02 +2.49009013e-01 +1.40621439e-01 -1.66240662e-01 +4.62067306e-01 -3.48109454e-01 +2.36562297e-01 +1.25779316e-01 -1.77326705e-02 +4.76559728e-01 +4.37541790e-02 +1.14906810e-01 -1.22603416e-01 -2.59938478e-01 +1.18175007e-01 +7.75975874e-03 +2.33693689e-01 -3.86096239e-02 +1.36548588e-02 -9.04359445e-02 +5.90831190e-02 +2.53107958e-02 +9.75430831e-02 +1.05695419e-01 +2.28466094e-01 -1.14676077e-02 +3.01944047e-01 +3.42456669e-01 -5.04980125e-02 +3.86404604e-01 -4.28822100e-01 +1.92344651e-01 -2.21829042e-01 +2.76445031e-01 +3.11277747e-01 -5.43172807e-02 -2.14888722e-01 -6.18465580e-02 +1.00418210e-01 -4.85950969e-02 +9.03561354e-01 +2.34423041e-01 +4.69125897e-01 -3.91080320e-01 -9.35966522e-02 -8.82900581e-02 +3.12298030e-01 +3.54027569e-01 +4.14479285e-01 +3.31265628e-01 +8.13697219e-01 +2.10728362e-01 +6.67100772e-02 +2.34502554e-01 +8.70168507e-02 -1.29277214e-01 -1.06377356e-01 -1.53682992e-01 +4.82434273e-01 +2.79958695e-01 +1.02337825e+00 -1.91499040e-01 +1.49225160e-01 +6.09605730e-01 -9.56045449e-01 +2.28788629e-01 -1.02677397e-01 +8.94739211e-01 +6.45029470e-02 +2.27485776e-01 -1.03259347e-01 +1.52164102e-01 +4.95080739e-01 -1.05713997e-02 +5.81111848e-01 +4.18407656e-02 -2.33824834e-01 -3.04849986e-02 +4.31896150e-01 -1.45565402e-02 +7.48336911e-01 +1.25065083e-02 +1.64824396e-01 +2.96435416e-01 -2.72179544e-01 -3.17576319e-01 +4.31174725e-01 -4.62245554e-01 -8.05078387e-01 +5.32068372e-01 -1.19707417e-02 +5.72427034e-01 +3.54581289e-02 -1.91970930e-01 +3.56675297e-01 +6.07334614e-01 +4.59075868e-01 -8.30122083e-02 +6.64911792e-02 -6.25751376e-01 -1.44389138e-01 -3.24828804e-01 +6.01860940e-01 -1.32618800e-01 +3.02773893e-01 +3.50833058e-01 -1.32053569e-01 -1.22206092e-01 +9.16306600e-02 -3.34343910e-01 +4.34356689e-01 +5.81277251e-01 +1.41670495e-01 -8.86596367e-02 -3.95019740e-01 -3.24101835e-01 +2.03779891e-01 -4.37182374e-02 +3.05430610e-02 -2.88028419e-01 +9.21818018e-02 +1.01023659e-01 -4.32923287e-01 +6.12218753e-02 +1.34286806e-01 -2.94489354e-01 -3.65425080e-01 +1.49074253e-02 -3.32867593e-01 -3.28664511e-01 +3.27765793e-02 -1.20305017e-01 -2.27972329e-01 +1.06158219e-01 -2.78133124e-01 +9.62553546e-02 +5.80801308e-01 +5.29918194e-01 -2.81525373e-01 -1.43466339e-01 -9.37893331e-01 +2.00775087e-01 +7.14113355e-01 +2.15317279e-01 +7.98409104e-01 -4.57703233e-01 +2.75620610e-01 +6.14528179e-01 -2.82820612e-01 +6.24797881e-01 -7.78817534e-01 -3.63365978e-01 -5.51560782e-02 -3.90673205e-02 -3.59292209e-01 +1.30174158e-04 +7.43739963e-01 -3.73948842e-01 +3.31772864e-01 -2.20359802e-01 +9.83281061e-02 +3.47306803e-02 -2.40249306e-01 +2.17214823e-01 +1.28047138e-01 +1.12671278e-01 -1.36186346e-01 -8.42419416e-02 -9.66015816e-01 +1.77859962e-01 -1.76023275e-01 -5.32200396e-01 -4.31020081e-01 +8.21880326e-02 +2.76552081e-01 -2.35393018e-01 +3.02204490e-01 +3.29699874e-01 +9.91024897e-02 -1.63043092e-04 +3.30937803e-01 +4.89954241e-02 +2.47523949e-01 +3.58837366e-01 +7.24708587e-02 +4.99951959e-01 -3.80844176e-01 -6.15843296e-01 -7.89239049e-01 +2.81848848e-01 +5.88161707e-01 +4.12614435e-01 -7.95845091e-02 -1.58701405e-01 -1.35094717e-01 -1.42439872e-01 +2.34983891e-01 -3.90817851e-01 +1.30607426e-01 +3.77187103e-01 -7.19358087e-01 +7.16214776e-01 -4.39576328e-01 +6.98172390e-01 -6.29670680e-01 -5.02778590e-01 -1.53314993e-01 +1.90011233e-01 +2.41313297e-02 +1.06454968e-01 +5.99435449e-01 -3.92904699e-01 +2.71337360e-01 +2.09165543e-01 -9.22340512e-01 +6.44079864e-01 +6.55069053e-01 -8.38506743e-02 -1.86384872e-01 -3.22422013e-03 +2.90498108e-01 -1.86383486e-01 -8.14805826e-05 -3.46591979e-01 -2.27770522e-01 -1.92254469e-01 +3.51602703e-01 +3.68393421e-01 -8.08123529e-01 +1.56293496e-01 -4.15112764e-01 +1.20322116e-01 +2.45740488e-01 -1.22788739e+00 -3.17370355e-01 +4.34067339e-01 -3.60417992e-01 -1.77832425e-01 -4.26885396e-01 +2.32789353e-01 +4.67176646e-01 -2.45023906e-01 +4.85345982e-02 -1.48138851e-01 +1.11475110e+00 +2.43761644e-01 +4.75984395e-01 -3.66007477e-01 -3.43561113e-01 +1.05523365e-02 -2.86721084e-02 -2.28715062e-01 -6.24251604e-01 +1.66770250e-01 -3.57453316e-01 +4.03168768e-01 +2.32455939e-01 +4.59830076e-01 -7.93875083e-02 +4.17027771e-02 -4.38862473e-01 +3.83487523e-01 -9.88344193e-01 -6.12830520e-01 +3.02982777e-01 -6.83391929e-01 +4.37485933e-01 -3.86063844e-01 -4.61636871e-01 -1.16784179e+00 -4.27762747e-01 -1.09399639e-01 -4.25937861e-01 -1.73145868e-02 -8.17985296e-01 -2.68650532e-01 +6.51234865e-01 +4.02282830e-03 +7.97265768e-02 +7.91814506e-01 -2.85444647e-01 +6.75848901e-01 -5.91923058e-01 -4.73620631e-02 +7.31876269e-02 -1.57638460e-01 +3.35654974e-01 +9.05057788e-01 -1.39709383e-01 -4.49209124e-01 +2.28553101e-01 +1.89766213e-01 -7.88367838e-02 -5.68757772e-01 -7.83778846e-01 +2.44295225e-01 -4.39752311e-01 -1.04201865e+00 -9.27926600e-02 -2.61815488e-01 +4.67054434e-02 -4.85080630e-01 +5.41294366e-02 -1.25018716e-01 -2.46612146e-01 +1.20345637e-01 +3.18571031e-01 +1.27985895e-01 +6.63382262e-02 -3.73921506e-02 +1.90178491e-02 +3.21326330e-02 -2.46477172e-01 +5.09795785e-01 -8.43075335e-01 -1.89455941e-01 +1.15122743e-01 +3.67240936e-01 -1.27491042e-01 -2.47122511e-01 +4.90610629e-01 -4.48520511e-01 +2.94279456e-01 -3.83263350e-01 +3.20848003e-02 -2.52668589e-01 +9.78904590e-02 +3.37458402e-01 -2.37547919e-01 -1.28561127e+00 +3.85991395e-01 +1.39841348e-01 +3.33051175e-01 +5.88744953e-02 +2.65680879e-01 +1.05132740e-02 +1.01317540e-01 +2.81786770e-01 +3.04793030e-01 +1.62277855e-02 +4.59719688e-01 -1.86182256e-03 -7.52486885e-02 +1.39124403e-02 +9.02053341e-02 -5.11161350e-02 +7.55448043e-02 -9.79617164e-02 +2.51276821e-01 +2.87393242e-01 -2.44988203e-02 -3.35963458e-01 -4.03173655e-01 +1.25734970e-01 -6.24263063e-02 +1.85260491e-03 +4.55789268e-01 +3.55367154e-01 -2.16452423e-02 -2.48360053e-01 -2.29813442e-01 +2.32594937e-01 +2.27801815e-01 +7.49296248e-02 -3.62993598e-01 -7.70865440e-01 +4.76183504e-01 +4.72159356e-01 -5.95221102e-01 +1.34551391e-01 -5.94370402e-02 +2.61001199e-01 -7.19166517e-01 -4.15201753e-01 -2.32596099e-01 -2.69626975e-01 -9.71100666e-03 +5.20079672e-01 -3.93462926e-01 -6.80073440e-01 -4.72185016e-01 -4.30129498e-01 -3.93739492e-01 -2.96214670e-01 +6.22286737e-01 -3.34244430e-01 -7.54742995e-02 +4.13294077e-01 -9.98896658e-02 -4.74236012e-01 +2.96051413e-01 +2.48166453e-03 -1.96729407e-01 +2.61425108e-01 -3.41110855e-01 -2.10318267e-01 +8.21841538e-01 +1.83633659e-02 -5.85739136e-01 +6.27463341e-01 -5.51067181e-02 +3.13110530e-01 +1.22932501e-01 -4.90664579e-02 -4.22872037e-01 -6.51391372e-02 +3.23802799e-01 +3.87176007e-01 -9.92660671e-02 -5.21943867e-01 +2.81889141e-01 -3.86560671e-02 -4.26600389e-02 -1.40660882e-01 -2.20567614e-01 -4.84146059e-01 +1.99434072e-01 +3.69818777e-01 +2.39860132e-01 +4.40047503e-01 -2.30495378e-01 +9.95487750e-01 +5.97704053e-01 +8.18962380e-02 -1.57076493e-01 +1.13050675e+00 +3.43542844e-01 -1.55646771e-01 -2.59733856e-01 -1.49796661e-02 +1.45212889e-01 +3.89371393e-03 +4.48580146e-01 -2.11170450e-01 +5.36126673e-01 +4.86535840e-02 -4.08485532e-01 +4.57701594e-01 +7.38042533e-01 +4.54958797e-01 +2.83637010e-02 -4.84377965e-02 +2.75340915e-01 -5.39440751e-01 +1.89587802e-01 -3.29508722e-01 +6.17605329e-01 +2.16722284e-02 +5.68515956e-02 +1.86232775e-01 +1.01080395e-01 +3.31505984e-01 -3.33993107e-01 +3.69473584e-02 -2.59897977e-01 -4.57417578e-01 +8.17456067e-01 -1.63003147e-01 -3.56104784e-02 -2.02589072e-02 -1.10591374e-01 -2.64661491e-01 +8.17832351e-01 +1.99136168e-01 +3.29563111e-01 +3.82466108e-01 -7.19007432e-01 +4.25787508e-01 +1.25001833e-01 -3.79757196e-01 +3.07523329e-02 +3.60441625e-01 +1.61454320e-01 -1.62894487e-01 -6.41237080e-01 +9.99924615e-02 -4.19307947e-01 -5.10959387e-01 +2.21140504e-01 -1.07835710e-01 +2.92417943e-01 -9.98526439e-02 +3.14126536e-02 +3.97015244e-01 -1.79195441e-02 +5.35818517e-01 +1.31065711e-01 +4.95512217e-01 +2.59884030e-01 -6.52320758e-02 +1.49962306e-03 +4.63878781e-01 -5.65777838e-01 +4.07829702e-01 -4.02001262e-01 -2.65116274e-01 +5.35584629e-01 -1.60287067e-01 -2.03267917e-01 +1.28465205e-01 +6.43789709e-01 -8.03959906e-01 +5.96723795e-01 +1.15937971e-01 +3.91716599e-01 -4.24096197e-01 +2.32146308e-01 -1.17291361e-01 +1.01386011e+00 +5.33985972e-01 -8.35763097e-01 +9.33514059e-01 -3.19375724e-01 +2.71502852e-01 +5.58344185e-01 +2.47775659e-01 +5.63407019e-02 +4.55803238e-02 -5.66235185e-01 +2.35613644e-01 +2.75792498e-02 +1.64118540e-02 +3.62739801e-01 +1.19058006e-02 -7.98378646e-01 -6.93502069e-01 +9.68421176e-02 -2.68247455e-01 -5.41108027e-02 -6.49702400e-02 -5.38819194e-01 +1.82173610e-01 -7.72797018e-02 +5.38365006e-01 +1.18644327e-01 +1.30839854e-01 +5.91284521e-02 +6.67465925e-02 -5.39900884e-02 -1.24562360e-01 +3.95954967e-01 -1.30964652e-01 +9.91983533e-01 +7.60941505e-02 -3.31766248e-01 +1.08419165e-01 -3.13972920e-01 -6.42548501e-01 -5.04690446e-02 -2.86199935e-02 -2.00298831e-01 -5.25651574e-01 -3.92364174e-01 -7.46370375e-01 -5.97085357e-01 -7.56849796e-02 -3.48247975e-01 -3.20629895e-01 -2.88404912e-01 +1.34645492e-01 +6.80945218e-02 +5.72597682e-01 +3.68194014e-01 -4.90712374e-03 -1.95892826e-01 -3.04360211e-01 -3.73125523e-01 +3.63628864e-01 +2.80494124e-01 -1.30787820e-01 +8.54622051e-02 -4.23391223e-01 -2.93287605e-01 +2.08778247e-01 -2.04779580e-01 +8.09926093e-02 -3.36696208e-01 -8.01425949e-02 +6.01494312e-01 -5.25114954e-01 +5.19015729e-01 +1.15462258e-01 +1.39669582e-01 +8.99940580e-02 -4.78616029e-01 -9.70987022e-01 +9.95609686e-02 -1.79582953e-01 +2.80184925e-01 +4.33272839e-01 +3.80924135e-01 -1.59416467e-01 -4.06861484e-01 -1.91906579e-02 +5.74059486e-02 +4.85555567e-02 +3.18592578e-01 -4.93890315e-01 +3.72871570e-03 +5.45598507e-01 +1.57060906e-01 +9.44946259e-02 +5.48814237e-01 -2.23971412e-01 +7.53280282e-01 +4.52635497e-01 +7.98979867e-03 +3.45599532e-01 -1.02714527e+00 +1.86926484e-01 -3.12820256e-01 -4.48252112e-02 -2.52679408e-01 -5.34925461e-01 -4.06614877e-02 +6.09068632e-01 +3.52147132e-01 +1.94108874e-01 +5.13561778e-02 -4.77999479e-01 +1.35982513e-01 -7.09420443e-01 -1.26841858e-01 +1.13370635e-01 +1.94088757e-01 +8.70683044e-02 +1.06615812e-01 +5.70801616e-01 +3.65109622e-01 -1.30331948e-01 -3.16811740e-01 -5.24948835e-01 +3.51363361e-01 -2.54737794e-01 -5.46015278e-02 -4.17582616e-02 -2.28164166e-01 +6.86163306e-01 -6.44845724e-01 -1.20254926e-01 -1.30307034e-01 +5.30968130e-01 -6.69699669e-01 +1.28138484e-02 -8.92616630e-01 +2.70815730e-01 -2.35778376e-01 -8.78872871e-02 -3.63023669e-01 -3.46176654e-01 -5.21226451e-02 +2.87739605e-01 +2.33891025e-01 +6.16691470e-01 +2.26167575e-01 -4.77722079e-01 +9.77481455e-02 -4.09324080e-01 +3.38941664e-01 -1.08128756e-01 -5.74902110e-02 +8.19601834e-01 -4.41519618e-01 +7.87821636e-02 -6.86297193e-02 +3.26897979e-01 -8.84502172e-01 -1.04623549e-02 +5.42652719e-02 -8.96388769e-01 +7.80709445e-01 -5.11308551e-01 +3.58408242e-02 -6.99003994e-01 -2.67032713e-01 -7.77274594e-02 +5.57911694e-01 -5.12533449e-02 -9.23488736e-02 -3.83417830e-02 -1.94405270e+00 -1.94769084e-01 -4.46353823e-01 +8.09002742e-02 -2.33457357e-01 +3.08042523e-02 -2.95445740e-01 +2.73364395e-01 -8.86838734e-02 +2.59315044e-01 -4.68252212e-01 +4.11106676e-01 +3.14737111e-02 -4.51102167e-01 +8.07017684e-02 +8.53625908e-02 -1.07024419e+00 +3.38022441e-01 -6.90270424e-01 -7.11648166e-02 -1.04142725e+00 +4.69466373e-02 -3.04354876e-01 -7.85507798e-01 +5.20349979e-01 -2.76018858e-01 -2.64974415e-01 -7.62225866e-01 -9.53654498e-02 -9.78114665e-01 +3.43115419e-01 -1.51684359e-01 -6.16410494e-01 -8.48700047e-01 -4.37923253e-01 +4.28713232e-01 +4.28573564e-02 +3.22382510e-01 -1.45844221e-01 +3.59411299e-01 -4.53984708e-01 +2.11521581e-01 -6.81619868e-02 -1.13426678e-01 +1.42357156e-01 +2.14137863e-02 -4.16212648e-01 +7.84734428e-01 +4.47587878e-01 -4.71612401e-02 +1.99151501e-01 -4.45686340e-01 +3.24832022e-01 +2.91522622e-01 -8.53552163e-01 -5.87237954e-01 -1.63360208e-04 -2.60650390e-03 -1.07055791e-01 +9.70258489e-02 +2.70325124e-01 +4.81098384e-01 -2.87262797e-01 -2.21274003e-01 +1.48286462e-01 -3.63276541e-01 +2.07704201e-01 +6.07419312e-01 +6.20196015e-02 -9.14385468e-02 -8.21419835e-01 -2.52110571e-01 -1.07572302e-01 +1.35264292e-01 +2.47104600e-01 +6.77822888e-01 +6.73747342e-03 +2.96397358e-01 +5.56093395e-01 +3.90138209e-01 +1.40117416e-02 +3.17709982e-01 -6.53323174e-01 -3.08922350e-01 -2.01619506e-01 -1.57990962e-01 +3.33708495e-01 +7.28814602e-02 +1.90045044e-01 +3.04128882e-02 +1.58635095e-01 -5.22182345e-01 +6.32255077e-02 -2.85968482e-02 -2.95550991e-02 -5.51178958e-03 -1.03537709e-01 -2.79996842e-01 +4.13201004e-01 +3.39081138e-01 +2.43810400e-01 -5.95723279e-02 +4.17367548e-01 +2.72816449e-01 +4.86398876e-01 +2.30311453e-01 +3.98489952e-01 +5.88785052e-01 -2.26750195e-01 +6.18138798e-02 +6.36813164e-01 +3.05309385e-01 +2.52954308e-02 -1.25254661e-01 +1.14691570e-01 -1.57096371e-01 +1.10568292e-02 -2.08554119e-01 +3.50211002e-02 +5.81326544e-01 +3.01369488e-01 -3.94066602e-01 +4.70208138e-01 +3.05636317e-01 -2.91084908e-02 -9.89300430e-01 -4.08257902e-01 +2.60972291e-01 +4.27088797e-01 +3.07048768e-01 +4.59523529e-01 +2.00706154e-01 -2.92985380e-01 +1.20514169e-01 +7.52027333e-03 +2.53991216e-01 +3.26607794e-01 +3.43789458e-01 +9.62395489e-01 -3.22651565e-01 -5.06262660e-01 +6.39579594e-01 +9.38227773e-01 +3.29313487e-01 -1.42927364e-01 -5.85466111e-03 -3.94985639e-03 -1.84391782e-01 +6.22163475e-01 +8.36198479e-02 +3.18639934e-01 +7.56340325e-01 -2.33275667e-01 -1.08597085e-01 +2.95319587e-01 +1.50633797e-01 -9.42206919e-01 +6.48956299e-02 -6.17826045e-01 +9.22470540e-02 +8.72838140e-01 +8.88728276e-02 +7.68778861e-01 +4.85694587e-01 -2.52167165e-01 +7.99209848e-02 +5.35586365e-02 -1.56617805e-01 +6.37454689e-02 +4.50740039e-01 +5.92250049e-01 -4.80333865e-02 +4.28767681e-01 -9.55180287e-01 +4.23699349e-01 -6.14266872e-01 -4.37023073e-01 +4.03056860e-01 +4.08305302e-02 -3.25656030e-03 +6.01925254e-01 +2.02956989e-01 +6.76951587e-01 +2.32592255e-01 +2.38331348e-01 +6.38356209e-02 -2.01354533e-01 -2.44642496e-01 +2.94230785e-02 -6.18278086e-01 -6.94995999e-01 +1.21118613e-02 +3.56916457e-01 +3.10388327e-01 -3.92759442e-01 +5.44457853e-01 -2.76752532e-01 +2.75312036e-01 +9.38041210e-01 +6.32977545e-01 -1.04892862e+00 -9.51432660e-02 -2.08979160e-01 -6.61682606e-01 +1.44238696e-01 +6.02297187e-02 -4.84316349e-01 +3.04420710e-01 +8.48018348e-01 -5.43177307e-01 +2.79675603e-01 +8.05454493e-01 -4.42219406e-01 +1.33592248e-01 +9.18619484e-02 -4.12558839e-02 -2.09986359e-01 -2.14812204e-01 +3.80419523e-01 +1.55933201e-01 -2.44243011e-01 +1.68475024e-02 -2.12923765e-01 +2.23067388e-01 +3.45558882e-01 -4.81551439e-02 -3.01044881e-01 -2.02888250e-01 -1.80450663e-01 +3.73045534e-01 -4.85611051e-01 -6.74179435e-01 +1.01173922e-01 +2.76847124e-01 -1.11257344e-01 +9.40342546e-02 +4.68646437e-01 +7.16388300e-02 +5.65491974e-01 -3.07036936e-01 +1.45473063e-01 +5.12898386e-01 -7.47346222e-01 -3.23014334e-03 -3.38038296e-01 -2.84389019e-01 +5.80222309e-01 -7.26220250e-01 -5.19537508e-01 -2.11423058e-02 -1.52495965e-01 +2.95319296e-02 +8.97221088e-01 -5.29519916e-02 -3.43843251e-01 -2.33856350e-01 -2.76066005e-01 -2.27740392e-01 -2.49503329e-01 +9.17392910e-01 -5.28629683e-02 -2.25226894e-01 -6.51759729e-02 +1.35193825e+00 -1.42586708e-01 +2.41758898e-01 -1.89657465e-01 +6.29691362e-01 -2.68157553e-02 -7.01053321e-01 -1.19846016e-01 -2.66651418e-02 +3.45369458e-01 -1.56258896e-01 -5.82015365e-02 +2.43519038e-01 +1.90261602e-01 +1.92612305e-01 -8.04506838e-01 -8.59530449e-01 +1.76932197e-02 -2.18737237e-02 -8.06263313e-02 -6.82471097e-01 +7.85247982e-02 -5.06087346e-03 -4.48884964e-01 -2.50547141e-01 -1.84583649e-01 -3.66879329e-02 +3.34337562e-01 +2.47453541e-01 -1.35907918e-01 -3.53263527e-01 -1.29340017e+00 -1.78567935e-02 -7.61642814e-01 +2.58233845e-01 -3.69691908e-01 -4.08579022e-01 +4.43798006e-01 +1.73084825e-01 -7.27547824e-01 -7.47814626e-02 +5.77546418e-01 +3.58750939e-01 -3.10497433e-01 -6.56585991e-01 -4.19333667e-01 +9.11432683e-01 -3.92436534e-01 -2.13399351e-01 -5.41915178e-01 -6.36090577e-01 +4.51952815e-01 +3.50590378e-01 +2.56366789e-01 +6.63516700e-01 +9.97970402e-02 +2.20049456e-01 +3.48087214e-02 -5.61799586e-01 +4.32772011e-01 +2.72830695e-01 +2.29735419e-01 -1.64693803e-01 -9.77936666e-03 +4.66443226e-02 -3.16775367e-02 -3.72503757e-01 +5.11591852e-01 -3.57734524e-02 +1.54336663e-02 +2.34433264e-01 +1.34921193e-01 +7.19000027e-02 +7.16765881e-01 -1.87360987e-01 +4.59254384e-01 +3.15261394e-01 -2.29147121e-01 +8.14120948e-01 +8.98908749e-02 -1.38310179e-01 -3.83941352e-01 +3.22390586e-01 +3.72007549e-01 +3.10370415e-01 -9.06703115e-01 +1.20752418e+00 -5.11905491e-01 -3.88584822e-01 -3.32169197e-02 -1.82712644e-01 -9.95789841e-02 +6.06279135e-01 -8.17394614e-01 -7.24219903e-02 +2.15582430e-01 -2.61492103e-01 -6.93562254e-02 -1.33262649e-01 +9.80004370e-02 -6.64587319e-02 +2.71347463e-01 +4.99072522e-01 -4.34869051e-01 -4.21873510e-01 -1.09184757e-01 -1.04839325e-01 -1.57218933e-01 -3.47441405e-01 -2.56660134e-01 +5.49329892e-02 +1.03817530e-01 +4.53260355e-02 -4.34498340e-01 -8.77951145e-01 +3.87623221e-01 -1.85056314e-01 +1.15028098e-02 -8.46724868e-01 -2.89325900e-02 -8.19717646e-01 +1.31872073e-01 -4.37848717e-01 -9.12059844e-01 -2.80905187e-01 +2.14497820e-01 -2.84587622e-01 -5.54038823e-01 +1.87444925e-01 -5.53516328e-01 -1.00085869e-01 -3.79089564e-01 +3.22721303e-01 +9.14123803e-02 -8.59238207e-01 -1.26649523e+00 -1.47500634e-01 -3.75303864e-01 +4.45646465e-01 -1.08169116e-01 +1.06536403e-01 -4.31404889e-01 -4.34223086e-01 -8.33425224e-01 +4.37387019e-01 +3.05780649e-01 -6.14173949e-01 -3.71912122e-01 -7.81042755e-01 -7.14215398e-01 -2.20144451e-01 -2.37423822e-01 -2.18811899e-01 +6.61953092e-01 -1.82934821e-01 -3.29428434e-01 +2.46627435e-01 -2.45980211e-02 +7.89488256e-01 -3.39401484e-01 -3.51758718e-01 -3.89560401e-01 -7.88821638e-01 +4.95301224e-02 -1.15481749e-01 +1.66815072e-01 -1.53668314e-01 +4.04025674e-01 +6.48254901e-02 -7.77627155e-02 +2.30824217e-01 +2.59650230e-01 -2.23658085e-01 -4.08259213e-01 +5.45470715e-01 -1.94181800e-02 +4.58320796e-01 -2.58000970e-01 +3.71665470e-02 -2.49741733e-01 -4.01316404e-01 +4.99514379e-02 -7.75182545e-01 -8.04745108e-02 +1.04181051e+00 -1.79169387e-01 +2.32307017e-01 -3.16436887e-01 -2.09891915e-01 +7.63411343e-01 -1.06744580e-01 +5.15461326e-01 -5.16406223e-02 -5.22036076e-01 +3.38926345e-01 +1.36161715e-01 -3.47217560e-01 -2.88066298e-01 -7.52757266e-02 -6.54848516e-01 +1.82038099e-02 +1.64478689e-01 +1.95056960e-01 +1.34345174e-01 -3.08556318e-01 -7.27057874e-01 +2.14370400e-01 +7.52948046e-01 +1.32370919e-01 +5.06447673e-01 -3.28771949e-01 +6.51162956e-03 +9.27613378e-02 +2.26769552e-01 +7.29772151e-02 +6.75673410e-02 +5.35388768e-01 -1.04582834e+00 +2.24861652e-01 +2.17435420e-01 -8.50217342e-02 +4.25097346e-01 +7.60356128e-01 +6.26089573e-01 +1.24238536e-01 +6.69006944e-01 +4.69996423e-01 -5.31873465e-01 +6.13440990e-01 +9.02039781e-02 +3.19599420e-01 -7.04633534e-01 +9.76702794e-02 -1.62394509e-01 -5.67724526e-01 -1.29054710e-01 +3.36938836e-02 -1.63703009e-01 -3.05489421e-01 +9.39966645e-03 -5.68558335e-01 +3.56382072e-01 +7.13656992e-02 -5.60240924e-01 -3.86007875e-01 -2.71328539e-01 -3.01810950e-01 +2.05376223e-01 +1.37410671e-01 +1.85117662e-01 -2.24112004e-01 -2.83958256e-01 +1.13261521e-01 -2.56440490e-01 +4.62411851e-01 -2.53986120e-01 -2.22694680e-01 -4.25721854e-01 -5.17789543e-01 +3.72654349e-02 -6.81087852e-01 +2.51502723e-01 +5.16664684e-01 -1.17036450e+00 -4.04778309e-02 +1.48245811e-01 -1.89149991e-01 +3.45520705e-01 +7.72464097e-01 +1.91016421e-01 +2.09461883e-01 +6.64529979e-01 -1.47799566e-01 +1.87517598e-01 -3.20975035e-01 +6.22888446e-01 +6.55594885e-01 -6.09391153e-01 +3.97437692e-01 +5.74178636e-01 -6.07890151e-02 +4.11006585e-02 -3.27367596e-02 +2.30612606e-01 -6.70001388e-01 +2.85346080e-02 +2.26371333e-01 +1.06043912e-01 -1.40518799e-01 +1.09390169e-01 +7.15238094e-01 -5.00368774e-01 +7.65462279e-01 +2.10356742e-01 -2.23668486e-01 +3.89757454e-01 -7.50509501e-02 -4.63145316e-01 -3.52564424e-01 -6.25451446e-01 +1.49566876e-02 +3.32298458e-01 -7.16956019e-01 +7.10877299e-01 -4.07917380e-01 +3.56929690e-01 -3.13619316e-01 -5.08391082e-01 -3.91556174e-01 +3.37726384e-01 -3.95826288e-02 -3.02706957e-01 -5.33603907e-01 -6.29328191e-02 +2.36841902e-01 -1.86131731e-01 +2.27259472e-01 -6.17436655e-02 +4.59107459e-01 -7.08262026e-02 +3.93893793e-02 +1.85747594e-01 -3.54663253e-01 -1.15184680e-01 -1.36346728e-01 +3.64764035e-02 +6.62472472e-02 +2.91493863e-01 +1.72132120e-01 -1.52695961e-02 +3.29276949e-01 -2.62284994e-01 -2.60746300e-01 -1.80931836e-02 -3.66633534e-02 +4.30045754e-01 +7.95019139e-03 +1.80571124e-01 +1.97694004e-01 +1.14729315e-01 -2.76410505e-02 +2.79860318e-01 -6.54464960e-01 -7.66254365e-02 +2.69109756e-01 -5.12466813e-03 -7.98019767e-02 -4.72388528e-02 +2.12267265e-01 +1.97641313e-01 -2.40294173e-01 +4.43567693e-01 +2.00340852e-01 +6.06799901e-01 +3.33969802e-01 +3.40506852e-01 +4.06113863e-01 -4.57862765e-01 -6.54274151e-02 +7.31373727e-02 +1.02331795e-01 -5.41642569e-02 -1.70204222e-01 +1.94558203e-01 +3.61981094e-01 +1.49245501e-01 +2.02716112e-01 -6.42508268e-01 +6.67020559e-01 -1.09591410e-02 -5.94658777e-02 +1.38074741e-01 +2.52678424e-01 -2.11830571e-01 +3.03696007e-01 +2.22574845e-01 +7.28241578e-02 +9.12153721e-01 +2.70227224e-01 +3.22431058e-01 -2.42670476e-01 -4.22715247e-01 +1.09949157e-01 -1.34693040e-02 +2.27822885e-02 -2.07199186e-01 +5.38599901e-02 +7.12791502e-01 -1.43687753e-02 -7.02041686e-02 +1.39840558e-01 -1.63156152e-01 -1.41105689e-02 +1.53935507e-01 -1.71139285e-01 +4.90135133e-01 +2.97680259e-01 +4.02137935e-01 +1.83042735e-01 +2.75313795e-01 +9.22056794e-01 -1.09516978e+00 -2.66046762e-01 -2.51253575e-01 +6.23683572e-01 +1.41450554e-01 +4.65322882e-01 -9.15449783e-02 -3.45485732e-02 +6.29296839e-01 -1.69345021e-01 +3.54363054e-01 +5.46656884e-02 -6.99284375e-01 -4.07259077e-01 +3.57586861e-01 +7.21628740e-02 +6.43744469e-01 +3.07348698e-01 -1.14037953e-02 +4.10467654e-01 -1.75546825e-01 -6.05361283e-01 +2.32092604e-01 -7.17682123e-01 -7.65325963e-01 +3.24432939e-01 +3.45500171e-01 +2.59006262e-01 +4.03905243e-01 -2.58648247e-01 +2.36529350e-01 +8.37603092e-01 +9.33076069e-02 +1.20923340e-01 -3.40244770e-01 -5.80394387e-01 -3.97031307e-01 -4.56256598e-01 -3.71128768e-02 +2.18307357e-02 +8.29167366e-01 +2.52941191e-01 -4.04317796e-01 -3.50257486e-01 +9.42510786e-04 -2.61750609e-01 +8.06624353e-01 +8.77308771e-02 -1.54455021e-01 -3.33001345e-01 -4.37809139e-01 -4.86607939e-01 -1.37421057e-01 +5.35465665e-02 -6.16559163e-02 -2.68654317e-01 -1.64085925e-02 -7.50506520e-02 -1.50472671e-01 +4.27037477e-01 +7.98243880e-02 +2.88333565e-01 -4.94427495e-02 -5.91489732e-01 +1.25026509e-01 -2.04851046e-01 -9.53030944e-01 +3.95027757e-01 -1.10092866e+00 +3.87007684e-01 -1.77363575e-01 +3.19215983e-01 -5.81691086e-01 -5.57277679e-01 -3.40631872e-01 +6.19144440e-02 -5.02387404e-01 +4.20223534e-01 +1.85807794e-01 +2.68874049e-01 +8.63586724e-01 -5.64621314e-02 +3.35127890e-01 +4.82914746e-01 +3.15301061e-01 +1.08302735e-01 -3.75457779e-02 -3.29891413e-01 -6.69771910e-01 +7.57739842e-02 -3.60152423e-01 -3.85575205e-01 +7.49329388e-01 -4.86106396e-01 -7.54633620e-02 -5.02770901e-01 -2.01128855e-01 +4.02187817e-02 +4.63044465e-01 -1.00040339e-01 +7.29690790e-02 -2.83176661e-01 -3.38089615e-02 -7.38635182e-01 -3.42036724e-01 +8.25843215e-02 -8.53281617e-02 -3.79768992e-03 +1.60282567e-01 -4.38103706e-01 -3.80296528e-01 -1.04864970e-01 -1.17942780e-01 +7.22277999e-01 -5.48414528e-01 -1.10165410e-01 -2.92127609e-01 -6.55882001e-01 -1.19364011e+00 +1.01318860e+00 -2.48788953e-01 +9.34833705e-01 -1.92190915e-01 +2.98004076e-02 -3.03057402e-01 -4.32211757e-01 +1.75534010e-01 -1.63031314e-02 +4.15421695e-01 +6.94468096e-02 -1.04930496e+00 -9.27202523e-01 -6.75166905e-01 -8.93111467e-01 +4.73385841e-01 +4.70465608e-02 +6.34820640e-01 -1.09996378e+00 -3.86978328e-01 +9.48475182e-01 +3.19285095e-02 +3.74588698e-01 -3.08818351e-02 +5.12389421e-01 -6.23294055e-01 +1.43421859e-01 +2.42188126e-01 +2.82509267e-01 +4.61980313e-01 +4.85498875e-01 -4.20042783e-01 +3.86616439e-01 +4.85444784e-01 +7.59313330e-02 +3.08918864e-01 -4.03919965e-01 +3.11762571e-01 +4.30622548e-02 -4.54512239e-01 +3.01563859e-01 -5.68836391e-01 +1.62908331e-01 -8.26450810e-02 +1.94897249e-01 -2.13258862e-01 -2.71895319e-01 +1.25274003e-01 +5.46927810e-01 -1.95089658e-03 +1.83527455e-01 -6.40628219e-01 -2.23515689e-01 -6.49276748e-02 +3.04956585e-01 +8.08556676e-02 -3.40565890e-02 +1.40262842e-01 -3.05783480e-01 +2.71548629e-01 -1.01385422e-01 +6.07353508e-01 +2.90630728e-01 +2.79557258e-01 +8.74894038e-02 +8.99489999e-01 -2.80432731e-01 +4.47357804e-01 -5.61857037e-02 +7.99013734e-01 +1.70619383e-01 -7.99684748e-02 +7.42261708e-01 -1.15862238e+00 +2.11608961e-01 -2.40561296e-03 +2.82506526e-01 -8.22618082e-02 +2.71770954e-01 +2.31483668e-01 -1.12531841e-01 +1.97879806e-01 +6.51219904e-01 +5.20905316e-01 +4.57177669e-01 -4.08764273e-01 -4.31707472e-01 +2.69350141e-01 -4.28052872e-01 +2.69489437e-01 -2.93857694e-01 -2.04541311e-01 -2.18677998e-01 +1.45788878e-01 +1.80981070e-01 -4.85482782e-01 +1.99689448e-01 -2.57697195e-01 +2.62609959e-01 +8.76964703e-02 +1.97351836e-02 -2.32150823e-01 +4.82910842e-01 +3.05282027e-01 -4.21075076e-02 -4.83630329e-01 -3.78245860e-01 +1.90673962e-01 -2.76478082e-01 +4.00576055e-01 -4.56508934e-01 -2.29123503e-01 +5.98135710e-01 -4.14471060e-01 -7.59231746e-01 -4.33136046e-01 -2.53080487e-01 -8.26422647e-02 +7.73206130e-02 +1.02079615e-01 -1.04618669e+00 +6.09563887e-02 +6.80068910e-01 +5.04891872e-01 -3.13631713e-01 +2.80251116e-01 +1.54330373e-01 -5.19407988e-01 -6.09820724e-01 +1.80669710e-01 +4.64256406e-02 -3.47039640e-01 -3.93041968e-01 -4.98100162e-01 +2.35225454e-01 +9.43348631e-02 -4.27307844e-01 +9.06913042e-01 -1.86015040e-01 +2.94665426e-01 -2.26203963e-01 +8.55538249e-01 +3.57083887e-01 +1.17435682e+00 +9.03625712e-02 -2.39116341e-01 -2.11024314e-01 -2.83498913e-01 -1.04405954e-01 +4.30675536e-01 +5.46553731e-01 +7.21818879e-02 +3.76401991e-01 -4.75427717e-01 +1.62275255e-01 -1.09035783e-01 -4.10918474e-01 +4.18868326e-02 +6.02283061e-01 +1.36746362e-01 -2.97141839e-02 -2.06142262e-01 -8.46886456e-01 +9.32925642e-01 -3.20148468e-01 +2.47208297e-01 +4.21345741e-01 -5.92410386e-01 +6.80049732e-02 -5.48205853e-01 +8.14567283e-02 +3.35341543e-01 -1.59522053e-02 +6.94497824e-02 -2.28913993e-01 +3.41719389e-01 -9.88795906e-02 -9.78305399e-01 +2.73469985e-01 +4.10678178e-01 -8.68241370e-01 +3.13657403e-01 -2.30999798e-01 -6.79858029e-01 -2.09794462e-01 +4.10324186e-01 +6.22384012e-01 +2.94002205e-01 +6.57830477e-01 +1.86268520e-02 -1.67274609e-01 -8.92880037e-02 -4.24336463e-01 -2.16298863e-01 -3.90454769e-01 +4.57413197e-01 +9.76055190e-02 +3.98982555e-01 +1.55514300e-01 -6.12738252e-01 +1.53297838e-02 +3.17287445e-01 +5.36700070e-01 +1.90041542e-01 +1.51003614e-01 -5.88212430e-01 +6.58425093e-01 -1.22172001e-03 +4.50705379e-01 -7.63643011e-02 -2.80488163e-01 -3.72756869e-02 -3.42875242e-01 -5.70113719e-01 +1.00698248e-01 +3.61370862e-01 -3.67258936e-01 +1.97716713e-01 -4.28049147e-01 -2.43420705e-01 -1.51899964e-01 +2.58351088e-01 +6.78596795e-01 +2.00112283e-01 -3.06034297e-01 -4.99339998e-01 +5.88942170e-01 +3.95153686e-02 -3.31684113e-01 -1.67139679e-01 +3.23299319e-01 +4.45434511e-01 -5.58014512e-01 -2.57721722e-01 +1.98092476e-01 -3.80529225e-01 -2.60804892e-01 +5.28784990e-01 -4.76080552e-02 -3.68841141e-01 +7.25630149e-02 -4.36883628e-01 -5.81656285e-02 +2.47786939e-01 -2.72816688e-01 +1.67434961e-01 -4.68477942e-02 -3.44168454e-01 -2.19035596e-01 -6.82354093e-01 +8.53619635e-01 +2.44564757e-01 +8.38181376e-02 +4.55805749e-01 -4.55606908e-01 -1.65244475e-01 -3.97725433e-01 +2.63292372e-01 +1.03689931e-01 -7.17282519e-02 +2.70695031e-01 -2.81722039e-01 -2.30302662e-01 -4.03322369e-01 -2.38856480e-01 -1.01779237e-01 -3.03685516e-01 +5.62598526e-01 -1.02033876e-01 -5.80610037e-02 -1.32519037e-01 +6.44081458e-03 +4.61677574e-02 -1.10676557e-01 +7.87217841e-02 -2.16305137e-01 +9.67341587e-02 +8.54389146e-02 -2.92749941e-01 -2.02271000e-01 +1.06474936e-01 -2.37829372e-01 +8.10486153e-02 -3.19578797e-01 -7.44872332e-01 +6.53656781e-01 +5.25730193e-01 -1.19233932e-02 +4.09116834e-01 +5.78537226e-01 +5.77330403e-02 