#Parameter# /vanilla-lstm-builder/_0 {128,64} 131073 ZERO_GRAD
-1.73151493e-01 +2.18062356e-01 -4.39680904e-01 +2.25057125e-01 -2.12198943e-02 -1.97639734e-01 -2.40649417e-01 +4.58464354e-01 -7.57266954e-02 +2.41712436e-01 -4.09858227e-01 +4.93733138e-01 -4.77913618e-02 +2.92445034e-01 +2.81781197e-01 -3.28195989e-01 -5.05744945e-04 -3.28883857e-01 +1.86511636e-01 -4.63232934e-01 +2.88895592e-02 +2.69756585e-01 -5.57839237e-02 -1.20884672e-01 +1.78958461e-01 +8.41741025e-01 +1.88129812e-01 -2.21141249e-01 -1.42028078e-01 -7.75958523e-02 +7.51555339e-02 -3.22956681e-01 +1.54766858e-01 +1.32230490e-01 -2.73149341e-01 +6.73821867e-02 -8.19004253e-02 -1.87835217e-01 -7.69595683e-01 +1.27953634e-01 -8.69440064e-02 +2.74354249e-01 +6.73677102e-02 -1.53609797e-01 +3.03541124e-01 -1.28326878e-01 +7.64110446e-01 +1.13491952e-01 -2.23768950e-01 +1.16896294e-02 +8.35586846e-01 -5.88157117e-01 +8.04549307e-02 +2.04939365e-01 -1.02749048e-02 -7.88899601e-01 +1.42745584e-01 -5.43211438e-02 +4.25101548e-01 -2.32603624e-01 -4.69771534e-01 -6.15254462e-01 +1.26294479e-01 +4.37892854e-01 +2.77363770e-02 -1.61770999e-01 +2.51344919e-01 -1.76001132e-01 -2.60899663e-01 -1.13937840e-01 -1.88437626e-01 +2.26724103e-01 +2.36613795e-01 -7.19078779e-02 -2.17540056e-01 -3.99902433e-01 -3.98400396e-01 +6.02478623e-01 -4.86898087e-02 -5.59183478e-01 +6.24327995e-02 -6.99724793e-01 +5.40890932e-01 -2.54406810e-01 -1.15832889e+00 +6.09446131e-02 +4.94024694e-01 -7.07674980e-01 -2.13071033e-01 -5.37467062e-01 -4.80053812e-01 +5.54648899e-02 +3.64498608e-02 -2.90934861e-01 +7.85319865e-01 -3.66972983e-01 -1.42297015e-01 +4.00240451e-01 +7.03710737e-03 +2.04413325e-01 -4.17417914e-01 -2.80335516e-01 -1.44308120e-01 +5.79492211e-01 +3.86996210e-01 -2.88739771e-01 -4.31563519e-02 +7.51941577e-02 +7.01852217e-02 -2.24133983e-01 +7.96017349e-02 +7.70831928e-02 -1.41239241e-01 +3.21137577e-01 -4.18600947e-01 +1.52888954e-01 +3.98748189e-01 +3.22994053e-01 -1.45772949e-01 +1.50399461e-01 +8.80536512e-02 -1.38509482e-01 -2.93365680e-02 -3.50295961e-01 +2.92551398e-01 -1.05163433e-01 +2.79013604e-01 +3.05151671e-01 +1.16580546e-01 +2.55673319e-01 +1.05584621e-01 -3.44198227e-01 +2.81340003e-01 -1.77424863e-01 -9.93766934e-02 +1.66761130e-01 -1.23260789e-01 +1.73959240e-01 -8.07419866e-02 +2.01402545e-01 -4.08971429e-01 +3.87979180e-01 +1.22360639e-01 -3.20846736e-01 -9.62837040e-02 -4.19021755e-01 +2.24599123e-01 -2.58473396e-01 -1.06051989e-01 +3.14216763e-01 +2.53172487e-01 +4.47674692e-02 +1.83667034e-01 +5.18757701e-01 +4.07348722e-02 -1.03280738e-01 -5.50378442e-01 -2.69363578e-02 +2.93793172e-01 -3.12112212e-01 -4.86545801e-01 -1.04623765e-01 -3.69438082e-01 +1.02023028e-01 -3.34111989e-01 +6.31055981e-02 -9.13450599e-01 +2.27543548e-01 +3.64704341e-01 +4.06793296e-01 +5.81579097e-02 +5.40356562e-02 +1.10164568e-01 +1.91098824e-01 +3.68160188e-01 -4.33135480e-02 -2.42151424e-01 +1.05282634e-01 -1.17079169e-01 -7.27698326e-01 -3.21295679e-01 +1.59928218e-01 -1.76911116e-01 -1.26875627e+00 -1.41205490e-01 -1.94143042e-01 +7.80265927e-01 -1.03586584e-01 -2.51810402e-01 -7.16468990e-01 -3.93308848e-01 +2.66572118e-01 -1.37071729e-01 -1.78439990e-01 +4.22563851e-01 +1.71462685e-01 -3.42330672e-02 -8.98389593e-02 -2.54453421e-01 +7.19210654e-02 +3.55457991e-01 -1.84018165e-01 -2.09293999e-02 -6.03949547e-01 -4.72522289e-01 +2.09054142e-01 +1.72152787e-01 -1.50643200e-01 +4.12250087e-02 -2.79674709e-01 +2.20191136e-01 -2.28400439e-01 -3.90189528e-01 +6.28049374e-02 +2.74562120e-01 -7.00607836e-01 -2.32923284e-01 -5.17889500e-01 -2.67675191e-01 -1.76460162e-01 -2.31492132e-01 -2.67253429e-01 +7.51959503e-01 -4.87402946e-01 -3.79355520e-01 +1.47121400e-01 +2.81826168e-01 +1.10351749e-01 -2.77877986e-01 -7.29606152e-01 +2.28195220e-01 -1.53308257e-01 +5.72826743e-01 -3.77865553e-01 -1.96056455e-01 +1.45728868e-02 -1.99653376e-02 +8.11456665e-02 -6.51442826e-01 +5.03772013e-02 +4.57503796e-02 +2.78291881e-01 -7.62953311e-02 -5.74474446e-02 +9.02768597e-02 +2.38042116e-01 +1.02845533e-02 -2.71676332e-01 +1.00311879e-02 +2.83766747e-01 +3.57113749e-01 +2.74082929e-01 +1.83523953e-01 -2.03323290e-01 -2.33079761e-01 +1.40293807e-01 -3.78744334e-01 -2.77590781e-01 +6.00535035e-01 -5.30549288e-01 +4.62561250e-01 +2.39528984e-01 +4.91616398e-01 -3.82934451e-01 +3.45552593e-01 +5.76116979e-01 +3.43346655e-01 -1.07126474e+00 +4.73420247e-02 -1.64265707e-01 +4.52077389e-01 +2.22595841e-01 -9.30178091e-02 +2.11099789e-01 -1.13746919e-01 +2.25306019e-01 -6.75121248e-01 -2.57296652e-01 +4.38076138e-01 +3.97172570e-01 -7.21404403e-02 -3.03938001e-01 -6.04129806e-02 +3.09724361e-01 +9.65020061e-03 +7.00008357e-03 -9.53142811e-03 -2.17773601e-01 +3.85303199e-01 -2.33503357e-01 +7.12461490e-03 +3.47976297e-01 +4.16159123e-01 +4.20109183e-01 +3.09628576e-01 +6.62537515e-02 +3.32400143e-01 -6.73463583e-01 -1.50366426e-01 +2.74443269e-01 +5.33799589e-01 -6.43409416e-02 -6.80324018e-01 +1.50841847e-01 +4.77488846e-01 +3.34854685e-02 -1.46176934e-01 +2.38935173e-01 +4.59047943e-01 +4.72798161e-02 -9.46513414e-02 -3.12632591e-01 +4.39512342e-01 -1.97488666e-01 -9.72435400e-02 +9.88373607e-02 -8.43313262e-02 -2.32952267e-01 +3.37080032e-01 -2.98584372e-01 -1.51759639e-01 -1.06236763e-01 -1.99533537e-01 +8.00321549e-02 +3.22058320e-01 +1.29928187e-01 +5.41418195e-01 +3.41834813e-01 -3.44685316e-01 +5.47424257e-02 +5.11198282e-01 +5.06967604e-01 +8.20827127e-01 -2.28035003e-01 +1.65083364e-01 +5.63912392e-02 +2.57310450e-01 +8.67526755e-02 -1.55516267e-01 -3.34000647e-01 +6.21343017e-01 +5.92851313e-03 +1.03562893e-02 +4.45127904e-01 +7.03829885e-01 +5.42785108e-01 +1.20192729e-01 +4.86842208e-02 +4.86258008e-02 -5.47508113e-02 -1.62705496e-01 +2.72181094e-01 -5.49309254e-01 +3.67121510e-02 +6.33597016e-01 -1.58373758e-01 +2.78193772e-01 +6.06399536e-01 +7.11914003e-02 -2.01033607e-01 +4.08503748e-02 +8.83459076e-02 +1.26871958e-01 +4.04377967e-01 -1.01530701e-01 -1.03744037e-01 +4.11547005e-01 -2.80576408e-01 +1.11155190e-01 +2.77253687e-01 -4.16258574e-01 -5.02961159e-01 -6.00763597e-02 -3.11200577e-03 -8.54137763e-02 +5.96809722e-02 +8.50853398e-02 +6.39258146e-01 +2.41301671e-01 +2.01835856e-01 -1.53398052e-01 -2.04740331e-01 -3.04683179e-01 -6.36473179e-01 -9.45463926e-02 +1.42068058e-01 -5.36190212e-01 -1.03520066e-01 -2.67156005e-01 -2.13627964e-01 -8.65374744e-01 +2.93563809e-02 +3.71892691e-01 -7.43436143e-02 +8.37003067e-02 +1.04625180e-01 +4.54613477e-01 +5.58645070e-01 +2.92785466e-01 -1.94827691e-01 -5.48134856e-02 -8.18569303e-01 +5.52584708e-01 -7.46289939e-02 -4.76289034e-01 -3.41801316e-01 -1.95789889e-01 +8.56190205e-01 +3.10489148e-01 +2.45894775e-01 +3.86704713e-01 +2.11438507e-01 -2.30890259e-01 +7.22922534e-02 +4.21051472e-01 +1.08882695e-01 -6.65977178e-03 +3.27164024e-01 -3.35684299e-01 -1.02153337e+00 +3.60259116e-01 -4.39732701e-01 +5.61152935e-01 +5.01505971e-01 +5.05724251e-01 -4.64362264e-01 +7.46149838e-01 +4.37881261e-01 -5.38051426e-01 +4.64226961e-01 +1.07020408e-01 +2.46457502e-01 -5.24683535e-01 -4.63729441e-01 +1.35036096e-01 -8.44103754e-01 +4.69469428e-01 +1.23101093e-01 -1.48601264e-01 -8.72758478e-02 +1.36362568e-01 +2.79732585e-01 -3.50065410e-01 -1.98714405e-01 -2.35235468e-01 -1.48494944e-01 -2.66276509e-01 +4.77868676e-01 +3.15695971e-01 -4.58885223e-01 -9.79835019e-02 -2.37179935e-01 -6.07021749e-01 +4.07781512e-01 -2.25953966e-01 -2.70747691e-01 +3.57262552e-01 -1.83877647e-01 +1.05623627e+00 +3.38651240e-01 -5.84346652e-01 +2.44091988e-01 +2.87727624e-01 -1.77639797e-01 -6.92454398e-01 -4.51773852e-01 +3.27463150e-01 -3.68638039e-01 -2.77203232e-01 +3.85618538e-01 -4.90437031e-01 -1.51237682e-01 +6.42407537e-01 +5.45417964e-01 -1.73353162e-02 +7.78538823e-01 -1.33345257e-02 +2.43213162e-01 -2.37613171e-01 -2.67467678e-01 -6.62755147e-02 +1.94558963e-01 +1.96307257e-01 -4.47517037e-01 +8.84652585e-02 -6.08159721e-01 -7.05641270e-01 +6.18218660e-01 +5.99880040e-01 -1.49671510e-01 +4.47652370e-01 -3.53879511e-01 +2.20411345e-01 -1.43978998e-01 -3.51820916e-01 -5.39253354e-01 -2.67877966e-01 -3.69982719e-01 -2.52266407e-01 -3.59353304e-01 +4.51522380e-01 -1.55516565e-01 -1.15476549e-01 -1.54291153e-01 +1.73185039e-02 +3.79334778e-01 -4.69698101e-01 -2.07953170e-01 +4.48505059e-02 +3.97861570e-01 +2.44434074e-01 +5.53924024e-01 +5.01281917e-01 -1.46471247e-01 -1.31279277e-02 -4.27561663e-02 +1.91572517e-01 -3.70949358e-01 -6.84588790e-01 -1.55395299e-01 -5.55120230e-01 -9.03581083e-01 +1.29334018e-01 -5.36572933e-01 -1.00949302e-01 -5.24917424e-01 +1.59781545e-01 +7.30644837e-02 -8.93788874e-01 +2.46116161e-01 -3.03326279e-01 +2.25409538e-01 +6.61046565e-01 -4.24864382e-01 -5.82017839e-01 -5.99407665e-02 -9.33481753e-01 -6.83250487e-01 -2.31939867e-01 -1.00962497e-01 +4.27454226e-02 +1.71509817e-01 -3.30000162e-01 +1.56900361e-01 -4.42083150e-01 -1.82064638e-01 -2.59616643e-01 -2.54569620e-01 +2.07121521e-01 +1.54091537e-01 +8.21144938e-01 -4.08829868e-01 -2.31871143e-01 -4.46323454e-01 +5.83358228e-01 -3.17104489e-01 -7.12470353e-01 +1.36040673e-01 +1.17092468e-01 -7.71190524e-01 +3.87394905e-01 +2.06470042e-02 -6.52228355e-01 +9.34550241e-02 -3.86629552e-01 -2.12822869e-01 +4.02617514e-01 +1.41969267e-02 +8.26892257e-02 +1.75783828e-01 -1.02494337e-01 -3.35135609e-01 -8.50383937e-03 -1.17431581e-01 +2.96311807e-02 -1.45411998e-01 -3.92685920e-01 +2.51445323e-01 -4.65252429e-01 -1.79570943e-01 +9.15043578e-02 +1.44522578e-01 +1.22312054e-01 -3.37620378e-01 -5.70811570e-01 -5.44345796e-01 -2.55006254e-02 +4.20859717e-02 -6.46502078e-01 +1.72109574e-01 +2.82290101e-01 -9.12383199e-02 -2.69797683e-01 +1.37685031e-01 -4.26879758e-03 -3.31562668e-01 -2.26908654e-01 -3.66313905e-01 +3.23288471e-01 +7.30374083e-03 -1.97407171e-01 +2.68357933e-01 +4.25874516e-02 +5.33888899e-02 -7.85839915e-01 +3.85606401e-02 -4.66440499e-01 -4.76238489e-01 +7.17324436e-01 -5.81250727e-01 -6.00764453e-02 -8.32761943e-01 +7.70909786e-02 -1.03635654e-01 -2.51968503e-01 +1.83546349e-01 -2.05333054e-01 +2.93086290e-01 -4.19749439e-01 -1.24940336e+00 -9.80403349e-02 +3.15502733e-01 -3.51421207e-01 -5.90711057e-01 +4.75551307e-01 +2.44257543e-02 -2.73670375e-01 +3.67678434e-01 -1.83840498e-01 +8.61614291e-03 +4.29615438e-01 +1.20232172e-01 -1.12925363e+00 +6.06729269e-01 -3.80703777e-01 +3.82968724e-01 -5.84007561e-01 -2.09280048e-02 -6.46019697e-01 +2.52694935e-01 -3.83350849e-01 -7.66074419e-01 -9.29131955e-02 +4.90756810e-01 -1.38380095e-01 -2.84463733e-01 -1.79471388e-01 +2.89397866e-01 -3.09479952e-01 -1.40359819e+00 -2.50967324e-01 -3.28562379e-01 +3.45708519e-01 -6.47201002e-01 -1.07720234e-01 -7.36340106e-01 -1.31964758e-01 -3.20028812e-01 +3.91287446e-01 -1.79771166e-02 +1.39061689e-01 +4.55120653e-01 +1.13256969e-01 -2.00645328e-01 +3.37006301e-01 +4.07989055e-01 -6.09928668e-01 +3.80344808e-01 -2.50162393e-01 +3.92492205e-01 -7.43709430e-02 -4.35976824e-03 +1.47833660e-01 -4.36681449e-01 -1.29232556e-01 -9.74351645e-01 +2.27336884e-01 +3.45494300e-01 -5.83729923e-01 +7.82203197e-01 -2.43668854e-01 -4.91290331e-01 +1.01839983e+00 +2.13873684e-02 -2.80375153e-01 -1.75395295e-01 +2.98249692e-01 +2.29718849e-01 -1.58114105e-01 -5.51060259e-01 +1.67405695e-01 +1.16260022e-01 +2.21324980e-01 -6.32519424e-01 +1.89174682e-01 -6.08067691e-01 +3.16594355e-02 -2.53582716e-01 +7.27922142e-01 +1.73336431e-01 +1.81102201e-01 -5.74152589e-01 -1.33903503e-01 +9.38009471e-02 +4.74380225e-01 -1.44625455e-01 +9.74949226e-02 +2.94244349e-01 +2.55948126e-01 -1.21160768e-01 +2.42982149e-01 +5.94812751e-01 +2.72763342e-01 +2.56059796e-01 +6.98409021e-01 -9.52981889e-01 -1.85388133e-01 -3.00996006e-02 +1.71553969e-01 -2.87876278e-01 -4.39713866e-01 -1.96629867e-01 +5.75254977e-01 -5.04230499e-01 -2.63974071e-01 +4.97857124e-01 +2.49972522e-01 -2.27748305e-01 +1.15417473e-01 -1.15620131e-02 -4.03424799e-01 -6.54553175e-01 -6.25797749e-01 -2.44572878e-01 +3.49067599e-01 +1.18755728e-01 +6.34503782e-01 +1.52043298e-01 -9.59646180e-02 -1.58993423e-01 -1.60894513e-01 +2.91006882e-02 -4.84112799e-01 -6.18412681e-02 +8.23064566e-01 +6.19003892e-01 -7.23684963e-04 -4.78350788e-01 -5.52333891e-01 +2.48553604e-01 +7.99973756e-02 -1.45811647e-01 +4.31588262e-01 -2.40087509e-01 -5.59643321e-02 +3.29276502e-01 +2.82169059e-02 -4.68943596e-01 +2.70613819e-01 -1.75129518e-01 +3.32510211e-02 +2.77977824e-01 -1.80248559e-01 -9.88372505e-01 +1.25879630e-01 -6.35119081e-01 -6.79936528e-01 +1.67800218e-01 +4.22249585e-01 -2.22197264e-01 +2.53309965e-01 +1.14722222e-01 +1.81385666e-01 +1.62508711e-02 -1.93982065e-01 -3.44578922e-01 -1.51533902e-01 -2.25226015e-01 +6.42185211e-01 -9.34057981e-02 +6.39361814e-02 +2.37912461e-01 -6.31589368e-02 +3.13059062e-01 -6.17210753e-02 +2.23491654e-01 -2.06972450e-01 -7.22870976e-02 +3.47713351e-01 +2.55343556e-01 -6.27984926e-02 +3.94403487e-01 +8.85503292e-02 -1.20417655e+00 +1.54737055e-01 +1.05892074e+00 +2.34165087e-01 +5.03339350e-01 +4.11079407e-01 +3.41128916e-01 +1.91305116e-01 +3.52247983e-01 +3.74418169e-01 -1.76067889e-01 +6.48761839e-02 +4.35494304e-01 +8.56912553e-01 +1.39365479e-01 -1.23639859e-01 -3.99493963e-01 -7.98619986e-02 -2.22284198e-01 -3.29754710e-01 +1.89099312e-01 -3.16553086e-01 -6.66278005e-01 +8.01313579e-01 -6.02093995e-01 -3.29086483e-01 -2.81838141e-02 +1.16264649e-01 -3.36239576e-01 +5.38984895e-01 -5.95922507e-02 -1.67948753e-01 -1.77516386e-01 +2.46479645e-01 -2.45639235e-01 -4.42144237e-02 +1.15176052e-01 +2.42694423e-01 +4.25215602e-01 +1.36315033e-01 -8.93016756e-02 -4.46719110e-01 +1.24881923e-01 +1.35064885e-01 -1.36495396e-01 -3.41260940e-01 -3.00131589e-01 -1.87287822e-01 +1.24784328e-01 +3.04807037e-01 +2.54087478e-01 -8.43724683e-02 -2.07995802e-01 -2.02702526e-02 -7.73851126e-02 +2.70123243e-01 +1.16532877e-01 -2.32357979e-01 -2.74410117e-02 +3.47028375e-01 +2.47409195e-01 +4.79191206e-02 -4.14023191e-01 +1.33474499e-01 +4.91228849e-01 +2.66287506e-01 -3.45107108e-01 -1.29566967e-01 +2.52080023e-01 -5.77674270e-01 +3.21151853e-01 +8.71489644e-01 -4.32312548e-01 -5.00416696e-01 -4.55272973e-01 +1.82568401e-01 +4.70130652e-01 +2.88938522e-01 -4.91943993e-02 -3.91108483e-01 +1.13105208e-01 +2.01234221e-01 -6.85400128e-01 -5.51967144e-01 +3.35566700e-01 -3.91385496e-01 +4.14654054e-02 +4.66333479e-01 -4.86066341e-01 +1.77911356e-01 -5.95319808e-01 -8.85551929e-01 -6.31716430e-01 +2.07545519e-01 +3.21577579e-01 -5.80882728e-01 +4.64322418e-01 -4.89714801e-01 -1.51773468e-02 +1.98278993e-01 -2.03191102e-01 -9.78137106e-02 +5.13521492e-01 +3.65648687e-01 +1.69110090e-01 +6.91518962e-01 +4.67941388e-02 -4.40456308e-02 +2.78228130e-02 +2.45886624e-01 -3.37352067e-01 +2.80258209e-01 +4.02979761e-01 +2.89937437e-01 +5.03925323e-01 -9.28854197e-02 +1.55936807e-01 -1.03591192e+00 +5.33639193e-01 +2.83691019e-01 -3.93508226e-02 +7.47360662e-02 +3.65518332e-02 +2.21799403e-01 -1.73209742e-01 +3.19878191e-01 +3.04574966e-01 -1.89637497e-01 -4.63178679e-02 +1.05750717e-01 -2.86814570e-01 +2.86845237e-01 -4.74256098e-01 +2.16315091e-01 +1.69167340e-01 +6.44865692e-01 +6.87825754e-02 +1.04868281e+00 +1.07025474e-01 -2.90194362e-01 +3.13335180e-01 -1.52816363e-02 -3.05487603e-01 +1.01229057e-01 +3.64085466e-01 -1.37967363e-01 +3.30718726e-01 +2.46956572e-03 -2.71528661e-02 -9.75248814e-01 -3.38937610e-01 +1.89121425e-01 +6.18721694e-02 -6.15824759e-01 +2.71377057e-01 -3.10414974e-02 +6.07824504e-01 +1.37714818e-01 +8.12615693e-01 +5.28622091e-01 +1.70909792e-01 -1.45054711e-02 +3.01327765e-01 +6.41709983e-01 +6.32752851e-02 +2.47094989e-01 -2.54680455e-01 +1.21916652e+00 +1.81886047e-01 +1.47069514e-01 +5.47602475e-01 -3.87457252e-01 +5.38115859e-01 -1.09570242e-01 -3.84380758e-01 +1.44719392e-01 -1.73222348e-01 -4.37502787e-02 +5.13769507e-01 -3.56994420e-01 -3.88721704e-01 -8.75466764e-01 +6.31476879e-01 -4.19530421e-01 +6.23017669e-01 +1.41106561e-01 -3.99110988e-02 +6.26048446e-01 -3.02223474e-01 -1.27374515e-01 +6.65791094e-01 +9.47429419e-01 +1.25300260e-02 +5.87912619e-01 -3.05810839e-01 -8.47748518e-02 +7.61880502e-02 -3.86755675e-01 +9.29240882e-01 +1.97399899e-01 -1.68328546e-02 +1.30274072e-01 -6.30681217e-01 -5.18345952e-01 +8.10269341e-02 +1.39073148e-01 -2.59671569e-01 +1.20989516e-01 +8.94924998e-02 +1.68265402e-01 -1.61728576e-01 +1.70902014e-01 +4.00521718e-02 +1.91567540e-02 +7.31240883e-02 -2.02649366e-02 -4.00553048e-01 -2.73466408e-01 +1.26887634e-01 -2.00862467e-01 -4.77598935e-01 -6.62175342e-02 +5.18514037e-01 +7.67638627e-03 -2.39842415e-01 -3.43653485e-02 +4.21163440e-01 -1.00980051e-01 +4.30568576e-01 +2.46797740e-01 +2.81306297e-01 +3.77216637e-01 +3.31258327e-01 -8.28333199e-01 -2.25186825e-01 -3.08426201e-01 -6.50894284e-01 -2.92085409e-01 +8.98607597e-02 +4.56098318e-01 +9.04514566e-02 +7.51506761e-02 +2.83884913e-01 +4.92319852e-01 +1.60478756e-01 -9.53131542e-02 -2.68997699e-01 -6.67286897e-03 -1.17866747e-01 +4.21086922e-02 -2.36832693e-01 -2.11346105e-01 +2.39751384e-01 -8.75961483e-02 +4.13503826e-01 +4.32130486e-01 +8.68832543e-02 +5.29333353e-01 +4.43403460e-02 -6.25737607e-01 +3.75105441e-02 +3.39410126e-01 -2.53084004e-01 -5.80280006e-01 +7.39186257e-02 -3.36956024e-01 -9.88490105e-01 +6.50674582e-01 +3.12907691e-03 +1.97950408e-01 +7.72724688e-01 +4.72651303e-01 -5.35428584e-01 +7.23495722e-01 +2.11623356e-01 -8.13728034e-01 +3.22426498e-01 +9.46433172e-02 +3.89283866e-01 -1.94150850e-01 -1.06081180e-01 +4.93498057e-01 -2.91176677e-01 -3.24060172e-01 -1.89077958e-01 -3.67599994e-01 -8.24684277e-02 -2.02401191e-01 -3.10280740e-01 -1.85597669e-02 +5.69775164e-01 +6.28333688e-02 -6.87683046e-01 -3.39030117e-01 -5.00554368e-02 +8.50849211e-01 -2.92486846e-01 +4.46127594e-01 +3.64077777e-01 +3.13081115e-01 +1.64239928e-01 -4.10654128e-01 +3.66781652e-02 +7.07262158e-01 +1.27342969e-01 +2.26472035e-01 -1.91877425e-01 -3.64298761e-01 +1.63189918e-01 -1.42358720e-01 +3.04256398e-02 -1.89129218e-01 -5.87218523e-01 -7.97124058e-02 -8.61264672e-03 -1.02000093e+00 +5.06351054e-01 +1.81419522e-01 -3.38251144e-02 -7.61235878e-02 -5.80086149e-02 +3.48952413e-01 +4.24864516e-02 -3.63654435e-01 -1.82609484e-01 -1.27091914e-01 -2.11717054e-01 -6.68385625e-01 +1.78852454e-01 +3.64742391e-02 +1.13501526e-01 -2.22951293e-01 +3.03853154e-01 -4.92741972e-01 +8.55564103e-02 +1.87250599e-01 -6.04679137e-02 +2.20959455e-01 -2.94117421e-01 +2.69587785e-01 -4.46617484e-01 +1.02915056e-01 -6.95645213e-02 -4.49702740e-01 -1.40407905e-01 -1.78983569e-01 -2.63286978e-01 +3.17419440e-01 -3.20059329e-01 +6.87561743e-03 +1.95544735e-01 -3.64589430e-02 +5.09312689e-01 -2.80461848e-01 +9.31244716e-02 +6.49855584e-02 +3.21246922e-01 +8.20648745e-02 -1.95828080e-02 +5.95141292e-01 -1.42370528e-02 -4.43362981e-01 +2.70438403e-01 -8.43406260e-01 +5.68718970e-01 -5.12569547e-01 +8.17901909e-01 -2.57508427e-01 -2.58497056e-02 +3.58251669e-02 +2.48955172e-02 -3.96933079e-01 +4.95863333e-02 +3.58567208e-01 -4.44415331e-01 -2.19494626e-01 -9.87002328e-02 -1.29219770e-01 +9.22840461e-02 +3.41916442e-01 -4.28148732e-02 -3.32554936e-01 -2.97125399e-01 +1.90509051e-01 +6.23004377e-01 -2.72258759e-01 -3.66793007e-01 -2.14353770e-01 -3.14051121e-01 -3.84958386e-01 +3.87774915e-01 -9.94453132e-01 -3.47811103e-01 -3.04145694e-01 -1.62556410e-01 -7.60232747e-01 -4.27896112e-01 -7.12166369e-01 +8.67603421e-02 +8.06180418e-01 +5.37965894e-02 +9.59772244e-03 -1.41606122e-01 -3.76176894e-01 +1.80281010e-02 +6.48026347e-01 -1.34488836e-01 -2.46459886e-01 -2.36770913e-01 -4.69452739e-01 +2.22187400e-01 -7.26249993e-01 +5.39379776e-01 -6.82803392e-02 -6.51668966e-01 -5.22490919e-01 -3.71707618e-01 +2.48820871e-01 +1.72232669e-02 -1.60536543e-01 -2.82941051e-02 -6.07962370e-01 -2.54394472e-01 +1.42973199e-01 +1.75053567e-01 +4.75047052e-01 +5.19119024e-01 -5.85299134e-01 -7.34539747e-01 -3.40998352e-01 -1.81727737e-01 +1.83834910e-01 -4.64675389e-03 -5.20339191e-01 +7.04590324e-03 -6.50633276e-01 +4.98907149e-01 -1.62795698e-03 -3.86757106e-01 +1.06326140e-01 -5.43528199e-01 -5.60769260e-01 +4.08733189e-01 -2.78104246e-01 +3.84636875e-03 +1.92636147e-01 +1.99271694e-01 -3.99179012e-01 -3.52448337e-02 -1.25163317e-01 +5.47658913e-02 +2.41841108e-01 -1.94406375e-01 +1.12860315e-01 -4.86174136e-01 +5.26423693e-01 -8.53820592e-02 +2.07858104e-02 -7.72612929e-01 +7.50623122e-02 -5.11527300e-01 +5.02312064e-01 +6.06064945e-02 +5.12359142e-01 -6.27884194e-02 -4.85665947e-02 -3.29948545e-01 -1.07317626e-01 +1.02300212e-01 -1.01767011e-01 +2.13941917e-01 +1.53810322e-01 -5.43617411e-03 +9.13297296e-01 -1.88575864e-01 -1.86533764e-01 +3.73369694e-01 -5.15305102e-02 -2.83878028e-01 -5.64833999e-01 +6.99461043e-01 -4.98564452e-01 -2.90237982e-02 -2.99950719e-01 -1.65942594e-01 +3.48567337e-01 +5.25253356e-01 +7.16530204e-01 +6.91203400e-02 -9.80630517e-02 -3.65850702e-02 -2.25137562e-01 +1.57707244e-01 -3.28356445e-01 -2.22714633e-01 -1.21593498e-01 -1.00277269e+00 +7.77416945e-01 -3.26327056e-01 -2.56986678e-01 +9.54913348e-02 -3.15452427e-01 -2.59870470e-01 -8.40757489e-01 +4.20414060e-01 -2.01689184e-01 -1.16133645e-01 -5.37150204e-01 -6.15361750e-01 +1.58678502e-01 -1.58768869e-03 -1.61262721e-01 -5.31735122e-01 +3.31789881e-01 +3.78822446e-01 -1.39345780e-01 +2.34562252e-03 +9.30001736e-02 -1.46810124e-02 -3.20163935e-01 +2.20598832e-01 -3.89705867e-01 -4.57778543e-01 +1.01210766e-01 -1.07025094e-01 +1.00619301e-01 -2.07551315e-01 +5.21996021e-01 +1.18343823e-01 +2.70959795e-01 +4.96211737e-01 +3.93586695e-01 +2.86866367e-01 +3.21410507e-01 +2.10277751e-01 -1.06712863e-01 +3.21729809e-01 +8.84357840e-02 +1.25002153e-02 -3.91962111e-01 +7.02781305e-02 -2.24722251e-01 -3.59431475e-01 -2.66273767e-01 +4.10217315e-01 -8.56964469e-01 -2.95735337e-02 +3.74985725e-01 +1.71165004e-01 +4.78306830e-01 +1.69556644e-02 +5.48289597e-01 -6.12327814e-01 -3.78452957e-01 -6.16651662e-02 -7.61847869e-02 -5.30720174e-01 -1.22417822e-01 -3.47322524e-01 -1.77177772e-01 -7.78816283e-01 -2.86733985e-01 -2.26129338e-01 -6.01363122e-01 -3.15781742e-01 -1.68900862e-02 +2.55644262e-01 -2.90022999e-01 +4.60037917e-01 -6.68652117e-01 -4.27813604e-02 +2.86796004e-01 +5.63580059e-02 -9.94191289e-01 +1.06514597e+00 -6.71728492e-01 +2.93858171e-01 +4.44856554e-01 +4.05884460e-02 -4.43923473e-01 +2.73611635e-01 -4.34586406e-01 +1.14366384e-02 -2.75410622e-01 +4.87233281e-01 +2.68306702e-01 -2.80004032e-02 +7.08507225e-02 +2.53068119e-01 -2.47188389e-01 +1.84884757e-01 -4.39615756e-01 +2.56158728e-02 +1.25686318e-01 -5.57386763e-02 +9.05013502e-01 -8.03215384e-01 +9.17248428e-01 +2.30293050e-01 -2.22694457e-01 +1.63192764e-01 +2.47999504e-02 -2.13808077e-03 +4.63059396e-01 +3.23700219e-01 -2.75332183e-01 -2.87509948e-01 +8.24518502e-02 +4.62105513e-01 -6.33963123e-02 +2.47990578e-01 +9.92560461e-02 +6.82795703e-01 +2.39761919e-01 -3.56531709e-01 +2.60535568e-01 +1.05213933e-01 -5.15517071e-02 -3.94793719e-01 -3.46722335e-01 -5.34172393e-02 +2.73736238e-01 -7.78346360e-01 -6.96767122e-02 -5.06824076e-01 -3.15033376e-01 +2.22068205e-01 +3.07913348e-02 -2.09815294e-01 -4.83243376e-01 +5.90748131e-01 -2.33158723e-01 +2.55667210e-01 -1.45432740e-01 +5.45083582e-01 -4.13720369e-01 -5.07429063e-01 +4.08576399e-01 -3.66216525e-02 -4.18971591e-02 -4.40301001e-01 -4.05606255e-02 -8.69010612e-02 +7.06956089e-01 -4.80791509e-01 -4.57507819e-01 +1.49806052e-01 +2.70352870e-01 -2.72876713e-02 -6.13004565e-02 +2.18577638e-01 +2.17341781e-01 +2.33205289e-01 +1.47416770e-01 -4.93902087e-01 -3.09327394e-01 -5.71666718e-01 -4.85020041e-01 -3.99760902e-01 -4.28434201e-02 +1.38184249e-01 -5.42206109e-01 -6.13567770e-01 +1.50507241e-01 -3.20060641e-01 -9.45384428e-02 -5.10060824e-02 +3.49881679e-01 +9.54518542e-02 +7.69901425e-02 +6.73462510e-01 +5.30927300e-01 +8.30844223e-01 -4.23409194e-01 +3.78816962e-01 +2.52821982e-01 -1.91830650e-01 +3.18761081e-01 +4.25477833e-01 +6.47297084e-01 -1.83234751e-01 -3.77835661e-01 +3.23021054e-01 +5.09174727e-02 -1.63845584e-01 +1.87068552e-01 +2.49104593e-02 -8.51182342e-02 -1.24518372e-01 -8.44845176e-01 -2.84773279e-02 -9.45111364e-02 -6.42484903e-01 -2.79062718e-01 +1.30579203e-01 +4.27006841e-01 +2.93661863e-01 -2.72627562e-01 -2.25916833e-01 +5.03833711e-01 -1.56817764e-01 -5.00878870e-01 +5.30368745e-01 -9.34521258e-02 -2.21601382e-01 +2.07058281e-01 -3.58026743e-01 +8.08494166e-02 +8.82555470e-02 -4.45881307e-01 +4.65983063e-01 +1.07521825e-01 +2.08493695e-01 +3.63263278e-03 -1.56793192e-01 -1.49426023e-02 +4.70810235e-02 -2.93768972e-01 -3.23022962e-01 -1.01645803e+00 +5.40027440e-01 -2.61012197e-01 -2.22947061e-01 +6.31568581e-02 +4.94305372e-01 +3.71176042e-02 +3.31809461e-01 -2.73307562e-01 -2.16982171e-01 -1.04108319e-01 +8.04858208e-02 +2.07899049e-01 -7.13699818e-01 +1.12539604e-01 +6.39360011e-01 +2.08416387e-01 -1.10131085e-01 -1.03355363e-01 +9.65587646e-02 +2.10128814e-01 +5.57721615e-01 +7.28798136e-02 -2.69811332e-01 -9.28416997e-02 -2.02936739e-01 +7.97820985e-01 +3.98816317e-01 +1.25967398e-01 +5.31037509e-01 +1.35400698e-01 +3.37940216e-01 +5.90829253e-01 -2.98119992e-01 +3.84296328e-01 -9.11133945e-01 +2.15754196e-01 +1.53138191e-02 -5.59139550e-01 +5.50568938e-01 -1.18185155e-01 -5.14400676e-02 -1.67866454e-01 +1.11775137e-02 -3.80618393e-01 -2.99915344e-01 +2.50942439e-01 -2.87907794e-02 -3.96879315e-01 -2.84247458e-01 +7.86433369e-02 -2.33188957e-01 +7.16290355e-01 -2.57255644e-01 -1.85026839e-01 +2.77750134e-01 -2.25435466e-01 -6.49459884e-02 +2.34683201e-01 +6.28658116e-01 +1.28414378e-01 -2.25905463e-01 +8.09354007e-01 -2.69769281e-01 -7.08046183e-02 -7.97148824e-01 +5.36161721e-01 +7.31495023e-01 +3.94221544e-01 -2.57128417e-01 -3.41818720e-01 -1.10744260e-01 +1.81286409e-01 +3.27388912e-01 -1.10266931e-01 +2.53369510e-01 +8.98529649e-01 -5.60450442e-02 -1.03911743e-01 +9.37679589e-01 +2.50665605e-01 +1.24077871e-01 -1.87450051e-01 -1.89580452e-02 +9.17969197e-02 +7.87505388e-01 -9.54167619e-02 -2.99386826e-04 -3.72866899e-01 +2.01386720e-01 -2.30908126e-01 +8.73803571e-02 +1.24773726e-01 +4.54900488e-02 +3.25720698e-01 -1.21163847e-02 -5.08430600e-01 +1.86560944e-01 +1.67145297e-01 +4.53135759e-01 +6.62731349e-01 -8.56574029e-02 -6.08710229e-01 +2.14639176e-02 +2.30787009e-01 +4.00900722e-01 -2.51627296e-01 +5.55029929e-01 +9.32876050e-01 -1.10579288e+00 +2.79735565e-01 +4.14479643e-01 +1.28020048e-01 +2.38274440e-01 +3.33561152e-01 +1.43091604e-01 +5.15377879e-01 +3.48411500e-02 -5.27291417e-01 +1.57345340e-01 +1.73716113e-01 +1.72275603e-01 +2.44596958e-01 -5.13588488e-01 +2.10893437e-01 +8.22112560e-01 -5.27531169e-02 -2.96778474e-02 -4.48698103e-01 +1.60199478e-01 +2.07968026e-01 -3.82744402e-01 +3.54520567e-02 +2.28161603e-01 +9.33478951e-01 +7.50308298e-03 -1.12469494e-01 +2.35885456e-01 +5.02263755e-02 +1.05452508e-01 +1.17619134e-01 -2.47379631e-01 +2.31388398e-02 +2.26754397e-01 -1.28569663e-01 +1.85130522e-01 -2.82821711e-02 +7.07400560e-01 -1.44149458e+00 +5.07765174e-01 +3.37897182e-01 -6.55553401e-01 +2.99396604e-01 -4.03905153e-01 +5.90001225e-01 -1.68766946e-01 +9.48493183e-01 +5.47913015e-01 +3.30712706e-01 +5.92953600e-02 -4.38351452e-01 +4.05932128e-01 +4.79663014e-01 -4.74880666e-01 -5.14086366e-01 +2.22252995e-01 -1.64665848e-01 +5.21458209e-01 +7.48484060e-02 +6.68236852e-01 -1.19689681e-01 +2.95960903e-01 +3.56858492e-01 +2.88910031e-01 +6.80228591e-01 -4.86853361e-01 -1.38638586e-01 -9.80188474e-02 +5.23636043e-01 +5.44290781e-01 +3.29275072e-01 +1.60080910e-01 +2.27422640e-01 -5.10392129e-01 +9.46455896e-01 +1.76227633e-02 -2.08321199e-01 +7.80233964e-02 +5.90366304e-01 +2.02404127e-01 +6.01654589e-01 -6.03316784e-01 -5.77875972e-01 -2.80606747e-01 -4.56841558e-01 +1.84151337e-01 +4.43267196e-01 -3.71622413e-01 -9.33756590e-01 -4.39927168e-02 -7.23880948e-03 +2.61070281e-01 -4.46302325e-01 +1.02980427e-01 -5.84233962e-02 -3.33681375e-01 -4.44887370e-01 +1.11180909e-01 +2.58429945e-01 -7.50243738e-02 -4.13799547e-02 -3.43508087e-02 +2.20757589e-01 -3.85293812e-01 +1.35418266e-01 +2.02874005e-01 +1.81186914e-01 -1.40493000e-02 +2.74134837e-02 +1.67274680e-02 +9.45827425e-01 +9.92465541e-02 +3.51003200e-01 +6.20789289e-01 -5.50593555e-01 +1.70629740e-01 +4.51063216e-01 -2.69870870e-02 +7.73715556e-01 -2.01427098e-02 -1.61077216e-01 -9.46876407e-02 +2.98586190e-01 +5.13265014e-01 -2.53458500e-01 +6.42860353e-01 +8.40723097e-01 -8.86001661e-02 -1.54316604e-01 -5.07969677e-01 +6.06593728e-01 -3.84007096e-01 +1.59400031e-01 +3.10483158e-01 +4.01709229e-01 -4.72282737e-01 -1.86573297e-01 +4.15054103e-03 +3.25890481e-01 +2.04912469e-01 +4.39301819e-01 +6.00895405e-01 +7.66214550e-01 +1.93744451e-01 +1.02359557e+00 -4.00341898e-01 +2.26623192e-02 -2.71155715e-01 +3.57613146e-01 -1.71578735e-01 +3.13536257e-01 +1.14234179e-01 +2.39374489e-01 +8.01114514e-02 -2.18653113e-01 -2.95444648e-03 -1.50585532e-01 -1.14082262e-01 -2.59979278e-01 +4.16259885e-01 -4.43815254e-02 -1.15052529e-01 +2.26759255e-01 -1.44709975e-01 +1.69248521e-01 +1.76213726e-01 +2.13026643e-01 -4.08050507e-01 -7.75078088e-02 -8.64716411e-01 +8.08502436e-01 +1.50387930e-02 +4.36987579e-01 -3.23287815e-01 +1.97805002e-01 -2.90096015e-01 +4.99332458e-01 +2.90912017e-02 +4.62817520e-01 -1.58778936e-01 -1.05889112e-01 +1.45306006e-01 -1.41058922e-01 +1.98428839e-01 -7.93475032e-01 +4.71977949e-01 -1.40035182e-01 -1.66539490e-01 +2.14742810e-01 -1.53758228e-01 -1.75447330e-01 +4.25434858e-02 -8.31377879e-03 +1.77354455e-01 -6.86585307e-01 -4.71359134e-01 +1.05557382e-01 +2.66271114e-01 +6.43059373e-01 -4.23984945e-01 -1.41286150e-01 -3.50416481e-01 +2.60915235e-02 +9.64681059e-02 +1.36231869e-01 +8.71643126e-01 +6.94833457e-01 +2.64238358e-01 +2.31337309e-01 -9.73281741e-01 -1.56534761e-01 -7.17194974e-02 -3.02251935e-01 +2.19349042e-01 +2.18678176e-01 -1.25074804e-01 -5.89307606e-01 -5.49418151e-01 +2.10185170e-01 +5.38872704e-02 -1.34520307e-01 +1.96578443e-01 +4.73906964e-01 +1.35979518e-01 +1.42953351e-01 +7.11423278e-01 +6.69439077e-01 +1.46408454e-01 -8.14678013e-01 +2.38603607e-01 +7.28641264e-03 -4.89753745e-02 +2.24511787e-01 +1.30500302e-01 +7.15443373e-01 +2.38457248e-01 -2.70920875e-03 +8.32816482e-01 +3.86213437e-02 +2.78756738e-01 +1.09564281e+00 +3.03722709e-01 -2.19545856e-01 -2.89610237e-01 -1.46684870e-01 -3.23757559e-01 +4.75273803e-02 +2.51046747e-01 -6.38582587e-01 +5.35631590e-02 -5.25806323e-02 +5.47500670e-01 -2.76796937e-01 -2.38611400e-01 +4.60682362e-01 -1.33371249e-01 -3.33587199e-01 +3.70734364e-01 +2.57142276e-01 -9.49460864e-02 -8.29622988e-03 +9.73025188e-02 +7.14570880e-02 -1.60020173e-01 -3.27847898e-01 +4.81174856e-01 -4.62871164e-01 +6.73070997e-02 +4.97065187e-01 +3.11343610e-01 +2.02665314e-01 +4.76069376e-02 -1.59733649e-02 -1.77891895e-01 +1.40037894e-01 -1.79824643e-02 -4.84941788e-02 +7.75017142e-02 -4.88863587e-02 -1.80380225e-01 -3.94212544e-01 -5.09142987e-02 -1.48307160e-01 -2.78187662e-01 -2.44132236e-01 -1.14121377e-01 -2.14551210e-01 +3.12114358e-01 -1.19406357e-01 +2.95239184e-02 +2.50862747e-01 -1.67831913e-01 +4.00854141e-01 +1.51938006e-01 +6.46216094e-01 -6.33898452e-02 +3.75138909e-01 -4.73779112e-01 -1.56970844e-01 -4.24997956e-01 -5.63464463e-01 -8.76047254e-01 -2.39169151e-01 -1.22337557e-01 -6.57864332e-01 -4.56944704e-02 -3.12852770e-01 -7.34753907e-01 +7.77581036e-01 -2.57763177e-01 +3.12607527e-01 -3.88222516e-01 +2.58820206e-01 -2.08316103e-01 -3.03933710e-01 -4.19542253e-01 -1.51735187e-01 +1.36502802e-01 -2.87816897e-02 -2.26965740e-01 -1.65904716e-01 +3.16638857e-01 -1.83559004e-02 +1.42259851e-01 -7.72910595e-01 +2.45333556e-02 -2.26988927e-01 -3.07314284e-02 +4.84281778e-02 +1.08419769e-01 -4.34369951e-01 -5.46873771e-02 -2.97561169e-01 -7.31844127e-01 -3.22376996e-01 +6.06049538e-01 +1.14263147e-01 +3.86503153e-02 -2.74941385e-01 +5.94861925e-01 +1.62663126e+00 -2.52042770e-01 -1.59303814e-01 +2.34124228e-01 +5.94262242e-01 -8.09470490e-02 -3.26241940e-01 -5.91196679e-02 -3.82015735e-01 -2.67373502e-01 +6.97466210e-02 -5.20739518e-02 +9.53999311e-02 -4.13199246e-01 +2.16955133e-02 +4.08158779e-01 +1.43278050e+00 +1.97897702e-01 +2.03598499e-01 +2.06540674e-02 -1.00274995e-01 -1.96350440e-01 -7.42362067e-02 -1.86615407e-01 -6.85269713e-01 -3.68822694e-01 -1.31864816e-01 -2.61317521e-01 +3.93597841e-01 -3.14280838e-01 +4.75204065e-02 -5.76481640e-01 +2.92066246e-01 -4.15142298e-01 +4.48037982e-02 -3.17001253e-01 +6.81180298e-01 -2.58768409e-01 -3.03191572e-01 +2.47207999e-01 -6.48411214e-01 -6.84837580e-01 -1.70720622e-01 +3.40145648e-01 -2.03380659e-01 +4.56410438e-01 -1.30718544e-01 -1.46285772e-01 -1.59578428e-01 +2.71374136e-01 +4.42635119e-01 +2.35821262e-01 +4.42774184e-02 -1.12711184e-01 +1.86471745e-01 -6.28112406e-02 +8.44082981e-02 -5.39155245e-01 -8.53865892e-02 -2.90386975e-01 -1.07392184e-01 +2.67700136e-01 +7.21487701e-02 +7.54463971e-01 -2.20602870e-01 -1.04467452e+00 +7.00175688e-02 +1.75789505e-01 -3.20267349e-01 +1.83297157e-01 +6.68517590e-01 +3.10523272e-01 +7.13399112e-01 -3.53329964e-02 -2.74432153e-01 -5.79398265e-03 +2.79721677e-01 -3.58495861e-01 -4.72614259e-01 +8.44906032e-01 -2.81623930e-01 -1.57285839e-01 -1.97701171e-01 -1.06224112e-01 -3.65872562e-01 +9.49593484e-01 +6.84179887e-02 +1.16940178e-02 -6.79909408e-01 +1.84552949e-02 -9.07695234e-01 -7.88965449e-02 -1.24270606e+00 +5.03534079e-01 +2.37738058e-01 -2.95810014e-01 -1.41620442e-01 +1.20383881e-01 +9.96802449e-02 -1.29932922e-03 +5.17630577e-01 -5.83932400e-01 +1.24445230e-01 -3.89796644e-01 -2.88329553e-02 +1.17806591e-01 +2.36341640e-01 -1.53291658e-01 -9.72718969e-02 -2.20449731e-01 +1.25763416e-01 +4.12542261e-02 +1.65078342e-01 -2.93036729e-01 -1.12975612e-01 +9.23879519e-02 +5.24807051e-02 +3.84977371e-01 -5.25087237e-01 -2.10514262e-01 -1.22897744e-01 -1.05318284e+00 -4.47306126e-01 -4.70817029e-01 -4.14408088e-01 +1.26429111e-01 -3.79870892e-01 +4.76652980e-01 +6.41376376e-01 -5.30327737e-01 -1.51059866e-01 +4.94133607e-02 +7.19406366e-01 +1.66401826e-02 -4.18639839e-01 -6.00365773e-02 -5.44184968e-02 -4.17257726e-01 -8.59054551e-02 -2.36946136e-01 +1.17225163e-01 -7.82855034e-01 -9.37503397e-01 +2.32836574e-01 +6.84687018e-01 -2.86025077e-01 -1.48936421e-01 -1.62262008e-01 +8.52990597e-02 -4.93485369e-02 -2.94337273e-01 -3.96891683e-01 -8.11715052e-03 +6.52350932e-02 -2.96892017e-01 -5.15415967e-01 -2.87729800e-01 -2.28683844e-01 +9.02115926e-02 -1.81757465e-01 +8.12898576e-02 -5.90534508e-01 -2.41496056e-01 +1.83077484e-01 +4.63495404e-01 -2.03318194e-01 -3.76928389e-01 +5.66167049e-02 -1.94261700e-01 -2.64266312e-01 -1.37075275e-01 -3.98843944e-01 -3.81904542e-01 +2.19880804e-01 -2.09833518e-01 -6.77874982e-02 +1.68217584e-01 +2.57242292e-01 +3.12753767e-01 -1.89878777e-01 -2.07066741e-02 -2.09989399e-01 +8.94758880e-01 -8.13824460e-02 -3.11041892e-01 +2.34825000e-01 -2.07576737e-01 -3.59138161e-01 +2.85078615e-01 +3.13994348e-01 +5.11855185e-01 -2.06798568e-01 +9.22482163e-02 -7.41306603e-01 -3.74015011e-02 +3.68064903e-02 -9.17208865e-02 -1.70765311e-01 +1.83719218e-01 -2.80343711e-01 +7.60773495e-02 +1.15422949e-01 +1.84130639e-01 +2.82467991e-01 +1.21124662e-01 +3.31271380e-01 -1.66791845e-02 +7.29416311e-01 -2.66769826e-01 +1.83194757e-01 +2.57610232e-01 +3.88334364e-01 -1.42386511e-01 +4.87040848e-01 -5.24528980e-01 -2.68228799e-01 -2.29968354e-01 -4.70410407e-01 +1.34462461e-01 +6.01292968e-01 +1.89644158e-01 +3.29638779e-01 +1.75548509e-01 -9.33199644e-01 -8.49083900e-01 +3.18108439e-01 -5.77193918e-03 -7.39094615e-01 -1.08852518e+00 -2.22369105e-01 -7.38040984e-01 +7.70959616e-01 -1.77674189e-01 -2.86453575e-01 -4.75533426e-01 +6.05215430e-01 -3.09099793e-01 -9.84869078e-02 -5.61862290e-01 -3.57486665e-01 -1.85720116e-01 +8.47063661e-02 +6.07490301e-01 -5.03828943e-01 -2.52692997e-01 +6.71162307e-02 +3.49150002e-01 +5.30666232e-01 -8.43547583e-02 -5.40237784e-01 -1.84686214e-01 -1.03836811e+00 +5.96288443e-01 +9.96266186e-01 +1.31627440e-01 -7.68433571e-01 -1.39523402e-01 -2.79036403e-01 +1.98718607e-01 +1.62484601e-01 -2.37409934e-01 +4.08413798e-01 -1.16023517e+00 -1.73912775e-02 +4.17179257e-01 -1.14799455e-01 +3.68025452e-01 +1.18251637e-01 -1.61209971e-01 +3.56760412e-01 +5.65375447e-01 +3.99564922e-01 -8.13340396e-02 -5.31035841e-01 -8.29161346e-01 -4.95101094e-01 -4.55447525e-01 +3.40135992e-01 +1.31971478e-01 -4.57583100e-01 +2.22925603e-01 -4.92530525e-01 -5.41466847e-02 +8.58696699e-01 +1.22894280e-01 +8.75654638e-01 +4.66846377e-01 -4.40464020e-01 -6.80604339e-01 -1.36975396e+00 +2.65945613e-01 -1.56867206e-02 -9.59068462e-02 +4.12575305e-02 -4.55348670e-01 +4.76485282e-01 -8.04705620e-02 -4.29514557e-01 +4.21733744e-02 +2.78406620e-01 -3.10845435e-01 +5.25983334e-01 -3.18424195e-01 -3.26317549e-02 +1.51167601e-01 +1.14878595e+00 -2.16566294e-01 +4.68538612e-01 -1.89427957e-01 +5.80892444e-01 -6.57620654e-02 -4.64455426e-01 -7.41766915e-02 +2.95172215e-01 -6.83562636e-01 +2.54280150e-01 -2.59852111e-01 +2.67880559e-01 +1.02333248e-01 +3.88294548e-01 -1.77575171e-01 -2.55647689e-01 +5.66696703e-01 +9.38900113e-02 +2.56587207e-01 -2.44022995e-01 +1.39631242e-01 +9.88939591e-03 +4.67010178e-02 +1.51161209e-01 +7.28816450e-01 -4.22105402e-01 +2.67532825e-01 +8.46425891e-01 +6.43370211e-01 -4.17879171e-04 +4.09534365e-01 -2.34150931e-01 +1.79012448e-01 +7.58928180e-01 -8.60298425e-02 -4.21030700e-01 -3.68898243e-01 +3.39503586e-01 +1.51817799e-01 +4.47350517e-02 -2.58280337e-01 +1.24690786e-01 +6.14982247e-01 +5.94527125e-01 +1.07055061e-01 +3.59764606e-01 +9.86268837e-03 +2.25728869e-01 +1.34202793e-01 +4.72573996e-01 -2.01011255e-01 -1.93451568e-01 +4.95306730e-01 -3.30136120e-01 +5.51060021e-01 -2.60653973e-01 -4.17922020e-01 +1.06891550e-01 +2.87543833e-01 -6.72016382e-01 +7.66998708e-01 +5.53354263e-01 +1.13955826e-01 +6.19915649e-02 +2.02123597e-01 +2.60170668e-01 +6.69444352e-02 -7.36662447e-02 -3.65051597e-01 -8.60866383e-02 +8.04754421e-02 +3.18784237e-01 -2.11317211e-01 +7.34168291e-01 -5.93975067e-01 -2.59109885e-02 +4.94203568e-01 +1.30787238e-01 -3.76277059e-01 +3.54261726e-01 +2.47505531e-01 -6.98394552e-02 +1.91899121e-01 +2.55700022e-01 +1.17932506e-01 +1.11695997e-01 +1.91529304e-01 +5.66006787e-02 -5.23862600e-01 +8.63375664e-01 -2.02839643e-01 -1.56127512e-01 -5.57664156e-01 -4.28771287e-01 +6.21070147e-01 +7.83540010e-02 -4.19830590e-01 +1.85195833e-01 +1.51610719e-02 -3.96534711e-01 +6.27827525e-01 -9.25871581e-02 +3.70422639e-02 -4.41804901e-02 -9.10644084e-02 -3.45622152e-02 -1.67750344e-02 +5.13612032e-01 +2.46200114e-01 -1.22963771e-01 -1.91337630e-01 +2.13045016e-01 +2.84260541e-01 -2.69394904e-01 -1.20512053e-01 -2.66743898e-01 -2.39001423e-01 +2.54619271e-01 -1.28408745e-02 +1.50776193e-01 +2.44208619e-01 +9.02362689e-02 -3.16832572e-01 +1.66551307e-01 -7.74252653e-01 -4.73722309e-01 +1.85648084e-01 +1.30195662e-01 +4.42427188e-01 +2.33061641e-01 -1.12327911e-01 +5.76911032e-01 -8.45334351e-01 +2.26522386e-01 -2.80133039e-01 +4.94327635e-01 -5.30402549e-02 -5.60032010e-01 +2.53508985e-01 -1.24740794e-01 +6.85273826e-01 -2.39936516e-01 -8.48770514e-02 +7.39374638e-01 +1.11695535e-01 -3.03062260e-01 +2.05645993e-01 +3.53251070e-01 -2.12991297e-01 -1.66326761e-01 -2.60442287e-01 -1.46648556e-01 +4.30703521e-01 +1.42112240e-01 +2.27179825e-01 -6.00636424e-03 +1.41888678e-01 -7.79128194e-01 +4.38034803e-01 +1.03820466e-01 +8.63874674e-01 -1.80790529e-01 +6.27181768e-01 +1.17704764e-01 +1.39896244e-01 +6.03043616e-01 +1.78330973e-01 -2.12963328e-01 -4.48056042e-01 +7.99882054e-01 -1.79702967e-01 +1.93694189e-01 +3.11443090e-01 +4.17203486e-01 -5.19376159e-01 +5.22207059e-02 -1.27396032e-01 +9.06720385e-02 -4.70100224e-01 +2.20116198e-01 +3.03620458e-01 +6.88893616e-01 -6.39823735e-01 +4.52016592e-02 -1.91487327e-01 +2.79731363e-01 +8.98318440e-02 -4.81557459e-01 -1.95373092e-02 -1.81231394e-01 +8.91846538e-01 -6.44954741e-02 +3.91494371e-02 -2.40418658e-01 -1.10001331e-02 +1.84392780e-01 +2.49484718e-01 -7.18844086e-02 +1.06764205e-01 +7.94419408e-01 -1.52266741e-01 -4.93143111e-01 +9.59955275e-01 -9.58071724e-02 +4.39053625e-01 -3.75614166e-01 -1.00274622e+00 -1.25978887e-01 -4.00679529e-01 +3.13897617e-02 -7.31466636e-02 +2.69413173e-01 +3.26729029e-01 -1.13716861e-02 -7.85646364e-02 +3.48846376e-01 +3.92297089e-01 +5.01047730e-01 +2.85135299e-01 +9.41529796e-02 -7.52710849e-02 -1.07922167e-01 -7.17603087e-01 +1.39131114e-01 +6.66070506e-02 +3.88519317e-01 +3.02863240e-01 +8.69351685e-01 +7.03407586e-01 +1.72099382e-01 +3.27611327e-01 +4.18978691e-01 -3.16355795e-01 -2.64897674e-01 -3.36265266e-01 +3.44026904e-03 -1.64976686e-01 +2.22929850e-01 -2.67679363e-01 +8.44502926e-01 -1.25665456e-01 -1.00760370e-01 -6.06264889e-01 -2.37545241e-02 +3.07021022e-01 +2.94975162e-01 -6.02517009e-01 +7.20582306e-01 +5.29854119e-01 +3.29674393e-01 +3.12620103e-01 +7.17466921e-02 -4.19355482e-01 +5.04252613e-01 +6.63414717e-01 -9.09570217e-01 +3.01649988e-01 -3.76081884e-01 -1.30117118e-01 +4.53294098e-01 +2.00717911e-01 +1.95385620e-01 +1.89543501e-01 -4.42676246e-01 -1.32596150e-01 +1.56858787e-01 +8.06050003e-01 +6.38931319e-02 -9.64846760e-02 -4.89900589e-01 +5.23732543e-01 +5.16583025e-01 -1.46913141e-01 -3.77158523e-01 +5.79163611e-01 +1.01757371e+00 -1.64273337e-01 -4.06753719e-01 +3.44908871e-02 -5.80043532e-02 -4.64493901e-01 +8.48822519e-02 -3.68712157e-01 -7.51808286e-02 -1.57514766e-01 +2.71573216e-01 -3.72247994e-01 +9.41821039e-02 -6.04394116e-02 +2.24235713e-01 +6.69246972e-01 +2.74705559e-01 +1.06173910e-01 -5.05244397e-02 +2.42194697e-01 +2.29589328e-01 +3.22054237e-01 -2.05939680e-01 -3.86470035e-02 -5.90617716e-01 -3.89677919e-02 -1.03640944e-01 +5.34619510e-01 -4.22605842e-01 +2.11784914e-01 +4.94236946e-02 -4.91759600e-03 +9.35523063e-02 +1.59008786e-01 +2.41066322e-01 -1.48646176e-01 +1.46657586e-01 -2.55073935e-01 -3.88718307e-01 -1.03762783e-01 -1.03288107e-02 -2.79376984e-01 -8.13615918e-01 +3.53703141e-01 +1.26906261e-01 +1.35823533e-01 -1.56846926e-01 +1.59002781e-01 +4.13128793e-01 +3.27651143e-01 +2.70633012e-01 +2.37573102e-01 -2.96327891e-03 +1.62382215e-01 +4.81742859e-01 +1.17350113e+00 +3.35173160e-02 -3.13797683e-01 -4.22186524e-01 -1.94123518e-02 -1.20150380e-01 -1.45931989e-01 +1.07602969e-01 -5.67795932e-01 -1.75087545e-02 +5.97523712e-02 -9.34759751e-02 -5.18437803e-01 +3.33958447e-01 +4.42314800e-03 +2.07326815e-01 +5.24637282e-01 +8.30520093e-01 +1.66078284e-01 +3.34404446e-02 -6.13491416e-01 -7.75587633e-02 +7.27279410e-02 +5.22968233e-01 +1.10479303e-01 -4.13020588e-02 -2.07733959e-01 -4.00567949e-02 -3.95159656e-03 +3.13529879e-01 +7.79916421e-02 +3.86383712e-01 +3.02686691e-01 -3.56699914e-01 -2.27476403e-01 +2.47353479e-01 -7.84374215e-03 +2.49110773e-01 +2.47998253e-01 -7.46044293e-02 +1.64352641e-01 +1.36881351e-01 +1.44583747e-01 +5.28958499e-01 -2.66333371e-01 -8.49232003e-02 +5.91988385e-01 -3.15188915e-01 -1.09444514e-01 -1.47315739e-02 +5.15372217e-01 +1.67827025e-01 +7.90384352e-01 +6.24949969e-02 -1.65443450e-01 +2.67552584e-01 -6.23837769e-01 +2.66984373e-01 +9.89859849e-02 -2.68276095e-01 +3.79238911e-02 -1.33000687e-01 +5.09731054e-01 +5.14066458e-01 +1.16167441e-02 -3.83093297e-01 -3.20816725e-01 +4.61475961e-02 +5.55492640e-01 +4.64513339e-02 -1.43540546e-01 +2.70725459e-01 -1.78910807e-01 -3.93192083e-01 -3.33688676e-01 -4.02782202e-01 +3.35180491e-01 +1.91094521e-02 -1.99430421e-01 -4.98690128e-01 -1.55365154e-01 +6.40213430e-01 -1.39057368e-01 +3.64459911e-03 -1.82334259e-01 -2.01968383e-02 -2.97511101e-01 +1.72733851e-02 +4.57614399e-02 +1.44998565e-01 -7.05439687e-01 -1.11020237e-01 -4.49984223e-01 +1.81366503e-02 +1.26296580e-01 -1.71010658e-01 -4.55676705e-01 -3.20975818e-02 +2.38121927e-01 +5.69559447e-02 -7.13010877e-02 +4.82727498e-01 -8.62542242e-02 -4.82118428e-02 +2.67772287e-01 -1.44506246e-01 +2.74928063e-01 -2.44107738e-01 -4.46689039e-01 -3.62327367e-01 +3.59892011e-01 +3.88563007e-01 -2.05268010e-01 +1.29883299e-02 -1.50710374e-01 -1.30512923e-01 -3.84717822e-01 +1.40819386e-01 -3.16969126e-01 +2.22105831e-01 -2.81423260e-03 -5.60006797e-01 +2.33458966e-01 +1.97122231e-01 -3.30508262e-01 -7.62021482e-01 +9.13793072e-02 -4.53123838e-01 -7.28418708e-01 +1.39663458e-01 +9.92353726e-03 +7.59057775e-02 +5.24918973e-01 -4.61816132e-01 -2.11692527e-01 -2.23904029e-01 +2.41969153e-01 +9.49561000e-02 -5.78171015e-01 -2.05614567e-02 +7.78599158e-02 -3.50992948e-01 -2.87459552e-01 -1.11344278e-01 -1.37614951e-01 -4.64923739e-01 -2.56778389e-01 -1.72403678e-02 +1.07052848e-02 +1.52480856e-01 +1.38765916e-01 -2.02883691e-01 +1.65999532e-01 +1.40727386e-01 -5.02422452e-01 +3.40251386e-01 -2.15227962e-01 -8.01189840e-01 -1.07486941e-01 -5.30316196e-02 -1.24813473e+00 +1.81380808e-01 +5.76784372e-01 +2.06053287e-01 +1.00238454e+00 -3.71833354e-01 +2.75128126e-01 +2.83839136e-01 +7.97743648e-02 +1.73684239e-01 -2.27788284e-01 -2.14948937e-01 -2.04068795e-01 -1.44960105e-01 -2.87583977e-01 +7.15669751e-01 +5.16658902e-01 -8.03831339e-01 -6.07363164e-01 -1.97869033e-01 -3.39514583e-01 +3.80657881e-01 +3.52698863e-01 -4.12445664e-01 +5.58658361e-01 -2.00827092e-01 +2.66566779e-02 +4.75163795e-02 -5.03647447e-01 +2.90581882e-01 -1.29535392e-01 -1.52743713e-03 -4.53941852e-01 -1.34935096e-01 +7.00432301e-01 -1.78993091e-01 +8.82294178e-02 -9.99205410e-01 -1.91490084e-01 +3.57215218e-02 -2.70579547e-01 -1.99092805e-01 -2.44331405e-01 -9.11715105e-02 -7.36816600e-02 -4.47757691e-02 +1.66595012e-01 +1.55421168e-01 +1.10430546e-01 -4.42990661e-01 -5.56647182e-01 -8.67966264e-02 -2.05029920e-01 +1.43941548e-02 +3.33346985e-02 -6.48629010e-01 -1.44220009e-01 -1.96505003e-02 -7.22244263e-01 -2.25774527e-01 -2.97465175e-01 +1.15696244e-01 +1.78163260e-01 +1.87491268e-01 -2.92602479e-01 +6.90677941e-01 -3.97641629e-01 +7.80412778e-02 -3.51586133e-01 +1.27165914e-01 -5.60399406e-02 -5.90289831e-01 +6.16265059e-01 -7.74817169e-01 +4.25419927e-01 +4.45564359e-01 -2.58972943e-01 -3.09199095e-01 +5.15489995e-01 +1.89571366e-01 -4.30869669e-01 -6.16230428e-01 +2.68764108e-01 +2.43436620e-01 -3.89794409e-01 -1.29886836e-01 -6.80977166e-01 +5.26329696e-01 -1.21884555e-01 +3.09198558e-01 +1.36915773e-01 -4.96586179e-03 -4.95439857e-01 -3.96275908e-01 -2.10769430e-01 -1.30540097e+00 -5.40632606e-01 +2.50841558e-01 -1.51311815e-01 +3.20563227e-01 +4.07326549e-01 +2.27416623e-02 +1.59023434e-01 -1.90687120e-01 +4.83651794e-02 +2.49961138e-01 -1.00816035e+00 -1.62359133e-01 +4.36899155e-01 -4.26431865e-01 -1.97397515e-01 -1.27825826e-01 -6.98741227e-02 -4.56192851e-01 -1.57142386e-01 +2.99241215e-01 -1.16077587e-01 -3.73241864e-02 -3.01497001e-02 +6.46496788e-02 -8.95770714e-02 +3.41596633e-01 -1.10443056e+00 +2.41644457e-01 +2.45566487e-01 -5.33763230e-01 +3.10805976e-01 -3.81873965e-01 -8.61687660e-02 +4.61677939e-01 +2.88563043e-01 +2.92931497e-01 +2.39924863e-01 -5.68637967e-01 +3.93508494e-01 +3.74488980e-01 +3.93582702e-01 -1.11336991e-01 +3.72285508e-02 -6.81970060e-01 +1.26596496e-01 +5.40701330e-01 -5.32640330e-02 +7.21518993e-01 +2.21065611e-01 -6.38320327e-01 -1.52766809e-01 +3.71152051e-02 -1.58646658e-01 +4.37655985e-01 +8.05874109e-01 -2.55661279e-01 +7.55899191e-01 -5.97069740e-01 -2.61557788e-01 -1.36937469e-01 -1.47365674e-01 +5.29071748e-01 +2.08282307e-01 +5.31580269e-01 +2.52496392e-01 +2.25286886e-01 +9.77136791e-02 -3.22348356e-01 +2.65752763e-01 -3.38375896e-01 +5.72699085e-02 +3.40551555e-01 +2.06777617e-01 -7.85082355e-02 +4.47535561e-03 -1.42724693e-01 -2.92327195e-01 -4.69798669e-02 +1.03803360e+00 +7.55311489e-01 +1.90030914e-02 -1.91940621e-01 +7.19458833e-02 +2.20388677e-02 +3.98263246e-01 +3.81283350e-02 -4.66222456e-03 +2.27772310e-01 +1.85875539e-02 -1.79662347e-01 -7.90088773e-02 -1.06281459e-01 -5.98121941e-01 +2.17926010e-01 -5.70633054e-01 -1.32348090e-01 -4.33152199e-01 +4.73050065e-02 -2.66974062e-01 -5.83310962e-01 -2.48163104e-01 +2.99441442e-02 -3.92205089e-01 -2.18415231e-01 +2.24596813e-01 -4.15732652e-01 -4.26104546e-01 -3.85949254e-01 +2.79040486e-01 +4.65248488e-02 -4.85499986e-02 -3.83020826e-02 -3.20369065e-01 -1.10245250e-01 +9.35178548e-02 +5.73934257e-01 -1.66189782e-02 -4.79706973e-01 -5.51509619e-01 -3.10972929e-02 -1.51346520e-01 -9.63168666e-02 -3.77788275e-01 +1.42733291e-01 -2.11943775e-01 -3.40552598e-01 -2.35004470e-01 +4.10606600e-02 -5.05481899e-01 +8.16041082e-02 +3.79106760e-01 +3.65498006e-01 -7.45381787e-02 -2.06501060e-03 +3.75672355e-02 -1.20817311e-01 +5.61624110e-01 +3.82843316e-02 -5.87284684e-01 +4.61573564e-02 +3.55790228e-01 -6.99560702e-01 -2.86456853e-01 -5.00562340e-02 -1.23917989e-01 -8.84880841e-01 -6.22166812e-01 -1.74628124e-01 +4.90956783e-01 -1.69303864e-02 -2.63278276e-01 -2.27616906e-01 -2.94731289e-01 -8.23876541e-03 -2.67743915e-02 -3.47396553e-01 -3.98979560e-02 -1.49093598e-01 -2.55132526e-01 -2.94520289e-01 -1.42532900e-01 -5.65129876e-01 +3.00285071e-01 -5.03800869e-01 -5.30470669e-01 -5.00923038e-01 -8.82653892e-01 +3.88917208e-01 +4.37546372e-02 -3.47393781e-01 -3.15025032e-01 -5.37971020e-01 -1.43167317e-01 -7.46171772e-02 -8.24354351e-01 +1.58232898e-01 -2.13583726e-02 -2.39902988e-01 -7.83448339e-01 +2.74502426e-01 -3.77114564e-01 +2.82648474e-01 -1.63707092e-01 -3.03102713e-02 +9.28478986e-02 -4.24487919e-01 +2.14422777e-01 -1.92139059e-01 +5.69923930e-02 -9.91958976e-02 -5.41988127e-02 -8.21104869e-02 -1.75989012e-03 +4.90967751e-01 +3.08401436e-01 -9.63833183e-02 -4.27641243e-01 -3.32429469e-01 -3.28932256e-01 -1.43491626e-01 -1.90700531e-01 +2.14880288e-01 +5.54573834e-01 +4.87187207e-01 +5.01606613e-02 -2.60791123e-01 +3.33253324e-01 +5.03313690e-02 +2.46184319e-01 -2.91489810e-01 -4.38397884e-01 +3.71243536e-01 +2.69795895e-01 -1.46147653e-01 +3.01261485e-01 +6.98515326e-02 -1.85093004e-02 +6.23562276e-01 -6.50206625e-01 -3.31998229e-01 -1.23646371e-01 +2.47564197e-01 -7.26842403e-01 +2.55629331e-01 +9.81533229e-02 +1.84438769e-02 -4.00556028e-01 +1.27692029e-01 -6.27287745e-01 -9.20923501e-02 -2.89054334e-01 -7.83816159e-01 -1.60661951e-01 -2.89941281e-01 +3.87317061e-01 +4.41359997e-01 +5.47559142e-01 -1.17872991e-01 +6.97403103e-02 +5.26663624e-02 +4.14419137e-02 -1.01693296e+00 -1.64901093e-02 +6.08359098e-01 -7.43419677e-02 -1.12513864e+00 -4.24158461e-02 -1.03742337e+00 -6.47216678e-01 -2.21867785e-01 +3.23597789e-01 +2.61840582e-01 -6.02238700e-02 +6.05095804e-01 -4.84405428e-01 +3.64384830e-01 -7.34580867e-03 +1.54209280e+00 +2.28748962e-01 +7.25531101e-01 +5.20537384e-02 -2.03896657e-01 +5.91611624e-01 -3.70498717e-01 +7.30337948e-02 +4.69374597e-01 -1.78158775e-01 +8.88102204e-02 +1.21600342e+00 +2.22932518e-01 +8.35115552e-01 -4.23727706e-02 -4.17423785e-01 +3.18171352e-01 +7.37625286e-02 -1.39196366e-01 -3.21421593e-01 +3.37179333e-01 -2.34693915e-01 +1.64006084e-01 +1.01921037e-01 +7.45836318e-01 +7.48065114e-02 +3.28757852e-01 +1.45509267e+00 +4.74417806e-01 +8.70574545e-03 +4.78237122e-01 -4.34473902e-01 +1.16032922e+00 -2.83897430e-01 +7.62117386e-01 +3.47960621e-01 -1.23312068e+00 -3.14606577e-01 +3.64809304e-01 -4.37442899e-01 -5.65439574e-02 +2.61253238e-01 -9.66024995e-02 +9.74597692e-01 +1.23147435e-01 -6.08551860e-01 +1.62863627e-01 +2.48132069e-02 -7.17426538e-02 +1.30928114e-01 +4.79723066e-01 -2.34126791e-01 -8.00214231e-01 -4.62591648e-01 -2.68732697e-01 +4.67547365e-02 -2.70376559e-02 +2.48520166e-01 -8.40776637e-02 +1.13648869e-01 +4.58900601e-01 -5.53672671e-01 -6.50884926e-01 +3.68655324e-01 +1.36050984e-01 +8.08489561e-01 -2.41771027e-01 -4.22551576e-03 +5.23883224e-01 -2.60971099e-01 +7.18514442e-01 +2.70674020e-01 +2.19281405e-01 +3.17505926e-01 -5.76854408e-01 -1.35764509e-01 +4.46881615e-02 -2.22702518e-01 -1.48498908e-01 +1.13449968e-01 -5.35974145e-01 +7.32548475e-01 -2.52725393e-01 -2.27558450e-03 -3.56051147e-01 -3.54704298e-02 -8.92541766e-01 -2.33396277e-01 +1.88248619e-01 +1.54818326e-01 -4.95337695e-01 +1.60695743e-02 -1.73446119e-01 -9.51127410e-02 +1.03776658e+00 +3.62525493e-01 +1.11046605e-01 -2.08602965e-01 +1.56076267e-01 -5.39587364e-02 -5.22892363e-02 -1.72571719e-01 -3.58985484e-01 -3.91893059e-01 +3.48493695e-01 +1.32051772e-02 -2.31128819e-02 -2.96595275e-01 +3.40941578e-01 +1.75111249e-01 -7.56470188e-02 +1.34954620e-02 +2.82604545e-01 +2.90852904e-01 +3.40559274e-01 -8.81422579e-01 -2.37447470e-02 -1.26490444e-01 +2.19505444e-01 -8.07477117e-01 +4.04362947e-01 +5.41245103e-01 -3.65035087e-01 +2.52065241e-01 +8.18877816e-01 -4.68369097e-01 +4.15627211e-02 -4.43804681e-01 -7.00701624e-02 -8.24136198e-01 +1.58334300e-02 -4.18191761e-01 +7.17714652e-02 +5.56578279e-01 -3.24469626e-01 -4.66052055e-01 +2.72935152e-01 +7.60068834e-01 +1.29161045e-01 -3.53443086e-01 +2.60668397e-01 -6.66323602e-02 -1.82743192e-01 +1.69096395e-01 -5.40977977e-02 -3.13541681e-01 -4.63347226e-01 -6.88965991e-02 -9.45894867e-02 +2.37128675e-01 +5.08012533e-01 +1.49852291e-01 -8.66963029e-01 -1.92711696e-01 +8.60765055e-02 +1.15884943e-02 -1.18522249e-01 +2.10238129e-01 -2.98868448e-01 +4.03398842e-01 +5.02039194e-01 -3.70512605e-01 +4.75181282e-01 -5.60123026e-01 +5.31088531e-01 +5.26013494e-01 -1.55880630e-01 -5.45599163e-01 +4.04867202e-01 +3.44404697e-01 -2.10176408e-01 -4.47647512e-01 +4.94471520e-01 +4.07661468e-01 -4.34380263e-01 -2.49750003e-01 -2.61880130e-01 +2.26265639e-01 -5.70661463e-02 -9.33394372e-01 +4.93537895e-02 +1.92421675e-01 +3.23433094e-02 +2.55980700e-01 +3.98856074e-01 -2.89586335e-01 -3.45896393e-01 -3.57312888e-01 +2.82014310e-01 -3.15808207e-01 -4.56654020e-02 +4.16498005e-01 -4.92578000e-01 -4.96553093e-01 +8.01204816e-02 -4.68770772e-01 +1.15122855e+00 -8.49925205e-02 +4.91620690e-01 +4.11168560e-02 +6.05130315e-01 +1.97372407e-01 +2.78445214e-01 +5.46050191e-01 -5.94433546e-01 -4.26830322e-01 +1.82800457e-01 +4.30623889e-01 -1.95997193e-01 +8.74230713e-02 -2.81893134e-01 +2.85660595e-01 +1.93184778e-01 +3.24079663e-01 +3.64646018e-01 -3.31927896e-01 -4.35441077e-01 -2.82811940e-01 +1.72663704e-01 -3.95686626e-01 +3.57117988e-02 -2.93314040e-01 +4.06561852e-01 -3.75930160e-01 +7.01503158e-01 -3.46978158e-01 -1.58993918e-02 +2.26265460e-01 +2.40319610e-01 +1.78235829e-01 -1.83510706e-01 +1.42702430e-01 -3.01316738e-01 +6.00254498e-02 +1.37978330e-01 -2.33108044e-01 -1.04209892e-01 +1.23247400e-01 -9.40308571e-02 -1.52216673e-01 -5.76956749e-01 -4.82527651e-02 +6.33945882e-01 -6.92003518e-02 -2.42401063e-01 -5.33529699e-01 +3.87039006e-01 -1.23218440e-01 +2.33558148e-01 -2.65238464e-01 -2.39672050e-01 -5.60250819e-01 -4.24463719e-01 +2.36336887e-01 +2.50702947e-01 -4.29764807e-01 +3.68321866e-01 +2.25686505e-01 +3.32307011e-01 +3.30360770e-01 -2.65273631e-01 -6.54660463e-02 +1.46044537e-01 +6.50709867e-01 +2.56998122e-01 -6.04447782e-01 +2.23484728e-02 +3.05393398e-01 -6.84748530e-01 -3.40706706e-01 -6.32204562e-02 -4.46044385e-01 -5.06322622e-01 -6.13440633e-01 -3.03833991e-01 +7.19727457e-01 -2.82010436e-01 -4.85551000e-01 +5.30015491e-02 -3.50322366e-01 -1.53184921e-01 -6.45220233e-03 -2.04062164e-01 -1.31053969e-01 -1.85176104e-01 +4.98243831e-02 +2.38875542e-02 -2.23182276e-01 -3.48892480e-01 +4.15749967e-01 -1.50138170e-01 +1.87529832e-01 -1.01402104e-01 +1.09617375e-02 -1.53879806e-01 -3.45274240e-01 -2.09760234e-01 -1.25613436e-01 -6.56733155e-01 -1.80427000e-01 +1.59326270e-01 -6.53586507e-01 +1.88011348e-01 -1.92495098e-03 -4.26467001e-01 -7.23881304e-01 +4.21722442e-01 -2.99544126e-01 +1.17538035e-01 +6.24801293e-02 -2.50269622e-01 +8.09324011e-02 -4.78908628e-01 +2.54665166e-01 -2.06404984e-01 -2.09269390e-01 +4.25218940e-02 -1.04631387e-01 -4.27805185e-01 +7.04599798e-01 -1.45167962e-01 +2.05253184e-01 +1.72084987e-01 +8.91165659e-02 -2.91704923e-01 -1.17892370e-01 +4.89660084e-01 +1.34911552e-01 -3.63471657e-01 +4.95552957e-01 -8.68046954e-02 +2.19767764e-01 -7.54236653e-02 +1.00417450e-01 -4.49681759e-01 +3.36446047e-01 -6.11870050e-01 -5.86133242e-01 -1.35711506e-01 -2.00453460e-01 -7.02516586e-02 +6.55377433e-02 -1.46670550e-01 -3.68567586e-01 +4.37128633e-01 +5.50006449e-01 +1.09846510e-01 -5.39186597e-01 +8.58612716e-01 -3.95245820e-01 -3.41706514e-01 -6.18991494e-01 +3.16342771e-01 +4.37152050e-02 +2.38629445e-01 -4.95673835e-01 +3.48210394e-01 -1.91642925e-01 +6.86253384e-02 +3.96552496e-03 -4.40915316e-01 +4.89792198e-01 -9.38607633e-01 +2.74238437e-01 -3.11450660e-01 +5.81941783e-01 +1.08168326e-01 +6.74697757e-02 +7.82770962e-02 +4.86707360e-01 +3.82611930e-01 -1.16010949e-01 -2.09206283e-01 -3.38338971e-01 +3.68261099e-01 -1.82183757e-01 -5.78700542e-01 -3.99341047e-01 +3.67672443e-01 +3.08881551e-02 -9.61867452e-01 +2.14557946e-01 -4.73561972e-01 -1.24095686e-01 -2.43673161e-01 +5.70544243e-01 +2.20888868e-01 +2.40528196e-01 -2.91146219e-01 +1.51290586e-02 +4.02176827e-01 +8.87776732e-01 +1.78187266e-01 +7.16272071e-02 -1.09329931e-01 +1.40454113e-01 -2.12049037e-01 -6.30333006e-01 -2.75777489e-01 +2.44175628e-01 -2.69818127e-01 -2.99276918e-01 -4.92622942e-01 +5.35383224e-01 +4.28401411e-01 -5.38875209e-03 -7.47288764e-01 -3.38583589e-01 -4.11286443e-01 +1.85885251e-01 +3.72745126e-01 +4.07010138e-01 +3.24843705e-01 -1.81498811e-01 -9.83697250e-02 +1.24792363e-02 -2.34651074e-01 +3.13651443e-01 -4.21025828e-02 -2.10202247e-01 -6.26043081e-01 -7.47967422e-01 +3.39562207e-01 +2.38821641e-01 -3.47455472e-01 -3.46713006e-01 -7.77367055e-01 +3.28526229e-01 +2.91236460e-01 -4.33991909e-01 +5.28774977e-01 +2.70105630e-01 +8.58837590e-02 -3.21904898e-01 +1.43178552e-01 -9.83784497e-02 -5.47006764e-02 -2.59753585e-01 -2.36962914e-01 +2.18792528e-01 -4.12665516e-01 -2.24764585e-01 +2.10521910e-02 -1.45892724e-01 +1.23130433e-01 +2.50934005e-01 -5.81329346e-01 -1.60270810e-01 -2.54106641e-01 +5.63399434e-01 -2.66656607e-01 -9.65952724e-02 +7.48101413e-01 -9.36542302e-02 -2.87486374e-01 -5.77097982e-02 +1.14814341e-01 -4.73439425e-01 -1.46362975e-01 -2.65485644e-01 +3.07666212e-01 +1.62160143e-01 -5.05098375e-04 +1.44223288e-01 -2.84691662e-01 -2.59330481e-01 +2.63467968e-01 -1.75114721e-02 +3.13090652e-01 -3.31756398e-02 -4.68103886e-01 +1.52529180e-01 +1.25465617e-01 -6.69519722e-01 +4.92645353e-02 -3.14676583e-01 +8.43363628e-02 +2.16720968e-01 +2.42251620e-01 +3.74929444e-03 +4.62334186e-01 -2.81497866e-01 +1.25832865e-02 -1.32215157e-01 -1.68015882e-01 +1.30977318e-01 +1.12883970e-01 +8.71385694e-01 -1.94927111e-01 -7.05937296e-02 -3.06341231e-01 -4.34465021e-01 -4.47275132e-01 -5.93744963e-02 -3.02814424e-01 -3.92723262e-01 -9.96536985e-02 +2.05658302e-01 -1.46343559e-01 -4.86988306e-01 +2.36684904e-01 +4.28239442e-02 +5.21633744e-01 +5.40661514e-02 -1.93777859e-01 +1.63529664e-01 -4.34811525e-02 -4.02905673e-01 -9.34552491e-01 -2.11138502e-01 -3.54992241e-01 -9.25161690e-02 +4.91976291e-01 -6.57154620e-01 +4.74968344e-01 +4.41778600e-01 +1.17101096e-01 +8.06726441e-02 -1.78072229e-01 +5.55427253e-01 +5.20863533e-01 -9.23002422e-01 +4.52440470e-01 -1.30222723e-01 -6.25475794e-02 +1.21132948e-01 +3.37941527e-01 -2.25782335e-01 -5.10373950e-01 -7.02984095e-01 +2.89217412e-01 +4.59679365e-01 -6.40322089e-01 -5.31794310e-01 -1.09735198e-01 -3.52009445e-01 +2.85538957e-02 -8.49610746e-01 -1.59180522e-01 -2.38061890e-01 -8.81230235e-01 +1.13686107e-01 -4.00581986e-01 -2.51651525e-01 +5.73301136e-01 +9.72083285e-02 +6.76904798e-01 +6.23196602e-01 -8.99568051e-02 +4.94767636e-01 +3.82418007e-01 +1.03419876e+00 -3.78654957e-01 +3.21695298e-01 -1.06546924e-01 +1.58466756e-01 +3.29536319e-01 -1.95710421e-01 +5.43578625e-01 -2.37694636e-01 -7.60750473e-01 -2.99931794e-01 -7.41860807e-01 -1.33348238e-02 +1.10336137e+00 +2.42899999e-01 +1.74545541e-01 +3.06153685e-01 -2.76207954e-01 +4.81012076e-01 -2.18252286e-01 -5.86892664e-01 +5.79049625e-02 -2.91776836e-01 -8.51482973e-02 +1.96876489e-02 +3.80756825e-01 +1.72001734e-01 +1.66176304e-01 -4.20394808e-01 -1.24218382e-01 -3.07960719e-01 -7.28196129e-02 -7.10213259e-02 +2.92841583e-01 +3.73488426e-01 +2.38224715e-01 -1.11390345e-01 +1.09138183e-01 +4.85721529e-01 +8.77513736e-02 +4.90468651e-01 -3.70529070e-02 +1.99427575e-01 +3.58663410e-01 -2.60049284e-01 +2.01076418e-01 -5.60903661e-02 -8.46376419e-02 -1.19148940e-01 -7.01697767e-02 -6.69154748e-02 +3.59590441e-01 +2.05307994e-02 -3.11739415e-01 +1.66465059e-01 +4.29605432e-02 -8.51077959e-02 -4.84615006e-02 +6.25243068e-01 +5.55627108e-01 -1.40653506e-01 +5.86598478e-02 -3.93396139e-01 +1.00829035e-01 -2.44295418e-01 +6.92461312e-01 -2.12585792e-01 +5.21796107e-01 +1.18765086e-01 +2.34187946e-01 -6.51437104e-01 -3.90813768e-01 -8.27209800e-02 +1.01816818e-01 -3.70044440e-01 -2.06258982e-01 +1.84997514e-01 -2.63449084e-02 +4.14496869e-01 -2.68279672e-01 -3.74471188e-01 -3.99586737e-01 +1.66253299e-01 +7.93321550e-01 +1.83236077e-01 +7.94422626e-01 -4.90593374e-01 +1.09069049e-01 +4.83195007e-01 -3.53256702e-01 +4.35217768e-01 +1.18176006e-01 -4.61632311e-01 -2.44904630e-04 +2.46007293e-01 -1.70367956e-01 +3.89563620e-01 -4.22000997e-02 +1.98678717e-01 +5.43204427e-01 +1.71099529e-01 +3.78318548e-01 -1.57598212e-01 +5.34035921e-01 +3.68235037e-02 +5.09084821e-01 +1.94852110e-02 +3.39133590e-01 -4.26146150e-01 +2.72436272e-02 -9.76470113e-02 +5.76999128e-01 -2.97669441e-01 +3.65585208e-01 -2.18334496e-02 +2.91428268e-01 +2.65787184e-01 -1.97788011e-02 +3.98909569e-01 +3.92578721e-01 -1.49284244e-01 +2.53156364e-01 -4.82477903e-01 -2.98213243e-01 -9.98228788e-01 +1.17795534e-01 +2.60257453e-01 -4.88462113e-02 -3.02893341e-01 -4.00040329e-01 +2.10154399e-01 +2.31326491e-01 -9.79719535e-02 +4.15014535e-01 +4.20464307e-01 -2.75052279e-01 -2.14891136e-01 +1.28196431e-02 -2.84628481e-01 +7.06641138e-01 +4.09735367e-02 +4.62776363e-01 +3.90633702e-01 +6.87052190e-01 -5.99740863e-01 +3.81049752e-01 -8.12652230e-01 +1.15800604e-01 -1.57812789e-01 +5.61876357e-01 +9.19341743e-02 +1.24209732e-01 -7.76753277e-02 +7.22559169e-02 -2.48091444e-01 -1.79401696e-01 +7.11888373e-02 +6.66629612e-01 +5.12321651e-01 -6.71741460e-03 -1.62261814e-01 +4.52303231e-01 -2.39322796e-01 -6.93605483e-01 -1.16552405e-01 -2.88820654e-01 -1.48536190e-01 +2.58047998e-01 -3.88211846e-01 +5.53795882e-02 +2.34654243e-03 -5.21856606e-01 +8.37884963e-01 +3.51344347e-01 +5.77219367e-01 +1.18860647e-01 +2.02393338e-01 -2.90645435e-02 -1.05165017e+00 -6.27007604e-01 -6.54861256e-02 -3.86285007e-01 -8.40246305e-02 +3.02203029e-01 +3.03449750e-01 +3.27091873e-01 -5.46385199e-02 +3.31066340e-01 +2.80779451e-01 +1.14217317e+00 -1.65975869e-01 +4.43489105e-01 -5.71875632e-01 -1.95115700e-01 +4.02638137e-01 -4.58629102e-01 -6.58317432e-02 +4.32760976e-02 -1.99052289e-01 +7.93980241e-01 +1.56230509e-01 -4.34780031e-01 +3.04534752e-02 +7.26064205e-01 -3.60852391e-01 -2.04207122e-01 -4.19191003e-01 -6.92114159e-02 +4.76877153e-01 -5.32252908e-01 -4.41479720e-02 +9.83380228e-02 -7.17246998e-03 -8.02678168e-02 -2.54842758e-01 -4.35099900e-01 -1.17515624e+00 -1.41959652e-01 +2.05223113e-01 -5.68474061e-04 -2.08811015e-01 -5.53565137e-02 +6.02947474e-01 -2.68018544e-01 -2.20344543e-01 +5.23509741e-01 -9.57940638e-01 -4.89744991e-01 +2.29711428e-01 -2.99012125e-01 +2.54389625e-02 +5.06139219e-01 -3.40027243e-01 +1.42165124e-01 -5.36243059e-02 +2.70962324e-02 -2.03555733e-01 -4.79883164e-01 -1.57904640e-01 +2.67210513e-01 +3.04636061e-02 +1.37871116e-01 -4.23323989e-01 +1.30608708e-01 +2.90573686e-01 -8.18942249e-01 +2.91171446e-02 -3.36834401e-01 -1.10334539e+00 -2.29225099e-01 +1.13390207e+00 +2.21854016e-01 +3.37781638e-01 +2.10765496e-01 +1.60751119e-01 -1.49215847e-01 -9.11405087e-01 +2.09405929e-01 +6.77254140e-01 -2.57609814e-01 -2.32659921e-01 +5.10062218e-01 -1.63151264e-01 +7.18085647e-01 +2.84161955e-01 -3.63096088e-01 -1.08874285e+00 +2.93094873e-01 -3.61567438e-01 -1.73276350e-01 +6.34041011e-01 -2.88301170e-01 +3.45882893e-01 -3.96124810e-01 -3.15806150e-01 +7.40883648e-01 -1.62099347e-01 +3.86885315e-01 -8.67693573e-02 -3.24914396e-01 +3.39923561e-01 +2.01065652e-02 +4.86047655e-01 +7.75566995e-02 +6.65220380e-01 +1.88084871e-01 +1.99491501e-01 +2.09376290e-01 -1.28792435e-01 -4.97465320e-02 -5.94664633e-01 -1.69897124e-01 +5.95276505e-02 -2.53250122e-01 -4.00762958e-03 +2.20014259e-01 +2.22525187e-02 -7.82594204e-01 -6.86170161e-02 -6.46515429e-01 -5.43591678e-02 -6.12149537e-01 +1.68466985e-01 -2.18336865e-01 +3.57701987e-01 -4.06499237e-01 +3.62814784e-01 -4.80471365e-02 -9.84082103e-01 +4.35951114e-01 -4.83215861e-02 -2.85399884e-01 -4.20894772e-01 +1.85775042e-01 -9.52610895e-02 +1.72987729e-01 +4.37029265e-03 +7.33591020e-01 -3.27415943e-01 -2.99525589e-01 +3.93182665e-01 -2.85405606e-01 -7.91246742e-02 -4.78188634e-01 -4.24092226e-02 -2.82449454e-01 +3.34210932e-01 +2.12284282e-01 -1.69380959e-02 +1.48856461e-01 +2.75011569e-01 +8.20064396e-02 -5.11084795e-01 +2.69064844e-01 +2.45642429e-03 +3.75813752e-01 -2.72576243e-01 -2.02170044e-01 +5.17139912e-01 +1.78723201e-01 -9.43723321e-02 +2.56933272e-02 -8.89991939e-01 -3.76229674e-01 -6.76281512e-01 +2.02415109e-01 +2.97435313e-01 +1.00942004e+00 +2.07523048e-01 -5.95449030e-01 -4.92968529e-01 +9.11509618e-03 +4.90162373e-01 -2.71147341e-01 -4.12413776e-01 +1.06244124e-01 -1.36315897e-01 -1.70205086e-01 -6.30779922e-01 +2.57113427e-01 -1.56128272e-01 -9.95750427e-01 -2.65993059e-01 -5.29584885e-01 +8.62855673e-01 -4.69351038e-02 +3.81817557e-02 -2.41075624e-02 -3.15316409e-01 +8.06905702e-02 +2.01943472e-01 -3.69495720e-01 +2.42429435e-01 +6.55846655e-01 -6.95021093e-01 -5.22963703e-01 -3.26327980e-01 +3.51730853e-01 +2.03956321e-01 +1.31847382e-01 -7.12207109e-02 -1.13522261e-01 -4.77314055e-01 +2.50989199e-01 +4.54766378e-02 -1.65613621e-01 -1.76511571e-01 -7.46284723e-01 +3.12067628e-01 -2.48203844e-01 -7.78906524e-01 -7.56052381e-04 +4.61804494e-02 +1.44347791e-02 +2.86186188e-01 -4.88315612e-01 -1.02377005e-01 +1.48672685e-01 +3.02917957e-01 -4.63273555e-01 +4.29636955e-01 -2.82502502e-01 +4.72357005e-01 -1.02646433e-01 +2.27050912e-02 +1.99640229e-01 -6.85148656e-01 +5.73748797e-02 +6.66893497e-02 +1.00003138e-01 +6.53267801e-01 -5.17884254e-01 -2.23149359e-01 +2.84489125e-01 -6.14696033e-02 -3.70372176e-01 -2.36645684e-01 +4.68400210e-01 +1.05254687e-02 -1.14785202e-01 +4.90961999e-01 +3.01832378e-01 -1.88729450e-01 +2.49258399e-01 +4.76919681e-01 -1.99275061e-01 -2.19275713e-01 +5.20089269e-01 -2.50486016e-01 -2.62958080e-01 +3.76782954e-01 -3.12574655e-02 -1.55921951e-01 +3.47616196e-01 -6.03066146e-01 -2.18871310e-01 -1.72198102e-01 +1.04088020e+00 -2.37575978e-01 +2.33659714e-01 +2.00733498e-01 -8.85382518e-02 +2.04979151e-01 +6.02971688e-02 -5.16269505e-01 -5.99285401e-02 -5.23944378e-01 -7.12873161e-01 +1.32968485e+00 +1.24112330e-01 +3.04947406e-01 -5.47074258e-01 -7.97298178e-02 +3.14083248e-01 -4.07180712e-02 -9.20006633e-02 +7.14465901e-02 +6.94771782e-02 +9.37872231e-01 +4.46914822e-01 -7.91769326e-01 +3.84046048e-01 +3.16888958e-01 +2.60170162e-01 -4.26001251e-01 -1.42934009e-01 -5.21662474e-01 -3.32304567e-01 -1.03886306e-01 -4.05888319e-01 -4.47968155e-01 -4.23006825e-02 -5.78124940e-01 -5.12910724e-01 -6.41130149e-01 -4.19442169e-02 +2.09442064e-01 -9.30119306e-02 -6.02904819e-02 -3.92492786e-02 +3.32224697e-01 -1.84448585e-02 +2.36850023e-01 -7.00111210e-01 -1.87352940e-01 +9.54898298e-02 -2.90362295e-02 -5.23359656e-01 -4.91273813e-02 -5.98185539e-01 +6.87967062e-01 -3.93342832e-03 +1.11650574e+00 -2.96538860e-01 +3.74110229e-03 -5.80715001e-01 +2.33135462e-01 +2.03131169e-01 -8.92227069e-02 +3.50692987e-01 +2.70622462e-01 +2.63531834e-01 -2.58751392e-01 +8.32053497e-02 +2.00858340e-01 +6.01193368e-01 +1.25296772e-01 +2.90901423e-01 +1.39849886e-01 -5.76324940e-01 -1.75823092e-01 +3.14612031e-01 +1.34101748e+00 -4.07621592e-01 +8.70589972e-01 +5.37492394e-01 +3.40324759e-01 -2.63851732e-01 -5.44315875e-01 +3.10251802e-01 +3.42441916e-01 -2.57941261e-02 -4.85210598e-01 -1.20538659e-01 -4.75961342e-02 +4.96223360e-01 +4.13406521e-01 -1.63668618e-01 -3.04348141e-01 +3.19106430e-01 -4.54220362e-02 -3.85027051e-01 -2.75780782e-02 -1.87197998e-01 -3.04865181e-01 -5.69730937e-01 -1.21299416e-01 +3.71585160e-01 +3.43712538e-01 +4.23727185e-01 -4.61750060e-01 +4.49387521e-01 -6.12530112e-02 +5.77430986e-02 -4.37820852e-01 +3.89966995e-01 +3.91212672e-01 -1.68161362e-01 -1.24136806e-01 +3.69481832e-01 +2.69331396e-01 -2.53454119e-01 +4.26800162e-01 +2.30338573e-01 +2.70489454e-01 +4.68973637e-01 +3.63519877e-01 -5.41650772e-01 +1.20008789e-01 -8.73739958e-01 -7.16117382e-01 +6.15315080e-01 -4.13078427e-01 -7.47515380e-01 -1.89107314e-01 -1.07072163e+00 +1.60085350e-01 +2.77333826e-01 -3.43675762e-01 -8.68857875e-02 -1.76619425e-01 -1.47330537e-01 +4.97284353e-01 +2.55099684e-02 +1.80329666e-01 -1.39813274e-01 +5.87309003e-01 -3.66761327e-01 +2.49786928e-01 -2.40800440e-01 -2.42991894e-01 -1.87364459e-01 -2.04333261e-01 -1.25227749e-01 -2.75681168e-01 +7.97125101e-02 -1.88430905e-01 -1.66717187e-01 -8.13537478e-01 +7.32526928e-02 -2.07228065e-01 +2.84032613e-01 +4.32517976e-01 +2.27906391e-01 -7.61574984e-01 +1.77765802e-01 +3.05452999e-02 -3.99820745e-01 -4.88217890e-01 +1.78884417e-01 -2.44789004e-01 +5.52665219e-02 -5.99653780e-01 +1.54982865e-01 +7.13410914e-01 +1.09960698e-01 -1.22895159e-01 +3.45200837e-01 +3.22229743e-01 +3.04666683e-02 -1.55457869e-01 -5.19616663e-01 -6.65161908e-01 -3.06805521e-01 +3.07929903e-01 -5.70702541e-04 -2.20223397e-01 -1.06937218e+00 +2.72916228e-01 +3.86828929e-01 +1.02886128e+00 +3.21355134e-01 +4.55505103e-01 +3.73208165e-01 +1.33786678e-01 -4.99960959e-01 -7.66449928e-01 -6.05895706e-02 -1.93874612e-01 -3.09204668e-01 +2.79859930e-01 -5.99176407e-01 +2.00351089e-01 +1.19456716e-01 -5.58299497e-02 +1.15745530e-01 +7.12039351e-01 -2.70059910e-02 +5.24300277e-01 +4.69626784e-02 +5.45940399e-01 -1.27400339e-01 +4.03762341e-01 +1.18155085e-01 -2.71003157e-01 -1.77732274e-01 -2.69448787e-01 +8.34017918e-02 +1.01399026e-03 -3.75580668e-01 +1.52865529e-01 +6.10723868e-02 -5.28965712e-01 +1.18892193e-02 +6.75318837e-01 +1.46568450e-03 +6.86316609e-01 -1.69320792e-01 -6.20056927e-01 +2.41803639e-02 +3.14930528e-01 -1.11472525e-01 -2.79548056e-02 -4.39816684e-01 -4.29256231e-01 +9.43329707e-02 -7.36772791e-02 +3.01834673e-01 +2.84220815e-01 -8.09222877e-01 -1.40704006e-01 +3.58959198e-01 -2.44039416e-01 +3.38469492e-03 +9.57715958e-02 +1.47081465e-01 +1.90417156e-01 +4.36341204e-02 -3.08017015e-01 +2.52031446e-01 +9.64198261e-02 -5.54926217e-01 -6.17934167e-01 +3.48024726e-01 +2.09283963e-01 -3.13318551e-01 -7.06689656e-01 +3.77835184e-02 -1.26776934e-01 +2.46425748e-01 +1.42115772e-01 -1.19764276e-01 +7.93489337e-01 -4.11498547e-02 +6.85604393e-01 -2.49074131e-01 +5.50460458e-01 -5.00107765e-01 -7.94065595e-02 +8.03628564e-01 +3.24835539e-01 -3.40549983e-02 -2.11354733e-01 +3.44759375e-01 -1.66092962e-01 +4.62317109e-01 +4.01647598e-01 +3.92993182e-01 +4.01825458e-01 +2.30305076e-01 +8.23306978e-01 +2.28687689e-01 +2.97465593e-01 -5.74151993e-01 -1.35107324e-01 -2.73923099e-01 +2.95464039e-01 -3.63411866e-02 +4.09670025e-01 -1.49420155e-02 +2.80500323e-01 -4.76182014e-01 +5.26010878e-02 -3.06094050e-01 -6.68625310e-02 +1.53443024e-01 +4.49645251e-01 +3.27892713e-02 -1.04583621e-01 -3.88801217e-01 -5.16132116e-01 -3.81204486e-01 -5.39630115e-01 +1.33959219e-01 -6.95738047e-02 -3.65341604e-01 -6.15710974e-01 -7.09546566e-01 +5.52508414e-01 +4.44719344e-01 -3.43867898e-01 +2.91347742e-01 -1.32335082e-01 -2.83737808e-01 -4.70007248e-02 +2.63499115e-02 -9.12572145e-02 +2.81971872e-01 -3.58053148e-01 +1.22784883e-01 +3.04359198e-01 +1.67154521e-01 +9.34506208e-02 -7.87655264e-02 +1.12663276e-01 +1.49555206e-01 +1.78445995e-01 +4.41538960e-01 +4.28667098e-01 +1.15303151e-01 +2.71326870e-01 +2.08219707e-01 -3.37936610e-01 +3.55402291e-01 +4.60534990e-01 +3.34232062e-01 +3.01061012e-02 +1.97356716e-01 -2.82776326e-01 +9.77071449e-02 +4.82028514e-01 +1.32438689e-01 +3.26858670e-01 +4.19003606e-01 +8.04238081e-01 -3.76323223e-01 +2.53687590e-01 -1.89269409e-01 +3.57613683e-01 -3.21463883e-01 +1.56497836e-01 -4.71242607e-01 -3.51252127e-03 -8.75038281e-02 +1.79193631e-01 -1.99523106e-01 +3.88832599e-01 -4.23861444e-01 +4.97253865e-01 +1.93199918e-01 +6.78571105e-01 -2.22965702e-01 +6.81157887e-01 -8.54252338e-01 +1.06613860e-01 -2.21239597e-01 +1.57870606e-01 +6.74349010e-01 -2.63513416e-01 -1.04115695e-01 +1.15575194e-01 -3.09262395e-01 -1.13792442e-01 +8.21051076e-02 -7.02140033e-02 -2.01511562e-01 -1.56558484e-01 -5.43858968e-02 -4.59098160e-01 -4.72397171e-02 +1.20710172e-01 -3.76703560e-01 +4.38913479e-02 +5.09468675e-01 -3.34420837e-02 -6.05794668e-01 +1.53282121e-01 -3.09079498e-01 -2.09649265e-01 -1.83236431e-02 -2.92744637e-01 -1.71835765e-01 -2.70176888e-01 +6.39619380e-02 -9.95529816e-02 +4.15088236e-01 -1.15734920e-01 +3.69628459e-01 -3.77291799e-01 +2.52972454e-01 -3.44029486e-01 +1.17817946e-01 +4.95709121e-01 -9.01509225e-02 -2.00824082e-01 -1.09936440e+00 +3.61806631e-01 -4.21534985e-01 +1.42694116e-01 +2.99713343e-01 +1.22467600e-01 +1.62698925e-01 +3.57678592e-01 +8.40719879e-01 -4.08828080e-01 -2.42160559e-01 +5.14933765e-02 -7.87497014e-02 +1.23126656e-01 -4.58780855e-01 +3.95513773e-02 -3.06201965e-01 -4.15057272e-01 -1.58119857e-01 -7.96751142e-01 -2.35194955e-02 -9.75929379e-01 +1.67030245e-01 +4.10235316e-01 +6.01130240e-02 +1.89313591e-01 -1.39751658e-01 +1.01015069e-01 -5.59919298e-01 +6.72136724e-01 +3.12592059e-01 -2.87751317e-01 +7.01105595e-02 +1.96756005e-01 +1.67252332e-01 -2.38390997e-01 +1.89663947e-01 -2.90817499e-01 -2.87678808e-01 -3.06806535e-01 +2.21661106e-01 +5.00249386e-01 +1.94699273e-01 +1.79320350e-01 -4.43204701e-01 -7.54318357e-01 +6.10742271e-01 -2.36153719e-03 -3.17423731e-01 +2.09949374e-01 -8.47307965e-02 +3.70070450e-02 -1.74940392e-01 -2.68834263e-01 +3.43737870e-01 +3.80537927e-01 +3.13702404e-01 -1.70423210e-01 -2.31386587e-01 -2.17285395e-01 +3.84588391e-02 +1.66651055e-01 +2.02948060e-02 -7.98373222e-02 -6.87382817e-01 +5.39817095e-01 -4.65536743e-01 -4.72679943e-01 -1.15760483e-01 +7.04750419e-02 -1.66057777e-02 -3.27866599e-02 -3.15336809e-02 -8.05281043e-01 +3.14699039e-02 +1.30724654e-01 -2.33033270e-01 +6.39294386e-01 -2.18008548e-01 -9.62267965e-02 +2.96102136e-01 -6.95623085e-02 -2.05412939e-01 -1.08794522e+00 -6.09593511e-01 -3.20696861e-01 +9.12164450e-01 -1.71455145e-02 -3.47340554e-01 -2.39672706e-01 -2.46490553e-01 +4.21216935e-01 -2.43938640e-01 -2.31254995e-02 +3.96041691e-01 +2.98866838e-01 +2.93968588e-01 +1.69957012e-01 +1.26541108e-02 +1.81805402e-01 +2.95371920e-01 -8.12650025e-02 -3.65099698e-01 -1.50767460e-01 +2.67272472e-01 +7.76443928e-02 -4.25005741e-02 +8.60505104e-02 -3.00518781e-01 -1.00299791e-01 +5.43843359e-02 +5.38789690e-01 -1.21309891e-01 -1.72063947e-01 -4.83920872e-01 +3.06846082e-01 -4.16400790e-01 +1.25787929e-01 -2.80377239e-01 +1.00331604e-01 -4.36446518e-01 +2.79765129e-01 +2.00515360e-01 -1.80701628e-01 -2.89913476e-01 +3.66284668e-01 +1.15449607e-01 -1.53939217e-01 -5.56759477e-01 +3.18348825e-01 +2.12271675e-01 +7.39990711e-01 +1.18377849e-01 -2.59478927e-01 +1.96010977e-01 -4.55874115e-01 +8.40656161e-02 -2.54879981e-01 -3.64955902e-01 +6.11374788e-02 +3.60736340e-01 +7.72901112e-03 +3.92587543e-01 -9.02621031e-01 +9.00848731e-02 +3.75874609e-01 -9.07119036e-01 -1.80084497e-01 +2.10686415e-01 +1.27703920e-01 -3.15852612e-01 +1.31487608e-01 -2.52007425e-01 +8.75117779e-01 -2.17968628e-01 +2.88876817e-02 +4.16844368e-01 +5.32757580e-01 -7.49312267e-02 -4.85661328e-02 -3.42236578e-01 -5.40758729e-01 -5.35910785e-01 -1.95294395e-01 -3.71140540e-01 +3.70509773e-01 -3.34828049e-02 -3.92337799e-01 +2.71241724e-01 +7.50474691e-01 +3.66469398e-02 -2.24975124e-01 -5.22655845e-01 -1.05738714e-01 -8.93114150e-01 -5.45636006e-02 +6.37887940e-02 +2.55423337e-01 +9.42399353e-02 +3.42402965e-01 -1.50143700e-02 +8.79602015e-01 -8.11840594e-01 -1.42105833e-01 -1.06675960e-01 +8.42338577e-02 -1.21287376e-01 -5.73803306e-01 +5.04580855e-01 +5.08648753e-01 +7.82924816e-02 -5.02471447e-01 -9.90718603e-02 -1.02950752e-01 -3.31707627e-01 -1.86178431e-01 -2.22221732e-01 -6.15100414e-02 +9.17174891e-02 +2.43279506e-02 -2.55907793e-02 -7.03940928e-01 -2.97784328e-01 -2.54410267e-01 +4.42435205e-01 +3.82542908e-01 -6.79004729e-01 -2.02486992e-01 -1.98840126e-02 +2.66829878e-01 -4.28419560e-01 +2.51262069e-01 +1.09680302e-01 -9.94297937e-02 +2.21417233e-01 -4.71743196e-01 +8.05322826e-02 -4.80042063e-02 -2.17595086e-01 -1.64829507e-01 +9.22442600e-02 -5.43888748e-01 -2.46574849e-01 +3.59242745e-02 -2.43597869e-02 +3.96225303e-01 -3.89707476e-01 -5.37549794e-01 +3.55141699e-01 +3.69522244e-01 -2.30540678e-01 -4.56727892e-01 +9.49420810e-01 -2.88024992e-01 +6.95764363e-01 -2.55566418e-01 +2.82331318e-01 -2.98531443e-01 +7.37428725e-01 +4.11685497e-01 +1.27512425e-01 +2.47923553e-01 -3.07878673e-01 +3.72764647e-01 +1.07164666e-01 -5.02484024e-01 -3.59329909e-01 -8.22955593e-02 -5.91718853e-01 +4.60055806e-02 -5.35511792e-01 -1.45148322e-01 -7.23812759e-01 +3.34217101e-01 +2.59606034e-01 -4.46681917e-01 +2.14328900e-01 -1.81060180e-01 +3.72842193e-01 -1.13398060e-01 -7.60995209e-01 -1.36974514e-01 +5.63884556e-01 -1.91251323e-01 -5.47459364e-01 -2.21461862e-01 +2.84525216e-01 +3.12538952e-01 -6.61170334e-02 -6.86903477e-01 +1.12896621e+00 +1.04650959e-01 -2.63684779e-01 +1.74806505e-01 -5.44830918e-01 +2.14588895e-01 +6.11288846e-02 +6.65443480e-01 -4.88948971e-01 -4.10741232e-02 -5.92642426e-01 +7.85852447e-02 +7.90218413e-02 -1.07941823e-02 -1.23662956e-01 +3.40307951e-02 -7.97048733e-02 +3.98382902e-01 +2.27174580e-01 -6.17011249e-01 +9.29756105e-01 -1.60466790e-01 -1.12631582e-01 -1.73870549e-01 +3.15800637e-01 +3.99754904e-02 -1.80646867e-01 -6.11863554e-01 +6.01515293e-01 +5.32506287e-01 +6.35727346e-01 -4.24380571e-01 -5.71729839e-01 -3.29004139e-01 +2.14453578e-01 -3.32893163e-01 +7.64003664e-04 -1.60924420e-02 -4.36907150e-02 +5.59005082e-01 -1.75894737e-01 -8.84342730e-01 -9.19343770e-01 -1.18537016e-01 -3.44863087e-02 +2.93339312e-01 +7.88465664e-02 +4.84543264e-01 +2.74728298e-01 -4.84274924e-01 +3.22700411e-01 -5.18633544e-01 +1.81909762e-02 +4.79002088e-01 -1.00242984e+00 -2.88276553e-01 +6.13563299e-01 +3.20628077e-01 -1.56193793e-01 +2.57373422e-01 +3.80620122e-01 +4.51386273e-02 +1.52805418e-01 -9.46951568e-01 +3.42468888e-01 +7.13802502e-02 -4.48558420e-01 +3.70097578e-01 -4.50111032e-01 +2.98036058e-02 +7.24485099e-01 -1.83521271e-01 -3.05607229e-01 -5.24758697e-01 -1.88812520e-02 +5.68730235e-02 -2.81562090e-01 +7.14614093e-02 +1.75365359e-01 +2.14689657e-01 -5.89223385e-01 +3.64800006e-01 +1.79155678e-01 +2.41789460e-01 +9.20676589e-02 +8.59425068e-02 -6.51478589e-01 +7.61349425e-02 +3.46471727e-01 +1.62940502e-01 +3.37207913e-01 +1.94121271e-01 +7.78261483e-01 -6.26147687e-01 +2.11718455e-02 -6.23775423e-01 -3.78131121e-01 +3.92858028e-01 -2.68853426e-01 -1.38102606e-01 -5.16334325e-02 -1.43067360e-01 -5.96038222e-01 -3.16207677e-01 -3.92447084e-01 -3.63985032e-01 -7.91279495e-01 -1.35872990e-01 -1.12720549e+00 -5.09757213e-02 -8.29371095e-01 -2.91626304e-01 +1.96144491e-01 -9.76105221e-03 +9.60851833e-02 -5.59553541e-02 +1.36066973e-01 +1.95352986e-01 -5.49098313e-01 -5.67979753e-01 +8.28321159e-01 -4.63389754e-01 -9.19598937e-01 +3.98738794e-02 +7.52212703e-02 -9.74950269e-02 -6.50188746e-03 -3.97647053e-01 +2.50215679e-01 -6.08865321e-02 -3.17133069e-01 +1.95161700e-01 -2.01481149e-01 +1.57711878e-02 +1.04101324e+00 +3.78397293e-02 -1.87684759e-01 -3.36804420e-01 -5.76551914e-01 -2.12198541e-01 -1.68114677e-01 -8.45181108e-01 +3.43314737e-01 +2.74394602e-02 -4.06982630e-01 +6.27055466e-01 +2.25198105e-01 -4.57015723e-01 +4.44768779e-02 -2.76124716e-01 -4.15718466e-01 -2.46696314e-03 -2.57555842e-01 -3.32606822e-01 -1.37262821e-01 +2.76950091e-01 +6.00869894e-01 +4.51014549e-01 +1.64290205e-01 -1.79497302e-01 -6.91262305e-01 +4.05748188e-02 -2.00413048e-01 -1.57564151e+00 +1.78863525e-01 +6.12801671e-01 -1.37701333e-01 +7.71483839e-01 -6.79028094e-01 -1.17907667e+00 -1.27283442e+00 -3.34847979e-02 +5.70151135e-02 +7.51155198e-01 -1.27949786e+00 -1.28523827e-01 +5.67376494e-01 -9.90294695e-01 -6.85589388e-02 -9.86358106e-01 -4.73280400e-01 +3.46655965e-01 -7.43579745e-01 -7.89740264e-01 +3.45099211e-01 +5.39690197e-01 -4.16243821e-01 +1.01132192e-01 -1.86404139e-01 -6.87334716e-01 -2.72684902e-01 -1.15398479e+00 +5.83541512e-01 -5.33168554e-01 -9.07571673e-01 -5.04627943e-01 -2.71882415e-01 +2.11256161e-01 -1.46244913e-01 -4.87302005e-01 -5.37901402e-01 -7.87084997e-01 +2.82920063e-01 -1.13716498e-01 -1.43716171e-01 -7.64239013e-01 +3.33581507e-01 -2.95433700e-01 -4.47782338e-01 +4.85986739e-01 -1.67385519e-01 +2.21275851e-01 +3.32144618e-01 -2.18476966e-01 -7.60325551e-01 +2.32125148e-01 +2.04208359e-01 -3.65984261e-01 +2.97383934e-01 +2.54208177e-01 +5.23159444e-01 -5.44598214e-02 +4.31174263e-02 -6.63741827e-01 -3.17424566e-01 -1.63413718e-01 +2.38965645e-01 +7.14632511e-01 -6.23814583e-01 +6.65758848e-01 -7.07359552e-01 -1.01461940e-01 +8.24897960e-02 -4.17609185e-01 -1.72121108e-01 -1.96774349e-01 -6.49875164e-01 +2.98603952e-01 +3.99396867e-01 -6.83392107e-01 +5.21798849e-01 -1.26575470e-01 +1.24753630e+00 +1.23859033e-01 +7.76113868e-02 -3.14696223e-01 +2.83511907e-01 +4.68491793e-01 -1.00122416e+00 -7.89535403e-01 -8.63004088e-01 +5.00682592e-01 -6.96843624e-01 -1.48599818e-01 -7.29435742e-01 -1.53054386e-01 -5.78308463e-01 -4.61516492e-02 -4.57705036e-02 -2.69713193e-01 +2.87652820e-01 +1.81234330e-01 +1.79404765e-01 +2.38508627e-01 -9.66463890e-03 +6.17372930e-01 +1.14619389e-01 -1.00264692e+00 +7.14491308e-02 +6.64023235e-02 -9.11869943e-01 -5.17714992e-02 -8.13660562e-01 -1.03488080e-01 +1.17968309e+00 -1.05824910e-01 -2.97948986e-01 -3.19635898e-01 -2.70966202e-01 -4.09366012e-01 +2.38073573e-01 +2.34068930e-01 +9.64675769e-02 -3.39334488e-01 +8.16108659e-02 +5.55140115e-02 -1.95790723e-01 -9.37659740e-02 +2.65467793e-01 +1.29422903e-01 -8.57383966e-01 -3.10223699e-01 +3.47465664e-01 +5.02821624e-01 +1.11856580e+00 -9.97109786e-02 -5.09458065e-01 +1.19539462e-01 -7.64448524e-01 -9.54458714e-01 -1.04037774e+00 +9.79813263e-02 +1.69370204e-01 -2.45014146e-01 +9.53888171e-04 -1.90944314e-01 +4.57392931e-01 -8.31832290e-02 -1.33371085e-01 +4.47586268e-01 -1.63854256e-01 -7.72956610e-01 +7.23115206e-01 -2.56296664e-01 -2.13887736e-01 +5.01382589e-01 -8.79436284e-02 -5.12066722e-01 -4.01363760e-01 -4.54101823e-02 +5.35489559e-01 +1.56119063e-01 -6.67554960e-02 +9.70724225e-02 +8.85372996e-01 +2.68743541e-02 +2.76113957e-01 -2.19705790e-01 -3.72395128e-01 +8.23602006e-02 -3.87010843e-01 -2.25360915e-01 +2.19027400e-01 -7.18031302e-02 +8.55026394e-02 +6.69015720e-02 -3.07120711e-01 -1.21406019e-01 -8.09389830e-01 -2.11984202e-01 -1.68972895e-01 +1.31873623e-01 -1.34053722e-01 -2.12869756e-02 -1.19959794e-01 +2.28643820e-01 -3.72943997e-01 +5.01373410e-01 +4.16550815e-01 -1.60964891e-01 +9.08362031e-01 +3.82362038e-01 -7.63392568e-01 +1.18593082e-01 +7.36002028e-02 -2.70032763e-01 +2.36235410e-01 +9.95944962e-02 -5.29141665e-01 -1.42557807e-02 -2.21046180e-01 -3.31292093e-01 -1.02242522e-01 -2.35902339e-01 +1.33924363e-02 -2.78857667e-02 -3.26272130e-01 +4.07665282e-01 -3.97841543e-01 +5.11038899e-02 -3.49530965e-01 +1.67887881e-01 +2.04890683e-01 +4.79878113e-02 -1.64816096e-01 -4.56307501e-01 -6.38771653e-01 +7.92331636e-01 +6.84309363e-01 -5.32219887e-01 -6.52761400e-01 -9.97339845e-01 +2.21596599e-01 -2.94343829e-02 +3.62220824e-01 +4.26935814e-02 +3.04749668e-01 -7.19354898e-02 -3.42290580e-01 +5.65587431e-02 +1.93607807e-01 -4.33910608e-01 +3.77505273e-01 +3.70323867e-01 +7.30897486e-02 +3.04850340e-01 -5.55026531e-01 -2.30417818e-01 +1.10304523e-02 +6.81775272e-01 +4.82241839e-01 -2.75424868e-01 +1.29760787e-01 +5.09304166e-01 +3.01025689e-01 -4.18747813e-01 +5.65967485e-02 +4.87085059e-02 -4.78096455e-01 -2.19903976e-01 +1.41675398e-01 +6.62586570e-01 +4.74612325e-01 +4.28847045e-01 +3.14406663e-01 -3.50377232e-01 -3.72626692e-01 -1.92373674e-02 +6.59595579e-02 +2.85533279e-01 -4.67422456e-01 +2.78844774e-01 +7.05510080e-02 -1.82688057e-01 -2.05536723e-01 +2.59563535e-01 -2.29639590e-01 -1.17699534e-01 -6.35089040e-01 -8.28638747e-02 +2.79931240e-02 +6.04722917e-01 +4.40181285e-01 +3.29171985e-01 -9.32216704e-01 +3.65253448e-01 +2.34859511e-01 -9.31443572e-01 +1.86023936e-01 +2.41692048e-02 -1.67786077e-01 -8.69027197e-01 +2.53179193e-01 -5.74210107e-01 -1.77852511e-01 -1.35826126e-01 -1.35568097e-01 +1.99449465e-01 +1.76569715e-01 +1.31809756e-01 -3.87028545e-01 -2.13331450e-02 -1.73412785e-01 -3.95292282e-01 -1.78764537e-01 +3.77588898e-01 -1.42466009e-01 +1.05254091e-01 +2.16106623e-01 +1.91986207e-02 -1.88288409e-02 -6.61354423e-01 +3.89260203e-01 +4.17996049e-01 -1.83339030e-01 +1.87319785e-01 -4.53244805e-01 +2.16328669e-02 +2.49550510e-02 -2.12461516e-01 -2.12393105e-01 +1.30887195e-01 -5.81015289e-01 +5.88999838e-02 -2.01871991e-01 +1.54107183e-01 -2.73533881e-01 -2.75771677e-01 -4.66149271e-01 -4.56164181e-01 +1.85717002e-01 -7.84964263e-01 +2.68016458e-01 -4.34186190e-01 -2.36227155e-01 -1.31629527e-01 +4.18501139e-01 -2.74157465e-01 +4.19673085e-01 -1.41118258e-01 +1.79506496e-01 -1.40191168e-01 +1.83516070e-01 -3.83708626e-02 -1.40442923e-01 +6.20107353e-01 -8.77806306e-01 -2.63460279e-02 +5.56081712e-01 +2.86222845e-02 -6.47131875e-02 +6.66625440e-01 -1.20550044e-01 -1.63465261e-01 -3.92668515e-01 -1.99287072e-01 +6.57285452e-01 -4.52371210e-01 -1.02177131e+00 -6.54930830e-01 +3.60048674e-02 +7.67591521e-02 +4.88781750e-01 -7.88225885e-03 -3.69213790e-01 -2.10634232e-01 -1.96921721e-01 -4.94359195e-01 -1.22926509e+00 -5.70020139e-01 +4.30136919e-01 -1.87009320e-01 +2.25930318e-01 +2.94597894e-01 +4.40346748e-02 +8.08513686e-02 -3.16820145e-01 +2.09933415e-01 +2.43913293e-01 -7.70923197e-01 -7.86169693e-02 -2.62589216e-01 -3.20745915e-01 -5.31545162e-01 -2.40906298e-01 -5.52146733e-01 -5.30758977e-01 -7.08594978e-01 -5.81002533e-02 +2.91705430e-01 -5.24832830e-02 +6.27775267e-02 +8.84487629e-02 -2.95542866e-01 -4.25713092e-01 -9.15967464e-01 -2.89627552e-01 +3.74290466e-01 -9.85203534e-02 +9.12091881e-02 -8.80665630e-02 +7.70448096e-05 -4.20495450e-01 +5.37149847e-01 +1.31752372e-01 -4.10143971e-01 -1.19842559e-01 +2.74065912e-01 +3.77545238e-01 +4.38384451e-02 -1.07001469e-01 +2.51626968e-01 -5.40369987e-01 -7.88341314e-02 +2.03951254e-01 -5.55674255e-01 -9.25217643e-02 -1.41600981e-01 -6.28833294e-01 -1.22833125e-01 -2.25899905e-01 -7.05894977e-02 +8.29809129e-01 +8.26631188e-02 -2.69367516e-01 +5.42192578e-01 -6.97369039e-01 +4.49328274e-01 -4.18355614e-01 +1.31492123e-01 +2.82004867e-02 +8.85674506e-02 +1.74101815e-01 +2.63064951e-01 -2.46233661e-02 +2.76044279e-01 -1.15036726e-01 -1.77250922e-01 -2.93677658e-01 +1.51392501e-02 +1.73494458e-01 +6.51547536e-02 -8.90418738e-02 +5.51994920e-01 +6.35632157e-01 +5.54892719e-01 -3.45576078e-01 +3.42807263e-01 +2.59027541e-01 -1.40149727e-01 -3.41557622e-01 -1.29160941e-01 +9.78861451e-02 +1.45731896e-01 -1.21459238e-01 -2.46869802e-01 +4.81778890e-01 +2.59863913e-01 +2.42515519e-01 -3.27589810e-01 +2.50513256e-01 -4.30766553e-01 -2.85168607e-02 +1.21549051e-02 -1.51551872e-01 -4.05336559e-01 +1.66966230e-01 -4.08008099e-01 -1.62554026e-01 +6.95245117e-02 -3.68852228e-01 -5.81560582e-02 +9.81674120e-02 +4.60052580e-01 -6.11464441e-01 -2.59634167e-01 -3.17535251e-01 +2.54240006e-01 -1.52960241e-01 +2.39858016e-01 +3.91776621e-01 -2.90334493e-01 -3.41809064e-01 +4.51599341e-03 +4.60436344e-01 +3.18837225e-01 -9.87021029e-02 -7.83395469e-01 -6.64264262e-02 -1.37199327e-01 -6.59057677e-01 -3.43483686e-01 -1.83585525e-01 -4.61539924e-01 -3.20149481e-01 -3.11214831e-02 -1.65097281e-01 -1.67622238e-01 +5.82778871e-01 +1.66105643e-01 +7.16406927e-02 +3.48223895e-02 +3.71818185e-01 -3.27231675e-01 +9.96034071e-02 +4.69272137e-01 +2.08135694e-01 -8.11830819e-01 -7.57439658e-02 +5.10154545e-01 -2.65278399e-01 +1.49843725e-03 -1.86264560e-01 +1.70237031e-02 -7.77355373e-01 +1.80810645e-01 +7.08343312e-02 -1.10017480e-02 -2.18676310e-02 -4.86115426e-01 -5.20527124e-01 +1.54701874e-01 +8.59586775e-01 -5.06691992e-01 +1.26131624e-01 -4.05308008e-02 +1.52984962e-01 +3.79126638e-01 -1.18218683e-01 -4.03011948e-01 +9.48274061e-02 +5.49566507e-01 -2.88017899e-01 +7.02582657e-01 -4.54963088e-01 -6.66786671e-01 +1.77036554e-01 +4.46220428e-01 -4.31064010e-01 -4.76653785e-01 -5.82293391e-01 +1.46021977e-01 -5.33429861e-01 -7.01030374e-01 +2.82377690e-01 +1.49008363e-01 -3.19750160e-01 -5.27265966e-01 +9.51566845e-02 -4.61994261e-01 +4.25308980e-02 -6.19162261e-01 -1.24320470e-01 +1.43829063e-01 -5.52098513e-01 +7.69653857e-01 -1.08450100e-01 +2.51832753e-01 -9.38648954e-02 +1.81032404e-01 -2.10953981e-01 -3.56970169e-02 +1.68577895e-01 +6.24380186e-02 -6.51592463e-02 +1.84849113e-01 -3.14392745e-01 +1.18655533e-01 +4.01767045e-02 -3.71748745e-01 -3.67393136e-01 +5.06829858e-01 +1.79177538e-01 +1.07135706e-01 -1.23567782e-01 +4.05516863e-01 +6.22234046e-02 -3.80363584e-01 -1.73596352e-01 +3.21288735e-01 +2.11367309e-01 -7.30519712e-01 -2.77362108e-01 +2.87791103e-01 -5.35182297e-01 +1.32178292e-02 +4.29010868e-01 +4.54017341e-01 -1.09801285e-01 +5.69695771e-01 -2.86495894e-01 +7.44246304e-01 -5.28497636e-01 +4.21626449e-01 +3.52476865e-01 -1.84356108e-01 +5.91886401e-01 +1.56088054e-01 -3.09421159e-02 -7.86600634e-02 -1.30198941e-01 +7.04400614e-02 +3.28800559e-01 +2.44145989e-01 +4.99235392e-01 +3.26375738e-02 +1.12012550e-01 +4.69463348e-01 -2.99604982e-01 +2.84890592e-01 -3.07160050e-01 -2.04692289e-01 -3.95832270e-01 -2.14586347e-01 +6.53058946e-01 +3.70425671e-01 -2.21611261e-02 +2.38508970e-01 -1.37223434e-02 +7.72013128e-01 -4.15869765e-02 -3.65650088e-01 +3.17426383e-01 -1.22590616e-01 +6.03225648e-01 +2.38464400e-01 -1.11924028e-02 -3.39110315e-01 -1.29054174e-01 -3.18569660e-01 +2.71976024e-01 +6.12764023e-02 +1.45799607e-01 -3.76853049e-01 -2.35151738e-01 +2.93982271e-02 +3.47145289e-01 +9.36708674e-02 +1.75705582e-01 -7.16442540e-02 -7.22198337e-02 +2.42966980e-01 +4.66513783e-01 +7.86981210e-02 +8.03936347e-02 -2.57165641e-01 -4.08693887e-02 -9.58905295e-02 +8.40314180e-02 +2.58288473e-01 +5.17477334e-01 -2.01520219e-01 +4.68940884e-01 -3.50304306e-01 +3.78441851e-04 +5.23450255e-01 +3.35021205e-02 +1.91856742e-01 +1.02938509e+00 -8.98948237e-02 +1.81280077e-01 -7.20130578e-02 +1.88013464e-01 -7.46885017e-02 -1.40906543e-01 +1.92927271e-01 -7.07614049e-02 +6.30759716e-01 +9.49454367e-01 -3.89439285e-01 -2.95851707e-01 +7.01241851e-01 +9.30478610e-03 +2.10216463e-01 -5.51660545e-02 +6.63897455e-01 -2.52434552e-01 +1.62470400e-01 -3.49409193e-01 -2.37782374e-01 -1.02648273e-01 -1.54248655e-01 +8.15993190e-01 -3.43428522e-01 +2.52218485e-01 +7.46056288e-02 +1.52248576e-01 +1.79948449e-01 +2.89131999e-01 +2.97334641e-01 -7.85660073e-02 -4.48867768e-01 -4.94574644e-02 +6.57612145e-01 -2.73686871e-02 -2.24526376e-02 +2.56390959e-01 -3.65730748e-02 +8.72664060e-03 -1.78885087e-01 -7.68466711e-01 -3.40281755e-01 -1.94520764e-02 +1.91613883e-01 -1.04974627e-01 -3.69657815e-01 -1.56479254e-01 +2.74797887e-01 -3.68882418e-01 +7.24255204e-01 -1.56258672e-01 +6.92433305e-03 -2.71780133e-01 +9.20080915e-02 -4.48812880e-02 +7.88848251e-02 +1.37610793e-01 +4.26988363e-01 +2.75750365e-02 +2.35043824e-01 +2.09365472e-01 -3.68257374e-01 +3.16382676e-01 +2.40638390e-01 +1.37677103e-01 -1.20928928e-01 -2.68285573e-01 +4.15830404e-01 -1.13056630e-01 +1.91972882e-01 -2.00144559e-01 -1.44864529e-01 +9.16632563e-02 +2.33278945e-01 +2.54375398e-01 +1.61609635e-01 +1.40506849e-01 +2.92955041e-01 +5.73917508e-01 +1.86602309e-01 -9.31008160e-01 +8.57581720e-02 +1.20123577e+00 +1.57447830e-01 +6.33688629e-01 -1.05915204e-01 +1.40277371e-01 -1.23079956e-01 +9.13695469e-02 +1.21405005e-01 -9.06041861e-02 +3.57832968e-01 +1.72982022e-01 +5.04487693e-01 -9.61192325e-02 -3.84251565e-01 -4.47031632e-02 -6.16419427e-02 +1.86616629e-01 -3.00461650e-01 +3.90096694e-01 -1.96308065e-02 -1.83500260e-01 +5.28353930e-01 -1.65544719e-01 -8.04639995e-01 -6.38002083e-02 -1.17179468e-01 -4.11108464e-01 +6.99255943e-01 -3.61641824e-01 +3.10247928e-01 -2.05094248e-01 -1.94203719e-01 -5.29612482e-01 -2.24742800e-01 -3.27028692e-01 +3.90576631e-01 +1.39318019e-01 -1.09267436e-01 -1.29731461e-01 -6.72459900e-01 +5.77720165e-01 -2.56453361e-02 -1.20709002e-01 -5.41081764e-02 +6.99032187e-01 -1.71322808e-01 +4.00294453e-01 -1.17659532e-01 +1.22363520e+00 +4.65826690e-01 -3.04366857e-01 +3.22884619e-01 +1.56003907e-01 +1.91613108e-01 +5.25665462e-01 -4.32128400e-01 -3.77541631e-02 +5.30090392e-01 -2.00112432e-01 -3.72758329e-01 -1.39819056e-01 +1.56780934e+00 -6.85572743e-01 +8.97788763e-01 +2.45706052e-01 +2.66539037e-01 +8.52893829e-01 -5.47645032e-01 -2.34726891e-01 +5.26906788e-01 -5.15102208e-01 -1.02824951e-02 -3.61170396e-02 +3.37608635e-01 +9.31535184e-01 -2.06933334e-01 -2.26405799e-01 -4.68000919e-01 -6.05109453e-01 -1.84072614e-01 +6.08105540e-01 -5.17135680e-01 -3.43873724e-02 -4.54485506e-01 -2.16762483e-01 +2.36160085e-02 +9.76529121e-02 -1.26043633e-01 -5.96415661e-02 +3.10071488e-03 -3.65252465e-01 -2.21272245e-01 +3.02970648e-01 +5.35557508e-01 +5.88484049e-01 -1.95874915e-01 -1.13455253e-02 -1.47056058e-01 -4.00265098e-01 -3.78380775e-01 +1.82564154e-01 +5.49943149e-02 +6.07277118e-02 -3.95956904e-01 -3.37715149e-01 -8.87824818e-02 -2.89453059e-01 +1.12059072e-01 +2.21991450e-01 -1.03859901e-01 -4.04158473e-01 +1.41386151e-01 +5.53884327e-01 -3.83712232e-01 -1.45127431e-01 +7.12804437e-01 +8.22062939e-02 -1.73097908e-01 -2.86895037e-01 -3.10229361e-01 -4.12534783e-03 +1.77513525e-01 +1.94835588e-01 -2.26583391e-01 +4.22320068e-01 -6.82000145e-02 +3.73315871e-01 -2.45107904e-01 -1.61575899e-02 -3.11050057e-01 +2.18898907e-01 -9.35900435e-02 -6.48197308e-02 +6.57165423e-02 -9.17684361e-02 -7.08236918e-02 -2.00177297e-01 -1.96090326e-01 +3.92257094e-01 -6.66535974e-01 +6.25015140e-01 -2.72142112e-01 +6.45300925e-01 -2.67030627e-01 +4.43486311e-02 -7.74526820e-02 +2.60186642e-01 -1.24313533e-01 -2.80854732e-01 -2.30951458e-01 -2.29341283e-01 +1.00108311e-02 -2.98375010e-01 -4.89658296e-01 +3.21960747e-01 -6.78812414e-02 -6.12035282e-02 +5.14214933e-01 +2.16322675e-01 +1.64148629e-01 +3.62567008e-02 -2.36530066e-01 -2.07151532e-01 +3.88110042e-01 -2.59219110e-01 +1.37619019e-01 +1.80273220e-01 -5.75713336e-01 -1.07615985e-01 -2.15844512e-01 -9.49616954e-02 -2.52334531e-02 +4.31017369e-01 +1.16554224e+00 -2.65930854e-02 +5.06494462e-01 -1.91746593e-01 -3.35475743e-01 -1.84361544e-02 +6.30202353e-01 +6.95882812e-02 -4.11334038e-02 +4.92884032e-02 -2.20438421e-01 -2.09218413e-01 -6.02749623e-02 +4.34637696e-01 +1.93632126e-01 +2.31327608e-01 -1.10551089e-01 -8.86127725e-02 -4.75575417e-01 -2.32932568e-01 -2.60315478e-01 -3.88188511e-01 +3.62113357e-01 -6.62973404e-01 -1.74276605e-01 -4.82257098e-01 -3.80092353e-01 +8.24358910e-02 -2.41931006e-01 -4.69838381e-01 -3.85545373e-01 -1.87887937e-01 -1.49271905e-01 +4.54464018e-01 -2.24284664e-01 -2.58017123e-01 +6.00209497e-02 +1.20533623e-01 -3.13855171e-01 +3.21350962e-01 +4.92204249e-01 +1.00983018e-02 +7.28998244e-01 +1.97718158e-01 +1.05528772e+00 +2.76637692e-02 +4.48579669e-01 +2.51572523e-02 +1.87333971e-01 +2.73433954e-01 +1.94536820e-01 -9.46033075e-02 +8.02533388e-01 -2.80985057e-01 -4.44862753e-01 -1.34879053e-02 +5.58084190e-01 +7.26050198e-01 +8.69250968e-02 -1.12192966e-01 -2.40443423e-02 -6.12167194e-02 +5.43553293e-01 -5.97239509e-02 +5.59883058e-01 +4.05417336e-03 -4.23860043e-01 +1.40208406e-02 +5.73895276e-01 +2.93206304e-01 -3.51700127e-01 +5.74054956e-01 +1.10106327e-01 +2.05154389e-01 -4.76717919e-01 -7.61117637e-02 -5.19259989e-01 +3.98846529e-02 +3.84570837e-01 +1.44807994e-01 -6.15828097e-01 -3.01554292e-01 +5.97066283e-01 +2.83829153e-01 +7.17234612e-01 -3.10245126e-01 +2.09835634e-01 -2.88686380e-02 +3.24287593e-01 +3.20811123e-02 -2.23151743e-01 +5.28229237e-01 +2.24292845e-01 -3.52880299e-01 +4.60160553e-01 +6.84168190e-02 +1.86229823e-03 -1.51124433e-01 -3.70797575e-01 +1.24373205e-01 +9.83399749e-02 +2.78213799e-01 -3.78139794e-01 +2.92307109e-01 -3.71040329e-02 -2.21735556e-02 +5.48050284e-01 -1.72470566e-02 +6.94245875e-01 -1.77893758e-01 +2.28304148e-01 +9.40803289e-01 +6.25582933e-01 +2.06711814e-01 -8.56981277e-01 -2.10633650e-01 -4.20349568e-01 -3.24276052e-02 +3.12005728e-01 +6.89592719e-01 +3.95208627e-01 +2.57231295e-01 -3.48449320e-01 -9.53596458e-02 -4.16564584e-01 +5.06384790e-01 -9.61755961e-02 +2.48286560e-01 +5.36921144e-01 +1.33110005e-02 +9.82353762e-02 +4.71388400e-01 +1.64074168e-01 -1.08651924e+00 -1.53676927e-01 +2.70514876e-01 +2.00708017e-01 +1.69098631e-01 -2.19732180e-01 +6.66394830e-01 +1.11117996e-01 +2.09739674e-02 -1.25246540e-01 +6.63831532e-01 +2.30662018e-01 +4.24738467e-01 -2.53715605e-01 +3.70635718e-01 +1.31128669e-01 +3.12401086e-01 -4.97055650e-01 +9.39728081e-01 +1.95279960e-02 +2.99701750e-01 +2.21235946e-01 +1.54405281e-01 -1.16703786e-01 +8.78786072e-02 +1.52714610e-01 +3.12085655e-02 -1.26424447e-01 +2.46624187e-01 +2.65224606e-01 +2.10214645e-01 +4.27489370e-01 -4.60204512e-01 +7.94292927e-01 -2.78877407e-01 -2.93319613e-01 -2.28590399e-01 -4.16849345e-01 +1.93936780e-01 +2.35940948e-01 -4.06845391e-01 -5.68428099e-01 +4.54046905e-01 -2.45936401e-02 -3.68882746e-01 -1.97875798e-01 -2.10384116e-01 +2.93008447e-01 +6.09189868e-01 +6.94425344e-01 -2.25287393e-01 +4.98581499e-01 -2.09045053e-01 +3.08371097e-01 -3.07709783e-01 +7.65513301e-01 -7.03574955e-01 +6.75443947e-01 -1.09934378e-02 +1.12818681e-01 +4.54419315e-01 +4.32234973e-01 +9.71931443e-02 -3.84481639e-01 +5.59983969e-01 -1.38316810e-01 +3.93350422e-01 -2.36293316e-01 -2.29324728e-01 +1.89207628e-01 -3.43762487e-01 -7.86729977e-02 -7.84881040e-03 +2.13400975e-01 +1.13476433e-01 +1.04161277e-01 -3.08127314e-01 +5.67727625e-01 +1.04488564e+00 +4.89369452e-01 -1.23790674e-01 +6.47987664e-01 -2.43158042e-01 +4.77455650e-03 -1.43741474e-01 -3.22425842e-01 -6.44059330e-02 +1.15759027e+00 +1.87060460e-01 +2.51859665e-01 -9.17633891e-01 +1.63696051e-01 -4.31000859e-01 -2.62148678e-01 +3.24057311e-01 -3.32784832e-01 -8.21901709e-02 -9.79831442e-02 -6.65005803e-01 +5.40490448e-01 +7.32972205e-01 +1.83614314e-01 +1.83880240e-01 +4.00267363e-01 +2.77991116e-01 -8.10009718e-01 +6.22063637e-01 +2.77739972e-01 -1.40199348e-01 -8.24134707e-01 -1.38208702e-01 +1.12458527e-01 -9.52780321e-02 +1.58114463e-01 +4.39563334e-01 +5.25414705e-01 -5.35088778e-01 -7.43845403e-01 -1.57770365e-02 +8.17682743e-01 -3.07274640e-01 -5.01109771e-02 -5.86596541e-02 -5.75035274e-01 -5.33562541e-01 +2.41829604e-01 +4.30380136e-01 +5.60629904e-01 -1.15046054e-01 -5.92710853e-01 +1.09346293e-01 -2.51605213e-01 +4.04447973e-01 -2.87866503e-01 -2.51681328e-01 +6.58732831e-01 -1.22752823e-01 -5.90294115e-02 -2.71196753e-01 -2.67233670e-01 -6.19305134e-01 +5.01467474e-03 +7.19004869e-02 -2.26596117e-01 +7.92616457e-02 +8.02750606e-03 +5.63506782e-01 -1.06289279e+00 +1.31747529e-01 -4.19120565e-02 -2.12107882e-01 +3.50863039e-01 -2.17239678e-01 -6.76368356e-01 +1.11577831e-01 -3.02577205e-02 -4.57171530e-01 -1.40858674e-02 +1.35133907e-01 +1.82573795e-02 -3.38699222e-01 -2.24561200e-01 -2.35767350e-01 -6.60231948e-01 -3.14843476e-01 -1.92390904e-01 +2.38569472e-02 +2.36138523e-01 +3.87138814e-01 +1.16642192e-01 +9.41426829e-02 -1.49578810e-01 +4.05037925e-02 +4.00605828e-01 -3.28442603e-01 +3.42213273e-01 -6.32037520e-02 +1.99171931e-01 -1.49236649e-01 -4.38410528e-02 -2.91876614e-01 -4.59220320e-01 +5.29339612e-01 -1.12354136e+00 +3.76936853e-01 -8.55612993e-01 -1.14358537e-01 +5.13664544e-01 +4.81475800e-01 +1.25190273e-01 +3.09136301e-01 +5.82823277e-01 -3.20826709e-01 +5.50063848e-01 -7.93725133e-01 +3.21644604e-01 -7.05370009e-01 +2.69761920e-01 -2.36350670e-03 +6.94224536e-01 -2.64054298e-01 -2.42689952e-01 -5.49675465e-01 -3.84740941e-02 +1.10911238e+00 -8.41669261e-01 +1.28133565e-01 +3.25008065e-01 +2.74152726e-01 +2.43105944e-02 +6.63854420e-01 -1.79207817e-01 +2.40756139e-01 +1.51076525e-01 -2.18699858e-01 -4.42166984e-01 -3.14378828e-01 -3.85993898e-01 +4.37296331e-01 +1.63975492e-01 +7.12358177e-01 +7.50091374e-01 -4.97383237e-01 -1.81251109e-01 +5.38648367e-01 +5.40174305e-01 +6.18048191e-01 +3.98146436e-02 -1.46581340e+00 +2.60987788e-01 +5.24345815e-01 -5.63168526e-01 +4.82389867e-01 +8.12707692e-02 -1.22575693e-01 -5.20106554e-01 -3.36292118e-01 +8.43416274e-01 -3.48362625e-01 -3.40834141e-01 -1.04017727e-01 -6.02166057e-02 +1.39220312e-01 -4.15470630e-01 +7.54003346e-01 +1.11340511e+00 -7.55874336e-01 -4.17689711e-01 +2.80810833e-01 +2.15320796e-01 +4.70634401e-01 +3.84361416e-01 +6.84639573e-01 +3.12011868e-01 -5.23655415e-01 -1.31804571e-01 +5.42262375e-01 +6.27834082e-01 -3.26841064e-02 +7.00285375e-01 -7.08167970e-01 +5.92800677e-01 +3.45505655e-01 -1.21554160e+00 +6.70621321e-02 +7.54169345e-01 -9.18383479e-01 -1.72818512e-01 -5.82703240e-02 -7.84142733e-01 +2.57889479e-01 +3.24156612e-01 +3.19288373e-01 +2.27407277e-01 -2.82208949e-01 -9.25793052e-02 +5.66927671e-01 +6.09206967e-02 -2.39976019e-01 +3.45811956e-02 -7.41472542e-01 